<?xml version="1.0"?>
<opencv_storage>
<opencv_ml_svm>
  <format>3</format>
  <svmType>C_SVC</svmType>
  <kernel>
    <type>INTER</type>
    <gamma>1.</gamma></kernel>
  <C>10.</C>
  <term_criteria><epsilon>1.1920928955078125e-07</epsilon>
    <iterations>1000</iterations></term_criteria>
  <var_count>30</var_count>
  <class_count>5</class_count>
  <class_labels type_id="opencv-matrix">
    <rows>5</rows>
    <cols>1</cols>
    <dt>i</dt>
    <data>
      0 1 2 3 4</data></class_labels>
  <sv_total>679</sv_total>
  <support_vectors>
    <_>
      3.37141417e-02 4.63177115e-02 4.52570394e-02 1.39052896e-02
      4.29232493e-02 4.50702012e-02 9.06720981e-02 9.51525569e-02
      2.88921800e-02 7.28035569e-02 7.76823163e-02 2.76211295e-02
      4.37892117e-02 1.17493998e-02 4.49222997e-02 4.56331111e-02
      1.86932404e-02 4.38474789e-02 4.05505709e-02 9.96344071e-03
      3.95368785e-02 4.03063595e-02 1.24092503e-02 3.97210382e-02
      3.36480699e-02 1.75207201e-02 3.73387299e-02 3.42520103e-02
      2.49657892e-02 4.00274284e-02</_>
    <_>
      2.83705797e-02 8.05023611e-02 8.49579126e-02 2.88561694e-02
      7.52608627e-02 7.33953714e-02 7.95677304e-02 8.22490081e-02
      3.30530517e-02 6.98393136e-02 7.48636574e-02 2.72937696e-02
      8.70150104e-02 8.46001208e-02 2.05225293e-02 7.57908225e-02
      7.57847503e-02 4.29596798e-03 7.91680813e-02 7.98696205e-02
      3.18553895e-02 6.65679574e-02 7.10042119e-02 2.55711395e-02
      5.73166497e-02 7.04460666e-02 4.91426997e-02 4.67352606e-02
      6.61083832e-02 4.75458987e-02</_>
    <_>
      3.94804105e-02 2.61016395e-02 3.91109586e-02 2.32416801e-02
      3.18016298e-02 3.92736085e-02 4.43680882e-02 1.98526699e-02
      4.85612005e-02 4.59448211e-02 2.95995194e-02 4.73746508e-02
      4.74013314e-02 1.11880703e-02 4.85259891e-02 4.79006618e-02
      2.03569494e-02 4.55987714e-02 4.20038886e-02 8.54669139e-03
      4.15343791e-02 4.19924185e-02 1.47632901e-02 4.07950692e-02
      3.45614702e-02 1.82939004e-02 3.87138613e-02 3.51961106e-02
      2.59510707e-02 4.07081395e-02</_>
    <_>
      4.95557897e-02 2.21333094e-02 4.74599302e-02 3.27084288e-02
      2.46298108e-02 4.09330912e-02 4.28036302e-02 1.79137494e-02
      4.63787690e-02 4.52874191e-02 2.89919302e-02 4.71520312e-02
      4.78654988e-02 9.58802365e-03 4.88012992e-02 4.90773283e-02
      2.37414595e-02 4.53769192e-02 5.07591702e-02 8.55877809e-03
      5.05217314e-02 4.83423285e-02 2.64116097e-02 4.22470085e-02
      5.13589792e-02 4.02967297e-02 5.02155200e-02 4.60534804e-02
      4.89240997e-02 4.54341583e-02</_>
    <_>
      4.25733998e-02 5.52456304e-02 6.51786327e-02 2.63449196e-02
      5.10728993e-02 5.70110492e-02 4.21106182e-02 2.06265394e-02
      4.65142503e-02 4.61961590e-02 3.16313989e-02 4.66803610e-02
      4.29898687e-02 8.82143900e-03 4.37835492e-02 4.67199311e-02
      2.08596103e-02 4.41092886e-02 3.92379798e-02 9.37645882e-03
      3.90762500e-02 4.11796495e-02 1.52134905e-02 3.98640595e-02
      3.27405296e-02 2.14827601e-02 3.85926515e-02 3.43083702e-02
      2.58279294e-02 3.99722308e-02</_>
    <_>
      5.65974414e-02 5.17779291e-02 7.48511627e-02 4.07090001e-02
      4.41026911e-02 5.89890108e-02 7.80668035e-02 7.07588866e-02
      5.23826890e-02 6.66513368e-02 6.76578283e-02 3.84343117e-02
      8.37566331e-02 6.76344037e-02 5.26821315e-02 7.10283294e-02
      6.48127720e-02 3.21217887e-02 7.29789063e-02 5.21674305e-02
      5.25757410e-02 6.11014999e-02 5.37420698e-02 3.45591009e-02
      5.34804016e-02 3.89373004e-02 5.09899892e-02 4.48312312e-02
      4.58852611e-02 4.35859412e-02</_>
    <_>
      2.97669005e-02 5.20044491e-02 4.76609208e-02 8.49248376e-03
      4.57627513e-02 4.65250202e-02 4.19834517e-02 2.18202397e-02
      4.68096882e-02 4.57722396e-02 3.15863900e-02 4.57628407e-02
      4.58712615e-02 1.10497000e-02 4.71685790e-02 4.74614389e-02
      2.15593800e-02 4.44342308e-02 4.37657088e-02 4.53370484e-03
      4.38341983e-02 4.33450192e-02 1.84097104e-02 4.10303511e-02
      3.75699587e-02 1.83792207e-02 4.17359099e-02 3.69242989e-02
      2.94024199e-02 4.16171998e-02</_>
    <_>
      3.19609083e-02 7.17125833e-02 7.84586370e-02 2.63295397e-02
      6.91806003e-02 6.96766227e-02 8.21471512e-02 8.98950920e-02
      3.74509394e-02 7.11466298e-02 7.87096322e-02 3.48830707e-02
      9.24306288e-02 9.22279507e-02 7.40208477e-03 7.92621672e-02
      7.89427534e-02 7.30074896e-03 8.22093487e-02 8.73004124e-02
      3.11654992e-02 6.85399175e-02 7.44642690e-02 3.03502399e-02
      5.61533608e-02 8.03482831e-02 5.80791309e-02 4.49850187e-02
      7.14227334e-02 5.57824410e-02</_>
    <_>
      4.18107510e-02 2.48612296e-02 4.04944196e-02 2.54266392e-02
      2.97154095e-02 3.89926918e-02 4.31193002e-02 1.90639701e-02
      4.70299013e-02 4.57693003e-02 3.02705504e-02 4.70898002e-02
      4.69353907e-02 9.86566767e-03 4.79264706e-02 4.82187495e-02
      2.18234193e-02 4.53067198e-02 4.31442782e-02 6.36089221e-03
      4.33426388e-02 4.34837304e-02 1.84273794e-02 4.09976318e-02
      3.73672098e-02 1.90680400e-02 4.18549404e-02 3.73310708e-02
      2.98938807e-02 4.16968912e-02</_>
    <_>
      3.00727803e-02 7.20584095e-02 7.80677572e-02 2.58266199e-02
      7.02273920e-02 7.00484887e-02 8.14714208e-02 8.94689709e-02
      3.80663984e-02 7.08795786e-02 7.87043273e-02 3.53364795e-02
      9.18361470e-02 9.16090906e-02 8.02133325e-03 7.91157186e-02
      7.88176879e-02 7.16961781e-03 8.16625133e-02 8.66552889e-02
      3.11570708e-02 6.84166625e-02 7.43713826e-02 3.02494094e-02
      5.58490790e-02 7.96339810e-02 5.74898310e-02 4.50487994e-02
      7.12865219e-02 5.55255003e-02</_>
    <_>
      4.62578088e-02 2.65547596e-02 4.32696790e-02 2.87576299e-02
      2.53230799e-02 3.81073803e-02 4.01571691e-02 2.02699993e-02
      4.49822694e-02 4.34440486e-02 2.81386506e-02 4.54917401e-02
      4.11662608e-02 1.14346696e-02 4.22686003e-02 4.46945801e-02
      1.85175203e-02 4.28885296e-02 3.73972505e-02 9.62169655e-03
      3.65263596e-02 3.93646993e-02 1.30579304e-02 3.86839211e-02
      3.15774791e-02 1.86412204e-02 3.58120203e-02 3.33728082e-02
      2.47813109e-02 3.94469686e-02</_>
    <_>
      4.16308604e-02 6.97852373e-02 7.94105530e-02 3.04942895e-02
      5.45936413e-02 6.16191216e-02 9.25897509e-02 9.51524228e-02
      2.19360497e-02 7.40322098e-02 7.72409737e-02 2.26768609e-02
      1.01437800e-01 1.01624601e-01 7.35181617e-03 8.04244801e-02
      8.05230513e-02 5.22109121e-03 9.09973606e-02 9.59726274e-02
      3.06776799e-02 7.04118088e-02 7.55601972e-02 2.76421998e-02
      6.20202012e-02 8.67281333e-02 6.14650100e-02 4.66916598e-02
      7.17739910e-02 5.46297990e-02</_>
    <_>
      3.94725092e-02 7.01232105e-02 7.93617517e-02 2.83669308e-02
      6.11739717e-02 6.54668063e-02 8.89751464e-02 9.40169916e-02
      3.09403501e-02 7.30702132e-02 7.84325302e-02 2.93000098e-02
      9.84776914e-02 9.83693600e-02 4.81693400e-03 8.02033991e-02
      8.00178573e-02 5.70376497e-03 8.80655274e-02 9.33387205e-02
      3.14486288e-02 6.96924105e-02 7.53073171e-02 2.94876304e-02
      5.98689988e-02 8.49725232e-02 6.10601604e-02 4.56806906e-02
      7.20737800e-02 5.57582900e-02</_>
    <_>
      3.80206592e-02 5.89934401e-02 6.19213209e-02 2.08265297e-02
      4.80449609e-02 5.23524098e-02 4.22701500e-02 1.97314303e-02
      4.66269292e-02 4.50703017e-02 2.93838307e-02 4.66275997e-02
      4.62615192e-02 1.07871396e-02 4.70806509e-02 4.70252596e-02
      1.91074405e-02 4.52233702e-02 4.35616486e-02 9.76107828e-03
      4.29465398e-02 4.22286689e-02 1.36814900e-02 4.13064994e-02
      3.59723195e-02 1.82705801e-02 3.95983718e-02 3.52676287e-02
      2.46366598e-02 4.07509692e-02</_>
    <_>
      4.26780283e-02 1.69539694e-02 4.06210609e-02 2.82840598e-02
      2.36370396e-02 3.68252806e-02 4.24788594e-02 2.01800391e-02
      4.69078086e-02 4.49775793e-02 2.99832299e-02 4.61396389e-02
      4.65027392e-02 1.07189501e-02 4.77201007e-02 4.79647294e-02
      2.25996003e-02 4.44802493e-02 4.89749797e-02 8.80282745e-03
      4.86828089e-02 4.73950207e-02 2.67839506e-02 4.15780917e-02
      4.07838188e-02 2.05476899e-02 4.45097089e-02 3.87888812e-02
      3.28547284e-02 4.24306691e-02</_>
    <_>
      2.26067100e-02 6.82788566e-02 6.50908500e-02 6.40136516e-03
      5.13356701e-02 5.17282300e-02 9.02205408e-02 8.76105204e-02
      3.32681201e-02 7.20760077e-02 7.25515187e-02 2.60899495e-02
      4.90802191e-02 1.11308200e-02 4.95402701e-02 4.72011007e-02
      1.75961703e-02 4.60256599e-02 4.65516299e-02 1.29736699e-02
      4.51213308e-02 4.20146510e-02 1.06360903e-02 4.18267287e-02
      3.86830792e-02 1.98665392e-02 4.20411713e-02 3.51627804e-02
      2.34411694e-02 4.08048294e-02</_>
    <_>
      2.46016104e-02 6.93176910e-02 6.98621273e-02 1.12156197e-02
      5.23241684e-02 5.32923006e-02 9.15635377e-02 9.14738402e-02
      2.24281307e-02 7.30642229e-02 7.46108294e-02 1.99249201e-02
      4.54516895e-02 1.10058999e-02 4.58264314e-02 4.59451713e-02
      1.73656009e-02 4.47395705e-02 4.35012802e-02 1.35297002e-02
      4.19383794e-02 4.09769602e-02 1.06243696e-02 4.08562608e-02
      3.80667895e-02 2.01403908e-02 4.14255485e-02 3.50585803e-02
      2.32107900e-02 4.07546088e-02</_>
    <_>
      3.65071110e-02 6.75426275e-02 7.31112882e-02 2.34417897e-02
      5.55979088e-02 5.97742014e-02 9.07851309e-02 9.63566825e-02
      3.62729207e-02 7.29255080e-02 7.93108270e-02 3.17532085e-02
      1.00539699e-01 9.98827964e-02 1.49145396e-02 8.02311972e-02
      8.02821219e-02 6.47223694e-03 9.05911177e-02 9.28063169e-02
      2.61013806e-02 7.05343485e-02 7.40398467e-02 2.28969101e-02
      6.46011084e-02 8.25657994e-02 5.45671992e-02 4.87761796e-02
      6.92084208e-02 4.97757606e-02</_>
    <_>
      4.42612804e-02 1.43269598e-02 4.18865494e-02 3.04559506e-02
      1.66791305e-02 3.46569493e-02 4.09300588e-02 1.99881606e-02
      4.55465801e-02 4.42049988e-02 2.83858608e-02 4.62055691e-02
      4.27867807e-02 1.24980099e-02 4.37125489e-02 4.53316011e-02
      1.76296402e-02 4.40272912e-02 3.93795595e-02 1.02912197e-02
      3.82914990e-02 4.03905995e-02 1.26501098e-02 3.97716686e-02
      3.25652994e-02 1.76206902e-02 3.60415690e-02 3.40475217e-02
      2.44305599e-02 3.99374887e-02</_>
    <_>
      2.19108406e-02 7.38075376e-02 7.58487284e-02 1.72080994e-02
      6.25492111e-02 6.30777702e-02 8.29877704e-02 8.99332911e-02
      3.85905914e-02 6.81353435e-02 7.58119673e-02 3.34908888e-02
      9.34142172e-02 9.29803327e-02 1.08470796e-02 7.56895691e-02
      7.57481009e-02 3.06610204e-03 8.30451474e-02 8.69946033e-02
      2.92699393e-02 6.56486228e-02 7.06586465e-02 2.61355098e-02
      5.70625886e-02 8.00623521e-02 5.72655797e-02 4.35932912e-02
      6.82293475e-02 5.25049604e-02</_>
    <_>
      5.25046587e-02 7.81970657e-03 5.19210994e-02 3.98778692e-02
      1.87600609e-02 4.36580889e-02 4.63726893e-02 2.28084996e-02
      5.14495708e-02 4.48713005e-02 2.64879093e-02 4.78604287e-02
      5.25115505e-02 1.26213199e-02 5.37874997e-02 4.92531396e-02
      1.95524804e-02 4.74657714e-02 5.32319210e-02 3.29872197e-03
      5.32770492e-02 4.77207489e-02 2.10030396e-02 4.44934592e-02
      4.59604412e-02 2.01544091e-02 4.85765710e-02 4.08760011e-02
      3.31564993e-02 4.49197292e-02</_>
    <_>
      4.57484983e-02 1.66967809e-02 4.34755199e-02 3.09470799e-02
      2.16037892e-02 3.77288498e-02 4.30950001e-02 2.03783307e-02
      4.74148504e-02 4.54159603e-02 3.08923796e-02 4.61545698e-02
      4.87335213e-02 1.21400496e-02 4.97535802e-02 5.00219800e-02
      2.62873508e-02 4.45871316e-02 4.96966094e-02 1.02524804e-02
      4.91692610e-02 4.80130799e-02 2.80709509e-02 4.16302197e-02
      4.12522107e-02 2.10926998e-02 4.48745191e-02 3.90817188e-02
      3.34743597e-02 4.25250083e-02</_>
    <_>
      4.85787801e-02 4.24602106e-02 5.62234707e-02 3.03703193e-02
      3.70737091e-02 4.79250997e-02 8.07610005e-02 7.42933527e-02
      5.01435883e-02 6.78076968e-02 6.87143579e-02 3.65854092e-02
      8.00295472e-02 6.41027018e-02 4.98313606e-02 7.06623495e-02
      6.48168698e-02 2.97171492e-02 7.11133629e-02 5.09080105e-02
      5.18277399e-02 6.07317500e-02 5.41647784e-02 3.45819406e-02
      5.55698797e-02 4.73758206e-02 4.95813489e-02 4.63074483e-02
      5.14733195e-02 4.27882709e-02</_>
    <_>
      3.62216495e-02 3.64749096e-02 3.95949297e-02 1.75551996e-02
      3.71348597e-02 4.09359895e-02 4.12387699e-02 2.09193602e-02
      4.62236218e-02 4.41773683e-02 2.88775191e-02 4.57822792e-02
      4.43491898e-02 1.17690200e-02 4.54757586e-02 4.58307490e-02
      1.87078491e-02 4.40602787e-02 4.21595685e-02 7.94958323e-03
      4.16294187e-02 4.14833017e-02 1.42898597e-02 4.04147692e-02
      3.57048288e-02 1.73112396e-02 3.95634398e-02 3.54700312e-02
      2.65894793e-02 4.08541113e-02</_>
    <_>
      2.25097798e-02 7.68601522e-02 7.82262310e-02 1.63089503e-02
      6.12861402e-02 6.22925796e-02 8.37274268e-02 8.78940821e-02
      2.88845804e-02 7.07626268e-02 7.55840763e-02 2.73486897e-02
      9.28492099e-02 9.25859213e-02 7.38836918e-03 7.74981901e-02
      7.72765800e-02 6.63294503e-03 7.02745318e-02 6.00739308e-02
      4.21488695e-02 6.21115118e-02 6.17736503e-02 2.76323501e-02
      5.29542416e-02 4.57984284e-02 5.13146408e-02 4.49870192e-02
      5.22805192e-02 4.60425317e-02</_>
    <_>
      2.14685407e-02 6.60982281e-02 6.34086430e-02 5.72687807e-03
      5.58101311e-02 5.57936095e-02 7.42932484e-02 7.43631870e-02
      2.76522208e-02 6.89268485e-02 7.17359483e-02 2.08045598e-02
      8.03648531e-02 8.01552236e-02 6.00387622e-03 7.37552866e-02
      7.29876235e-02 1.12855705e-02 7.45698884e-02 7.75676668e-02
      2.14752294e-02 6.45718575e-02 6.73240870e-02 2.75660809e-02
      5.86898103e-02 7.46172294e-02 4.70309518e-02 4.89585996e-02
      6.75838664e-02 4.65969518e-02</_>
    <_>
      4.49418984e-02 2.13032700e-02 4.20897789e-02 2.86046099e-02
      2.45747007e-02 3.76107097e-02 4.18356806e-02 2.22822800e-02
      4.73969616e-02 4.45967801e-02 2.83410791e-02 4.64920700e-02
      4.46292609e-02 1.16966497e-02 4.56378087e-02 4.64282818e-02
      1.88148394e-02 4.46850508e-02 4.25946601e-02 6.79392787e-03
      4.23290208e-02 4.27212007e-02 1.60496496e-02 4.11610492e-02
      5.39567992e-02 4.91916500e-02 5.10580093e-02 4.72851992e-02
      5.50549999e-02 4.65878583e-02</_>
    <_>
      4.32256311e-02 4.41214703e-02 5.16921617e-02 2.42185108e-02
      4.04316597e-02 4.71131913e-02 9.21237916e-02 9.54209119e-02
      3.12561207e-02 7.34196231e-02 7.78313726e-02 2.79614292e-02
      4.33087014e-02 1.19059701e-02 4.40077409e-02 4.55019698e-02
      1.74025409e-02 4.42875996e-02 3.97985689e-02 1.09701296e-02
      3.85513790e-02 4.03935388e-02 1.19917803e-02 3.99202108e-02
      3.27977799e-02 1.90277100e-02 3.66660208e-02 3.39262895e-02
      2.41720695e-02 3.98749411e-02</_>
    <_>
      2.81349607e-02 3.55953909e-02 3.50290909e-02 1.00253904e-02
      4.04526703e-02 4.16204110e-02 3.90443206e-02 2.32666805e-02
      4.49634902e-02 4.20757793e-02 2.60198694e-02 4.56228890e-02
      4.10264991e-02 1.55750001e-02 4.08763289e-02 4.28134501e-02
      1.38023300e-02 4.29035909e-02 3.68873291e-02 1.50634600e-02
      3.39452401e-02 3.77328992e-02 8.43120739e-03 3.79667208e-02
      2.99882200e-02 1.82639994e-02 3.29045206e-02 3.23423184e-02
      2.27227509e-02 3.85309085e-02</_>
    <_>
      2.50971802e-02 5.31839915e-02 4.85065915e-02 3.79028590e-03
      4.82589714e-02 4.83362786e-02 7.68971890e-02 7.34512582e-02
      3.18908393e-02 6.61475807e-02 6.76172599e-02 2.01106593e-02
      4.76721413e-02 1.17829898e-02 4.89316396e-02 4.67945784e-02
      2.00970396e-02 4.44472395e-02 4.04349118e-02 6.91324286e-03
      4.08640988e-02 4.39010188e-02 2.32759193e-02 3.93058695e-02
      3.21238786e-02 2.20740996e-02 3.89330499e-02 3.49205397e-02
      2.95440704e-02 3.92386988e-02</_>
    <_>
      3.93032692e-02 6.66044727e-02 7.41297603e-02 2.60483008e-02
      5.52449413e-02 6.03994392e-02 9.01903212e-02 9.48696136e-02
      3.09883896e-02 7.33099729e-02 7.86496624e-02 2.85602901e-02
      9.97218117e-02 9.93753225e-02 8.36374983e-03 8.03626925e-02
      8.03506002e-02 1.44759601e-03 8.94050598e-02 9.31939930e-02
      2.84421407e-02 7.02726394e-02 7.49214068e-02 2.60676797e-02
      6.30814135e-02 8.33819509e-02 5.56307994e-02 4.79661785e-02
      7.03132525e-02 5.14249802e-02</_>
    <_>
      3.92886885e-02 3.34423818e-02 4.08282988e-02 2.12959591e-02
      3.47464904e-02 4.06152718e-02 4.18852717e-02 2.10602898e-02
      4.64805700e-02 4.54912186e-02 3.13845389e-02 4.58426289e-02
      4.38341089e-02 1.15696797e-02 4.48015407e-02 4.54575792e-02
      1.82251595e-02 4.38714996e-02 4.13260609e-02 8.58271960e-03
      4.06852998e-02 4.10503298e-02 1.37893502e-02 4.01220992e-02
      3.48937884e-02 1.75950192e-02 3.88335101e-02 3.50267403e-02
      2.60473303e-02 4.05455604e-02</_>
    <_>
      2.41093803e-02 6.66173473e-02 6.47429898e-02 1.10410303e-02
      5.04390299e-02 5.16193211e-02 8.42441767e-02 8.53525624e-02
      2.70666294e-02 7.23837018e-02 7.30118975e-02 2.96080504e-02
      9.77881998e-02 9.83650833e-02 2.24961694e-02 7.80345798e-02
      7.72047266e-02 2.09139194e-02 3.86090800e-02 1.70089193e-02
      3.67704593e-02 4.65846509e-02 3.13684195e-02 3.72593515e-02
      2.69579701e-02 2.02119201e-02 3.36591713e-02 3.35182212e-02
      2.59354692e-02 3.96433994e-02</_>
    <_>
      3.58276814e-02 7.03502595e-02 7.73086026e-02 2.53497902e-02
      5.95270395e-02 6.32823929e-02 8.76113474e-02 9.31153819e-02
      3.71535011e-02 7.14126527e-02 7.80319273e-02 3.19865197e-02
      9.76225063e-02 9.69196633e-02 1.34970900e-02 7.88886175e-02
      7.89318085e-02 3.88795999e-03 8.73422176e-02 9.09015983e-02
      3.03154998e-02 6.87048137e-02 7.35644028e-02 2.64230799e-02
      6.12460189e-02 8.30478668e-02 5.77096194e-02 4.64102887e-02
      6.99932277e-02 5.25239483e-02</_>
    <_>
      3.59081700e-02 3.07343993e-02 3.74376401e-02 1.87498201e-02
      3.54202501e-02 3.99358794e-02 4.14453298e-02 2.07573697e-02
      4.63528112e-02 4.45589609e-02 2.86354907e-02 4.63856906e-02
      4.39870618e-02 1.10198604e-02 4.48015817e-02 4.61316109e-02
      1.86426099e-02 4.44344692e-02 4.01843488e-02 8.84239003e-03
      3.95625904e-02 4.12161015e-02 1.43230297e-02 4.01719809e-02
      3.45053598e-02 1.90955307e-02 3.94212790e-02 3.63502502e-02
      2.96320096e-02 4.14041691e-02</_>
    <_>
      1.88459009e-02 7.95978904e-02 8.13812017e-02 1.82394609e-02
      6.24188706e-02 6.32638782e-02 8.47605765e-02 8.85275379e-02
      2.63904408e-02 6.92216009e-02 7.36438036e-02 2.55007502e-02
      9.12905335e-02 9.09055173e-02 1.31080505e-02 7.44964033e-02
      7.47141987e-02 5.70743717e-03 8.00820664e-02 8.09893236e-02
      3.49503607e-02 6.40441701e-02 6.84286207e-02 2.72934102e-02
      5.80793507e-02 6.58841133e-02 5.44340387e-02 4.48676310e-02
      6.09047711e-02 4.86559682e-02</_>
    <_>
      4.24392708e-02 2.46252809e-02 4.13367487e-02 2.63150092e-02
      2.91441102e-02 3.91864590e-02 4.37379591e-02 1.96281709e-02
      4.76787910e-02 4.56730202e-02 3.08301598e-02 4.66434993e-02
      4.91914600e-02 1.18488101e-02 5.01471609e-02 5.00993505e-02
      2.62950808e-02 4.48107384e-02 5.01003489e-02 1.06984200e-02
      4.94946018e-02 4.81813289e-02 2.83973608e-02 4.15323898e-02
      4.16709818e-02 2.16212403e-02 4.51855510e-02 3.93525101e-02
      3.41294594e-02 4.27230895e-02</_>
    <_>
      3.77639495e-02 6.87054768e-02 7.65184909e-02 2.64071599e-02
      5.80254011e-02 6.25090897e-02 8.79128277e-02 9.35621336e-02
      3.67165208e-02 7.14337826e-02 7.80599937e-02 3.18389796e-02
      9.81174186e-02 9.75227132e-02 1.19148400e-02 7.89119229e-02
      7.89381117e-02 2.86792102e-03 8.76250193e-02 9.11646113e-02
      2.97370106e-02 6.87267780e-02 7.34825879e-02 2.60864403e-02
      6.16030395e-02 8.27384368e-02 5.66057712e-02 4.66688313e-02
      6.96731731e-02 5.18023297e-02</_>
    <_>
      3.96459401e-02 1.65723693e-02 3.87257598e-02 2.64938902e-02
      2.68451609e-02 3.76773588e-02 4.02197912e-02 1.90158393e-02
      4.41566110e-02 4.27417606e-02 2.58788709e-02 4.57729101e-02
      4.22546193e-02 1.51869804e-02 4.23367694e-02 4.35564518e-02
      1.43788103e-02 4.34772596e-02 3.72318104e-02 1.56482309e-02
      3.40295583e-02 3.76818404e-02 7.94711336e-03 3.79713401e-02
      2.90305298e-02 1.69852003e-02 3.08943391e-02 3.17006111e-02
      2.14594603e-02 3.76483016e-02</_>
    <_>
      7.69152213e-03 8.49781111e-02 8.53253677e-02 1.80248506e-02
      6.99047968e-02 6.80159926e-02 7.85861835e-02 8.19654912e-02
      2.71086693e-02 6.76177666e-02 7.20390975e-02 2.51982193e-02
      9.17065591e-02 9.23813730e-02 1.24120899e-02 7.43443966e-02
      7.40213171e-02 1.42417299e-02 7.74576291e-02 7.85077065e-02
      3.38335410e-02 6.34423867e-02 6.82269186e-02 2.68262494e-02
      5.48172295e-02 6.29316121e-02 4.91117686e-02 4.44567688e-02
      6.10731989e-02 4.58851196e-02</_>
    <_>
      4.57763411e-02 3.92356403e-02 4.71857414e-02 2.65184101e-02
      3.16267796e-02 4.09999713e-02 9.10892263e-02 9.37819928e-02
      2.49790903e-02 7.26451129e-02 7.62782320e-02 2.38389596e-02
      4.14987504e-02 9.57937166e-03 4.24980186e-02 4.55848314e-02
      2.05889493e-02 4.28846888e-02 3.82742696e-02 8.45578127e-03
      3.81850898e-02 4.04795595e-02 1.56128500e-02 3.90575007e-02
      3.17933485e-02 2.09724996e-02 3.77144702e-02 3.37677784e-02
      2.63041891e-02 3.95278297e-02</_>
    <_>
      3.03747207e-02 3.51088308e-02 3.54837105e-02 1.21790497e-02
      3.92239913e-02 4.09647897e-02 3.90815698e-02 2.12824997e-02
      4.42054197e-02 4.24906202e-02 2.63619907e-02 4.55794781e-02
      4.10399586e-02 1.47999199e-02 4.11696099e-02 4.32252996e-02
      1.45268496e-02 4.30626906e-02 3.66846882e-02 1.42954597e-02
      3.40855606e-02 3.79352793e-02 9.05841496e-03 3.80791612e-02
      3.02116498e-02 1.88080706e-02 3.38927507e-02 3.27491090e-02
      2.36303601e-02 3.89989503e-02</_>
    <_>
      2.85876207e-02 9.16045904e-02 9.50337499e-02 3.10734492e-02
      7.78526589e-02 7.56064132e-02 8.69132578e-02 9.29644033e-02
      3.77165005e-02 7.19628185e-02 7.90234134e-02 3.26955691e-02
      9.64315236e-02 9.54644829e-02 1.36228502e-02 7.93181881e-02
      7.93218166e-02 7.61590374e-04 8.48856792e-02 8.55760574e-02
      3.27957198e-02 6.85642436e-02 7.26807266e-02 2.57554203e-02
      6.00416586e-02 7.68274665e-02 5.69458716e-02 4.65708412e-02
      6.90485016e-02 5.25304489e-02</_>
    <_>
      5.32792509e-02 3.87682989e-02 6.00776598e-02 3.53553295e-02
      3.57129984e-02 5.01578599e-02 5.12803905e-02 2.34522000e-02
      5.46090715e-02 4.96684797e-02 3.45344096e-02 4.81191985e-02
      5.09125590e-02 1.15395496e-02 5.22034392e-02 4.91586588e-02
      2.21201591e-02 4.60821204e-02 4.66113016e-02 6.62587490e-03
      4.63813692e-02 4.32439595e-02 1.53619703e-02 4.18085009e-02
      3.86430882e-02 1.76155604e-02 4.22846712e-02 3.59173305e-02
      2.56534498e-02 4.09796908e-02</_>
    <_>
      4.14895900e-02 2.82993801e-02 4.08256911e-02 2.43343394e-02
      3.16268206e-02 3.97485793e-02 3.98538113e-02 2.18199603e-02
      4.54335213e-02 4.39195707e-02 2.84005404e-02 4.58509512e-02
      4.29300889e-02 1.12413904e-02 4.36885692e-02 4.55738008e-02
      1.81472898e-02 4.40374203e-02 3.99435088e-02 8.74398742e-03
      3.93457413e-02 4.12004702e-02 1.43911801e-02 4.01397012e-02
      3.67566496e-02 2.01449599e-02 4.14348692e-02 3.80940512e-02
      3.20005715e-02 4.24120389e-02</_>
    <_>
      2.57266108e-02 8.18424374e-02 8.53291899e-02 2.20683292e-02
      6.64378926e-02 6.74922988e-02 8.08249488e-02 8.54120776e-02
      2.91191805e-02 7.06949234e-02 7.55172819e-02 2.85933409e-02
      8.85057673e-02 8.83347169e-02 8.05964693e-03 7.69668072e-02
      7.65759200e-02 1.02163097e-02 7.78346136e-02 8.08635578e-02
      2.99824998e-02 6.65883273e-02 7.20093772e-02 2.76328400e-02
      5.53175695e-02 7.11484626e-02 5.51764593e-02 4.48570400e-02
      6.81682080e-02 5.26669808e-02</_>
    <_>
      3.08342297e-02 7.80551136e-02 8.39246437e-02 2.71994192e-02
      7.05424473e-02 7.07937628e-02 8.22640136e-02 8.61414373e-02
      3.87866609e-02 7.02408999e-02 7.65833035e-02 3.18036713e-02
      9.05475765e-02 8.73551667e-02 2.40655299e-02 7.69343004e-02
      7.65854791e-02 7.40080606e-03 8.05483833e-02 8.09476674e-02
      3.59125212e-02 6.65396973e-02 7.12111965e-02 2.79284306e-02
      5.66206910e-02 7.62123391e-02 5.85418493e-02 4.45322692e-02
      6.94943219e-02 5.44549897e-02</_>
    <_>
      4.66192886e-02 3.80529612e-02 4.66844812e-02 2.67804693e-02
      3.11101004e-02 4.07660007e-02 4.52258401e-02 2.28613205e-02
      5.05810603e-02 4.64555398e-02 2.96800900e-02 4.72825505e-02
      4.57940400e-02 9.84149985e-03 4.64374609e-02 4.70360592e-02
      1.89684592e-02 4.53029796e-02 3.86524498e-02 1.10412203e-02
      3.80533598e-02 4.01168317e-02 1.37652000e-02 3.92886698e-02
      3.44041884e-02 2.14156192e-02 3.90683189e-02 3.38237695e-02
      2.44042594e-02 3.99021804e-02</_>
    <_>
      5.47481813e-02 2.32539997e-02 5.22392094e-02 3.69366109e-02
      1.91462096e-02 4.16026600e-02 6.21763989e-02 3.72992903e-02
      6.00668006e-02 5.67570813e-02 4.69643809e-02 4.81243692e-02
      5.88412508e-02 1.78352799e-02 5.85535616e-02 5.48274294e-02
      3.17470506e-02 4.68120202e-02 5.53226508e-02 1.08899605e-02
      5.45780510e-02 4.94314395e-02 2.71851402e-02 4.34084013e-02
      4.38921489e-02 2.09536292e-02 4.68909405e-02 3.99122201e-02
      3.32524814e-02 4.32808399e-02</_>
    <_>
      4.84934598e-02 3.35222818e-02 4.54277210e-02 2.93877702e-02
      2.42828298e-02 3.77985090e-02 8.99747834e-02 9.18119475e-02
      2.79171392e-02 7.23782927e-02 7.57367983e-02 2.46937592e-02
      4.27889004e-02 1.00461403e-02 4.39210311e-02 4.70933989e-02
      2.33363304e-02 4.30748388e-02 4.06048484e-02 6.15253113e-03
      4.08113413e-02 4.21738289e-02 1.82740800e-02 3.98141108e-02
      3.45916711e-02 1.94497406e-02 3.96688618e-02 3.54555398e-02
      2.78485194e-02 4.04800102e-02</_>
    <_>
      3.19036692e-02 4.73841317e-02 4.51367907e-02 1.17901899e-02
      4.39768285e-02 4.54957113e-02 9.12949964e-02 9.59431380e-02
      3.03637404e-02 7.27491230e-02 7.78098330e-02 2.85251103e-02
      4.37126011e-02 1.24024898e-02 4.46921103e-02 4.51612100e-02
      1.74770802e-02 4.38977815e-02 4.02348302e-02 1.10978000e-02
      3.88861895e-02 3.98381203e-02 1.13086803e-02 3.94944996e-02
      3.35281603e-02 1.74257495e-02 3.68395410e-02 3.39274406e-02
      2.40474492e-02 3.97487804e-02</_>
    <_>
      4.61143702e-02 5.05860187e-02 6.30559325e-02 2.88558193e-02
      4.68216389e-02 5.47574982e-02 4.16337699e-02 2.04715598e-02
      4.61493693e-02 4.57827486e-02 3.09900902e-02 4.65514995e-02
      4.24580686e-02 8.94410908e-03 4.31839786e-02 4.62417789e-02
      2.00762507e-02 4.39301394e-02 3.91265191e-02 9.65260435e-03
      3.88985202e-02 4.10269909e-02 1.49100199e-02 3.98127809e-02
      3.27343307e-02 2.09870208e-02 3.83320712e-02 3.43872905e-02
      2.58391406e-02 4.00577411e-02</_>
    <_>
      3.08721103e-02 7.89226592e-02 8.44906867e-02 2.92798895e-02
      7.38165975e-02 7.28513300e-02 8.03266317e-02 8.32811520e-02
      3.31900194e-02 7.00138882e-02 7.51763135e-02 2.76373904e-02
      8.86363536e-02 8.65866169e-02 1.90534592e-02 7.63334632e-02
      7.63393268e-02 3.30774393e-03 8.00715163e-02 8.16292018e-02
      3.25938687e-02 6.66759163e-02 7.16187283e-02 2.67505702e-02
      5.71150184e-02 7.29519799e-02 5.35196699e-02 4.58442792e-02
      6.77315593e-02 5.08562401e-02</_>
    <_>
      4.97458093e-02 2.19226498e-02 4.76508290e-02 3.29229683e-02
      2.44499203e-02 4.09997813e-02 4.22329009e-02 1.80009697e-02
      4.58937399e-02 4.50343713e-02 2.89158206e-02 4.69198786e-02
      4.79441993e-02 9.57230758e-03 4.88814712e-02 4.90534417e-02
      2.35538296e-02 4.54477891e-02 5.07911704e-02 8.00703745e-03
      5.06281517e-02 4.82030809e-02 2.58306991e-02 4.24092896e-02
      5.17063811e-02 4.05586585e-02 5.05691394e-02 4.61553410e-02
      4.90282997e-02 4.57170717e-02</_>
    <_>
      2.76016593e-02 8.26798379e-02 8.69006664e-02 2.40112804e-02
      6.66906312e-02 6.81293234e-02 7.98360631e-02 8.48901868e-02
      2.98457108e-02 7.03637600e-02 7.53784701e-02 2.96911299e-02
      8.76300186e-02 8.75587836e-02 7.06943590e-03 7.67191574e-02
      7.61713311e-02 1.14802103e-02 7.65894130e-02 8.00461173e-02
      3.06976307e-02 6.60786629e-02 7.18841925e-02 2.86110602e-02
      5.41217104e-02 7.00463429e-02 5.64641804e-02 4.40335311e-02
      6.81624264e-02 5.38501590e-02</_>
    <_>
      2.78244093e-02 8.26897696e-02 8.69858265e-02 2.41812207e-02
      6.65722713e-02 6.80943429e-02 7.92225972e-02 8.42975527e-02
      2.98858993e-02 7.00977966e-02 7.51364678e-02 2.97239292e-02
      8.70030969e-02 8.69216770e-02 6.95047015e-03 7.64628574e-02
      7.58759305e-02 1.16403801e-02 7.60229975e-02 7.95342773e-02
      3.04815695e-02 6.58483729e-02 7.16570690e-02 2.86705196e-02
      5.38675711e-02 6.98193982e-02 5.64248711e-02 4.38852198e-02
      6.81131929e-02 5.38895503e-02</_>
    <_>
      5.70467003e-02 1.35809500e-02 5.61632589e-02 4.14670408e-02
      2.09145509e-02 4.60646302e-02 9.16003510e-02 9.32232067e-02
      2.09895894e-02 7.36026019e-02 7.63650835e-02 2.04524901e-02
      4.93847504e-02 1.12432502e-02 5.06471694e-02 4.94475104e-02
      2.23936997e-02 4.62911800e-02 4.62365299e-02 5.54511091e-03
      4.61924486e-02 4.43749912e-02 1.71910394e-02 4.23874818e-02
      3.87789682e-02 1.74177103e-02 4.24950495e-02 3.71800214e-02
      2.71824598e-02 4.18915302e-02</_>
    <_>
      3.56780998e-02 6.87275529e-02 7.60716125e-02 2.51841396e-02
      6.09392002e-02 6.41709492e-02 8.61436278e-02 9.22741890e-02
      3.79392616e-02 7.10997432e-02 7.82301128e-02 3.28012407e-02
      9.62662473e-02 9.56828371e-02 1.22807100e-02 7.87304565e-02
      7.87807032e-02 2.83726305e-03 8.59415233e-02 8.92878324e-02
      2.87992992e-02 6.85962066e-02 7.33259171e-02 2.59153806e-02
      5.99129014e-02 8.14270675e-02 5.61653413e-02 4.61186208e-02
      6.98614791e-02 5.24842106e-02</_>
    <_>
      4.06246707e-02 1.70632508e-02 3.93893681e-02 2.70461496e-02
      2.63405405e-02 3.77030782e-02 3.98901291e-02 1.83010306e-02
      4.37043682e-02 4.29435708e-02 2.64174305e-02 4.57260385e-02
      4.20720801e-02 1.44106997e-02 4.23972793e-02 4.38763313e-02
      1.51190097e-02 4.35255803e-02 3.73848900e-02 1.41041400e-02
      3.48933712e-02 3.82797718e-02 9.21206828e-03 3.83826792e-02
      2.92919595e-02 1.69632602e-02 3.18906307e-02 3.22638191e-02
      2.25817803e-02 3.83375697e-02</_>
    <_>
      4.66651991e-02 1.63244195e-02 4.38968614e-02 3.14717293e-02
      1.89381801e-02 3.67035717e-02 4.07325290e-02 2.03619804e-02
      4.55140285e-02 4.39264700e-02 2.79529300e-02 4.61279415e-02
      4.32053208e-02 1.26499897e-02 4.39162403e-02 4.52034809e-02
      1.69722605e-02 4.41635512e-02 4.23576199e-02 9.21921432e-03
      4.20215502e-02 4.20503803e-02 1.48431398e-02 4.08094116e-02
      3.56973112e-02 1.90892909e-02 4.04712595e-02 3.63104604e-02
      2.81290598e-02 4.11350504e-02</_>
    <_>
      3.16070095e-02 7.52151385e-02 8.15765336e-02 2.70289499e-02
      7.06314072e-02 7.07652569e-02 8.21588784e-02 8.93319026e-02
      3.63557301e-02 7.11286888e-02 7.83083737e-02 3.38382088e-02
      9.21924263e-02 9.19099003e-02 8.60518590e-03 7.90248811e-02
      7.87694380e-02 6.66605402e-03 8.27782005e-02 8.71055126e-02
      3.01867295e-02 6.86975718e-02 7.42399171e-02 2.88325995e-02
      5.74172698e-02 7.94588178e-02 5.64346388e-02 4.57376391e-02
      7.08578229e-02 5.41650690e-02</_>
    <_>
      5.01483791e-02 2.42467299e-02 4.73067798e-02 3.23457718e-02
      2.35893391e-02 3.99909988e-02 8.66823569e-02 7.81582966e-02
      4.34822403e-02 7.01209828e-02 6.70873374e-02 3.20092589e-02
      4.66185100e-02 9.47092660e-03 4.74285707e-02 4.76814210e-02
      2.06818394e-02 4.52817492e-02 4.56060693e-02 5.04215900e-03
      4.57854606e-02 4.46327887e-02 1.92784201e-02 4.18640599e-02
      3.81180495e-02 1.83454603e-02 4.20772806e-02 3.79709415e-02
      3.07312403e-02 4.27499302e-02</_>
    <_>
      4.11522090e-02 2.16591395e-02 4.00036499e-02 2.62704901e-02
      2.81118806e-02 3.83894108e-02 4.07048017e-02 1.90602094e-02
      4.49273512e-02 4.32649814e-02 2.75881793e-02 4.55700196e-02
      4.39219512e-02 1.25809899e-02 4.48667109e-02 4.50181104e-02
      1.73694007e-02 4.37894501e-02 4.23116200e-02 7.82399718e-03
      4.18061987e-02 4.15421203e-02 1.44350603e-02 4.04349901e-02
      3.48057300e-02 1.60114001e-02 3.80749702e-02 3.50381806e-02
      2.57320907e-02 4.06583510e-02</_>
    <_>
      4.52720411e-02 1.30966604e-02 4.35312912e-02 3.21332291e-02
      1.41613204e-02 3.51077691e-02 3.99293303e-02 1.79573298e-02
      4.37677093e-02 4.30191010e-02 2.74868906e-02 4.53611799e-02
      4.20325883e-02 1.14909597e-02 4.28412184e-02 4.45372611e-02
      1.76097397e-02 4.31286693e-02 4.03003283e-02 8.13898724e-03
      3.98885310e-02 4.09335010e-02 1.47960298e-02 3.97514105e-02
      3.40225212e-02 1.73271392e-02 3.79045308e-02 3.47590186e-02
      2.59846207e-02 4.04195301e-02</_>
    <_>
      4.56474498e-02 3.45287696e-02 4.57384102e-02 2.70700399e-02
      3.10140606e-02 4.09577899e-02 4.06177789e-02 2.04907209e-02
      4.54305783e-02 4.42642495e-02 2.94059291e-02 4.56597507e-02
      4.09133695e-02 1.06387101e-02 4.18718606e-02 4.46759090e-02
      1.87490005e-02 4.27539311e-02 3.75040211e-02 9.63288732e-03
      3.67578492e-02 3.94740291e-02 1.33968201e-02 3.87195013e-02
      3.15742306e-02 1.93419904e-02 3.61517295e-02 3.33152115e-02
      2.49029901e-02 3.94176394e-02</_>
    <_>
      4.39622700e-02 1.38798403e-02 4.39075492e-02 3.20995003e-02
      9.05455835e-03 3.33517082e-02 4.64109592e-02 2.19980292e-02
      5.03041595e-02 4.83565591e-02 3.39552611e-02 4.75810692e-02
      4.77119908e-02 1.09205199e-02 4.88911606e-02 4.94569205e-02
      2.41857693e-02 4.53294516e-02 4.03030589e-02 8.66864529e-03
      3.97681296e-02 4.13456000e-02 1.46433003e-02 4.02117819e-02
      3.26932892e-02 1.83070004e-02 3.68695706e-02 3.44143100e-02
      2.55551506e-02 4.02425304e-02</_>
    <_>
      4.33839485e-02 2.23639607e-02 4.12998684e-02 2.74640899e-02
      2.64464803e-02 3.80325206e-02 4.14395109e-02 1.96912307e-02
      4.58749011e-02 4.40357812e-02 2.85996404e-02 4.58760187e-02
      4.54984307e-02 1.09997997e-02 4.67524491e-02 4.70454991e-02
      2.09588408e-02 4.42934111e-02 4.39909212e-02 4.34821099e-03
      4.41253111e-02 4.36043702e-02 1.92022808e-02 4.09952998e-02
      3.75393704e-02 1.81844402e-02 4.16290797e-02 3.68997492e-02
      2.93915309e-02 4.16953005e-02</_>
    <_>
      4.05607894e-02 3.06232497e-02 4.10131216e-02 2.33635604e-02
      3.34124789e-02 4.05719616e-02 6.83165789e-02 2.84344703e-02
      6.92516491e-02 5.44460304e-02 3.25426087e-02 5.37391007e-02
      4.37632091e-02 1.41532598e-02 4.42779996e-02 4.47794199e-02
      1.56886503e-02 4.42699902e-02 4.19519208e-02 1.34447599e-02
      4.01665904e-02 4.03286107e-02 1.03913397e-02 4.02326286e-02
      3.52767296e-02 2.15095300e-02 3.92091312e-02 3.39072011e-02
      2.33854894e-02 4.00402397e-02</_>
    <_>
      5.66943586e-02 2.94480696e-02 5.80000915e-02 3.86215709e-02
      2.67783795e-02 4.69315313e-02 6.97399080e-02 4.77689393e-02
      6.29344508e-02 6.02965988e-02 5.27656898e-02 4.82794493e-02
      8.21646899e-02 5.62118106e-02 6.20640218e-02 6.81083873e-02
      5.56509309e-02 4.10177112e-02 7.78417364e-02 5.69208190e-02
      5.54136597e-02 6.20690212e-02 5.38688712e-02 3.72142904e-02
      6.12305216e-02 5.49621917e-02 5.29372096e-02 4.75403294e-02
      5.32211401e-02 4.48576510e-02</_>
    <_>
      3.11133508e-02 5.11624403e-02 4.76225503e-02 1.03713898e-02
      4.51564305e-02 4.63042893e-02 4.20287885e-02 2.16889791e-02
      4.69085611e-02 4.55795489e-02 3.11466008e-02 4.58236784e-02
      4.60510589e-02 1.08282696e-02 4.73034494e-02 4.76495698e-02
      2.19341200e-02 4.44665886e-02 4.36232090e-02 4.77775885e-03
      4.37003784e-02 4.32648286e-02 1.83131807e-02 4.09604795e-02
      3.72856185e-02 1.83956008e-02 4.15229611e-02 3.67466807e-02
      2.91097704e-02 4.14671786e-02</_>
    <_>
      3.84695083e-02 2.18339805e-02 3.84392217e-02 2.44623702e-02
      3.00740600e-02 3.86853702e-02 3.99343893e-02 2.00313609e-02
      4.43361290e-02 4.20130715e-02 2.57369801e-02 4.51864600e-02
      4.29908112e-02 1.48386201e-02 4.32292596e-02 4.33285497e-02
      1.44814504e-02 4.31794114e-02 4.12092581e-02 1.22985598e-02
      3.94843407e-02 3.96640301e-02 1.02466997e-02 3.95151116e-02
      3.29503790e-02 1.50205400e-02 3.51122506e-02 3.35133299e-02
      2.29543597e-02 3.92062292e-02</_>
    <_>
      4.71823998e-02 3.55822891e-02 4.69375700e-02 2.77489200e-02
      3.08560003e-02 4.13008705e-02 9.24867094e-02 9.43789408e-02
      2.54818704e-02 7.36190230e-02 7.66865164e-02 2.37427801e-02
      4.30895612e-02 1.04542105e-02 4.34378982e-02 4.53278907e-02
      1.73707996e-02 4.40546386e-02 3.98934484e-02 1.26910796e-02
      3.86629887e-02 4.00554501e-02 1.17129097e-02 3.97525392e-02
      3.30264196e-02 2.06229705e-02 3.72897498e-02 3.36049311e-02
      2.39396002e-02 3.97335701e-02</_>
    <_>
      4.46709283e-02 3.60315703e-02 4.47647497e-02 2.52386108e-02
      3.25023197e-02 4.09058891e-02 9.16021317e-02 9.29885209e-02
      3.19680385e-02 7.30582774e-02 7.62543306e-02 2.73881909e-02
      4.23493087e-02 1.19446795e-02 4.27868105e-02 4.96397987e-02
      2.49724798e-02 4.51934002e-02 4.15676497e-02 7.37426709e-03
      4.14508209e-02 4.23644483e-02 1.64964907e-02 4.06340100e-02
      3.44323106e-02 1.93799194e-02 3.94762903e-02 3.57787609e-02
      2.80186106e-02 4.08442318e-02</_>
    <_>
      3.37132700e-02 3.18838209e-02 3.66360284e-02 1.64764896e-02
      3.70547399e-02 4.04549316e-02 4.27604392e-02 1.92616191e-02
      4.68930304e-02 4.50716317e-02 2.89444309e-02 4.68483418e-02
      4.56429198e-02 1.08878296e-02 4.63243499e-02 4.65235710e-02
      1.84400305e-02 4.49549817e-02 4.16782983e-02 9.19591729e-03
      4.10918407e-02 4.16818783e-02 1.42056402e-02 4.06461284e-02
      3.18655707e-02 1.73875801e-02 3.41383703e-02 3.30213793e-02
      2.23106295e-02 3.89098711e-02</_>
    <_>
      4.34477106e-02 1.41040301e-02 4.16190699e-02 3.02149691e-02
      1.27983000e-02 3.27713005e-02 4.03763205e-02 1.97963696e-02
      4.49625589e-02 4.33768593e-02 2.79050097e-02 4.55437489e-02
      4.25538085e-02 1.10104401e-02 4.35464084e-02 4.51619998e-02
      1.88291296e-02 4.32584994e-02 4.06936891e-02 6.71307091e-03
      4.05306816e-02 4.15382311e-02 1.62853897e-02 3.99176888e-02
      3.51186618e-02 1.73687991e-02 3.91124412e-02 3.54685485e-02
      2.70893704e-02 4.09072004e-02</_>
    <_>
      5.16706295e-02 1.01157399e-02 5.11603989e-02 3.86617109e-02
      2.25773193e-02 4.44441587e-02 4.41853814e-02 2.34214403e-02
      4.91168611e-02 4.31117192e-02 2.50464603e-02 4.70651612e-02
      4.89353910e-02 1.45260300e-02 4.96272296e-02 4.66429293e-02
      1.60099007e-02 4.61551510e-02 4.87637892e-02 6.32898882e-03
      4.84400392e-02 4.45721112e-02 1.50179304e-02 4.32352908e-02
      4.06100713e-02 1.43889096e-02 4.30801585e-02 3.77544388e-02
      2.64946409e-02 4.27319109e-02</_>
    <_>
      4.94186506e-02 1.49015104e-02 4.74159718e-02 3.46212797e-02
      1.95790902e-02 3.97710018e-02 4.06622291e-02 2.31999606e-02
      4.63565513e-02 4.26893383e-02 2.60577500e-02 4.61472496e-02
      4.30560000e-02 1.44018801e-02 4.34513986e-02 4.43784297e-02
      1.52539797e-02 4.40140106e-02 4.03836817e-02 1.23528596e-02
      3.86364982e-02 4.00860384e-02 1.05248801e-02 3.98886688e-02
      3.52775715e-02 1.67408492e-02 3.79260890e-02 3.47399116e-02
      2.35693008e-02 4.03262191e-02</_>
    <_>
      2.99416203e-02 4.67397608e-02 4.03079316e-02 6.63929991e-03
      4.25111316e-02 4.28940915e-02 9.26404819e-02 9.46901068e-02
      1.95950102e-02 7.40165114e-02 7.67712668e-02 2.09142491e-02
      9.77540165e-02 9.78180766e-02 2.41545998e-02 7.93494433e-02
      8.00888911e-02 1.48719996e-02 5.11511900e-02 4.30906890e-03
      5.11076115e-02 4.59135100e-02 1.68940797e-02 4.39919904e-02
      4.25658897e-02 1.68915708e-02 4.56424914e-02 3.75180505e-02
      2.49175895e-02 4.21212390e-02</_>
    <_>
      3.95672694e-02 5.92459217e-02 6.57577217e-02 2.35400107e-02
      5.16449995e-02 5.64883202e-02 4.30459194e-02 2.12208293e-02
      4.75778691e-02 4.65564989e-02 3.17890085e-02 4.67615798e-02
      4.45248708e-02 9.43053421e-03 4.54654582e-02 4.74335589e-02
      2.15947293e-02 4.45316508e-02 4.06606309e-02 8.24108534e-03
      4.06834185e-02 4.20104004e-02 1.64763108e-02 4.02477607e-02
      3.38110216e-02 2.10985206e-02 3.96269299e-02 3.49738710e-02
      2.67564394e-02 4.01511490e-02</_>
    <_>
      3.72523107e-02 6.68869168e-02 7.20482692e-02 2.40966808e-02
      5.22927605e-02 5.73387183e-02 9.16931033e-02 9.51924622e-02
      3.09449807e-02 7.34385625e-02 7.80967101e-02 2.75780503e-02
      1.01169303e-01 1.00326300e-01 1.37317702e-02 8.02609995e-02
      8.01293328e-02 5.76695800e-03 9.05225873e-02 9.32181478e-02
      3.02285105e-02 7.00932667e-02 7.41156563e-02 2.54926309e-02
      6.46693185e-02 8.34848285e-02 5.63535616e-02 4.86651696e-02
      6.93017766e-02 5.05678616e-02</_>
    <_>
      5.02749793e-02 2.15379894e-02 4.70727310e-02 3.31697688e-02
      2.10108291e-02 3.92198488e-02 4.13789600e-02 2.29988508e-02
      4.71562482e-02 4.34398390e-02 2.69719008e-02 4.62788902e-02
      4.54909690e-02 1.28170000e-02 4.64586616e-02 4.62512001e-02
      1.77863296e-02 4.49677296e-02 4.21665981e-02 8.77962168e-03
      4.18747813e-02 4.20851894e-02 1.52235003e-02 4.07338291e-02
      3.60035412e-02 2.03939304e-02 4.13565189e-02 3.58318016e-02
      2.78978497e-02 4.03541587e-02</_>
    <_>
      4.57407013e-02 1.49936797e-02 4.35663201e-02 3.14404182e-02
      2.00343207e-02 3.72756906e-02 4.27241512e-02 2.00483892e-02
      4.70752902e-02 4.49080504e-02 3.00904401e-02 4.60456498e-02
      4.85431701e-02 1.20114498e-02 4.95958589e-02 4.98564504e-02
      2.60443203e-02 4.45476994e-02 4.95102890e-02 9.96105839e-03
      4.90321517e-02 4.78825308e-02 2.78378297e-02 4.16258983e-02
      4.10180092e-02 2.06499100e-02 4.46900502e-02 3.88908684e-02
      3.29796299e-02 4.24807481e-02</_>
    <_>
      2.92369407e-02 8.54145065e-02 9.02701020e-02 2.74480209e-02
      7.15674609e-02 7.18277469e-02 8.91767666e-02 9.34683532e-02
      3.39127108e-02 7.27719814e-02 7.83765465e-02 2.94208191e-02
      9.79532227e-02 9.71106663e-02 1.56647600e-02 7.92403221e-02
      7.93741494e-02 5.59533387e-03 8.62117633e-02 8.87051672e-02
      3.80477011e-02 6.81848302e-02 7.36454874e-02 3.02400291e-02
      5.99085800e-02 7.84965530e-02 6.32887930e-02 4.54233885e-02
      6.95454329e-02 5.62828407e-02</_>
    <_>
      3.17312405e-02 6.68319315e-02 7.30998069e-02 2.29717903e-02
      6.35609403e-02 6.51574433e-02 8.23080167e-02 8.87514576e-02
      3.89913805e-02 7.02269822e-02 7.78725371e-02 3.37080397e-02
      9.29154530e-02 9.22402814e-02 1.34032397e-02 7.82467723e-02
      7.82972872e-02 3.48314503e-03 8.27164724e-02 8.56228396e-02
      2.73265596e-02 6.82609379e-02 7.27821365e-02 2.54150908e-02
      5.76614402e-02 7.86664113e-02 5.48987016e-02 4.56149206e-02
      6.95997775e-02 5.26039116e-02</_>
    <_>
      5.46506718e-02 2.38544103e-02 5.21173105e-02 3.67374793e-02
      1.92844700e-02 4.14911695e-02 6.39684126e-02 3.84246409e-02
      6.12759888e-02 5.73084615e-02 4.71711196e-02 4.83957008e-02
      6.32993132e-02 2.23574694e-02 6.17013089e-02 5.70877008e-02
      3.49406712e-02 4.72331904e-02 5.91185689e-02 1.52454004e-02
      5.74763492e-02 5.11905998e-02 2.96651404e-02 4.39853892e-02
      4.66874316e-02 2.22888198e-02 4.90372293e-02 4.08070982e-02
      3.41641605e-02 4.38562408e-02</_>
    <_>
      2.76732296e-02 5.41521795e-02 4.95567210e-02 6.21489715e-03
      4.75501418e-02 4.79537398e-02 8.04402903e-02 7.76817873e-02
      2.95350607e-02 6.76617995e-02 6.90520406e-02 1.92058496e-02
      4.14438508e-02 1.15122003e-02 4.25394811e-02 4.46441211e-02
      1.86108798e-02 4.27862108e-02 3.52580808e-02 7.65127409e-03
      3.50481309e-02 3.95268388e-02 1.54744303e-02 3.82266603e-02
      3.30805518e-02 2.11944804e-02 3.87870595e-02 3.39503400e-02
      2.57595107e-02 3.96430306e-02</_>
    <_>
      5.19688986e-02 1.22484397e-02 5.11459596e-02 3.82119603e-02
      1.20216599e-02 3.98772582e-02 4.43142094e-02 2.21646894e-02
      4.95203212e-02 4.50393818e-02 2.78317295e-02 4.72107604e-02
      4.83343303e-02 1.24319401e-02 4.95034009e-02 4.77408692e-02
      1.90228708e-02 4.60403003e-02 4.93865199e-02 3.46035603e-03
      4.94149812e-02 4.58111502e-02 1.84092000e-02 4.34776396e-02
      4.07361798e-02 1.65861491e-02 4.38187495e-02 3.85652110e-02
      2.94370092e-02 4.34122495e-02</_>
    <_>
      6.08725809e-02 2.49177292e-02 6.33146986e-02 4.37304191e-02
      2.89050508e-02 5.17789200e-02 7.66263828e-02 6.41092733e-02
      5.74603602e-02 6.50819764e-02 6.29666671e-02 4.24308218e-02
      8.09963569e-02 5.84542789e-02 5.85519783e-02 6.88172132e-02
      5.88435791e-02 3.78223695e-02 6.81669414e-02 3.69040892e-02
      5.82869202e-02 5.75378202e-02 4.39767800e-02 4.09549698e-02
      5.16560785e-02 3.24340612e-02 5.18300198e-02 4.36355509e-02
      4.16001901e-02 4.49706316e-02</_>
    <_>
      3.85178998e-02 2.13623904e-02 3.84220183e-02 2.46365294e-02
      2.98040900e-02 3.85913104e-02 3.96790802e-02 2.00602803e-02
      4.40280288e-02 4.17262614e-02 2.54531894e-02 4.50304113e-02
      4.28080596e-02 1.49214696e-02 4.30068001e-02 4.32190895e-02
      1.43622896e-02 4.31087501e-02 4.10730094e-02 1.23934299e-02
      3.93139794e-02 3.95866483e-02 1.01743601e-02 3.94534916e-02
      3.28175612e-02 1.50623098e-02 3.50023992e-02 3.34649682e-02
      2.29754299e-02 3.91756594e-02</_>
    <_>
      3.37119587e-02 5.48101813e-02 5.00556901e-02 1.22423703e-02
      4.37187105e-02 4.52035591e-02 9.27126035e-02 9.53288376e-02
      2.60827094e-02 7.39448667e-02 7.70066530e-02 2.62620505e-02
      5.03301993e-02 1.88361201e-02 4.89772782e-02 5.38776293e-02
      3.65046710e-02 4.14218195e-02 3.79913189e-02 9.18718521e-03
      3.73062789e-02 4.04547714e-02 1.39043704e-02 3.95489112e-02
      3.48357186e-02 2.17132699e-02 3.88383493e-02 3.38604115e-02
      2.32422296e-02 4.00190093e-02</_>
    <_>
      4.44286019e-02 2.80161705e-02 4.42636199e-02 2.73227897e-02
      3.07859406e-02 4.11237106e-02 4.63588014e-02 3.07297297e-02
      4.68379110e-02 5.18907793e-02 4.42339592e-02 4.26724106e-02
      4.94589396e-02 1.38151404e-02 4.98827584e-02 5.13581894e-02
      2.95986906e-02 4.40542288e-02 4.96072918e-02 1.10892998e-02
      4.89456616e-02 4.82107699e-02 2.88514197e-02 4.13812511e-02
      4.18557115e-02 2.33079903e-02 4.52638902e-02 3.98310795e-02
      3.57597508e-02 4.25699316e-02</_>
    <_>
      4.32972610e-02 4.23712581e-02 4.76080999e-02 2.34103892e-02
      3.65213901e-02 4.31933887e-02 9.12677571e-02 9.25943926e-02
      3.57364118e-02 7.26724118e-02 7.59648532e-02 3.01539209e-02
      4.51791994e-02 1.00330999e-02 4.62122783e-02 4.74182405e-02
      2.15296708e-02 4.45074700e-02 4.01678197e-02 8.06089770e-03
      3.98937203e-02 4.16649692e-02 1.56253204e-02 4.02360409e-02
      3.31391096e-02 1.91568900e-02 3.80198210e-02 3.49982008e-02
      2.66980194e-02 4.05370817e-02</_>
    <_>
      3.75450402e-02 2.50950493e-02 3.79027389e-02 2.22788695e-02
      3.24518792e-02 3.92531604e-02 3.93579789e-02 1.97617691e-02
      4.38248217e-02 4.27409410e-02 2.65009105e-02 4.56158817e-02
      4.14185412e-02 1.45262098e-02 4.16677482e-02 4.35290113e-02
      1.48849199e-02 4.32463996e-02 3.73910703e-02 1.41052501e-02
      3.48993205e-02 3.82629298e-02 9.23739560e-03 3.83634008e-02
      2.97002103e-02 1.69922393e-02 3.25083509e-02 3.25499289e-02
      2.30262801e-02 3.86426412e-02</_>
    <_>
      5.28973006e-02 3.50553691e-02 5.57692088e-02 3.46780904e-02
      3.06310002e-02 4.62688394e-02 7.87237063e-02 7.20226914e-02
      5.12707308e-02 6.71289936e-02 6.83271587e-02 3.75598297e-02
      8.04228112e-02 6.06330484e-02 5.50753698e-02 6.95209727e-02
      6.13790117e-02 3.45413014e-02 7.45834634e-02 5.50953411e-02
      5.29103205e-02 6.17316812e-02 5.53015694e-02 3.52419205e-02
      5.79691306e-02 5.01687489e-02 5.11091389e-02 4.68563288e-02
      5.21788001e-02 4.37205397e-02</_>
    <_>
      3.82029004e-02 2.21549496e-02 3.80688794e-02 2.37667393e-02
      3.07361297e-02 3.87677401e-02 3.98507901e-02 2.07492393e-02
      4.46363389e-02 4.27375883e-02 2.63254400e-02 4.57705706e-02
      4.16018590e-02 1.49750002e-02 4.17109616e-02 4.33689691e-02
      1.44763999e-02 4.32373993e-02 3.76311615e-02 1.45719899e-02
      3.49447913e-02 3.81908603e-02 8.83867871e-03 3.83482501e-02
      3.00938096e-02 1.73054598e-02 3.26517485e-02 3.24519388e-02
      2.25754995e-02 3.85115817e-02</_>
    <_>
      4.43588011e-02 1.52849602e-02 4.16422300e-02 3.01989503e-02
      1.62791908e-02 3.42320614e-02 4.25240584e-02 2.02488303e-02
      4.69528399e-02 4.51100692e-02 3.01166102e-02 4.62031402e-02
      4.54298891e-02 1.05034001e-02 4.65952307e-02 4.71197888e-02
      2.13397108e-02 4.42118496e-02 4.42094691e-02 4.41733794e-03
      4.43643704e-02 4.37373705e-02 1.93238296e-02 4.10578698e-02
      3.83086801e-02 1.79428700e-02 4.21944782e-02 3.71871404e-02
      2.93783303e-02 4.19291593e-02</_>
    <_>
      3.89148705e-02 2.57461499e-02 3.88902910e-02 2.31740400e-02
      3.20453010e-02 3.94216701e-02 3.97589691e-02 1.97303202e-02
      4.42669392e-02 4.31642309e-02 2.70259604e-02 4.58008200e-02
      4.16369401e-02 1.39574204e-02 4.20848317e-02 4.39404696e-02
      1.55295497e-02 4.34267484e-02 3.75770293e-02 1.30198700e-02
      3.55373397e-02 3.87327597e-02 1.01786898e-02 3.86657901e-02
      3.04119401e-02 1.75116193e-02 3.38463485e-02 3.31308991e-02
      2.40296200e-02 3.92520502e-02</_>
    <_>
      5.01342416e-02 2.34531704e-02 4.56027091e-02 3.24287601e-02
      1.73168201e-02 3.66518795e-02 4.58620600e-02 2.21715309e-02
      4.98985201e-02 4.76021804e-02 3.32929492e-02 4.68413383e-02
      4.36279401e-02 1.01576997e-02 4.47876193e-02 4.70590405e-02
      2.29860507e-02 4.32341211e-02 4.11253385e-02 6.52818615e-03
      4.12822105e-02 4.21621799e-02 1.76761709e-02 3.99940014e-02
      3.54987718e-02 1.83203891e-02 3.97592895e-02 3.52958404e-02
      2.62470096e-02 4.06108387e-02</_>
    <_>
      4.24182005e-02 6.61076009e-02 7.64431730e-02 2.99911108e-02
      5.43334410e-02 6.10939600e-02 8.88814628e-02 9.28137973e-02
      3.52601595e-02 7.16437027e-02 7.70533234e-02 3.01229991e-02
      9.86333117e-02 9.75706726e-02 1.48403700e-02 7.87546635e-02
      7.86143169e-02 5.35682822e-03 8.82875472e-02 9.09870490e-02
      3.06512807e-02 6.86623529e-02 7.28872567e-02 2.57041603e-02
      6.31777272e-02 8.19499195e-02 5.56429997e-02 4.76356000e-02
      6.85259625e-02 5.02349399e-02</_>
    <_>
      5.64411208e-02 5.22795096e-02 7.51607120e-02 4.06231992e-02
      4.46961112e-02 5.93166091e-02 7.77911320e-02 7.00924993e-02
      5.25709800e-02 6.64807186e-02 6.72780126e-02 3.84978801e-02
      8.34526569e-02 6.70938864e-02 5.28304204e-02 7.08623976e-02
      6.45552576e-02 3.22086215e-02 7.28879794e-02 5.21286316e-02
      5.24824299e-02 6.10383898e-02 5.37451804e-02 3.44396792e-02
      5.32776006e-02 3.89396586e-02 5.08128293e-02 4.47875299e-02
      4.59953099e-02 4.35045697e-02</_>
    <_>
      4.89483401e-02 2.46501397e-02 4.59214412e-02 3.11223306e-02
      2.40814202e-02 3.92775312e-02 8.18536803e-02 6.41666427e-02
      5.69621101e-02 6.66976273e-02 5.84671982e-02 4.21172008e-02
      4.70287018e-02 9.37485229e-03 4.79073301e-02 4.81450595e-02
      2.16499902e-02 4.53558713e-02 4.64362092e-02 4.77729319e-03
      4.66777310e-02 4.53142896e-02 2.07170304e-02 4.19489518e-02
      3.98165807e-02 2.02762503e-02 4.37034592e-02 3.91405411e-02
      3.34774815e-02 4.35054190e-02</_>
    <_>
      2.86412295e-02 5.88121004e-02 5.70792109e-02 1.07530402e-02
      5.12093604e-02 5.22571914e-02 7.29481727e-02 6.83466122e-02
      3.46795991e-02 6.72287866e-02 6.80313185e-02 2.22671293e-02
      4.21526283e-02 1.22020897e-02 4.31129299e-02 4.45817001e-02
      1.74592398e-02 4.32678089e-02 3.63943204e-02 7.71545805e-03
      3.61071490e-02 3.99679802e-02 1.49998805e-02 3.87788303e-02
      3.38231996e-02 2.01213509e-02 3.92294601e-02 3.48311588e-02
      2.69417893e-02 4.00736295e-02</_>
    <_>
      4.11503389e-02 3.79467197e-02 4.58595008e-02 2.26712301e-02
      3.82568315e-02 4.44156192e-02 4.37126309e-02 2.03513503e-02
      4.82079796e-02 4.49790508e-02 2.81635299e-02 4.70256284e-02
      4.74346913e-02 1.21047096e-02 4.84065898e-02 4.71697003e-02
      1.85673106e-02 4.56199683e-02 4.43704687e-02 8.87961593e-03
      4.36407588e-02 4.24873307e-02 1.35681499e-02 4.15739194e-02
      3.64963412e-02 1.67340692e-02 3.97126302e-02 3.56866308e-02
      2.52001099e-02 4.10683714e-02</_>
    <_>
      4.59002890e-02 1.40175698e-02 4.39063497e-02 3.20339017e-02
      1.98042300e-02 3.76527011e-02 6.87756166e-02 3.38996202e-02
      6.67193085e-02 5.76564409e-02 3.80086899e-02 5.26396297e-02
      4.80633304e-02 1.32921804e-02 4.90291789e-02 4.70535718e-02
      1.74922403e-02 4.59782295e-02 4.43888418e-02 1.15478896e-02
      4.29520309e-02 4.16132212e-02 1.09481802e-02 4.12680395e-02
      3.68805900e-02 1.91235300e-02 3.98071185e-02 3.46785784e-02
      2.30505299e-02 4.04015183e-02</_>
    <_>
      4.48371097e-02 2.20941994e-02 4.22055088e-02 2.88328100e-02
      2.45994404e-02 3.77683416e-02 3.90077308e-02 1.82029009e-02
      4.30230014e-02 4.26687710e-02 2.73307003e-02 4.50842418e-02
      4.07595895e-02 1.26395999e-02 4.15173918e-02 4.36329991e-02
      1.64730009e-02 4.26707007e-02 3.77155505e-02 1.10820904e-02
      3.63723412e-02 3.89206409e-02 1.15760602e-02 3.85745317e-02
      3.12664285e-02 1.75318699e-02 3.46027203e-02 3.29633206e-02
      2.37193909e-02 3.90425287e-02</_>
    <_>
      4.49027494e-02 2.12981794e-02 4.20636311e-02 2.85595506e-02
      2.46252902e-02 3.76124009e-02 4.17466201e-02 1.99530106e-02
      4.62697111e-02 4.45941016e-02 2.85643507e-02 4.64993194e-02
      4.58912104e-02 1.00508099e-02 4.66855988e-02 4.71424013e-02
      1.97162293e-02 4.50930297e-02 4.31360118e-02 6.56198990e-03
      4.30491008e-02 4.30839509e-02 1.69074200e-02 4.12164591e-02
      3.98179889e-02 3.38734984e-02 4.24113013e-02 4.11935784e-02
      4.65020500e-02 4.08080593e-02</_>
    <_>
      3.90706100e-02 2.09236201e-02 3.87442708e-02 2.51936801e-02
      2.92255394e-02 3.85079607e-02 3.91786508e-02 2.05266792e-02
      4.34492417e-02 4.09570187e-02 2.46868692e-02 4.46580090e-02
      4.29798588e-02 1.49664003e-02 4.31752503e-02 4.32637408e-02
      1.43488003e-02 4.31620590e-02 4.14016210e-02 1.20955100e-02
      3.97465304e-02 3.97980399e-02 1.04060201e-02 3.96158583e-02
      3.30497511e-02 1.49777904e-02 3.52470204e-02 3.35909501e-02
      2.30716504e-02 3.92825194e-02</_>
    <_>
      2.62269005e-02 4.36212607e-02 3.85827497e-02 1.25875100e-02
      4.19816300e-02 4.36952710e-02 8.87032673e-02 8.28202367e-02
      4.11596894e-02 7.08841234e-02 6.96013123e-02 3.10018994e-02
      4.98410799e-02 1.29427901e-02 4.98019382e-02 4.63541709e-02
      1.52176796e-02 4.59263287e-02 4.73094285e-02 1.50310798e-02
      4.52273004e-02 4.15413715e-02 9.00580268e-03 4.16797288e-02
      3.90880704e-02 2.03636698e-02 4.17823307e-02 3.48186195e-02
      2.24961098e-02 4.06436808e-02</_>
    <_>
      1.75755993e-02 8.07177499e-02 8.23266804e-02 1.80948898e-02
      6.39268607e-02 6.43045828e-02 8.34289491e-02 8.70654732e-02
      2.75408104e-02 6.88987374e-02 7.34870136e-02 2.56283302e-02
      9.06834677e-02 9.05970335e-02 1.24959303e-02 7.42980093e-02
      7.45738298e-02 7.00557185e-03 7.85529390e-02 7.87778571e-02
      3.64112295e-02 6.34760484e-02 6.78776205e-02 2.79722493e-02
      5.69582582e-02 6.47223368e-02 5.47255091e-02 4.43766192e-02
      6.10045008e-02 4.92191389e-02</_>
    <_>
      4.28320318e-02 1.70568302e-02 4.08302918e-02 2.87195593e-02
      2.39713192e-02 3.73285189e-02 4.74007018e-02 2.17159204e-02
      5.18629104e-02 4.74961400e-02 3.09226792e-02 4.78864983e-02
      4.99097109e-02 1.16995303e-02 5.12447990e-02 4.92754206e-02
      2.18213592e-02 4.63613607e-02 4.29849215e-02 7.48529797e-03
      4.25489917e-02 4.24864590e-02 1.51945604e-02 4.11713794e-02
      3.48533392e-02 1.70613397e-02 3.84385996e-02 3.53247188e-02
      2.57997103e-02 4.08716388e-02</_>
    <_>
      4.76624817e-02 3.63814496e-02 4.72651608e-02 2.81281397e-02
      3.02326791e-02 4.10430282e-02 9.23217237e-02 9.50555131e-02
      2.93196198e-02 7.34984204e-02 7.73797333e-02 2.65628397e-02
      4.25380990e-02 9.77184623e-03 4.34619188e-02 4.63879593e-02
      2.02324092e-02 4.39884290e-02 3.92348692e-02 9.35211778e-03
      3.87468003e-02 4.09833491e-02 1.43714799e-02 3.99349295e-02
      3.27483118e-02 2.00505704e-02 3.76952998e-02 3.43136005e-02
      2.54323203e-02 4.01100107e-02</_>
    <_>
      4.43689898e-02 1.53623298e-02 4.16655689e-02 3.02253291e-02
      1.50912702e-02 3.37041318e-02 4.21658717e-02 2.00685691e-02
      4.66073491e-02 4.48099002e-02 2.97132693e-02 4.61102501e-02
      4.49909009e-02 1.07391598e-02 4.61766310e-02 4.67757992e-02
      2.07719896e-02 4.41024788e-02 4.36428711e-02 4.71498910e-03
      4.37488295e-02 4.33381908e-02 1.86030492e-02 4.09260616e-02
      3.79380211e-02 1.76654607e-02 4.18011807e-02 3.69365215e-02
      2.88795903e-02 4.18057218e-02</_>
    <_>
      3.67079489e-02 5.06439991e-02 4.77547087e-02 1.56114995e-02
      4.11999114e-02 4.38212603e-02 9.22421068e-02 9.52704027e-02
      2.38310304e-02 7.39453509e-02 7.75287971e-02 2.41942406e-02
      4.43212502e-02 1.04013504e-02 4.54036705e-02 4.84378301e-02
      2.51407102e-02 4.35911082e-02 4.04651798e-02 9.98551212e-03
      3.94572616e-02 4.08434309e-02 1.28917703e-02 4.01508100e-02
      3.57052088e-02 2.13146303e-02 3.95317487e-02 3.41689996e-02
      2.32687201e-02 4.02069502e-02</_>
    <_>
      4.35071886e-02 1.42067596e-02 4.12079915e-02 2.99574304e-02
      1.84887294e-02 3.51490900e-02 4.06942703e-02 1.93340294e-02
      4.50208411e-02 4.31867391e-02 2.74060499e-02 4.55713905e-02
      4.31067795e-02 1.20586902e-02 4.41430509e-02 4.50622514e-02
      1.79807208e-02 4.35550101e-02 4.11329903e-02 7.30061298e-03
      4.08322513e-02 4.14812714e-02 1.54106598e-02 4.01131213e-02
      3.46084014e-02 1.74330194e-02 3.85816209e-02 3.51157300e-02
      2.64216606e-02 4.06478904e-02</_>
    <_>
      3.07522099e-02 4.45993207e-02 4.19656597e-02 1.04995398e-02
      4.29703183e-02 4.41994816e-02 4.33196500e-02 2.15926208e-02
      4.75415885e-02 4.66314293e-02 3.29265818e-02 4.62504998e-02
      4.93985303e-02 1.29015399e-02 5.02028093e-02 5.07759117e-02
      2.76767407e-02 4.45668586e-02 5.05900905e-02 1.74226407e-02
      4.84359190e-02 4.99375798e-02 3.45144682e-02 3.97558808e-02
      4.38070185e-02 2.65622698e-02 4.66170311e-02 4.10183109e-02
      3.90049405e-02 4.36327904e-02</_>
    <_>
      4.65217903e-02 2.53946409e-02 4.31175493e-02 2.91368105e-02
      2.40090992e-02 3.75487991e-02 4.02553305e-02 2.03631092e-02
      4.51119915e-02 4.34807800e-02 2.81583406e-02 4.55139801e-02
      4.13555913e-02 1.13386698e-02 4.24865410e-02 4.48642112e-02
      1.87693704e-02 4.29533683e-02 3.75405811e-02 9.38964356e-03
      3.67362686e-02 3.95018682e-02 1.32948998e-02 3.87600511e-02
      3.17958109e-02 1.85776092e-02 3.60447392e-02 3.35109904e-02
      2.49233898e-02 3.95428687e-02</_>
    <_>
      3.15392017e-02 5.48092909e-02 4.87761796e-02 8.83644074e-03
      4.45916615e-02 4.52983119e-02 9.15911272e-02 9.23637003e-02
      2.60264296e-02 7.33144879e-02 7.58198574e-02 2.27281600e-02
      6.10582717e-02 1.37386201e-02 6.19346499e-02 5.38196899e-02
      2.61148494e-02 4.95252199e-02 5.64764813e-02 4.79178084e-03
      5.63394800e-02 4.66871485e-02 1.43418899e-02 4.54277210e-02
      4.52754609e-02 1.49184503e-02 4.76091914e-02 3.80954184e-02
      2.43866909e-02 4.26302813e-02</_>
    <_>
      3.57110091e-02 3.81407887e-02 4.06881385e-02 1.68252606e-02
      3.92080396e-02 4.25514318e-02 4.38932106e-02 1.97761692e-02
      4.81263585e-02 4.49393801e-02 2.80021708e-02 4.70735691e-02
      4.84053791e-02 1.28714303e-02 4.94831018e-02 4.74034213e-02
      1.82631798e-02 4.60186712e-02 4.60840501e-02 7.82971270e-03
      4.55326997e-02 4.33615409e-02 1.41371703e-02 4.22811285e-02
      3.79515216e-02 1.61588192e-02 4.10330296e-02 3.64190005e-02
      2.56684795e-02 4.15840596e-02</_>
    <_>
      4.37055007e-02 1.35721099e-02 4.15485613e-02 3.04373894e-02
      1.69360694e-02 3.47610414e-02 4.73041311e-02 2.18046308e-02
      5.15321903e-02 4.79778498e-02 3.21627893e-02 4.78010103e-02
      4.92736697e-02 1.15071395e-02 5.05961403e-02 4.95250113e-02
      2.30017602e-02 4.60040383e-02 4.21973206e-02 7.31159886e-03
      4.18159999e-02 4.23122309e-02 1.55367898e-02 4.09117788e-02
      3.42370607e-02 1.75803807e-02 3.81442383e-02 3.51727195e-02
      2.60905307e-02 4.07644697e-02</_>
    <_>
      4.08139192e-02 6.86791912e-02 7.76391998e-02 2.86335796e-02
      5.58059216e-02 6.17880113e-02 9.05444995e-02 9.46519673e-02
      2.85370201e-02 7.35016689e-02 7.82312602e-02 2.70476099e-02
      9.97979119e-02 9.95518565e-02 7.41317589e-03 8.03349763e-02
      8.03197771e-02 2.60776700e-03 8.95403475e-02 9.40248668e-02
      2.98248902e-02 7.01761395e-02 7.52404928e-02 2.73808800e-02
      6.24170899e-02 8.46287608e-02 5.79978898e-02 4.73128110e-02
      7.10332319e-02 5.29890992e-02</_>
    <_>
      4.70358282e-02 3.42858694e-02 4.55629602e-02 2.79738102e-02
      2.81678401e-02 3.94346789e-02 9.12768170e-02 9.37839225e-02
      2.29515508e-02 7.27532208e-02 7.61183798e-02 2.26265509e-02
      4.21227515e-02 9.85450018e-03 4.32033502e-02 4.59463000e-02
      2.09804103e-02 4.30785082e-02 3.91453095e-02 8.06632545e-03
      3.91121395e-02 4.09035385e-02 1.60188507e-02 3.93325388e-02
      3.28987800e-02 2.03711893e-02 3.84512283e-02 3.42906788e-02
      2.66178101e-02 3.98144312e-02</_>
    <_>
      4.45114411e-02 1.47483498e-02 4.19974402e-02 3.04280408e-02
      1.69990994e-02 3.47873308e-02 4.03677709e-02 1.99590903e-02
      4.50204387e-02 4.39039990e-02 2.81345304e-02 4.60311696e-02
      4.25603092e-02 1.26134995e-02 4.34456319e-02 4.51632887e-02
      1.73962805e-02 4.39486913e-02 3.97611000e-02 1.00353099e-02
      3.87692414e-02 4.06219698e-02 1.29535198e-02 3.99287418e-02
      3.31205986e-02 1.79119501e-02 3.67664993e-02 3.42816189e-02
      2.46894006e-02 4.01170217e-02</_>
    <_>
      5.09598888e-02 1.48678003e-02 5.26562892e-02 3.95747907e-02
      8.32550600e-03 3.96887287e-02 4.16112691e-02 1.69436894e-02
      4.39503603e-02 4.21036482e-02 2.33173408e-02 4.55012508e-02
      4.60152291e-02 1.47459600e-02 4.50678803e-02 4.42801788e-02
      1.27832703e-02 4.44176011e-02 4.77309600e-02 4.39250004e-03
      4.76916991e-02 4.52802218e-02 1.73097495e-02 4.32940796e-02
      4.03315015e-02 1.55595699e-02 4.30106893e-02 3.69547494e-02
      2.49897093e-02 4.19083089e-02</_>
    <_>
      5.54894283e-02 1.36395404e-02 5.37904687e-02 3.98250595e-02
      1.33283101e-02 4.17631008e-02 7.78864622e-02 6.03086799e-02
      6.15843013e-02 6.39752075e-02 5.80041893e-02 4.55902517e-02
      8.80009234e-02 6.44448474e-02 6.12767190e-02 6.98456466e-02
      5.72767593e-02 4.10869382e-02 6.57749772e-02 2.39370596e-02
      6.17074594e-02 5.40504195e-02 3.37479413e-02 4.47090603e-02
      5.46557605e-02 2.95291096e-02 5.51208891e-02 4.28229906e-02
      3.68137695e-02 4.58910093e-02</_>
    <_>
      3.85265090e-02 2.20113397e-02 3.84930484e-02 2.44502593e-02
      3.01297102e-02 3.87189500e-02 3.98680009e-02 1.99892297e-02
      4.42611910e-02 4.19958308e-02 2.57440992e-02 4.51629609e-02
      4.30073999e-02 1.47710396e-02 4.32691611e-02 4.33654897e-02
      1.45561099e-02 4.31896299e-02 4.12111282e-02 1.22030303e-02
      3.95178311e-02 3.96962203e-02 1.03313504e-02 3.95317189e-02
      3.29544507e-02 1.50169600e-02 3.51298898e-02 3.35304886e-02
      2.29835808e-02 3.92237492e-02</_>
    <_>
      3.01577393e-02 5.16823418e-02 4.75781299e-02 9.06067342e-03
      4.55753990e-02 4.64459583e-02 4.20622788e-02 2.18132101e-02
      4.69402410e-02 4.56858315e-02 3.13492604e-02 4.57870401e-02
      4.60485518e-02 1.09900003e-02 4.73339297e-02 4.75865006e-02
      2.17487905e-02 4.44798619e-02 4.37669605e-02 4.64259088e-03
      4.38316800e-02 4.33154590e-02 1.82979107e-02 4.10299897e-02
      3.75030711e-02 1.83452293e-02 4.16790694e-02 3.68571095e-02
      2.92403102e-02 4.15627696e-02</_>
    <_>
      3.56967784e-02 3.40404212e-02 3.82191017e-02 1.76108405e-02
      3.63100395e-02 4.02274206e-02 4.23790105e-02 2.00754907e-02
      4.67598587e-02 4.50352617e-02 3.00189108e-02 4.62045595e-02
      4.71803285e-02 1.09779201e-02 4.84373607e-02 4.79723401e-02
      2.19276007e-02 4.48403284e-02 5.01289293e-02 1.17808701e-02
      4.93301488e-02 4.84418198e-02 2.94462591e-02 4.12841216e-02
      4.24040705e-02 2.28250809e-02 4.57191691e-02 3.98689583e-02
      3.54295708e-02 4.30351608e-02</_>
    <_>
      4.43845093e-02 4.66354117e-02 5.48822209e-02 2.56200302e-02
      4.12822515e-02 4.85795587e-02 4.25223894e-02 2.16825698e-02
      4.76419590e-02 4.56206501e-02 2.99532209e-02 4.65884283e-02
      4.42080684e-02 1.10075604e-02 4.53562699e-02 4.68842089e-02
      2.02220101e-02 4.45118994e-02 4.07627113e-02 8.56559630e-03
      4.07031588e-02 4.18701582e-02 1.60623696e-02 4.02512886e-02
      3.40611301e-02 2.09565703e-02 3.98695990e-02 3.52038406e-02
      2.72608809e-02 4.01834510e-02</_>
    <_>
      4.50197682e-02 1.60177704e-02 4.21547294e-02 3.02795898e-02
      1.83784496e-02 3.53433713e-02 4.03767712e-02 1.98624693e-02
      4.49859612e-02 4.39132713e-02 2.81224400e-02 4.60472591e-02
      4.31906208e-02 1.20774200e-02 4.40310314e-02 4.55235615e-02
      1.77488197e-02 4.41720113e-02 4.08314802e-02 9.51129477e-03
      4.02604491e-02 4.13420610e-02 1.41934399e-02 4.03248705e-02
      3.42063904e-02 1.86605994e-02 3.84967290e-02 3.49985585e-02
      2.57811695e-02 4.05670218e-02</_>
    <_>
      4.37601395e-02 1.37941102e-02 4.19194810e-02 3.05856001e-02
      1.33091696e-02 3.33201103e-02 4.11733687e-02 2.04281006e-02
      4.59155589e-02 4.43146788e-02 2.93081608e-02 4.57587801e-02
      4.33207788e-02 1.08928103e-02 4.43571508e-02 4.56017107e-02
      1.92576591e-02 4.35441583e-02 4.16973606e-02 6.14089798e-03
      4.15962115e-02 4.20571193e-02 1.67345405e-02 4.02887315e-02
      3.60145308e-02 1.72161199e-02 3.98867615e-02 3.58144902e-02
      2.73092501e-02 4.11286093e-02</_>
    <_>
      4.35891300e-02 1.37388604e-02 4.18409593e-02 3.05292793e-02
      1.34467399e-02 3.32996994e-02 4.28706482e-02 2.02869195e-02
      4.73810211e-02 4.54430804e-02 2.97294091e-02 4.67685014e-02
      4.45447303e-02 1.16017396e-02 4.56710905e-02 4.66235913e-02
      1.94186307e-02 4.46113795e-02 3.95985618e-02 9.75300185e-03
      3.86658013e-02 4.06376794e-02 1.32081602e-02 3.98842394e-02
      3.23386900e-02 1.74509604e-02 3.59108187e-02 3.41019295e-02
      2.47610603e-02 4.00019102e-02</_>
    <_>
      4.66462709e-02 2.53203306e-02 4.31304388e-02 2.92205904e-02
      2.37055998e-02 3.74201611e-02 4.03121710e-02 2.02822406e-02
      4.51269001e-02 4.35627289e-02 2.82989498e-02 4.55279984e-02
      4.14446406e-02 1.12999296e-02 4.25872393e-02 4.49398905e-02
      1.88784394e-02 4.29835916e-02 3.76173109e-02 9.29315854e-03
      3.68396901e-02 3.95648293e-02 1.33920098e-02 3.87973599e-02
      3.18904892e-02 1.85714494e-02 3.61481197e-02 3.35628614e-02
      2.49719806e-02 3.95781510e-02</_>
    <_>
      5.13496697e-02 3.30399089e-02 5.15408218e-02 3.24251316e-02
      2.92299595e-02 4.36179489e-02 9.24122632e-02 9.42187533e-02
      2.36970000e-02 7.37125725e-02 7.66877010e-02 2.23971196e-02
      4.32513095e-02 1.15608899e-02 4.40789685e-02 4.57579382e-02
      1.80554595e-02 4.42866795e-02 3.98857407e-02 1.09322201e-02
      3.86967883e-02 4.04793285e-02 1.21239200e-02 3.99822891e-02
      3.29753496e-02 1.88077502e-02 3.67640704e-02 3.40002514e-02
      2.42359396e-02 3.99214104e-02</_>
    <_>
      3.87201495e-02 3.31081599e-02 3.99022512e-02 2.05557402e-02
      3.51256393e-02 4.05201986e-02 4.15827297e-02 2.04231404e-02
      4.63155583e-02 4.48706187e-02 2.91169509e-02 4.64799590e-02
      4.54025716e-02 1.04759196e-02 4.63937595e-02 4.71796095e-02
      2.03139596e-02 4.48318906e-02 4.33245003e-02 4.93033417e-03
      4.34830897e-02 4.38789017e-02 1.94589905e-02 4.11532111e-02
      6.44175112e-02 7.43795782e-02 5.02296500e-02 4.98209894e-02
      6.55433014e-02 4.60741185e-02</_>
    <_>
      4.63146009e-02 3.90891396e-02 4.86649796e-02 2.68179998e-02
      3.39179896e-02 4.30877395e-02 9.10348073e-02 9.27135721e-02
      3.65854986e-02 7.26257414e-02 7.63291493e-02 3.06298994e-02
      1.01469800e-01 1.01854503e-01 9.39554628e-03 8.04078802e-02
      8.04414004e-02 8.56578443e-03 3.88553701e-02 7.76868314e-03
      3.87273394e-02 4.14227992e-02 1.62318591e-02 3.98195498e-02
      3.21705490e-02 1.97029691e-02 3.75641994e-02 3.49199884e-02
      2.72444598e-02 4.04501706e-02</_>
    <_>
      2.25035306e-02 7.67388418e-02 7.80352876e-02 1.61756407e-02
      6.09717295e-02 6.20183311e-02 8.30316022e-02 8.67907628e-02
      2.90386602e-02 7.06200674e-02 7.53845200e-02 2.67056506e-02
      9.14003626e-02 9.08297524e-02 1.10890297e-02 7.69250691e-02
      7.68923685e-02 5.32016577e-03 7.41657764e-02 6.83271065e-02
      3.76020782e-02 6.41169697e-02 6.57254383e-02 2.49986202e-02
      5.45241013e-02 4.86024395e-02 5.19816503e-02 4.55344617e-02
      5.36169894e-02 4.63298187e-02</_>
    <_>
      3.18133086e-02 3.45434099e-02 3.71405706e-02 1.43708801e-02
      3.93266194e-02 4.17952612e-02 4.78539690e-02 2.15847194e-02
      5.24964295e-02 4.64585200e-02 2.83696000e-02 4.82545085e-02
      5.38470000e-02 1.24588497e-02 5.51864095e-02 4.99681905e-02
      2.04253793e-02 4.78444211e-02 5.00510111e-02 4.62679379e-03
      4.99330088e-02 4.54006903e-02 1.65070891e-02 4.36438285e-02
      4.06730287e-02 1.57511793e-02 4.35918793e-02 3.75593901e-02
      2.63863094e-02 4.23459187e-02</_>
    <_>
      4.40413989e-02 1.17971301e-02 4.25327793e-02 3.14654112e-02
      1.55717004e-02 3.51034403e-02 4.00001518e-02 1.93111300e-02
      4.43934016e-02 4.30364795e-02 2.75015607e-02 4.53904606e-02
      4.20323499e-02 1.13637596e-02 4.29049805e-02 4.46536206e-02
      1.79467294e-02 4.31061983e-02 4.03124616e-02 7.91335292e-03
      3.99345793e-02 4.10085097e-02 1.49895996e-02 3.97718102e-02
      3.39421183e-02 1.71124991e-02 3.77542190e-02 3.47662196e-02
      2.60359999e-02 4.04474996e-02</_>
    <_>
      4.29932699e-02 4.57896590e-02 5.20338789e-02 2.37657409e-02
      4.04262096e-02 4.68542986e-02 9.20021534e-02 9.49760228e-02
      3.15781906e-02 7.33363703e-02 7.75628164e-02 2.79777907e-02
      4.33374085e-02 1.16041396e-02 4.41400707e-02 4.57445011e-02
      1.79443099e-02 4.43205088e-02 4.00520116e-02 1.05240503e-02
      3.89852896e-02 4.06610295e-02 1.25370296e-02 4.00664099e-02
      3.31921391e-02 1.91307496e-02 3.72399911e-02 3.41691412e-02
      2.44975202e-02 4.00473103e-02</_>
    <_>
      4.49507497e-02 1.44888600e-02 4.27006893e-02 3.12203094e-02
      1.41213499e-02 3.42273712e-02 4.01125103e-02 1.92362797e-02
      4.44687083e-02 4.31176685e-02 2.76020803e-02 4.54261713e-02
      4.28351797e-02 1.17225600e-02 4.39173914e-02 4.51757200e-02
      1.84182003e-02 4.34718393e-02 4.08137813e-02 6.96482416e-03
      4.06325907e-02 4.15615588e-02 1.60168204e-02 4.00118083e-02
      3.47215012e-02 1.77387502e-02 3.88679989e-02 3.52394991e-02
      2.67336592e-02 4.06982712e-02</_>
    <_>
      5.60381003e-02 1.41938496e-02 5.42239510e-02 4.00455706e-02
      1.38186105e-02 4.21393402e-02 7.80932903e-02 6.03202805e-02
      6.21501803e-02 6.38402626e-02 5.76801300e-02 4.61287983e-02
      8.77119228e-02 6.37123063e-02 6.16779216e-02 6.97565526e-02
      5.69711290e-02 4.13979106e-02 6.56490326e-02 2.38457005e-02
      6.16081282e-02 5.40821813e-02 3.37700993e-02 4.47266400e-02
      5.49819395e-02 2.97799800e-02 5.53861111e-02 4.29307111e-02
      3.67989093e-02 4.60083708e-02</_>
    <_>
      2.25315802e-02 7.68026710e-02 7.81328604e-02 1.62563808e-02
      6.10447004e-02 6.20944202e-02 8.34468007e-02 8.74610096e-02
      2.88984608e-02 7.07142875e-02 7.55121931e-02 2.70825308e-02
      9.23117474e-02 9.19679999e-02 8.71648360e-03 7.72484690e-02
      7.71001801e-02 6.27619214e-03 7.25990534e-02 6.50172979e-02
      3.95000093e-02 6.33446202e-02 6.41908497e-02 2.59168502e-02
      5.38253188e-02 4.71702814e-02 5.16994782e-02 4.52806912e-02
      5.28894700e-02 4.61745299e-02</_>
    <_>
      4.65437807e-02 3.94987315e-02 4.73930091e-02 2.66985297e-02
      3.17477211e-02 4.11784388e-02 9.24334228e-02 9.44331810e-02
      2.55233496e-02 7.36465827e-02 7.68357515e-02 2.37127598e-02
      4.36676703e-02 9.71161760e-03 4.45313007e-02 4.66726385e-02
      2.01950092e-02 4.43390794e-02 4.03302610e-02 9.87768918e-03
      3.99358906e-02 4.12570089e-02 1.44202001e-02 4.01782990e-02
      3.36461216e-02 2.05083508e-02 3.87291200e-02 3.45197506e-02
      2.54679397e-02 4.01931591e-02</_>
    <_>
      2.59335004e-02 5.40304407e-02 4.80219685e-02 1.48283900e-03
      4.71640304e-02 4.71872389e-02 7.78882131e-02 7.64825791e-02
      2.61318702e-02 6.66525364e-02 6.86549768e-02 1.77171491e-02
      4.33915108e-02 1.09021999e-02 4.46695387e-02 4.63439412e-02
      2.07846295e-02 4.35782112e-02 3.68202217e-02 6.93662278e-03
      3.67621407e-02 4.05724198e-02 1.60008091e-02 3.90757099e-02
      3.17214690e-02 2.17145309e-02 3.81742418e-02 3.36455107e-02
      2.68378407e-02 3.92600000e-02</_>
    <_>
      4.26159501e-02 4.49025705e-02 4.93018217e-02 2.28336807e-02
      3.83835100e-02 4.45090085e-02 9.18704197e-02 9.39012766e-02
      3.12765315e-02 7.32291192e-02 7.67946988e-02 2.73275804e-02
      4.32298109e-02 1.12353703e-02 4.39945683e-02 4.57699113e-02
      1.81078203e-02 4.42713387e-02 4.02249992e-02 1.06662000e-02
      3.92293409e-02 4.07350101e-02 1.26788197e-02 4.01188694e-02
      3.35099399e-02 1.94524806e-02 3.77302803e-02 3.42863798e-02
      2.46295705e-02 4.01268601e-02</_>
    <_>
      5.96005917e-02 4.12289985e-02 6.94977269e-02 4.22694199e-02
      3.55538689e-02 5.46445884e-02 7.86770880e-02 7.04403967e-02
      5.75732999e-02 6.57282472e-02 6.64230511e-02 4.31637503e-02
      8.72514993e-02 7.14245737e-02 5.37588783e-02 7.18364269e-02
      6.51173666e-02 3.36934105e-02 7.97066465e-02 6.33030906e-02
      5.09792306e-02 6.36299774e-02 5.78117482e-02 3.36501896e-02
      5.96201606e-02 5.02137393e-02 5.38052991e-02 4.69672009e-02
      5.10612689e-02 4.55069207e-02</_>
    <_>
      6.21393602e-03 8.57592225e-02 8.59706029e-02 1.87025405e-02
      7.09018335e-02 6.86724633e-02 7.50866085e-02 7.77992830e-02
      2.89976392e-02 6.66610226e-02 7.11890683e-02 2.49847900e-02
      9.12243798e-02 9.18635204e-02 1.12314802e-02 7.42975697e-02
      7.40321875e-02 1.34122996e-02 7.69823864e-02 7.86449984e-02
      3.18072587e-02 6.35538101e-02 6.84660003e-02 2.61206795e-02
      5.48026599e-02 6.65336475e-02 4.83951494e-02 4.43943106e-02
      6.30185530e-02 4.62788902e-02</_>
    <_>
      5.83266206e-02 4.59852293e-02 7.17173070e-02 4.15655784e-02
      3.91661115e-02 5.63906804e-02 7.85207525e-02 7.02541396e-02
      5.45566306e-02 6.63007125e-02 6.67592064e-02 4.02546786e-02
      8.53518695e-02 6.96267411e-02 5.26490100e-02 7.15561807e-02
      6.53257519e-02 3.22429091e-02 7.73288012e-02 6.06607497e-02
      5.02900407e-02 6.30685464e-02 5.76770306e-02 3.27003710e-02
      5.70169613e-02 4.63840812e-02 5.20948507e-02 4.63060811e-02
      4.99208607e-02 4.43898104e-02</_>
    <_>
      4.65005599e-02 3.79419215e-02 4.68873605e-02 2.72750705e-02
      3.02214902e-02 4.04256098e-02 9.10524800e-02 9.34085175e-02
      2.33418997e-02 7.26493672e-02 7.59715512e-02 2.26330794e-02
      4.14216109e-02 9.20088682e-03 4.24113311e-02 4.58981395e-02
      2.15033498e-02 4.27853391e-02 3.79838608e-02 8.15516245e-03
      3.80162001e-02 4.05297093e-02 1.62051599e-02 3.89126912e-02
      3.15318406e-02 2.10079309e-02 3.76233906e-02 3.38002183e-02
      2.67653596e-02 3.94945107e-02</_>
    <_>
      4.73010205e-02 4.38436903e-02 5.63834198e-02 2.91665606e-02
      3.88800316e-02 4.86019813e-02 7.50950202e-02 6.51033968e-02
      5.19575700e-02 6.59592524e-02 6.51828274e-02 3.77359204e-02
      7.55278170e-02 6.31651282e-02 4.34925109e-02 7.00419620e-02
      6.63687214e-02 2.42252909e-02 6.68473691e-02 4.88401987e-02
      4.80665490e-02 5.98393083e-02 5.48475794e-02 3.21283601e-02
      5.10217883e-02 4.32782099e-02 4.71971706e-02 4.50091586e-02
      5.04957885e-02 4.17565294e-02</_>
    <_>
      4.29645702e-02 1.25964601e-02 4.10905294e-02 3.01521309e-02
      1.65957808e-02 3.43829915e-02 6.72142282e-02 3.11225802e-02
      6.77766874e-02 5.45075312e-02 3.53582017e-02 5.33818305e-02
      4.11493406e-02 1.23332897e-02 4.20297012e-02 4.40127514e-02
      1.70580000e-02 4.28257883e-02 3.89627814e-02 8.26098397e-03
      3.85470390e-02 4.04106304e-02 1.48691898e-02 3.92322205e-02
      3.27618010e-02 1.84068605e-02 3.72632518e-02 3.42282206e-02
      2.62960903e-02 4.00369503e-02</_>
    <_>
      3.38962786e-02 3.54360193e-02 3.72593589e-02 1.52785797e-02
      3.78822610e-02 4.06836309e-02 4.22886908e-02 1.92852896e-02
      4.64230292e-02 4.52902392e-02 2.97576394e-02 4.67563719e-02
      4.55981791e-02 1.00786900e-02 4.64322083e-02 4.70673516e-02
      1.99238993e-02 4.49111611e-02 4.22056615e-02 6.36477489e-03
      4.21721488e-02 4.28654589e-02 1.73601303e-02 4.08676602e-02
      3.40770483e-02 1.89705696e-02 3.89578715e-02 3.56304906e-02
      2.80721597e-02 4.08935994e-02</_>
    <_>
      4.94024605e-02 1.68860108e-02 5.10105789e-02 3.69607918e-02
      5.94676798e-03 3.70619893e-02 4.04232703e-02 2.37017199e-02
      4.57141101e-02 4.16477993e-02 2.48127002e-02 4.58973087e-02
      4.41253483e-02 1.67904105e-02 4.37718593e-02 4.36400808e-02
      1.32092098e-02 4.40083295e-02 4.54093814e-02 8.55206419e-03
      4.47173603e-02 4.32781503e-02 1.31335203e-02 4.24306504e-02
      3.88800800e-02 1.60334501e-02 4.17598411e-02 3.65420207e-02
      2.50464305e-02 4.16307412e-02</_>
    <_>
      6.06737696e-02 2.39503104e-02 6.28829896e-02 4.37250100e-02
      2.87146606e-02 5.16547188e-02 7.59066492e-02 6.32159710e-02
      5.69093116e-02 6.49569631e-02 6.27724528e-02 4.19157892e-02
      8.01123306e-02 5.73434085e-02 5.84223196e-02 6.85049668e-02
      5.85055016e-02 3.77723612e-02 6.68024793e-02 3.51770297e-02
      5.77257387e-02 5.70085198e-02 4.33246493e-02 4.08371389e-02
      5.10285087e-02 3.24100181e-02 5.12788706e-02 4.35295403e-02
      4.18626405e-02 4.47272398e-02</_>
    <_>
      6.00667410e-02 2.77130008e-02 6.27238825e-02 4.23946306e-02
      2.86068097e-02 5.07326387e-02 7.86908194e-02 7.28425235e-02
      4.51259613e-02 6.78930730e-02 6.90212473e-02 3.18412818e-02
      8.43206495e-02 7.04718977e-02 4.78134193e-02 7.21694902e-02
      6.72530532e-02 2.73658093e-02 6.85673133e-02 4.40326594e-02
      5.43670990e-02 5.89485504e-02 5.00039496e-02 3.73592004e-02
      5.21419086e-02 3.76645513e-02 5.10295108e-02 4.43453789e-02
      4.57923003e-02 4.44754399e-02</_>
    <_>
      4.00121398e-02 2.82292608e-02 3.97309698e-02 2.30058208e-02
      3.24261710e-02 3.96213382e-02 4.03977409e-02 1.91458892e-02
      4.46804911e-02 4.38209809e-02 2.77767293e-02 4.61075306e-02
      4.31371294e-02 1.17831500e-02 4.38599288e-02 4.54284996e-02
      1.76412202e-02 4.41038497e-02 4.02104482e-02 8.93579144e-03
      3.96453813e-02 4.12225313e-02 1.44934496e-02 4.01325598e-02
      3.49688791e-02 1.89827904e-02 3.97446901e-02 3.59490700e-02
      2.77685206e-02 4.10147496e-02</_>
    <_>
      4.48273309e-02 1.60115995e-02 4.43262793e-02 3.15686502e-02
      8.28255620e-03 3.26355696e-02 3.80413383e-02 2.33947709e-02
      4.40354794e-02 4.14251797e-02 2.57885791e-02 4.51782905e-02
      4.18831594e-02 1.51513703e-02 4.19510081e-02 4.34726216e-02
      1.42906904e-02 4.34217900e-02 4.05637808e-02 1.42256701e-02
      3.81340608e-02 3.96486484e-02 8.72146618e-03 3.97397093e-02
      3.51811796e-02 1.63243003e-02 3.77530493e-02 3.49846296e-02
      2.34003197e-02 4.04612310e-02</_>
    <_>
      2.02770401e-02 7.49362037e-02 7.52988309e-02 1.34057896e-02
      6.33552074e-02 6.33326471e-02 8.82405490e-02 9.25168023e-02
      3.51489484e-02 7.26677328e-02 7.84545392e-02 3.00540291e-02
      9.83214974e-02 9.72345993e-02 1.46378204e-02 7.98190385e-02
      7.97829404e-02 2.43152608e-03 8.73555467e-02 8.96095484e-02
      3.24891098e-02 6.92815334e-02 7.38957673e-02 2.67054308e-02
      6.20786212e-02 8.10615718e-02 5.64542413e-02 4.74473312e-02
      6.99382722e-02 5.19449785e-02</_>
    <_>
      5.60461618e-02 1.35446601e-02 5.47414906e-02 4.04675193e-02
      1.89306103e-02 4.44289185e-02 9.17269737e-02 9.29295123e-02
      2.06735991e-02 7.35373572e-02 7.60038570e-02 1.97759494e-02
      4.94514108e-02 1.15302699e-02 5.07691801e-02 4.97039296e-02
      2.31575500e-02 4.61222008e-02 4.62669283e-02 4.36467817e-03
      4.62760590e-02 4.46778797e-02 1.82232391e-02 4.24223505e-02
      3.87934782e-02 1.72792692e-02 4.24589813e-02 3.75565700e-02
      2.83027794e-02 4.22656015e-02</_>
    <_>
      5.39511703e-02 2.06463393e-02 5.18678986e-02 3.66466418e-02
      2.15804596e-02 4.25145514e-02 8.45336169e-02 6.77013993e-02
      5.71697205e-02 6.61479011e-02 5.72261289e-02 4.35834303e-02
      4.57424894e-02 1.20940302e-02 4.67820205e-02 4.68189903e-02
      1.85639597e-02 4.52347994e-02 4.28164005e-02 9.12979897e-03
      4.20811884e-02 4.20892015e-02 1.35190301e-02 4.12050597e-02
      3.58589888e-02 1.83176491e-02 3.93397287e-02 3.50943096e-02
      2.42534894e-02 4.06426191e-02</_>
    <_>
      3.56398001e-02 6.94835931e-02 7.48904198e-02 2.35311203e-02
      5.64373806e-02 6.04990199e-02 9.04858634e-02 9.64228883e-02
      3.69936414e-02 7.28095323e-02 7.94926435e-02 3.23310383e-02
      1.00385003e-01 9.99385789e-02 1.38871800e-02 8.03040788e-02
      8.04339498e-02 5.89712989e-03 9.04685333e-02 9.27368179e-02
      2.53554508e-02 7.06004500e-02 7.40984529e-02 2.26412192e-02
      6.45675883e-02 8.21839422e-02 5.39639518e-02 4.88489382e-02
      6.91154674e-02 4.94793802e-02</_>
    <_>
      3.79458293e-02 6.64469972e-02 7.20268264e-02 2.46382505e-02
      5.20680808e-02 5.73575683e-02 9.16903466e-02 9.49786529e-02
      2.99928393e-02 7.34878033e-02 7.79549927e-02 2.68643294e-02
      1.01159900e-01 1.00403398e-01 1.27109000e-02 8.03022012e-02
      8.02014917e-02 4.72714705e-03 9.03783664e-02 9.31641906e-02
      3.03830206e-02 7.00580105e-02 7.41907731e-02 2.56494805e-02
      6.50492683e-02 8.27877522e-02 5.55677004e-02 4.89371903e-02
      6.87483326e-02 4.98919897e-02</_>
    <_>
      4.42076810e-02 1.38535304e-02 4.19822894e-02 3.06750908e-02
      1.69882104e-02 3.50282900e-02 6.92621171e-02 3.35125886e-02
      6.80217370e-02 5.56905791e-02 3.65758799e-02 5.25109209e-02
      4.27433513e-02 1.09265102e-02 4.37995717e-02 4.54474799e-02
      1.91705897e-02 4.34120893e-02 4.01999801e-02 6.63483702e-03
      4.01193202e-02 4.14582007e-02 1.67215299e-02 3.96987088e-02
      3.36837098e-02 1.85187999e-02 3.83042283e-02 3.47939283e-02
      2.70453691e-02 4.03539799e-02</_>
    <_>
      3.93176191e-02 7.15619326e-02 8.13634172e-02 3.00791692e-02
      6.38674796e-02 6.75896034e-02 8.57195705e-02 8.89938921e-02
      3.23030390e-02 7.12958425e-02 7.63116032e-02 2.75421906e-02
      9.46026817e-02 9.34069529e-02 1.51042296e-02 7.79036209e-02
      7.79077634e-02 2.20292108e-03 8.37207437e-02 8.75891894e-02
      3.48952301e-02 6.71520308e-02 7.31985122e-02 2.94431392e-02
      5.83729818e-02 7.19244108e-02 5.64845093e-02 4.57426906e-02
      6.66811615e-02 5.18636703e-02</_>
    <_>
      3.38962786e-02 3.54360193e-02 3.72593589e-02 1.52785797e-02
      3.78822610e-02 4.06836309e-02 4.22886908e-02 1.92852896e-02
      4.64230292e-02 4.52902392e-02 2.97576394e-02 4.67563719e-02
      4.55981791e-02 1.00786900e-02 4.64322083e-02 4.70673516e-02
      1.99238993e-02 4.49111611e-02 4.22056615e-02 6.36477489e-03
      4.21721488e-02 4.28654589e-02 1.73601303e-02 4.08676602e-02
      3.40770483e-02 1.89705696e-02 3.89578715e-02 3.56304906e-02
      2.80721597e-02 4.08935994e-02</_>
    <_>
      3.61269601e-02 4.39149402e-02 4.39012684e-02 1.62848197e-02
      4.01992314e-02 4.32370305e-02 9.12131593e-02 9.53036174e-02
      2.85837296e-02 7.27774799e-02 7.72680715e-02 2.75369007e-02
      4.33889888e-02 1.24014001e-02 4.43545692e-02 4.50340994e-02
      1.73900500e-02 4.37976308e-02 4.00114805e-02 1.09770298e-02
      3.86998802e-02 3.98216695e-02 1.14166904e-02 3.94585617e-02
      3.33220512e-02 1.78296603e-02 3.68262492e-02 3.38536985e-02
      2.41297800e-02 3.97146307e-02</_>
    <_>
      3.88570204e-02 3.42736989e-02 4.07689996e-02 2.06736606e-02
      3.52664813e-02 4.07408290e-02 4.21965495e-02 2.13790108e-02
      4.67807017e-02 4.58197109e-02 3.17949690e-02 4.58931699e-02
      4.39386182e-02 1.15511697e-02 4.49415296e-02 4.55673710e-02
      1.83802899e-02 4.39219587e-02 4.13154811e-02 8.61384440e-03
      4.06555608e-02 4.10296991e-02 1.37140704e-02 4.01199386e-02
      3.49530913e-02 1.75952800e-02 3.88864689e-02 3.50399390e-02
      2.60390993e-02 4.05517817e-02</_>
    <_>
      2.31966600e-02 7.35166371e-02 7.44834319e-02 1.48021700e-02
      6.08694404e-02 6.16103597e-02 8.06039795e-02 7.82548487e-02
      3.64845395e-02 7.10873231e-02 7.26534128e-02 2.76748706e-02
      4.54631187e-02 1.09461797e-02 4.67589796e-02 4.79962192e-02
      2.21919194e-02 4.46927808e-02 3.96912694e-02 5.50269708e-03
      3.97755317e-02 4.18752395e-02 1.80368591e-02 3.97158712e-02
      3.37563306e-02 1.67427603e-02 3.76791209e-02 3.57002206e-02
      2.79510207e-02 4.14257012e-02</_>
    <_>
      4.94645014e-02 2.13502403e-02 4.68300208e-02 3.25163901e-02
      2.30471995e-02 3.98401208e-02 4.06176299e-02 2.02028193e-02
      4.51000892e-02 4.31239493e-02 2.62776092e-02 4.60980982e-02
      4.57726307e-02 1.05693899e-02 4.67223004e-02 4.72215004e-02
      1.99309792e-02 4.50636484e-02 4.46650609e-02 6.25695009e-03
      4.45659682e-02 4.36582901e-02 1.67900100e-02 4.18130904e-02
      3.84540707e-02 1.84988901e-02 4.24053110e-02 3.81270610e-02
      3.08568105e-02 4.27790284e-02</_>
    <_>
      3.30482014e-02 5.49781695e-02 4.98772487e-02 1.13099301e-02
      4.41195294e-02 4.53605615e-02 9.26269367e-02 9.50732082e-02
      2.65272893e-02 7.38814026e-02 7.67542422e-02 2.66983006e-02
      5.60323186e-02 2.96731591e-02 4.95693609e-02 5.83906211e-02
      4.60486002e-02 3.73766609e-02 3.79117802e-02 9.00512189e-03
      3.73127982e-02 4.06045616e-02 1.40291899e-02 3.96617390e-02
      3.47524695e-02 2.17246003e-02 3.87973785e-02 3.38574201e-02
      2.32666899e-02 4.00161594e-02</_>
    <_>
      5.59022501e-02 1.32680302e-02 5.46567291e-02 4.05909382e-02
      1.89847909e-02 4.45769392e-02 4.27417606e-02 1.62378103e-02
      4.52575311e-02 4.30843793e-02 2.46203206e-02 4.61096019e-02
      4.61105108e-02 1.39044998e-02 4.57771495e-02 4.49150093e-02
      1.42193297e-02 4.47496995e-02 4.88339700e-02 3.21471994e-03
      4.89345901e-02 4.64927889e-02 1.96483005e-02 4.37445715e-02
      4.76516597e-02 1.87284704e-02 4.99824509e-02 4.10106704e-02
      3.06558199e-02 4.43800800e-02</_>
    <_>
      4.41888198e-02 1.18231298e-02 4.26844992e-02 3.16089690e-02
      1.54615296e-02 3.51839997e-02 4.00453508e-02 1.91342495e-02
      4.43577506e-02 4.30455916e-02 2.74818297e-02 4.54044715e-02
      4.19972613e-02 1.14753302e-02 4.28642593e-02 4.45974395e-02
      1.78224202e-02 4.31020409e-02 4.02445793e-02 8.03674385e-03
      3.98324095e-02 4.09372784e-02 1.48309302e-02 3.97470891e-02
      3.38349007e-02 1.70765202e-02 3.76189910e-02 3.47036012e-02
      2.59343795e-02 4.04039584e-02</_>
    <_>
      4.47595604e-02 1.38393100e-02 4.40830588e-02 3.23802195e-02
      1.00639500e-02 3.39030102e-02 4.63975593e-02 2.18680501e-02
      5.04118390e-02 4.81478609e-02 3.34145501e-02 4.75473292e-02
      4.78234403e-02 1.09372297e-02 4.90373001e-02 4.92979996e-02
      2.36384496e-02 4.54479195e-02 4.08743396e-02 7.24100601e-03
      4.06371988e-02 4.20335010e-02 1.61890592e-02 4.04431485e-02
      3.33656408e-02 1.82969291e-02 3.77066284e-02 3.49096693e-02
      2.63029505e-02 4.05670106e-02</_>
    <_>
      2.65502408e-02 5.32694086e-02 4.75483499e-02 3.21251503e-03
      4.68113013e-02 4.69213091e-02 7.91578963e-02 7.73658529e-02
      2.72780303e-02 6.71909228e-02 6.90402985e-02 1.82219092e-02
      4.18472812e-02 1.13140503e-02 4.30016518e-02 4.50670011e-02
      1.90551393e-02 4.30373996e-02 3.61062810e-02 6.59052515e-03
      3.61422114e-02 4.03720811e-02 1.68624204e-02 3.86309996e-02
      3.25530805e-02 2.13998109e-02 3.86298709e-02 3.38197984e-02
      2.65154894e-02 3.94221805e-02</_>
    <_>
      5.92975095e-02 2.58084405e-02 5.99579886e-02 4.13242616e-02
      2.39226799e-02 4.75532003e-02 6.87372163e-02 3.76704298e-02
      6.70303106e-02 5.68084195e-02 4.30429094e-02 5.16789891e-02
      8.01488310e-02 4.44661304e-02 6.86243400e-02 6.46354929e-02
      4.54813987e-02 4.74488512e-02 7.59947821e-02 4.51134890e-02
      6.26415834e-02 5.93758598e-02 4.45424691e-02 4.35629413e-02
      5.94184883e-02 4.24215011e-02 5.79408891e-02 4.57575098e-02
      4.47844490e-02 4.82324511e-02</_>
    <_>
      3.41006704e-02 7.12374374e-02 7.85823464e-02 2.60286704e-02
      6.63113669e-02 6.80076629e-02 8.45765695e-02 9.13851410e-02
      3.56017612e-02 7.18604028e-02 7.86983073e-02 3.30919996e-02
      9.48431566e-02 9.47044566e-02 6.00867998e-03 7.96829984e-02
      7.93552771e-02 7.30217481e-03 8.48221928e-02 8.99098292e-02
      3.09361108e-02 6.90989867e-02 7.47815892e-02 2.99108103e-02
      5.78842312e-02 8.23041499e-02 5.92627488e-02 4.52969708e-02
      7.17254803e-02 5.57404310e-02</_>
    <_>
      4.27219607e-02 1.26505597e-02 4.17575687e-02 3.05338893e-02
      1.23589700e-02 3.29151489e-02 4.70972806e-02 2.13944502e-02
      5.14823683e-02 4.73427288e-02 3.08616292e-02 4.78663482e-02
      4.91549894e-02 1.16302604e-02 5.04829511e-02 4.89964001e-02
      2.16463003e-02 4.61377800e-02 4.28100005e-02 7.12685380e-03
      4.24515717e-02 4.25676517e-02 1.56246396e-02 4.11346182e-02
      3.44105884e-02 1.66591406e-02 3.78990583e-02 3.52822989e-02
      2.58687008e-02 4.08857390e-02</_>
    <_>
      3.97559516e-02 2.02362202e-02 3.90596502e-02 2.57621799e-02
      2.83897091e-02 3.82666290e-02 3.97041813e-02 1.88839994e-02
      4.37809192e-02 4.22430895e-02 2.62307394e-02 4.51054983e-02
      4.29112092e-02 1.36382803e-02 4.35183384e-02 4.39373888e-02
      1.57787893e-02 4.33065407e-02 4.13782597e-02 9.74093284e-03
      4.04199697e-02 4.05828692e-02 1.26171196e-02 3.99403200e-02
      3.38465683e-02 1.54954698e-02 3.67294811e-02 3.43914889e-02
      2.46717893e-02 4.01129983e-02</_>
    <_>
      5.52067198e-02 2.41956692e-02 5.32024615e-02 3.73033211e-02
      2.03951709e-02 4.25102711e-02 6.18631989e-02 3.70392315e-02
      5.99417090e-02 5.66294417e-02 4.68645096e-02 4.82208505e-02
      5.82756288e-02 1.73120908e-02 5.81242815e-02 5.45426793e-02
      3.13298404e-02 4.67659608e-02 5.50107397e-02 1.06372498e-02
      5.43127581e-02 4.93119992e-02 2.70436201e-02 4.33376506e-02
      4.41470593e-02 2.11475194e-02 4.70860004e-02 4.00368609e-02
      3.33940797e-02 4.33065891e-02</_>
    <_>
      4.38640118e-02 1.87922306e-02 4.13701497e-02 2.87946593e-02
      2.33281106e-02 3.69805917e-02 4.34142612e-02 2.00593695e-02
      4.75931093e-02 4.55492511e-02 3.06632500e-02 4.64655012e-02
      4.78727892e-02 1.11492900e-02 4.89963107e-02 4.91085015e-02
      2.46828105e-02 4.46108691e-02 4.76794690e-02 6.53234683e-03
      4.76733893e-02 4.63979915e-02 2.46407203e-02 4.16027494e-02
      4.05952595e-02 1.98072400e-02 4.43037897e-02 3.85647491e-02
      3.21412310e-02 4.25456017e-02</_>
    <_>
      4.48384508e-02 1.65135209e-02 4.16931398e-02 3.01838908e-02
      1.61564108e-02 3.41229402e-02 4.18334790e-02 1.96877997e-02
      4.61088493e-02 4.47966605e-02 2.99928095e-02 4.60513607e-02
      4.45592403e-02 1.09007005e-02 4.58207987e-02 4.67844792e-02
      2.10151393e-02 4.39636484e-02 4.26813811e-02 5.22739487e-03
      4.26727310e-02 4.27424386e-02 1.75205693e-02 4.07264382e-02
      3.70847918e-02 1.71798002e-02 4.08684686e-02 3.64901088e-02
      2.81589609e-02 4.16221805e-02</_>
    <_>
      5.70888408e-02 1.28463497e-02 5.62469400e-02 4.17167507e-02
      2.07013991e-02 4.61506806e-02 9.16079730e-02 9.32715237e-02
      2.12938096e-02 7.36123994e-02 7.64240026e-02 2.06532199e-02
      4.97159213e-02 1.12651903e-02 5.09757213e-02 4.95651998e-02
      2.24550106e-02 4.63954508e-02 4.63882796e-02 5.56158600e-03
      4.63327095e-02 4.43966091e-02 1.71007905e-02 4.24384288e-02
      3.88970189e-02 1.73195302e-02 4.25613001e-02 3.71934213e-02
      2.71290708e-02 4.19141501e-02</_>
    <_>
      4.62113209e-02 5.03239594e-02 6.30363077e-02 2.89757997e-02
      4.68668602e-02 5.48412986e-02 4.17777486e-02 2.05097906e-02
      4.62717488e-02 4.58845496e-02 3.11130807e-02 4.65956293e-02
      4.24789414e-02 8.90388619e-03 4.32099104e-02 4.62839305e-02
      2.01612506e-02 4.39400300e-02 3.90855484e-02 9.63721331e-03
      3.88643108e-02 4.10226509e-02 1.49323205e-02 3.98015715e-02
      3.26582491e-02 2.10347995e-02 3.82835306e-02 3.43514904e-02
      2.58233193e-02 4.00373004e-02</_>
    <_>
      4.70680110e-02 2.04458106e-02 4.26105484e-02 3.03976499e-02
      1.70424692e-02 3.46443504e-02 4.04940210e-02 2.29374692e-02
      4.65365499e-02 4.40564901e-02 2.84059793e-02 4.59155999e-02
      4.20800894e-02 1.20092900e-02 4.28320318e-02 4.49824482e-02
      1.74615104e-02 4.37007695e-02 4.48528714e-02 5.05635794e-03
      4.50257100e-02 4.44960408e-02 1.91512406e-02 4.18032184e-02
      4.39499803e-02 2.23565903e-02 4.69608791e-02 4.12168503e-02
      3.46764289e-02 4.37884405e-02</_>
    <_>
      4.45609614e-02 1.59420501e-02 4.16361913e-02 3.01994905e-02
      1.50460796e-02 3.36390808e-02 4.17969711e-02 1.98197793e-02
      4.61581610e-02 4.47109491e-02 2.97949202e-02 4.60212603e-02
      4.43242006e-02 1.10615799e-02 4.56011407e-02 4.65833284e-02
      2.06791498e-02 4.39061895e-02 4.25973497e-02 5.31967403e-03
      4.25753593e-02 4.26775105e-02 1.73975509e-02 4.07014303e-02
      3.71122211e-02 1.71907209e-02 4.08988595e-02 3.64873186e-02
      2.80908700e-02 4.16046716e-02</_>
    <_>
      4.68438193e-02 3.13294306e-02 4.72264998e-02 2.89446898e-02
      3.09699494e-02 4.23369892e-02 4.06385288e-02 1.99389793e-02
      4.51508909e-02 4.44234610e-02 2.98733599e-02 4.56935801e-02
      4.15907986e-02 1.02268904e-02 4.25963998e-02 4.52429615e-02
      1.95818506e-02 4.29879390e-02 3.73919085e-02 8.53795558e-03
      3.68371904e-02 3.97365205e-02 1.43384803e-02 3.87302898e-02
      3.18109095e-02 1.90516505e-02 3.69038694e-02 3.41915004e-02
      2.70989109e-02 4.00009304e-02</_>
    <_>
      4.53220196e-02 2.28961892e-02 4.35416102e-02 2.90990695e-02
      2.71625705e-02 3.97386216e-02 4.34647985e-02 1.93421096e-02
      4.74693887e-02 4.59022708e-02 3.01486794e-02 4.72134501e-02
      4.65162285e-02 9.71237198e-03 4.73700799e-02 4.76789884e-02
      2.05966793e-02 4.53040414e-02 4.43186797e-02 7.66161317e-03
      4.42180708e-02 4.32115495e-02 1.61259007e-02 4.15274389e-02
      4.32982408e-02 3.08054108e-02 4.58822213e-02 4.20886315e-02
      4.34280001e-02 4.36083786e-02</_>
    <_>
      4.87708487e-02 4.30663414e-02 5.59722409e-02 2.98894197e-02
      3.72700803e-02 4.77715507e-02 4.49098498e-02 2.01569796e-02
      4.92112786e-02 4.57874611e-02 2.92073395e-02 4.73436005e-02
      4.90619503e-02 1.16452696e-02 5.00457808e-02 4.79354411e-02
      1.91494301e-02 4.62091416e-02 4.65875790e-02 8.83865729e-03
      4.60052490e-02 4.32823710e-02 1.37477499e-02 4.22952697e-02
      3.80431898e-02 1.69046298e-02 4.11561318e-02 3.60565707e-02
      2.48061698e-02 4.12770510e-02</_>
    <_>
      5.96052408e-02 2.48994399e-02 6.05269186e-02 4.18830700e-02
      2.49334108e-02 4.84731309e-02 7.68124536e-02 6.93041235e-02
      4.99745607e-02 6.66589364e-02 6.74011707e-02 3.60719413e-02
      8.15239474e-02 6.30053505e-02 5.38300611e-02 7.00208172e-02
      6.26233295e-02 3.30694392e-02 6.94399402e-02 4.23895195e-02
      5.63544109e-02 5.86261414e-02 4.79155183e-02 3.86883393e-02
      5.22144102e-02 3.66039909e-02 5.10822497e-02 4.41086702e-02
      4.47481088e-02 4.41257991e-02</_>
    <_>
      3.65120098e-02 3.65295000e-02 3.99255194e-02 1.78657491e-02
      3.71322706e-02 4.10733111e-02 4.12930697e-02 2.08788197e-02
      4.62439507e-02 4.42676209e-02 2.90321205e-02 4.57936712e-02
      4.44076285e-02 1.14936102e-02 4.54904512e-02 4.58945483e-02
      1.88356396e-02 4.40708511e-02 4.21127789e-02 8.00738670e-03
      4.15706187e-02 4.14522998e-02 1.42317703e-02 4.03993800e-02
      3.57155018e-02 1.73553992e-02 3.95879410e-02 3.54644395e-02
      2.65603997e-02 4.08423506e-02</_>
    <_>
      3.14638987e-02 5.46997786e-02 5.27800098e-02 1.17645301e-02
      4.85556982e-02 4.99566309e-02 4.34316695e-02 2.01350600e-02
      4.78665605e-02 4.49359789e-02 2.82990597e-02 4.69317511e-02
      4.87629697e-02 1.16112297e-02 4.95670810e-02 4.75503989e-02
      1.84123907e-02 4.61039394e-02 4.81366888e-02 7.72024691e-03
      4.77380902e-02 4.40191701e-02 1.44994399e-02 4.28084098e-02
      3.93709615e-02 1.65454093e-02 4.25251909e-02 3.67641002e-02
      2.56390795e-02 4.17329818e-02</_>
    <_>
      5.59048690e-02 1.40776196e-02 5.41085713e-02 3.99801396e-02
      1.36782704e-02 4.20306884e-02 7.80626535e-02 6.03806116e-02
      6.19744509e-02 6.38937429e-02 5.78070693e-02 4.59647588e-02
      8.78255814e-02 6.39994219e-02 6.15274794e-02 6.98007271e-02
      5.71019389e-02 4.12812084e-02 6.54840693e-02 2.36415006e-02
      6.15084916e-02 5.40138297e-02 3.36958282e-02 4.46966812e-02
      5.48447296e-02 2.96485797e-02 5.52813299e-02 4.28820513e-02
      3.67847197e-02 4.59652394e-02</_>
    <_>
      4.50824387e-02 2.09398791e-02 4.21673208e-02 2.89034508e-02
      2.40769703e-02 3.75051089e-02 4.00205292e-02 2.11435407e-02
      4.52443399e-02 4.37309593e-02 2.81003602e-02 4.58605811e-02
      4.27821614e-02 1.10150902e-02 4.32727598e-02 4.51693498e-02
      1.75265707e-02 4.38395105e-02 4.15740684e-02 8.74182768e-03
      4.13819402e-02 4.19860482e-02 1.55502902e-02 4.05325592e-02
      3.69236097e-02 1.90671794e-02 4.14860994e-02 3.72308083e-02
      2.96951309e-02 4.16812189e-02</_>
    <_>
      4.76163290e-02 4.86460701e-02 6.04998283e-02 2.94737201e-02
      4.19202484e-02 5.12256511e-02 4.65424098e-02 2.06433702e-02
      5.03876396e-02 4.77320217e-02 3.22841704e-02 4.80349511e-02
      4.45238017e-02 1.00369602e-02 4.50338013e-02 4.61526103e-02
      1.83487199e-02 4.45752814e-02 3.99749987e-02 1.26736797e-02
      3.87887508e-02 4.01058011e-02 1.17968395e-02 3.97858396e-02
      3.39861885e-02 2.15068106e-02 3.88221405e-02 3.39871310e-02
      2.43108496e-02 4.00083400e-02</_>
    <_>
      5.45450412e-02 2.37744991e-02 5.19575886e-02 3.66489105e-02
      1.92135703e-02 4.13799509e-02 6.39200136e-02 3.87124717e-02
      6.11125492e-02 5.73683083e-02 4.74864207e-02 4.82723787e-02
      6.25026077e-02 2.15797294e-02 6.11466393e-02 5.66948988e-02
      3.44793983e-02 4.71232384e-02 5.81162497e-02 1.39966300e-02
      5.67524396e-02 5.07021509e-02 2.89679598e-02 4.38222811e-02
      4.56032902e-02 2.14975402e-02 4.82160598e-02 4.03798893e-02
      3.36065292e-02 4.35942188e-02</_>
    <_>
