<?xml version="1.0"?>
<opencv_storage>
<opencv_ml_svm>
  <format>3</format>
  <svmType>C_SVC</svmType>
  <kernel>
    <type>INTER</type>
    <gamma>1.</gamma></kernel>
  <C>20.</C>
  <term_criteria><epsilon>1.1920928955078125e-07</epsilon>
    <iterations>1000</iterations></term_criteria>
  <var_count>15</var_count>
  <class_count>4</class_count>
  <class_labels type_id="opencv-matrix">
    <rows>4</rows>
    <cols>1</cols>
    <dt>i</dt>
    <data>
      0 1 2 3</data></class_labels>
  <sv_total>780</sv_total>
  <support_vectors>
    <_>
      5.48334494e-02 1.22839604e-02 5.45358397e-02 4.89183702e-02
      2.17241291e-02 5.16918413e-02 6.26430735e-02 2.87305601e-02
      5.77374101e-02 5.86019307e-02 2.63765305e-02 5.32236397e-02
      4.76643592e-02 3.18303518e-02 4.80825789e-02</_>
    <_>
      4.00332697e-02 3.93255502e-02 4.71636094e-02 3.82783711e-02
      2.06235908e-02 4.33343910e-02 3.95482592e-02 1.07717300e-02
      4.06498499e-02 3.56617309e-02 7.70811783e-03 3.50702181e-02
      2.98717506e-02 1.71016194e-02 3.39420512e-02</_>
    <_>
      5.47742695e-02 1.11196702e-02 5.41883409e-02 5.33430092e-02
      2.07514092e-02 5.69547005e-02 5.81576601e-02 1.27893900e-02
      5.93750589e-02 5.78653403e-02 7.65160890e-03 5.74736595e-02
      4.32189703e-02 1.77767798e-02 4.57829610e-02</_>
    <_>
      4.39422093e-02 2.74001695e-02 4.10904810e-02 4.08730991e-02
      2.14047991e-02 4.50654700e-02 4.06244695e-02 1.08912196e-02
      4.20290418e-02 3.69568989e-02 3.29472497e-03 3.69938314e-02
      3.17969099e-02 1.70297101e-02 3.60016488e-02</_>
    <_>
      4.91829589e-02 1.33274700e-02 4.79738787e-02 4.84722890e-02
      2.39454601e-02 5.00967987e-02 5.16608395e-02 1.48106003e-02
      5.12917601e-02 4.85756397e-02 1.15043297e-02 4.79528196e-02
      3.90023999e-02 2.24408004e-02 4.28249985e-02</_>
    <_>
      5.34364618e-02 2.26027109e-02 5.51660806e-02 4.65030894e-02
      2.01256797e-02 5.05715609e-02 5.12029007e-02 1.24571398e-02
      5.23815490e-02 4.89969701e-02 4.85606818e-03 4.88522798e-02
      4.25505899e-02 1.56875402e-02 4.50771116e-02</_>
    <_>
      4.26331013e-02 3.99788618e-02 5.25861010e-02 3.85815389e-02
      1.92950908e-02 4.31212112e-02 4.07185704e-02 1.08586997e-02
      4.13020812e-02 3.74022909e-02 1.00932503e-02 3.65477614e-02
      3.15796696e-02 1.95095707e-02 3.63240689e-02</_>
    <_>
      4.06683311e-02 2.64639091e-02 3.98792811e-02 3.60033214e-02
      2.05913298e-02 4.14743088e-02 3.72283608e-02 1.28691997e-02
      3.87089215e-02 3.45513783e-02 7.76048377e-03 3.37577611e-02
      2.95064896e-02 1.53840203e-02 3.29359807e-02</_>
    <_>
      5.31569496e-02 2.47707795e-02 5.46427704e-02 4.50266786e-02
      2.15801504e-02 4.98771109e-02 4.91832308e-02 1.25096003e-02
      5.02788909e-02 4.62580286e-02 7.86065217e-03 4.57823202e-02
      3.86314318e-02 1.63893793e-02 4.17877994e-02</_>
    <_>
      1.83263198e-02 8.25741515e-02 8.07769075e-02 1.00534603e-01
      1.03513397e-01 3.21825109e-02 1.11014299e-01 1.10595599e-01
      9.67331231e-03 8.21297169e-02 7.67883211e-02 3.33259217e-02
      7.42233172e-02 8.41932669e-02 4.16882783e-02</_>
    <_>
      4.19733003e-02 3.52258198e-02 4.27352600e-02 5.02967611e-02
      2.90164500e-02 5.08293808e-02 4.43949699e-02 1.36461603e-02
      4.44347598e-02 4.27391715e-02 5.22594620e-03 4.30324301e-02
      3.57329585e-02 1.86416991e-02 4.01406698e-02</_>
    <_>
      4.28973995e-02 3.39991413e-02 4.28314097e-02 4.16354090e-02
      2.17887200e-02 4.69587408e-02 4.36524600e-02 9.26464703e-03
      4.45282795e-02 4.06514890e-02 9.05695371e-03 4.02853005e-02
      3.35722603e-02 1.97358206e-02 3.82810794e-02</_>
    <_>
      5.18513098e-02 1.93104595e-02 5.19016609e-02 4.24322300e-02
      2.26255693e-02 4.68251593e-02 4.62610200e-02 1.53015703e-02
      4.64736000e-02 4.37872000e-02 1.16037000e-02 4.23563197e-02
      3.82202603e-02 1.55655099e-02 4.10736315e-02</_>
    <_>
      5.51086888e-02 1.90948397e-02 5.63429818e-02 4.83083688e-02
      1.95513908e-02 5.20181693e-02 5.21071702e-02 1.12180403e-02
      5.33007011e-02 5.11561818e-02 4.46627894e-03 5.11882305e-02
      4.50525805e-02 2.05881801e-02 4.73013297e-02</_>
    <_>
      5.09258695e-02 6.48891879e-03 5.11323400e-02 4.83034216e-02
      1.78206004e-02 5.14458418e-02 5.25494702e-02 1.08864103e-02
      5.32451794e-02 4.91068214e-02 8.18157662e-03 4.86441590e-02
      4.06534895e-02 1.56784002e-02 4.33248281e-02</_>
    <_>
      5.64238392e-02 1.48019297e-02 5.55304587e-02 5.35022207e-02
      1.96472704e-02 5.63484803e-02 5.81632890e-02 1.21563096e-02
      5.91202788e-02 5.57176694e-02 2.90843192e-03 5.57489507e-02
      4.44293506e-02 1.52702397e-02 4.69703116e-02</_>
    <_>
      4.10514884e-02 3.83183695e-02 4.98535484e-02 3.75244096e-02
      1.84639506e-02 4.17681709e-02 3.90341803e-02 1.08595202e-02
      3.92189994e-02 3.58299389e-02 1.14192599e-02 3.44566591e-02
      2.97343303e-02 1.88549291e-02 3.40547897e-02</_>
    <_>
      4.94020209e-02 5.69383688e-02 6.80776387e-02 9.79763418e-02
      9.79459137e-02 3.05835996e-02 1.08727597e-01 1.07967198e-01
      1.58819593e-02 9.88399535e-02 1.00719497e-01 2.68920604e-02
      7.37609193e-02 8.42437372e-02 4.36559208e-02</_>
    <_>
      5.18455207e-02 2.41069999e-02 5.21362983e-02 4.67569791e-02
      2.17970498e-02 5.02710305e-02 4.81844693e-02 1.08943097e-02
      4.92622703e-02 4.48619016e-02 4.18404303e-03 4.50235195e-02
      3.88171189e-02 1.73368193e-02 4.23450209e-02</_>
    <_>
      4.75358404e-02 2.81066503e-02 4.41662110e-02 4.26329002e-02
      2.17533503e-02 4.78505418e-02 4.53178883e-02 1.33661097e-02
      4.60403897e-02 3.62128913e-02 1.28540304e-02 3.41021307e-02
      3.06679197e-02 2.02481505e-02 3.49811688e-02</_>
    <_>
      5.34117483e-02 2.33104508e-02 5.76707199e-02 4.65438999e-02
      2.03070696e-02 5.05276099e-02 4.92921695e-02 1.09749800e-02
      5.04760817e-02 4.93341386e-02 6.55624177e-03 4.92260307e-02
      4.07156982e-02 1.94073208e-02 4.38817404e-02</_>
    <_>
      4.85787913e-02 3.20146792e-02 4.77534011e-02 4.78236601e-02
      2.62733009e-02 5.10672405e-02 4.83064801e-02 1.55157400e-02
      4.88604195e-02 4.62519787e-02 9.88088921e-03 4.53866385e-02
      3.99711691e-02 2.22043898e-02 4.17798795e-02</_>
    <_>
      4.33351882e-02 5.75871915e-02 6.17400296e-02 8.22096393e-02
      6.85980916e-02 5.73863685e-02 9.34797972e-02 7.84653872e-02
      5.28621487e-02 8.87147784e-02 7.79508725e-02 4.60316390e-02
      6.06785305e-02 5.26470691e-02 5.13635390e-02</_>
    <_>
      5.04816808e-02 2.69974601e-02 4.78863902e-02 6.05336092e-02
      4.62017395e-02 5.36665097e-02 9.07922536e-02 8.49778727e-02
      3.66661400e-02 8.43123272e-02 8.12082589e-02 3.12950611e-02
      6.13991395e-02 6.30688369e-02 4.77300398e-02</_>
    <_>
      5.32109700e-02 1.74234696e-02 5.31910099e-02 4.48034406e-02
      2.19634101e-02 4.92012613e-02 4.82818596e-02 1.42253498e-02
      4.89251688e-02 4.70808409e-02 8.07243586e-03 4.65221107e-02
      4.19470891e-02 1.51843401e-02 4.44818512e-02</_>
    <_>
      4.19199616e-02 1.67007707e-02 3.93479988e-02 4.00633290e-02
      1.84891392e-02 4.41090986e-02 4.25520912e-02 1.06869601e-02
      4.35752906e-02 3.79942507e-02 8.01304076e-03 3.74187008e-02
      3.17477994e-02 1.58063900e-02 3.51311788e-02</_>
    <_>
      5.52281402e-02 1.64583009e-02 5.27317785e-02 5.35210706e-02
      1.85458306e-02 5.64760081e-02 5.92398085e-02 1.20938402e-02
      6.02184311e-02 5.88789508e-02 4.37661214e-03 5.88452183e-02
      4.66170497e-02 1.54627198e-02 4.90582995e-02</_>
    <_>
      4.58622091e-02 1.66785009e-02 4.51563597e-02 3.72135602e-02
      2.22770106e-02 4.27801199e-02 4.08347286e-02 1.42061897e-02
      4.10453491e-02 3.68853509e-02 1.31685603e-02 3.46662812e-02
      3.07539999e-02 1.72117706e-02 3.36444788e-02</_>
    <_>
      4.07002494e-02 3.89729217e-02 4.79439609e-02 3.88309509e-02
      2.02362407e-02 4.37155105e-02 4.10709791e-02 1.09420000e-02
      4.22673412e-02 3.74009497e-02 6.93277782e-03 3.69769596e-02
      3.12753506e-02 1.64829604e-02 3.50223817e-02</_>
    <_>
      5.03592901e-02 1.09412698e-02 5.01733795e-02 7.03345016e-02
      4.94258218e-02 5.85875995e-02 4.51016389e-02 1.00380899e-02
      4.60388996e-02 4.14351411e-02 7.11164018e-03 4.12496589e-02
      3.49967517e-02 1.69954002e-02 3.87980007e-02</_>
    <_>
      2.28307005e-02 7.15774000e-02 6.85789585e-02 8.86306167e-02
      8.86376500e-02 3.27285193e-02 9.01053473e-02 8.17225873e-02
      3.81804295e-02 6.42263368e-02 4.21997607e-02 5.15897013e-02
      5.37817292e-02 5.16441017e-02 5.04442304e-02</_>
    <_>
      4.01515290e-02 3.35671790e-02 4.45772782e-02 4.65330295e-02
      2.07512304e-02 5.09500913e-02 5.06361201e-02 1.15219904e-02
      5.19288294e-02 4.55540195e-02 4.92922682e-03 4.56357002e-02
      4.39792089e-02 2.57160496e-02 4.56605703e-02</_>
    <_>
      2.67958809e-02 7.16665909e-02 6.81226477e-02 9.08429995e-02
      9.25502405e-02 3.52985598e-02 6.93707168e-02 4.14755493e-02
      5.84204085e-02 6.58514425e-02 4.39559110e-02 5.08504994e-02
      6.28896281e-02 6.34511411e-02 4.99286391e-02</_>
    <_>
      4.18087989e-02 2.20883694e-02 3.89472507e-02 3.74784395e-02
      1.97616201e-02 4.21674103e-02 3.83197516e-02 1.21972598e-02
      3.98516208e-02 3.37350108e-02 8.09175242e-03 3.28442790e-02
      2.75475308e-02 1.38528198e-02 3.05123404e-02</_>
    <_>
      4.94320095e-02 1.81334000e-02 4.70396914e-02 4.49913219e-02
      2.11473498e-02 4.92306910e-02 4.92888317e-02 1.14559196e-02
      5.03435098e-02 5.28536998e-02 1.19206104e-02 5.18717505e-02
      4.46982607e-02 2.41001006e-02 4.69098799e-02</_>
    <_>
      5.33395596e-02 1.87376998e-02 5.33628091e-02 5.26645407e-02
      2.13446599e-02 5.61595485e-02 5.94218113e-02 1.61114503e-02
      6.03079982e-02 5.63411415e-02 6.22792123e-03 5.60184196e-02
      4.31295708e-02 1.33471601e-02 4.50643115e-02</_>
    <_>
      5.45797683e-02 1.20425001e-02 5.35519011e-02 4.99435812e-02
      1.99651700e-02 5.25614917e-02 5.14786988e-02 1.04937004e-02
      5.24665415e-02 4.86936904e-02 3.63344606e-03 4.87927906e-02
      3.90953384e-02 1.56925004e-02 4.21271399e-02</_>
    <_>
      5.17797582e-02 1.41508002e-02 5.17249107e-02 4.79055196e-02
      2.09517106e-02 5.22866882e-02 5.29522598e-02 1.18695498e-02
      5.42610399e-02 5.48561290e-02 7.43422192e-03 5.45224994e-02
      4.66850288e-02 2.16304194e-02 4.86738086e-02</_>
    <_>
      4.29954007e-02 3.67660001e-02 4.83569205e-02 4.03854810e-02
      1.85296107e-02 4.42495309e-02 4.35648896e-02 9.19868611e-03
      4.45254408e-02 4.01799083e-02 5.34688402e-03 4.03961390e-02
      3.36313583e-02 1.78864300e-02 3.80916595e-02</_>
    <_>
      4.30232100e-02 3.62031497e-02 4.41522785e-02 6.14523403e-02
      4.40512598e-02 5.48489392e-02 4.73205708e-02 2.03790106e-02
      4.48087603e-02 4.25680801e-02 7.94894155e-03 4.26254012e-02
      3.63863595e-02 2.00322494e-02 4.07395810e-02</_>
    <_>
      4.96920086e-02 2.22727302e-02 5.27353399e-02 4.83102687e-02
      2.08152104e-02 5.25320508e-02 5.71043007e-02 1.38224997e-02
      5.79449199e-02 5.94939217e-02 1.74762197e-02 5.72195314e-02
      4.91295792e-02 2.72423998e-02 5.05217686e-02</_>
    <_>
      4.56872210e-02 3.45507897e-02 5.02674207e-02 4.58415411e-02
      2.31677108e-02 4.88096401e-02 4.98762988e-02 1.36599699e-02
      5.01752608e-02 4.80104685e-02 1.14329802e-02 4.71884795e-02
      3.82395498e-02 2.17281803e-02 4.18498889e-02</_>
    <_>
      4.88607697e-02 4.47996706e-02 6.15019202e-02 5.08489087e-02
      2.43902300e-02 5.33175990e-02 6.19766600e-02 2.77850404e-02
      5.76964915e-02 6.24304302e-02 2.82688700e-02 5.65996803e-02
      4.77040298e-02 2.97818501e-02 4.90592793e-02</_>
    <_>
      5.57703190e-02 1.64633598e-02 5.55552691e-02 5.55694290e-02
      2.16492005e-02 5.85363507e-02 6.06001802e-02 1.47597399e-02
      6.13112412e-02 5.55878989e-02 3.09072691e-03 5.55828400e-02
      4.33262289e-02 1.40576297e-02 4.55192402e-02</_>
    <_>
      5.18256798e-02 2.36486699e-02 5.40141016e-02 4.92469706e-02
      2.26990208e-02 5.22804298e-02 4.84275706e-02 1.18675800e-02
      4.98529710e-02 4.48900610e-02 3.19296797e-03 4.48501296e-02
      3.54026705e-02 1.42529504e-02 3.81635614e-02</_>
    <_>
      4.02630903e-02 3.94983999e-02 4.66104895e-02 3.83864902e-02
      2.07851194e-02 4.34140489e-02 3.95883992e-02 1.09817497e-02
      4.07008603e-02 3.63556407e-02 7.84530770e-03 3.57450396e-02
      3.04558408e-02 1.67140309e-02 3.41550894e-02</_>
    <_>
      4.10655588e-02 3.15568112e-02 3.98278385e-02 3.72301005e-02
      1.87728293e-02 4.15480509e-02 3.83074693e-02 9.93380789e-03
      3.94883193e-02 3.41045894e-02 7.87090790e-03 3.36186588e-02
      2.97059398e-02 1.76367592e-02 3.43115814e-02</_>
    <_>
      4.16262895e-02 4.38116714e-02 4.76644784e-02 7.19556436e-02
      6.56690076e-02 4.99355383e-02 6.05178811e-02 3.34802903e-02
      5.21636307e-02 6.92057833e-02 4.77168709e-02 5.02578318e-02
      4.10013683e-02 2.65902299e-02 4.28737812e-02</_>
    <_>
      4.96656299e-02 5.63570596e-02 6.72895536e-02 9.85888615e-02
      9.94148627e-02 2.86612809e-02 1.09271601e-01 1.08983703e-01
      1.20394100e-02 9.94926170e-02 1.02007300e-01 2.49916706e-02
      7.40950629e-02 8.51988271e-02 4.30110618e-02</_>
    <_>
      4.32433896e-02 1.51184797e-02 4.35545109e-02 3.77019905e-02
      2.29638405e-02 4.25161608e-02 4.01088595e-02 1.67684704e-02
      3.92912999e-02 3.69623415e-02 1.61399692e-02 3.34078111e-02
      3.13670710e-02 1.73597503e-02 3.41902301e-02</_>
    <_>
      4.12306488e-02 4.17284891e-02 4.86133583e-02 4.26424108e-02
      2.27656402e-02 4.59432192e-02 4.18825112e-02 9.75837093e-03
      4.27916907e-02 3.73610891e-02 5.09601599e-03 3.77051085e-02
      3.15224789e-02 1.88744795e-02 3.65584493e-02</_>
    <_>
      4.62136306e-02 3.49538699e-02 5.29613905e-02 4.66712713e-02
      2.41624992e-02 5.05448096e-02 4.92944792e-02 1.38541702e-02
      5.02741411e-02 4.79202308e-02 1.07512996e-02 4.69739102e-02
      3.76183093e-02 1.93411205e-02 4.08742502e-02</_>
    <_>
      4.23506200e-02 2.94823702e-02 4.34817895e-02 4.37320210e-02
      2.71343105e-02 4.70410995e-02 4.61088791e-02 1.76507793e-02
      4.59506214e-02 4.74905893e-02 1.88020095e-02 4.39967513e-02
      3.86512317e-02 2.66261194e-02 3.95046212e-02</_>
    <_>
      4.80414815e-02 3.66590805e-02 5.09338304e-02 4.92988601e-02
      2.59281192e-02 5.12471311e-02 4.20855395e-02 1.15962401e-02
      4.31027189e-02 3.43628600e-02 9.42430831e-03 3.35008204e-02
      2.93499902e-02 1.90411508e-02 3.44672501e-02</_>
    <_>
      4.25223112e-02 1.68252997e-02 4.00972702e-02 3.97045091e-02
      1.96387302e-02 4.42884006e-02 4.21736613e-02 1.28033999e-02
      4.35441807e-02 3.71666998e-02 8.85747373e-03 3.61364596e-02
      3.05215996e-02 1.30344797e-02 3.27033587e-02</_>
    <_>
      5.35359792e-02 1.50180599e-02 5.42816110e-02 4.98276912e-02
      1.98482703e-02 5.36284409e-02 5.42423688e-02 1.18629998e-02
      5.55133782e-02 5.05349897e-02 3.39382910e-03 5.05320095e-02
      4.15009111e-02 1.48150399e-02 4.40570787e-02</_>
    <_>
      5.45511395e-02 2.83172093e-02 5.83975501e-02 4.69797701e-02
      2.04815399e-02 5.06850295e-02 4.85463887e-02 1.05410200e-02
      4.96740490e-02 4.62650806e-02 4.16012201e-03 4.64505404e-02
      3.96674313e-02 1.86818801e-02 4.30939198e-02</_>
    <_>
      2.54412591e-02 7.10706189e-02 6.72975183e-02 9.70146433e-02
      9.95623991e-02 2.80256309e-02 5.92562705e-02 3.05488706e-02
      5.36364689e-02 6.62142709e-02 4.05945405e-02 5.37117310e-02
      6.19391315e-02 5.87857701e-02 5.12314700e-02</_>
    <_>
      5.63204810e-02 4.05183285e-02 6.56552613e-02 7.04704374e-02
      5.65133095e-02 5.60938604e-02 7.62091875e-02 5.35369590e-02
      5.74666895e-02 6.58245310e-02 3.77548411e-02 5.44449501e-02
      4.92990911e-02 3.14369686e-02 4.78879996e-02</_>
    <_>
      5.83766215e-02 2.04490293e-02 5.75040504e-02 5.80454916e-02
      2.23922208e-02 5.92921115e-02 6.44002780e-02 1.84433609e-02
      6.35276884e-02 6.14708290e-02 1.29003096e-02 6.03847504e-02
      4.74368408e-02 1.73936207e-02 4.96722683e-02</_>
    <_>
      5.18985912e-02 5.10940701e-02 6.33162931e-02 9.57079828e-02
      9.29912329e-02 4.42368686e-02 1.06703803e-01 1.01691902e-01
      3.34719792e-02 9.71791893e-02 9.45759416e-02 3.29628512e-02
      7.14384615e-02 7.48139471e-02 4.86958288e-02</_>
    <_>
      4.93036397e-02 1.32974796e-02 4.74798791e-02 4.02145498e-02
      2.22683009e-02 4.52389494e-02 4.10583690e-02 1.55754602e-02
      4.08020690e-02 3.83250006e-02 1.44744702e-02 3.56228203e-02
      3.14178802e-02 1.44562004e-02 3.34744491e-02</_>
    <_>
      3.86310294e-02 4.15410586e-02 4.69525605e-02 4.44124006e-02
      2.60100402e-02 4.76632304e-02 4.79817390e-02 1.65566504e-02
      4.80049886e-02 4.66018505e-02 1.84210893e-02 4.34125103e-02
      4.21548709e-02 2.69571207e-02 4.27995101e-02</_>
    <_>
      4.99760695e-02 1.83192994e-02 4.77762893e-02 4.33553308e-02
      2.13373303e-02 4.82959487e-02 4.53046001e-02 1.26633402e-02
      4.62059714e-02 4.63864394e-02 3.75717599e-03 4.63798195e-02
      3.76372188e-02 1.53435301e-02 4.06391211e-02</_>
    <_>
      4.78465408e-02 1.93479992e-02 4.39270884e-02 5.10578789e-02
      2.73869596e-02 5.24708591e-02 5.63387796e-02 2.12198794e-02
      5.45518398e-02 5.41097410e-02 1.70080103e-02 5.18640094e-02
      4.38951403e-02 2.38409005e-02 4.61532101e-02</_>
    <_>
      5.03901094e-02 1.11699300e-02 5.04770502e-02 5.90968393e-02
      3.41810808e-02 5.70267290e-02 4.54432704e-02 9.98309627e-03
      4.64189798e-02 4.18561809e-02 6.13277685e-03 4.18226905e-02
      3.49369012e-02 1.70228295e-02 3.88121009e-02</_>
    <_>
      5.40717617e-02 2.11620908e-02 5.60592599e-02 5.14218397e-02
      2.12985296e-02 5.45086712e-02 5.80650009e-02 1.53451096e-02
      5.84623106e-02 5.77941202e-02 1.40241198e-02 5.63347191e-02
      4.76935990e-02 2.41626799e-02 4.90343012e-02</_>
    <_>
      4.09183688e-02 1.48222204e-02 3.88091207e-02 3.84235084e-02
      1.77309308e-02 4.22806814e-02 4.10476699e-02 1.24510396e-02
      4.17018086e-02 3.61643285e-02 1.16295703e-02 3.44964489e-02
      2.90030092e-02 1.49678597e-02 3.14996988e-02</_>
    <_>
      3.66074704e-02 4.02871296e-02 4.72187810e-02 4.24925797e-02
      2.16992795e-02 4.77097817e-02 4.41687815e-02 1.07725197e-02
      4.54137288e-02 3.84890996e-02 5.18140895e-03 3.86223011e-02
      3.42235118e-02 2.05135196e-02 3.92661504e-02</_>
    <_>
      2.12478302e-02 7.10698068e-02 6.78196102e-02 8.49857926e-02
      8.25730935e-02 3.90383713e-02 8.62217918e-02 7.27725029e-02
      4.65830304e-02 6.71385005e-02 4.51387689e-02 5.34815192e-02
      5.39510399e-02 5.12794405e-02 5.21371290e-02</_>
    <_>
      4.29335907e-02 5.35044484e-02 5.75404316e-02 8.45549405e-02
      6.94909096e-02 5.71070910e-02 9.32843164e-02 7.59271830e-02
      5.53407818e-02 8.56266469e-02 7.01283589e-02 5.23789413e-02
      5.61172701e-02 4.20788303e-02 5.34323417e-02</_>
    <_>
      4.36090305e-02 5.18004410e-02 5.61697297e-02 9.23347324e-02
      8.58022869e-02 4.37411405e-02 1.00680001e-01 9.02056396e-02
      4.50506918e-02 9.13814530e-02 8.25937614e-02 4.53460515e-02
      5.91287985e-02 4.55195904e-02 5.40347584e-02</_>
    <_>
      3.99527885e-02 4.36231717e-02 5.25491983e-02 3.98609191e-02
      1.99326407e-02 4.45192792e-02 4.19213511e-02 1.01487199e-02
      4.27512191e-02 3.90318483e-02 7.02033518e-03 3.88242304e-02
      3.11343409e-02 1.89664792e-02 3.64505909e-02</_>
    <_>
      4.48563695e-02 1.65475197e-02 4.46089692e-02 8.54847729e-02
      8.51961002e-02 2.35565994e-02 9.20377225e-02 8.45606029e-02
      3.69554795e-02 5.87731004e-02 2.85334997e-02 5.23501784e-02
      5.13713509e-02 3.55184488e-02 4.96654212e-02</_>
    <_>
      4.13685292e-02 4.71404009e-02 5.53763807e-02 5.44484295e-02
      2.61877291e-02 5.62146306e-02 5.35616688e-02 1.28969997e-02
      5.43192998e-02 4.65305708e-02 3.72937694e-03 4.66756001e-02
      3.60484794e-02 1.69348102e-02 3.98207009e-02</_>
    <_>
      5.37410900e-02 1.19155403e-02 5.31400703e-02 4.95967604e-02
      1.99996307e-02 5.30476309e-02 5.96941113e-02 1.75366793e-02
      5.95137402e-02 5.50941192e-02 9.65686794e-03 5.44247888e-02
      4.25379612e-02 1.69121902e-02 4.48270105e-02</_>
    <_>
      5.51433302e-02 1.39034102e-02 5.41434810e-02 5.36577515e-02
      2.09481306e-02 5.70005700e-02 5.75610586e-02 1.31926602e-02
      5.86171411e-02 5.41292801e-02 2.28955597e-03 5.41548394e-02
      4.30588797e-02 1.39238304e-02 4.52293493e-02</_>
    <_>
      4.65284400e-02 3.78403217e-02 5.32243401e-02 4.66673896e-02
      2.48243008e-02 5.00452518e-02 5.03786616e-02 1.54092601e-02
      5.08796312e-02 4.79088686e-02 1.10451598e-02 4.68903705e-02
      3.86684015e-02 2.02140491e-02 4.13842611e-02</_>
    <_>
      4.17445898e-02 4.89354208e-02 5.78799993e-02 5.94157800e-02
      3.17564607e-02 5.91810085e-02 5.72710894e-02 1.71796307e-02
      5.70221394e-02 4.95359302e-02 6.21078396e-03 4.94779013e-02
      3.79292704e-02 1.73614006e-02 4.15879712e-02</_>
    <_>
      2.44614892e-02 4.15059999e-02 3.78279611e-02 7.09928796e-02
      3.72488089e-02 6.67567328e-02 8.22247863e-02 4.96047400e-02
      6.71357810e-02 3.82361412e-02 1.04844701e-02 3.69916596e-02
      3.20587792e-02 1.73989106e-02 3.56872790e-02</_>
    <_>
      4.34782989e-02 1.73497591e-02 4.23300602e-02 8.58530775e-02
      8.59611779e-02 2.31598001e-02 9.43670794e-02 9.03831720e-02
      2.73030195e-02 6.45423234e-02 3.92311998e-02 5.27449213e-02
      5.40661700e-02 4.33488786e-02 4.97693792e-02</_>
    <_>
      4.80595902e-02 1.89211499e-02 4.79184613e-02 4.72691394e-02
      2.08262801e-02 4.83299382e-02 5.13702109e-02 1.46869896e-02
      5.00431098e-02 5.18116988e-02 2.08962504e-02 4.96704094e-02
      4.71010804e-02 4.23920900e-02 4.74204198e-02</_>
    <_>
      5.16879894e-02 2.29716096e-02 5.26793487e-02 4.65557799e-02
      2.16025002e-02 5.12604900e-02 5.14679104e-02 1.16200298e-02
      5.27338199e-02 5.16222492e-02 5.19106397e-03 5.15463501e-02
      4.16806489e-02 1.72275305e-02 4.46317382e-02</_>
    <_>
      4.28484492e-02 4.38988097e-02 5.24757318e-02 4.63547818e-02
      2.60704998e-02 4.99561094e-02 4.52694483e-02 1.27084702e-02
      4.65862006e-02 3.94163504e-02 2.87516601e-03 3.95044908e-02
      3.36447284e-02 1.66132096e-02 3.72003689e-02</_>
    <_>
      5.31800389e-02 1.97720099e-02 5.60603701e-02 4.96780500e-02
      2.24054493e-02 5.30709215e-02 6.10616095e-02 2.38047503e-02
      5.84754311e-02 6.45066425e-02 3.68041284e-02 5.44161312e-02
      5.12539484e-02 3.73700000e-02 5.11534289e-02</_>
    <_>
      5.45108803e-02 1.44465296e-02 5.34865595e-02 5.01069389e-02
      2.06404794e-02 5.24115302e-02 5.42654097e-02 1.23841902e-02
      5.47973402e-02 5.07662483e-02 5.46383811e-03 5.08022197e-02
      4.02384289e-02 1.73365194e-02 4.33872901e-02</_>
    <_>
      4.30955589e-02 2.55292002e-02 4.08532098e-02 3.82547900e-02
      2.00228002e-02 4.30247113e-02 4.13480699e-02 1.01365196e-02
      4.21227403e-02 3.85818109e-02 9.88736376e-03 3.81046608e-02
      3.22496593e-02 1.96840093e-02 3.73342596e-02</_>
    <_>
      4.00868207e-02 3.91769707e-02 4.62143086e-02 3.83934714e-02
      2.05435995e-02 4.33215685e-02 3.92423794e-02 1.08531704e-02
      4.02245708e-02 3.60486396e-02 8.53555370e-03 3.53161208e-02
      3.01868096e-02 1.72080807e-02 3.40067185e-02</_>
    <_>
      3.91806588e-02 3.87225598e-02 4.91706394e-02 3.77762802e-02
      1.90259703e-02 4.22969796e-02 3.93169299e-02 1.04252696e-02
      3.98792699e-02 3.63369286e-02 9.77103878e-03 3.57511602e-02
      3.12237609e-02 1.96826309e-02 3.65192182e-02</_>
    <_>
      3.19175199e-02 3.73357907e-02 3.74358892e-02 3.63590308e-02
      1.95993800e-02 4.11467403e-02 3.80542390e-02 1.23823201e-02
      3.77502814e-02 3.47002596e-02 1.34567702e-02 3.22914012e-02
      2.92698592e-02 1.59556903e-02 3.16892713e-02</_>
    <_>
      4.04653400e-02 4.06375900e-02 4.87743095e-02 4.25192118e-02
      2.18714494e-02 4.61891703e-02 4.21028510e-02 9.26477276e-03
      4.30803299e-02 3.77089009e-02 5.41991182e-03 3.80277112e-02
      3.17379311e-02 1.87934805e-02 3.68714891e-02</_>
    <_>
      4.86902893e-02 2.60320604e-02 5.00815995e-02 4.29087989e-02
      2.14585997e-02 4.71565612e-02 5.53044006e-02 2.10294593e-02
      5.43805286e-02 5.64683415e-02 2.23488603e-02 5.20861000e-02
      4.35437188e-02 2.60941703e-02 4.39420193e-02</_>
    <_>
      4.24719304e-02 1.69589408e-02 3.99331599e-02 3.97724696e-02
      1.97159797e-02 4.43723612e-02 4.22191583e-02 1.24725597e-02
      4.36206684e-02 3.73170301e-02 8.15750938e-03 3.64650488e-02
      3.08662206e-02 1.33649502e-02 3.32571790e-02</_>
    <_>
      5.23602404e-02 1.63096692e-02 5.22784516e-02 4.33181599e-02
      2.21531894e-02 4.78891283e-02 4.70025800e-02 1.41543197e-02
      4.75981608e-02 4.52805795e-02 9.42574535e-03 4.45288308e-02
      3.96542400e-02 1.54143898e-02 4.25409116e-02</_>
    <_>
      2.86853891e-02 3.50282006e-02 3.64928506e-02 4.71338518e-02
      2.15492100e-02 5.17739914e-02 5.13271317e-02 1.16561297e-02
      5.25623299e-02 5.77775091e-02 1.59715004e-02 5.58705516e-02
      5.89428283e-02 5.16205616e-02 5.30289598e-02</_>
    <_>
      3.90722714e-02 4.80686389e-02 5.22721596e-02 5.55495210e-02
      2.79125106e-02 5.67907691e-02 5.80771305e-02 1.77871808e-02
      5.76968603e-02 5.14911190e-02 8.55949055e-03 5.10975309e-02
      4.05729301e-02 1.81021392e-02 4.37145196e-02</_>
    <_>
      5.41997291e-02 1.82051808e-02 5.43343909e-02 4.91713285e-02
      2.07968205e-02 5.33881187e-02 5.39330319e-02 1.21608004e-02
      5.52388094e-02 5.31837009e-02 2.05807202e-03 5.32198697e-02
      4.63043004e-02 1.77771002e-02 4.83333394e-02</_>
    <_>
      4.41039987e-02 1.42568601e-02 4.42668982e-02 3.73720005e-02
      2.29732003e-02 4.22279388e-02 4.01268788e-02 1.67841297e-02
      3.93046401e-02 3.70734185e-02 1.57977995e-02 3.36957611e-02
      3.16947997e-02 1.72610506e-02 3.46462503e-02</_>
    <_>
      5.35884500e-02 2.05896404e-02 5.45638502e-02 4.77173701e-02
      2.03566793e-02 5.18514812e-02 5.25936112e-02 1.21814897e-02
      5.38626090e-02 5.16127199e-02 2.37515895e-03 5.16491793e-02
      4.53148708e-02 1.77222192e-02 4.75123487e-02</_>
    <_>
      4.51258793e-02 1.72884595e-02 4.56669107e-02 8.20680186e-02
      7.63215125e-02 3.82591896e-02 6.11183904e-02 3.18435617e-02
      5.45135885e-02 5.02937399e-02 1.55841904e-02 4.84323986e-02
      4.50566188e-02 2.51560193e-02 4.65507098e-02</_>
    <_>
      3.88491489e-02 3.90932113e-02 4.90137488e-02 3.58310193e-02
      1.81776602e-02 3.98941897e-02 3.83494496e-02 1.30727803e-02
      3.85008305e-02 3.56953703e-02 1.26564698e-02 3.36811803e-02
      3.01877707e-02 1.94207709e-02 3.40299308e-02</_>
    <_>
      5.18230498e-02 6.44813804e-03 5.15123717e-02 4.55316007e-02
      2.11353693e-02 4.84642088e-02 5.67493998e-02 2.42501497e-02
      5.33125214e-02 5.59749193e-02 2.94957403e-02 4.88926917e-02
      4.52966504e-02 3.57512906e-02 4.57356982e-02</_>
    <_>
      4.13927808e-02 2.71156505e-02 4.11679894e-02 4.00821418e-02
      1.90119203e-02 4.42724898e-02 4.26709987e-02 1.02841901e-02
      4.35668603e-02 4.04983610e-02 6.03304105e-03 4.03966308e-02
      5.04182689e-02 3.97147909e-02 4.81880605e-02</_>
    <_>
      5.04836291e-02 2.11194009e-02 5.31385913e-02 4.96632494e-02
      2.11598091e-02 5.38519807e-02 5.81217892e-02 1.47088198e-02
      5.87452687e-02 6.37338087e-02 2.61476096e-02 5.87101094e-02
      5.22902496e-02 3.21797505e-02 5.29272594e-02</_>
    <_>
      3.75607088e-02 2.75467709e-02 3.79504599e-02 3.76462005e-02
      1.97639503e-02 4.20809612e-02 4.02039289e-02 1.38646299e-02
      4.04854007e-02 3.66624705e-02 1.07255699e-02 3.54091600e-02
      3.10308300e-02 1.89529303e-02 3.47300917e-02</_>
    <_>
      5.13002984e-02 2.71424409e-02 5.27418591e-02 5.22414297e-02
      2.73080692e-02 5.35115898e-02 5.34059405e-02 1.63697097e-02
      5.31339496e-02 5.24923094e-02 1.47543000e-02 5.08167297e-02
      4.36165109e-02 2.47436203e-02 4.54538018e-02</_>
    <_>
      4.97677885e-02 5.19750714e-02 6.03686310e-02 9.90434885e-02
      9.83098596e-02 3.86078991e-02 1.09337702e-01 1.05875798e-01
      2.82494202e-02 9.94150564e-02 9.79375169e-02 2.97262408e-02
      7.34554306e-02 7.84934014e-02 4.72180992e-02</_>
    <_>
      5.04540093e-02 2.15526707e-02 5.30262105e-02 4.92547415e-02
      2.09800992e-02 5.34646288e-02 5.80959097e-02 1.41473403e-02
      5.88895604e-02 6.00275993e-02 1.78517606e-02 5.76543212e-02
      4.95666713e-02 2.59468593e-02 5.09828515e-02</_>
    <_>
      4.39747684e-02 4.14326787e-02 5.05766198e-02 4.38027717e-02
      2.28600800e-02 4.73401509e-02 4.20811996e-02 8.50588363e-03
      4.28843796e-02 3.87694016e-02 1.19516198e-02 3.76611091e-02
      3.35469395e-02 2.04194803e-02 3.74245793e-02</_>
    <_>
      5.10725714e-02 3.74442898e-02 5.79032712e-02 5.15135005e-02
      3.52419093e-02 5.49560711e-02 4.85438295e-02 2.05978397e-02
      5.04400507e-02 4.69756611e-02 1.22941304e-02 4.54274900e-02
      3.61758806e-02 1.45492302e-02 3.70844789e-02</_>
    <_>
      5.21090105e-02 1.57708805e-02 5.18549308e-02 4.38424982e-02
      2.22273599e-02 4.83332798e-02 4.80476096e-02 1.42564001e-02
      4.86702509e-02 4.63941582e-02 8.67682882e-03 4.56960611e-02
      4.04098295e-02 1.51776001e-02 4.31567691e-02</_>
    <_>
      5.18002808e-02 1.80033296e-02 5.12350798e-02 4.43125814e-02
      2.11038496e-02 4.89625782e-02 4.97852713e-02 1.13877198e-02
      5.07716909e-02 4.64601815e-02 6.77709794e-03 4.62286882e-02
      3.85312699e-02 1.66635402e-02 4.19643410e-02</_>
    <_>
      4.16873395e-02 5.27014397e-02 5.56956083e-02 8.47286284e-02
      7.14459568e-02 5.49466386e-02 9.35223401e-02 7.75518790e-02
      5.34285605e-02 8.56501535e-02 7.14038089e-02 5.06512113e-02
      5.49937300e-02 4.11980897e-02 5.22443205e-02</_>
    <_>
      4.07784805e-02 5.10543212e-02 5.39638996e-02 8.49490687e-02
      7.21775219e-02 5.35015091e-02 9.37482715e-02 7.78297409e-02
      5.30955307e-02 8.62745494e-02 7.28022233e-02 5.05025312e-02
      5.57225496e-02 4.15419191e-02 5.35420813e-02</_>
    <_>
      3.89860310e-02 4.94133011e-02 5.11869304e-02 8.98474976e-02
      8.06916803e-02 4.70954105e-02 9.57374498e-02 8.13136697e-02
      5.07741496e-02 8.84523988e-02 7.74691030e-02 4.93655987e-02
      5.81296496e-02 4.59365211e-02 5.58265299e-02</_>
    <_>
      3.74047309e-02 3.86444405e-02 4.71375510e-02 3.54869813e-02
      1.81019492e-02 3.94955315e-02 3.80156599e-02 1.37333097e-02
      3.81925590e-02 3.54221798e-02 1.28594898e-02 3.32898796e-02
      3.01158503e-02 1.91969592e-02 3.40867490e-02</_>
    <_>
      4.16083597e-02 3.12773697e-02 4.01150882e-02 3.66881005e-02
      1.85398106e-02 4.10189703e-02 3.78050283e-02 1.03353597e-02
      3.90424989e-02 3.38970311e-02 8.16654693e-03 3.32490318e-02
      2.93686893e-02 1.71312299e-02 3.36829312e-02</_>
    <_>
      2.72183400e-02 7.02909008e-02 6.51836395e-02 9.13884863e-02
      9.10273567e-02 3.90817188e-02 7.32510984e-02 4.47375812e-02
      6.11049496e-02 6.99322075e-02 4.49456982e-02 5.43652512e-02
      6.09675311e-02 5.32819293e-02 5.03200404e-02</_>
    <_>
      4.11265604e-02 2.36396901e-02 3.94509584e-02 3.69440503e-02
      1.82749908e-02 4.09612283e-02 4.05662507e-02 1.21077597e-02
      4.13894393e-02 3.72776315e-02 9.62346420e-03 3.65665294e-02
      3.14996801e-02 1.91215109e-02 3.62540409e-02</_>
    <_>
      2.75830701e-02 6.96286634e-02 6.46043196e-02 9.52708870e-02
      9.81159285e-02 3.34192812e-02 6.81388080e-02 4.08299789e-02
      5.71472496e-02 6.51841387e-02 3.93433608e-02 5.33878915e-02
      5.21316603e-02 3.96587290e-02 4.94949110e-02</_>
    <_>
      4.84603904e-02 1.21724298e-02 4.78700288e-02 4.11639288e-02
      2.22615302e-02 4.60488796e-02 4.55556698e-02 1.40539501e-02
      4.61009517e-02 4.43137810e-02 8.78356304e-03 4.35589403e-02
      3.81753705e-02 1.60481706e-02 4.13353518e-02</_>
    <_>
      4.08857390e-02 4.36877497e-02 5.08729406e-02 4.37047891e-02
      2.41794791e-02 4.80514802e-02 4.21918817e-02 1.11498199e-02
      4.36313599e-02 3.62947807e-02 4.69976990e-03 3.62128802e-02
      3.11502498e-02 1.62557196e-02 3.51275094e-02</_>
    <_>
      4.19549197e-02 3.60840186e-02 4.85069789e-02 3.82110104e-02
      1.79174207e-02 4.20533605e-02 4.03711088e-02 1.13346102e-02
      4.04009596e-02 3.70100290e-02 1.16119403e-02 3.55416685e-02
      3.10692806e-02 1.80676002e-02 3.48540097e-02</_>
    <_>
      4.43425402e-02 1.67105105e-02 4.33951803e-02 8.59869793e-02
      8.64814296e-02 2.40693409e-02 9.28922966e-02 8.91083479e-02
      2.62492597e-02 5.80364801e-02 3.27014402e-02 4.93516400e-02
      5.69067001e-02 4.94933985e-02 5.15582189e-02</_>
    <_>
      4.21892107e-02 3.61511000e-02 4.73793708e-02 4.35765795e-02
      2.35466603e-02 4.64996882e-02 4.54596505e-02 1.14664100e-02
      4.58876118e-02 4.01170813e-02 7.23299291e-03 4.04163003e-02
      3.55244614e-02 2.10794099e-02 4.03904915e-02</_>
    <_>
      2.69174408e-02 6.94431737e-02 6.60800785e-02 9.16197374e-02
      9.35114399e-02 3.24513912e-02 7.03312829e-02 4.35726792e-02
      5.72734810e-02 6.33434206e-02 4.09324504e-02 5.06567992e-02
      6.37173727e-02 6.55435473e-02 5.08684218e-02</_>
    <_>
      4.28766795e-02 2.02604793e-02 4.02149186e-02 6.24551997e-02
      2.35142708e-02 6.45756572e-02 4.02899198e-02 1.25973001e-02
      4.09647003e-02 3.72130312e-02 9.88198444e-03 3.64505090e-02
      3.11775804e-02 1.78112108e-02 3.50408293e-02</_>
    <_>
      5.07199988e-02 6.78845914e-03 5.09771593e-02 4.80579101e-02
      1.78448502e-02 5.11710197e-02 5.23266308e-02 1.10876700e-02
      5.29518500e-02 4.89456691e-02 8.47492274e-03 4.84333001e-02
      4.04850505e-02 1.59223005e-02 4.31869589e-02</_>
    <_>
      5.34963198e-02 2.86440104e-02 5.68686686e-02 5.00778109e-02
      2.24202294e-02 5.30603603e-02 5.06351218e-02 1.08358702e-02
      5.16353995e-02 4.79065403e-02 4.52165911e-03 4.80442792e-02
      4.18765582e-02 1.99763104e-02 4.48059104e-02</_>
    <_>
      4.83942702e-02 1.84107199e-02 4.48227115e-02 5.11584803e-02
      2.15160903e-02 5.53640798e-02 6.03720993e-02 1.45353302e-02
      6.14452995e-02 5.70818298e-02 3.37421196e-03 5.70259504e-02
      4.39520702e-02 1.46234799e-02 4.62975614e-02</_>
    <_>
      5.42779416e-02 1.82537697e-02 5.48562594e-02 5.32535985e-02
      2.19492391e-02 5.62266782e-02 5.68845607e-02 1.34309595e-02
      5.76870106e-02 5.77267818e-02 1.45889102e-02 5.61416298e-02
      5.09905182e-02 3.23874317e-02 5.10778017e-02</_>
    <_>
      5.18698506e-02 3.39947417e-02 5.61230294e-02 5.25806211e-02
      2.50062104e-02 5.47768585e-02 6.11832105e-02 2.35702209e-02
      5.88407405e-02 5.61603010e-02 1.87493395e-02 5.35115413e-02
      4.45780195e-02 2.45445501e-02 4.66404893e-02</_>
    <_>
      4.21574488e-02 3.80208902e-02 4.86696586e-02 4.00860198e-02
      2.14829799e-02 4.49260995e-02 4.28977795e-02 1.11954603e-02
      4.43217196e-02 3.93663310e-02 3.36101907e-03 3.94588187e-02
      3.27927396e-02 1.63138993e-02 3.66194807e-02</_>
    <_>
      5.32095209e-02 1.77976899e-02 5.43143488e-02 5.07058501e-02
      2.21540704e-02 5.32365814e-02 5.80811314e-02 1.80946700e-02
      5.73760085e-02 5.24047986e-02 9.26799979e-03 5.19213416e-02
      4.10116687e-02 1.87452305e-02 4.40312289e-02</_>
    <_>
      4.53829393e-02 1.71462893e-02 4.57630605e-02 8.24667513e-02
      7.70723298e-02 3.78975309e-02 5.85528612e-02 2.83233598e-02
      5.35950586e-02 4.96255308e-02 1.43080903e-02 4.81225215e-02
      4.43964899e-02 2.45140493e-02 4.61649597e-02</_>
    <_>
      5.07817902e-02 2.40947492e-02 5.43293394e-02 4.88980487e-02
      2.06631701e-02 5.29744998e-02 5.46684004e-02 1.20738503e-02
      5.58800101e-02 5.56563288e-02 9.43843555e-03 5.50616309e-02
      4.50598896e-02 2.05960497e-02 4.73616309e-02</_>
    <_>
      5.86450808e-02 1.73298605e-02 5.78299612e-02 6.08531684e-02
      2.25451794e-02 6.30378574e-02 6.95477873e-02 2.23711394e-02
      6.83534965e-02 6.59312382e-02 1.54813398e-02 6.41910285e-02
      5.03520817e-02 1.47553701e-02 5.19340597e-02</_>
    <_>
      5.19510098e-02 5.26100695e-02 6.49961829e-02 9.11584869e-02
      8.47288221e-02 5.15552610e-02 1.02974102e-01 9.48643610e-02
      4.19087112e-02 9.48622674e-02 8.99495631e-02 3.72243412e-02
      6.92927316e-02 6.85819834e-02 4.93252613e-02</_>
    <_>
      4.31254283e-02 1.49367601e-02 4.30321284e-02 3.82150896e-02
      2.29547508e-02 4.29628789e-02 4.02498096e-02 1.68008506e-02
      3.94326411e-02 3.71425785e-02 1.62234306e-02 3.35601307e-02
      3.16597410e-02 1.75199900e-02 3.43781486e-02</_>
    <_>
      5.00867888e-02 4.48932499e-02 6.17596693e-02 5.95144406e-02
      3.90463509e-02 5.84532507e-02 6.40832931e-02 3.52854095e-02
      5.83597086e-02 6.64086863e-02 3.90715189e-02 5.37982918e-02
      5.36430292e-02 3.89813185e-02 4.60926406e-02</_>
    <_>
      5.47066107e-02 1.62816197e-02 5.42338416e-02 5.12752607e-02
      2.23043002e-02 5.40955290e-02 5.25000393e-02 1.21964598e-02
      5.36400191e-02 4.96648997e-02 2.76930397e-03 4.97164801e-02
      4.06702794e-02 1.56137999e-02 4.33214791e-02</_>
    <_>
      4.15775506e-03 8.23750868e-02 8.23608190e-02 8.77501667e-02
      9.23494771e-02 2.87890807e-02 9.64290500e-02 9.61975604e-02
      7.39510590e-03 8.62490609e-02 8.95889699e-02 2.87662204e-02
      6.18742704e-02 7.93977678e-02 5.14542796e-02</_>
    <_>
      4.14359309e-02 2.90347897e-02 4.05362584e-02 3.61831710e-02
      1.71555895e-02 4.00155708e-02 3.79818194e-02 1.09959198e-02
      3.89466286e-02 3.47296000e-02 1.01839900e-02 3.35717611e-02
      2.98049003e-02 1.77313294e-02 3.37834582e-02</_>
    <_>
      4.37013917e-02 1.47416797e-02 4.40145694e-02 3.73842195e-02
      2.29706205e-02 4.22395281e-02 4.00597118e-02 1.67727508e-02
      3.92354988e-02 3.69217098e-02 1.59100499e-02 3.34783718e-02
      3.14535089e-02 1.73327699e-02 3.43995392e-02</_>
    <_>
      4.25408706e-02 2.43066009e-02 4.07585315e-02 3.77072692e-02
      1.98880900e-02 4.26240489e-02 3.88376117e-02 1.19573204e-02
      4.00690809e-02 3.62444483e-02 7.52950087e-03 3.56339887e-02
      3.08495909e-02 1.55517496e-02 3.43685895e-02</_>
    <_>
      4.13417108e-02 4.96010892e-02 5.81771806e-02 6.04763515e-02
      3.32986191e-02 5.96132614e-02 5.84377311e-02 1.88419893e-02
      5.77436090e-02 5.05000018e-02 7.68508995e-03 5.02528809e-02
      3.87172289e-02 1.76713392e-02 4.22741883e-02</_>
    <_>
      4.62606400e-02 2.85521299e-02 4.77692299e-02 4.57931906e-02
      2.19783895e-02 4.79597412e-02 4.88132685e-02 1.31989596e-02
      4.85694595e-02 4.96168397e-02 1.70428194e-02 4.77031395e-02
      4.90283109e-02 4.25097086e-02 4.54760715e-02</_>
    <_>
      4.97255996e-02 2.71641202e-02 5.29277287e-02 4.34338599e-02
      2.05848701e-02 4.74298596e-02 4.40887585e-02 1.12711797e-02
      4.55066711e-02 4.33524214e-02 2.98833312e-03 4.34419401e-02
      3.46263312e-02 1.58640798e-02 3.79289500e-02</_>
    <_>
      5.36267199e-02 3.09470594e-02 5.80797903e-02 5.30909486e-02
      3.06637306e-02 5.56384288e-02 4.93327715e-02 1.56953502e-02
      5.08257188e-02 4.56313901e-02 2.56868289e-03 4.55717705e-02
      3.70082892e-02 1.43597396e-02 3.95063497e-02</_>
    <_>
      5.82799800e-02 1.79386102e-02 5.64090610e-02 5.95915802e-02
      2.01857593e-02 6.14495203e-02 6.79788217e-02 1.91600099e-02
      6.72134981e-02 6.52055889e-02 1.33026801e-02 6.40038773e-02
      5.00097089e-02 1.61377899e-02 5.20283803e-02</_>
    <_>
      4.60516103e-02 2.97883693e-02 4.75696102e-02 4.55075912e-02
      2.18326002e-02 4.80483100e-02 4.84555103e-02 1.28915496e-02
      4.84306887e-02 4.98973802e-02 1.76318102e-02 4.76807207e-02
      5.30409589e-02 4.82866690e-02 4.59100008e-02</_>
    <_>
      5.24791889e-02 1.21111805e-02 5.19984998e-02 4.73212786e-02
      2.22671907e-02 5.07470518e-02 6.08880594e-02 2.90223602e-02
      5.61408214e-02 6.45990372e-02 4.14652787e-02 5.07787317e-02
      4.99772392e-02 3.99282686e-02 4.73330915e-02</_>
    <_>
      3.42939682e-02 5.58778308e-02 5.31940088e-02 9.67923328e-02
      9.55604017e-02 2.88299192e-02 1.06998399e-01 1.03804499e-01
      2.60068104e-02 9.68192667e-02 9.51083377e-02 3.03624906e-02
      7.16103166e-02 7.68141970e-02 4.81185205e-02</_>
    <_>
      5.26712611e-02 3.31028588e-02 5.63320406e-02 6.51590824e-02
      3.86355296e-02 6.13648705e-02 7.43986070e-02 4.45770584e-02
      6.18530996e-02 7.11154267e-02 4.59896587e-02 5.54958805e-02
      5.76368906e-02 4.88899797e-02 5.15837818e-02</_>
    <_>
      4.16715592e-02 3.03892195e-02 4.04109806e-02 3.81709412e-02
      2.06751507e-02 4.30295914e-02 3.90856713e-02 1.02019804e-02
      4.03945409e-02 3.56033407e-02 5.11050923e-03 3.56931016e-02
      3.01596094e-02 1.75871104e-02 3.49119902e-02</_>
    <_>
      2.28947997e-02 7.53154680e-02 7.26971775e-02 9.78632420e-02
      1.02494299e-01 3.04726306e-02 1.09784901e-01 1.09634303e-01
      5.78154391e-03 5.63941002e-02 7.74440402e-03 5.61898388e-02
      6.83587566e-02 6.11229315e-02 5.38660809e-02</_>
    <_>
      5.48384003e-02 1.67884808e-02 5.51029406e-02 4.98612113e-02
      2.05179099e-02 5.39166890e-02 5.53338602e-02 1.22252302e-02
      5.66587411e-02 5.36061004e-02 2.18906603e-03 5.36459088e-02
      4.58969288e-02 1.70306098e-02 4.79927994e-02</_>
    <_>
      4.89510894e-02 3.93919498e-02 5.55095896e-02 5.47485501e-02
      3.16558108e-02 5.29998615e-02 4.34283502e-02 1.01347398e-02
      4.37964611e-02 3.84662487e-02 6.29116921e-03 3.89684215e-02
      3.13371308e-02 2.02209596e-02 3.72814499e-02</_>
    <_>
      4.83230799e-02 4.08169590e-02 5.60593009e-02 5.48226498e-02
      3.15736495e-02 5.30774295e-02 4.41951193e-02 1.06684901e-02
      4.44342792e-02 3.93130109e-02 6.33927202e-03 3.98193896e-02
      3.17831002e-02 2.03007292e-02 3.76719907e-02</_>
    <_>
      2.38748100e-02 7.44263530e-02 7.12935328e-02 8.60349014e-02
      8.28125104e-02 4.71004583e-02 8.50633383e-02 6.83244094e-02
      5.25434501e-02 7.29564503e-02 5.15557192e-02 5.37269711e-02
      5.71039207e-02 5.13457693e-02 5.15178293e-02</_>
    <_>
      3.86288688e-02 3.94408517e-02 4.64005992e-02 4.47700508e-02
      2.49583907e-02 4.72256616e-02 4.81785014e-02 1.56354904e-02
      4.77590486e-02 4.74788696e-02 2.07501594e-02 4.38700803e-02
      4.22047116e-02 2.90419608e-02 4.36290987e-02</_>
    <_>
      5.43689691e-02 2.28449609e-02 5.57684600e-02 5.28238304e-02
      2.66478695e-02 5.43678887e-02 4.98998798e-02 1.19673498e-02
      5.06936796e-02 4.70740609e-02 4.74842312e-03 4.72143106e-02
      3.92214917e-02 1.77397002e-02 4.26668897e-02</_>
    <_>
      4.53246795e-02 1.63523108e-02 4.51515689e-02 8.52646530e-02
      8.47946182e-02 2.40893196e-02 8.61189663e-02 7.13104233e-02
      4.94182594e-02 6.01494089e-02 2.70513408e-02 5.44132590e-02
      5.00991307e-02 3.18301208e-02 4.95268516e-02</_>
    <_>
      3.30375209e-02 5.36450408e-02 4.97480184e-02 9.68481675e-02
      9.55014974e-02 2.40090508e-02 1.07496798e-01 1.05715998e-01
      2.17940006e-02 9.66390073e-02 9.63322595e-02 3.27412114e-02
      7.09410086e-02 7.81491026e-02 5.27030006e-02</_>
    <_>
      4.59822789e-02 1.19060902e-02 4.55629304e-02 3.83718796e-02
      2.29817107e-02 4.30849902e-02 4.12741117e-02 1.69319808e-02
      4.05021608e-02 3.86062786e-02 1.57478396e-02 3.53577510e-02
      3.35103497e-02 1.63833406e-02 3.60792689e-02</_>
    <_>
      5.46452589e-02 1.39556704e-02 5.47906794e-02 4.95208092e-02
      2.10514404e-02 5.27144410e-02 6.20877407e-02 2.60758493e-02
      5.86544201e-02 6.23110197e-02 3.22643891e-02 5.41856103e-02
      4.93409894e-02 3.45576890e-02 4.87177409e-02</_>
    <_>
      5.02923094e-02 4.16968018e-02 6.03777505e-02 5.35078906e-02
      2.56539900e-02 5.54504208e-02 6.16192110e-02 2.44329106e-02
      5.89088500e-02 4.82866205e-02 1.09147597e-02 4.75862809e-02
      3.92438807e-02 2.12903693e-02 4.27938700e-02</_>
    <_>
      4.26445492e-02 3.54060717e-02 4.32346910e-02 4.17573415e-02
      2.18809992e-02 4.70330492e-02 4.44944091e-02 9.05951113e-03
      4.52601090e-02 4.12137993e-02 9.43015702e-03 4.07310091e-02
      3.37362811e-02 1.97036006e-02 3.83404195e-02</_>
    <_>
      3.84268910e-02 3.23080905e-02 4.23538312e-02 4.67859507e-02
      2.06430499e-02 5.11330590e-02 5.17006293e-02 1.16564101e-02
      5.29983006e-02 4.98240292e-02 7.67575903e-03 4.95579205e-02
      5.21181598e-02 3.77634689e-02 4.98802587e-02</_>
    <_>
      5.31625710e-02 3.11270002e-02 5.78510910e-02 4.80990112e-02
      2.18022093e-02 5.13491817e-02 4.75992002e-02 9.98963788e-03
      4.86345217e-02 4.50297706e-02 4.92852693e-03 4.51808088e-02
      3.78049910e-02 1.73853897e-02 4.15341295e-02</_>
    <_>
      4.22284007e-02 2.33290009e-02 4.00667191e-02 3.73324901e-02
      1.81788709e-02 4.12886217e-02 4.11359817e-02 1.14694303e-02
      4.18366082e-02 3.81630994e-02 1.04894703e-02 3.74780595e-02
      3.19349207e-02 1.93621293e-02 3.68288904e-02</_>
    <_>
      3.20484899e-02 6.02604002e-02 6.20050617e-02 8.73848721e-02
      8.99993628e-02 2.53041498e-02 9.63238403e-02 9.55632925e-02
      1.21011697e-02 8.63657966e-02 8.83444324e-02 2.69902293e-02
      6.32372126e-02 7.50127435e-02 4.43689190e-02</_>
    <_>
      4.29388992e-02 1.98155306e-02 4.02077399e-02 6.25613630e-02
      2.37368792e-02 6.46514371e-02 4.01856713e-02 1.26878601e-02
      4.08288911e-02 3.71434800e-02 1.00326799e-02 3.63685600e-02
      3.11586205e-02 1.79022606e-02 3.50395702e-02</_>
    <_>
      4.67158891e-02 4.55821604e-02 6.10549301e-02 4.74664606e-02
      2.22400408e-02 5.10198586e-02 5.90245090e-02 1.97784398e-02
      5.79513907e-02 5.71523793e-02 2.15559304e-02 5.35858311e-02
      4.75159585e-02 3.01405899e-02 4.86456193e-02</_>
    <_>
      5.44298813e-02 2.19086893e-02 5.65921888e-02 5.14774993e-02
      2.16748901e-02 5.44758998e-02 5.78725189e-02 1.51513098e-02
      5.82960919e-02 5.79283684e-02 1.46014001e-02 5.63337915e-02
      4.77402397e-02 2.42548194e-02 4.90070991e-02</_>
    <_>
      5.04595712e-02 1.96016207e-02 4.88685705e-02 4.39291485e-02
      2.16240492e-02 4.89393808e-02 4.61043082e-02 1.25917504e-02
      4.70578000e-02 4.66092490e-02 3.72597901e-03 4.66003418e-02
      3.76975611e-02 1.52441999e-02 4.06504907e-02</_>
    <_>
      5.03141582e-02 1.16885900e-02 5.06248996e-02 5.59431687e-02
      3.20660286e-02 5.49318418e-02 4.59596403e-02 9.79702361e-03
      4.69075404e-02 4.27897200e-02 5.46999183e-03 4.28648889e-02
      3.50218490e-02 1.71122998e-02 3.89322191e-02</_>
    <_>
      4.80196998e-02 4.61819209e-02 6.19024001e-02 5.08675799e-02
      2.47405209e-02 5.32225110e-02 6.31221682e-02 3.10276598e-02
      5.72783910e-02 6.22454099e-02 3.00979204e-02 5.55957817e-02
      4.83595282e-02 3.15421410e-02 4.93443683e-02</_>
    <_>
      4.94455397e-02 2.25338601e-02 5.22841588e-02 4.72725593e-02
      1.94182508e-02 5.10652512e-02 5.11310697e-02 1.00246305e-02
      5.20067699e-02 4.78023402e-02 6.78152079e-03 4.75740209e-02
      3.96485291e-02 1.50843002e-02 4.23892401e-02</_>
    <_>
      5.34904897e-02 2.01763492e-02 5.39546311e-02 4.58251312e-02
      2.16606203e-02 5.03057688e-02 4.96018901e-02 1.36981597e-02
      5.04449606e-02 4.75914702e-02 8.50457139e-03 4.69060503e-02
      4.07549813e-02 1.45956799e-02 4.32863608e-02</_>
    <_>
      3.37307192e-02 3.39202806e-02 3.83606888e-02 4.02468406e-02
      1.84126496e-02 4.41136695e-02 4.52944897e-02 8.99680238e-03
      4.61793616e-02 4.39709313e-02 5.48695913e-03 4.41434309e-02
      4.30493914e-02 4.37511504e-02 4.44373004e-02</_>
    <_>
      5.85788488e-02 2.20531002e-02 5.57272099e-02 5.65952398e-02
      1.76660996e-02 5.77131994e-02 6.33632094e-02 1.46381902e-02
      6.26185909e-02 6.10692985e-02 1.25061097e-02 6.05406910e-02
      4.81893383e-02 2.12385003e-02 5.15093505e-02</_>
    <_>
      5.47804907e-02 1.67744607e-02 5.48853502e-02 5.27490303e-02
      2.27698609e-02 5.48505597e-02 5.60009889e-02 1.41268997e-02
      5.62983193e-02 5.22978790e-02 6.55216677e-03 5.21847792e-02
      4.08023186e-02 1.65400393e-02 4.38005701e-02</_>
    <_>
      4.11608405e-02 3.75639908e-02 4.72775511e-02 3.92912999e-02
      1.84695497e-02 4.33443710e-02 4.17875014e-02 9.29789711e-03
      4.26315889e-02 3.81550491e-02 7.40725594e-03 3.79849784e-02
      3.19513716e-02 1.79786608e-02 3.64140309e-02</_>
    <_>
      5.37518486e-02 5.18617816e-02 6.60682470e-02 9.35003832e-02
      8.67699087e-02 4.90552709e-02 1.04300901e-01 9.54818502e-02
      4.26475294e-02 9.47790816e-02 9.05343667e-02 4.09326702e-02
      7.07989410e-02 7.72947371e-02 5.41049987e-02</_>
    <_>
      4.99923900e-02 4.12258804e-02 5.99646606e-02 5.25007807e-02
      2.48811599e-02 5.47464304e-02 5.72345406e-02 2.02578306e-02
      5.58329411e-02 4.51685898e-02 7.47550698e-03 4.50649597e-02
      3.69848311e-02 2.02240292e-02 4.11341600e-02</_>
    <_>
      3.83541100e-02 4.18894403e-02 4.70779389e-02 4.48098294e-02
      2.61036195e-02 4.80748005e-02 4.83148210e-02 1.66563503e-02
      4.83658500e-02 4.69410717e-02 1.78407095e-02 4.39705700e-02
      4.21481617e-02 2.63943393e-02 4.29504886e-02</_>
    <_>
      5.11479117e-02 1.96209494e-02 4.95810919e-02 4.38711494e-02
      2.05346402e-02 4.84252088e-02 4.62660417e-02 1.24653196e-02
      4.72556315e-02 4.62925583e-02 4.48617386e-03 4.61992994e-02
      3.80386896e-02 1.51056703e-02 4.09278795e-02</_>
    <_>
      4.23219092e-02 1.28075304e-02 4.04311605e-02 4.23205011e-02
      2.00452302e-02 4.64745387e-02 4.00101095e-02 1.01664905e-02
      4.01646309e-02 3.70557792e-02 1.20767802e-02 3.55683118e-02
      3.30159701e-02 1.50875803e-02 3.53995189e-02</_>
    <_>
      2.51714196e-02 7.40055293e-02 6.99270368e-02 9.62611288e-02
      9.85993594e-02 2.47821901e-02 9.68887284e-02 9.19910073e-02
      3.04375608e-02 8.15058127e-02 7.04731494e-02 4.73729298e-02
      6.39577135e-02 6.24751300e-02 4.91566695e-02</_>
    <_>
      4.90981489e-02 2.67699193e-02 5.17587997e-02 4.16896306e-02
      2.06145998e-02 4.62573618e-02 5.24812713e-02 1.67199895e-02
      5.28991595e-02 5.42642698e-02 1.68184303e-02 5.17358296e-02
      4.17575091e-02 2.15567406e-02 4.32677604e-02</_>
    <_>
      4.88278903e-02 3.15690711e-02 5.17545007e-02 5.04135303e-02
      2.74935197e-02 5.00820391e-02 4.02861089e-02 8.00795387e-03
      4.09935191e-02 3.57877202e-02 7.74670998e-03 3.60896699e-02
      2.96445005e-02 2.07757596e-02 3.60306799e-02</_>
    <_>
      5.76632917e-02 1.81470998e-02 5.51475398e-02 5.49771711e-02
      1.99013092e-02 5.82440197e-02 6.19612113e-02 1.33670000e-02
      6.25875667e-02 6.04860708e-02 6.98156608e-03 6.02602586e-02
      4.76281792e-02 1.67553499e-02 5.01433685e-02</_>
    <_>
      5.59209213e-02 2.32379008e-02 5.75702414e-02 5.09386882e-02
      2.22013593e-02 5.32242693e-02 8.78672004e-02 7.75650218e-02
      4.13113385e-02 7.89149404e-02 7.72302523e-02 4.07855287e-02
      5.74066117e-02 7.37603232e-02 5.86253293e-02</_>
    <_>
      5.25402687e-02 1.92391593e-02 5.34152091e-02 5.16738296e-02
      2.15957891e-02 5.28048091e-02 5.44601604e-02 1.18449703e-02
      5.42479716e-02 5.15414700e-02 1.05775604e-02 5.16244993e-02
      4.13235202e-02 2.21983809e-02 4.60880511e-02</_>
    <_>
      5.19008003e-02 3.24698314e-02 5.28079718e-02 6.94167465e-02
      6.34426922e-02 4.81622294e-02 9.42779630e-02 9.35645774e-02
      2.09185295e-02 8.66120234e-02 8.73737335e-02 1.63478907e-02
      6.39216378e-02 7.42471963e-02 4.22372483e-02</_>
    <_>
      5.12289293e-02 2.88534295e-02 5.43286800e-02 4.71818112e-02
      2.14284807e-02 5.14425114e-02 4.92706187e-02 1.15591902e-02
      5.04169688e-02 5.09677604e-02 6.09397283e-03 5.08385412e-02
      3.95775288e-02 1.77231003e-02 4.31602001e-02</_>
    <_>
      3.90206911e-02 3.01719196e-02 4.16881517e-02 4.08380590e-02
      1.95282605e-02 4.51590195e-02 4.35834713e-02 1.00376504e-02
      4.46146801e-02 4.16995101e-02 5.05570322e-03 4.19117101e-02
      3.57060395e-02 2.64491402e-02 4.03063595e-02</_>
    <_>
      4.15260307e-02 6.56162500e-02 6.71815872e-02 9.89819169e-02
      9.93831679e-02 3.19065899e-02 1.09183498e-01 1.07303098e-01
      2.07820199e-02 9.94895995e-02 1.01586603e-01 2.88005006e-02
      7.37559721e-02 8.62819627e-02 4.81258817e-02</_>
    <_>
      5.93869090e-02 1.52972201e-02 5.87975606e-02 5.97990006e-02
      2.24738196e-02 6.15897812e-02 6.71715289e-02 2.03230493e-02
      6.60216436e-02 6.30342588e-02 1.29170204e-02 6.19337298e-02
      4.81689088e-02 1.58883408e-02 5.01925014e-02</_>
    <_>
      2.67631691e-02 4.73197512e-02 4.21156213e-02 8.83956626e-02
      9.01663601e-02 2.27706004e-02 9.76508632e-02 9.57833976e-02
      1.95740499e-02 4.27803099e-02 8.95038527e-03 4.23469990e-02
      3.45376506e-02 1.91127192e-02 3.90064009e-02</_>
    <_>
      5.47912084e-02 1.14964796e-02 5.43325394e-02 5.34330904e-02
      2.08043698e-02 5.69228493e-02 5.81786186e-02 1.29568102e-02
      5.93413301e-02 5.83725907e-02 9.55778360e-03 5.77327497e-02
      4.46588993e-02 2.00753603e-02 4.70152386e-02</_>
    <_>
      4.94806804e-02 1.41461501e-02 4.82529514e-02 4.94695790e-02
      2.32021995e-02 5.08973002e-02 5.25667891e-02 1.38611896e-02
      5.23012318e-02 4.86256182e-02 9.54622403e-03 4.84559983e-02
      3.88086587e-02 2.10772492e-02 4.28918488e-02</_>
    <_>
      5.18455207e-02 2.41069999e-02 5.21362983e-02 4.67569791e-02
      2.17970498e-02 5.02710305e-02 4.81844693e-02 1.08943097e-02
      4.92622703e-02 4.48619016e-02 4.18404303e-03 4.50235195e-02
      3.88171189e-02 1.73368193e-02 4.23450209e-02</_>
    <_>
      4.58473898e-02 3.24914604e-02 4.78533283e-02 4.45245989e-02
      2.18537506e-02 4.80059907e-02 4.78550196e-02 1.32151004e-02
      4.81478795e-02 5.48607484e-02 2.52144895e-02 4.95645516e-02
      5.94895482e-02 5.90461493e-02 4.52256203e-02</_>
    <_>
      5.26145212e-02 1.72707494e-02 5.37292808e-02 4.71426994e-02
      2.02005897e-02 5.12880087e-02 5.11051901e-02 1.17493197e-02
      5.23111895e-02 4.78579290e-02 4.24837507e-03 4.77672517e-02
      3.98144089e-02 1.48914801e-02 4.25047316e-02</_>
    <_>
      5.30470200e-02 1.77711900e-02 5.39872199e-02 5.13021909e-02
      2.11359393e-02 5.33050708e-02 5.49790300e-02 1.20409196e-02
      5.51785193e-02 5.08805886e-02 6.92805881e-03 5.10964207e-02
      4.10420410e-02 1.95328593e-02 4.51091789e-02</_>
    <_>
      4.56084982e-02 2.41461508e-02 4.64110300e-02 4.18416187e-02
      2.00502593e-02 4.59819399e-02 4.27446701e-02 1.00366501e-02
      4.38114814e-02 4.04956117e-02 5.59384609e-03 4.05885093e-02
      3.62663306e-02 2.22004000e-02 4.06456292e-02</_>
    <_>
      2.38655105e-01 2.49388203e-01 7.97524303e-02 2.34915599e-01
      2.44762495e-01 7.85788074e-02 2.35959306e-01 2.48791397e-01
      8.38659331e-02 2.40275994e-01 2.58260995e-01 9.91968066e-02
      2.44307503e-01 2.66988307e-01 1.16564602e-01</_>
    <_>
      5.07408306e-02 4.06441689e-02 5.99236898e-02 5.40749691e-02
      2.61371508e-02 5.58316410e-02 6.32753000e-02 2.67011803e-02
      5.97219914e-02 5.06676510e-02 1.40153803e-02 4.92805094e-02
      4.10014391e-02 2.22132001e-02 4.40552793e-02</_>
    <_>
      5.13946004e-02 1.50749199e-02 5.13133891e-02 4.72186916e-02
      2.12398097e-02 5.17574698e-02 5.23178205e-02 1.18922498e-02
      5.36163189e-02 5.56635112e-02 7.95415230e-03 5.52593097e-02
      4.76379097e-02 2.22721398e-02 4.94485013e-02</_>
    <_>
      3.94035205e-02 4.04055417e-02 4.93332110e-02 3.73359285e-02
      1.93999391e-02 4.20736186e-02 3.89882699e-02 1.04690203e-02
      3.96632999e-02 3.56038809e-02 8.75891466e-03 3.49610895e-02
      3.00329309e-02 1.92371402e-02 3.53788286e-02</_>
    <_>
      5.32124117e-02 1.89583693e-02 5.33443987e-02 4.50874008e-02
      2.19776798e-02 4.95771617e-02 4.86933701e-02 1.40874200e-02
      4.93943207e-02 4.71153483e-02 8.26834980e-03 4.64625508e-02
      4.13059704e-02 1.45724602e-02 4.37858105e-02</_>
    <_>
      3.93016003e-02 2.67893896e-02 3.89127992e-02 3.90136689e-02
      1.94524191e-02 4.31660004e-02 4.05366495e-02 1.41224097e-02
      4.07550298e-02 3.75930183e-02 1.14024701e-02 3.63028608e-02
      3.15125883e-02 1.87736508e-02 3.49962115e-02</_>
    <_>
      4.06425409e-02 2.35863291e-02 3.91448103e-02 3.69465686e-02
      1.77061092e-02 4.06983010e-02 4.04070616e-02 1.21783400e-02
      4.12037298e-02 3.69710103e-02 9.26933438e-03 3.62420492e-02
      3.12986486e-02 1.89636108e-02 3.59752700e-02</_>
    <_>
      3.85988988e-02 2.64194999e-02 3.79232317e-02 3.80270407e-02
      1.94475595e-02 4.27003019e-02 3.84960994e-02 1.19821802e-02
      3.84197198e-02 3.51802818e-02 1.28572499e-02 3.30432206e-02
      3.03461701e-02 1.50245801e-02 3.26174013e-02</_>
    <_>
      5.08125611e-02 2.19240896e-02 5.06476685e-02 4.61201295e-02
      2.10069902e-02 4.99387197e-02 4.82881516e-02 1.09241204e-02
      4.94609699e-02 4.52875309e-02 4.45233705e-03 4.54028100e-02
      3.85902785e-02 1.69319902e-02 4.21113111e-02</_>
    <_>
      4.73052189e-02 4.57062908e-02 6.13920800e-02 4.98344414e-02
      2.35238504e-02 5.26549593e-02 6.26723170e-02 2.64686998e-02
      5.90906218e-02 6.19224310e-02 2.91593391e-02 5.55649400e-02
      4.83804084e-02 3.13236490e-02 4.91905399e-02</_>
    <_>
      4.19282205e-02 2.57991403e-02 4.02494892e-02 3.76159586e-02
      1.95559300e-02 4.23647612e-02 3.87233309e-02 1.09435702e-02
      3.99897210e-02 3.59444804e-02 6.59880508e-03 3.56287397e-02
      3.06679197e-02 1.66849699e-02 3.47950384e-02</_>
    <_>
      4.37749512e-02 3.07477694e-02 4.23166789e-02 3.95885408e-02
      2.18206793e-02 4.51714210e-02 4.25162688e-02 9.72099323e-03
      4.34927084e-02 3.97110991e-02 9.08653438e-03 3.93848494e-02
      3.32323685e-02 1.98231507e-02 3.81290987e-02</_>
    <_>
      2.85466108e-02 3.74932401e-02 3.69137600e-02 4.06251885e-02
      1.72434598e-02 4.41310592e-02 4.54494283e-02 9.20865498e-03
      4.62271385e-02 4.18416113e-02 5.31281903e-03 4.20009717e-02
      3.72454599e-02 2.98260394e-02 4.13545705e-02</_>
    <_>
      3.88904512e-02 4.71252799e-02 5.06303497e-02 5.38139008e-02
      2.63771992e-02 5.55632003e-02 5.55344298e-02 1.54477702e-02
      5.56886606e-02 4.95318398e-02 6.50125602e-03 4.94282097e-02
      3.92296091e-02 1.76440291e-02 4.25897911e-02</_>
    <_>
      4.11634594e-02 3.79636884e-02 4.55215201e-02 4.17822003e-02
      2.40801107e-02 4.52477410e-02 4.40033190e-02 1.39971804e-02
      4.42758203e-02 4.06376086e-02 1.05669899e-02 3.99613194e-02
      3.45423706e-02 2.30752304e-02 3.82686891e-02</_>
    <_>
      4.07466590e-02 3.75988185e-02 4.62899394e-02 3.91400792e-02
      1.91958100e-02 4.33631316e-02 4.09278795e-02 9.47997067e-03
      4.17242199e-02 3.75563204e-02 7.96283223e-03 3.72850187e-02
      3.16065587e-02 1.80767197e-02 3.60043086e-02</_>
    <_>
      5.43989502e-02 1.29465600e-02 5.36735915e-02 4.83300909e-02
      1.92196108e-02 5.16603589e-02 5.67135699e-02 1.48152197e-02
      5.71524613e-02 5.30745983e-02 6.69707404e-03 5.28266095e-02
      4.08989601e-02 1.54850604e-02 4.33535390e-02</_>
    <_>
      5.07313386e-02 2.48185694e-02 5.26042990e-02 4.27476391e-02
      1.96945406e-02 4.68546301e-02 4.92486395e-02 1.26934601e-02
      5.01146801e-02 4.18619812e-02 9.22301598e-03 4.09644581e-02
      3.48739699e-02 1.74283907e-02 3.89256403e-02</_>
    <_>
      5.48799895e-02 1.14669297e-02 5.41553088e-02 5.33801988e-02
      2.08306704e-02 5.71174286e-02 5.80919199e-02 1.26710404e-02
      5.93483001e-02 5.60355112e-02 3.74972192e-03 5.59836105e-02
      4.16067205e-02 1.51126301e-02 4.41740192e-02</_>
    <_>
      4.89776991e-02 5.85835986e-02 6.23594895e-02 1.05140701e-01
      1.06405199e-01 2.40353700e-02 1.16389103e-01 1.16579399e-01
      9.22115054e-03 1.06734201e-01 1.09694302e-01 2.54616700e-02
      8.13547596e-02 9.25378874e-02 4.41069715e-02</_>
    <_>
      4.49420400e-02 1.64105799e-02 4.46866006e-02 8.53490010e-02
      8.49223286e-02 2.37182304e-02 8.88930410e-02 7.77013227e-02
      4.41062115e-02 6.08973689e-02 3.02856695e-02 5.37330583e-02
      5.06497584e-02 3.41562293e-02 4.94294688e-02</_>
    <_>
      4.44608591e-02 1.42058600e-02 4.33185808e-02 3.85708697e-02
      2.28804909e-02 4.33193408e-02 4.01148908e-02 1.67914908e-02
      3.92882302e-02 3.73605117e-02 1.59447603e-02 3.39318104e-02
      3.19477692e-02 1.73944999e-02 3.46756987e-02</_>
    <_>
      4.11513299e-02 5.02287596e-02 5.26192486e-02 9.28178728e-02
      8.58160183e-02 4.29711603e-02 1.00824803e-01 8.96838084e-02
      4.61248308e-02 9.23414081e-02 8.40007216e-02 4.60455418e-02
      6.05384298e-02 4.86199707e-02 5.57477996e-02</_>
    <_>
      5.66089898e-02 2.49339808e-02 5.88139296e-02 5.28211184e-02
      2.38374509e-02 5.47583289e-02 8.72934237e-02 7.42489770e-02
      4.59148400e-02 7.96437263e-02 7.37065971e-02 4.42195311e-02
      5.97590804e-02 6.49272874e-02 5.46697788e-02</_>
    <_>
      5.59773818e-02 1.67961996e-02 5.56496717e-02 5.62499091e-02
      2.21366901e-02 5.90577610e-02 6.12787008e-02 1.54527295e-02
      6.18295819e-02 5.59871607e-02 3.44324694e-03 5.59582487e-02
      4.36173007e-02 1.38604604e-02 4.57294583e-02</_>
    <_>
      3.90640087e-02 4.79003191e-02 5.19696102e-02 5.51449992e-02
      2.76145209e-02 5.64856082e-02 5.72236888e-02 1.71021596e-02
      5.69952503e-02 5.07669710e-02 8.02571699e-03 5.04604988e-02
      4.01950292e-02 1.80801302e-02 4.34086882e-02</_>
    <_>
      5.32264411e-02 2.02917494e-02 5.55291511e-02 4.46680412e-02
      2.03572009e-02 4.87310402e-02 4.63665389e-02 1.07719898e-02
      4.75985892e-02 4.53660488e-02 4.38843016e-03 4.55396883e-02
      3.79699282e-02 1.94786303e-02 4.17617708e-02</_>
    <_>
      5.45509011e-02 2.22025700e-02 5.60333207e-02 5.16539104e-02
      2.17562094e-02 5.41979000e-02 5.82724698e-02 1.61621794e-02
      5.82569204e-02 5.82174100e-02 1.61007307e-02 5.62774017e-02
      4.81673405e-02 2.55829208e-02 4.90252301e-02</_>
    <_>
      5.48380688e-02 1.28291398e-02 5.38079888e-02 5.28644696e-02
      2.07415503e-02 5.65566607e-02 5.69596514e-02 1.25860199e-02
      5.81802204e-02 5.42983711e-02 2.09563295e-03 5.43270111e-02
      4.23812903e-02 1.41970003e-02 4.46890295e-02</_>
    <_>
      5.14103398e-02 2.43853405e-02 5.16605787e-02 4.45596687e-02
      2.12027896e-02 4.91734818e-02 4.86713499e-02 1.12492600e-02
      4.99057397e-02 5.14193997e-02 8.43359344e-03 5.10261394e-02
      4.24589217e-02 2.06445698e-02 4.52683195e-02</_>
    <_>
      5.35629205e-02 1.98996607e-02 5.44780008e-02 5.00514507e-02
      2.02643406e-02 5.27956001e-02 5.71636707e-02 1.50662502e-02
      5.73270693e-02 5.63132912e-02 1.33881299e-02 5.50383106e-02
      4.68582697e-02 2.44925804e-02 4.82321605e-02</_>
    <_>
      5.38932607e-02 2.02251207e-02 5.49123511e-02 5.05183004e-02
      2.04419792e-02 5.32886386e-02 5.77361993e-02 1.53496303e-02
      5.79005294e-02 5.68165295e-02 1.35595798e-02 5.54866903e-02
      4.72942516e-02 2.45691594e-02 4.85470109e-02</_>
    <_>
      5.35021909e-02 2.12281197e-02 5.48609011e-02 5.03207408e-02
      2.10882500e-02 5.31531088e-02 5.71598299e-02 1.56769902e-02
      5.73070608e-02 5.67148812e-02 1.43311797e-02 5.51787317e-02
      4.70017195e-02 2.45932098e-02 4.81586009e-02</_>
    <_>
      5.33278100e-02 2.15906892e-02 5.48329391e-02 5.04475012e-02
      2.14666706e-02 5.32445796e-02 5.71555682e-02 1.59641393e-02
      5.72499111e-02 5.69004901e-02 1.51080498e-02 5.51706888e-02
      4.70894910e-02 2.51229499e-02 4.81161401e-02</_>
    <_>
      4.15057801e-02 3.92241105e-02 4.83906195e-02 3.91840898e-02
      2.00639497e-02 4.38904911e-02 4.18362208e-02 1.06530702e-02
      4.31060791e-02 3.81956398e-02 5.57465106e-03 3.80305983e-02
      3.19431908e-02 1.62272099e-02 3.57215889e-02</_>
    <_>
      5.48366010e-02 1.62307695e-02 5.46734296e-02 5.21819293e-02
      2.21182499e-02 5.44814691e-02 5.43272309e-02 1.25494702e-02
      5.50043993e-02 5.11975996e-02 5.01147099e-03 5.12232818e-02
      4.08568010e-02 1.65469609e-02 4.38555703e-02</_>
    <_>
      4.27051708e-02 2.30380092e-02 4.02934588e-02 3.81411985e-02
      1.83230601e-02 4.21662293e-02 4.13385816e-02 1.07856803e-02
      4.21010703e-02 3.84885482e-02 1.01859197e-02 3.79325189e-02
      3.20365690e-02 1.94524396e-02 3.70672792e-02</_>
    <_>
      5.19211404e-02 3.23866382e-02 5.63910492e-02 5.12785092e-02
      2.26426702e-02 5.44692688e-02 5.78231998e-02 1.73764192e-02
      5.75512610e-02 6.01172112e-02 2.11599600e-02 5.68164811e-02
      4.84264903e-02 2.79105194e-02 4.97328304e-02</_>
    <_>
      5.26246801e-02 3.07086091e-02 5.45770489e-02 6.20813705e-02
      3.20262387e-02 6.06821403e-02 7.05360919e-02 3.20187993e-02
      6.47264197e-02 6.46322966e-02 2.55283900e-02 5.99818192e-02
      5.22755086e-02 3.04042399e-02 5.22070490e-02</_>
    <_>
      5.58162406e-02 1.62271392e-02 5.50949089e-02 5.56752197e-02
      2.21872702e-02 5.85101210e-02 6.02202490e-02 1.51436096e-02
      6.08240999e-02 5.48249297e-02 2.87167705e-03 5.48224896e-02
      4.35911007e-02 1.36982398e-02 4.56426889e-02</_>
    <_>
      3.99757698e-02 2.67057102e-02 3.93498205e-02 3.65673117e-02
      2.08130199e-02 4.11973409e-02 4.01730686e-02 1.37494998e-02
      4.04899903e-02 3.74634303e-02 1.08096702e-02 3.63305584e-02
      3.12334895e-02 1.86377708e-02 3.48177887e-02</_>
    <_>
      3.84888388e-02 2.66914908e-02 3.83338295e-02 3.76490690e-02
      2.04541702e-02 4.25770991e-02 3.99887599e-02 1.26798199e-02
      4.06236202e-02 3.64187099e-02 9.28698108e-03 3.55567187e-02
      3.14929001e-02 1.91094000e-02 3.58063392e-02</_>
    <_>
      4.09358703e-02 3.87495197e-02 4.86662798e-02 4.14849594e-02
      1.96752306e-02 4.58931290e-02 4.34951410e-02 1.00858202e-02
      4.42652218e-02 4.03479487e-02 7.06816884e-03 4.00856882e-02
      3.53112184e-02 1.85707901e-02 3.97405513e-02</_>
    <_>
      4.05330695e-02 4.47464511e-02 5.18721789e-02 5.05461991e-02
      2.36671306e-02 5.32871895e-02 5.06611392e-02 1.15878498e-02
      5.16491495e-02 4.31688018e-02 5.24341315e-03 4.33157310e-02
      3.52752283e-02 1.74626391e-02 3.93197387e-02</_>
    <_>
      4.08964194e-02 2.15466898e-02 3.90999690e-02 3.81706506e-02
      1.85138807e-02 4.23676409e-02 3.87487300e-02 1.09159397e-02
      3.96554284e-02 3.51523384e-02 9.30671021e-03 3.42744403e-02
      2.94949207e-02 1.77276209e-02 3.37541215e-02</_>
    <_>
      4.16959599e-02 2.05041002e-02 3.90463993e-02 3.75947095e-02
      1.98124591e-02 4.24123108e-02 3.90192904e-02 1.29673500e-02
      4.05583605e-02 3.40921991e-02 9.04337224e-03 3.29179391e-02
      2.73534991e-02 1.26113100e-02 2.96703801e-02</_>
    <_>
      4.17310894e-02 4.74805087e-02 5.61514907e-02 5.58422804e-02
      2.72626504e-02 5.72298206e-02 5.48792705e-02 1.38628604e-02
      5.54337502e-02 4.78499494e-02 3.82849597e-03 4.79838289e-02
      3.66411395e-02 1.68959796e-02 4.03486490e-02</_>
    <_>
      4.40787300e-02 4.66778502e-02 5.60460091e-02 4.69948612e-02
      2.48477999e-02 4.98252399e-02 4.06942405e-02 1.06758503e-02
      4.18560803e-02 3.50908302e-02 7.49951880e-03 3.47795412e-02
      2.96793692e-02 1.89726707e-02 3.51818316e-02</_>
    <_>
      3.05957608e-02 5.68504483e-02 5.15384786e-02 9.76575688e-02
      9.86047909e-02 1.59336496e-02 1.08353503e-01 1.08364299e-01
      7.36362487e-03 9.78993326e-02 1.00509897e-01 2.40765493e-02
      7.17867315e-02 8.44105333e-02 4.50744182e-02</_>
    <_>
      4.23520692e-02 3.36102992e-02 4.17784192e-02 3.96343209e-02
      2.22428907e-02 4.43969406e-02 4.04030904e-02 1.11958198e-02
      4.16984707e-02 3.65323797e-02 3.85229802e-03 3.67291607e-02
      3.06485705e-02 1.74986497e-02 3.51821817e-02</_>
    <_>
      4.94929105e-02 4.34119403e-02 6.11435696e-02 5.12465909e-02
      2.44601499e-02 5.36816791e-02 6.15799911e-02 2.65587904e-02
      5.78492396e-02 6.30876124e-02 2.85418797e-02 5.71438707e-02
      4.81557585e-02 2.98004504e-02 4.93776798e-02</_>
    <_>
      4.35157903e-02 1.50481304e-02 4.39397395e-02 3.74696292e-02
      2.29710806e-02 4.23128493e-02 4.00334485e-02 1.67707205e-02
      3.92075293e-02 3.68696712e-02 1.60112698e-02 3.33723612e-02
      3.12056597e-02 1.71152093e-02 3.40528712e-02</_>
    <_>
      4.29431498e-02 1.92470606e-02 3.89185213e-02 5.04888408e-02
      3.26809511e-02 4.87582907e-02 5.34817018e-02 2.00677700e-02
      5.19366115e-02 4.76466194e-02 1.16200596e-02 4.66731787e-02
      3.75640690e-02 2.12686006e-02 4.07387204e-02</_>
    <_>
      5.49891703e-02 1.96876694e-02 5.52839711e-02 5.42020611e-02
      2.14474909e-02 5.65887094e-02 6.19696788e-02 1.82662103e-02
      6.13809600e-02 5.86378500e-02 1.21128196e-02 5.76251782e-02
      4.57521193e-02 1.79553498e-02 4.78807688e-02</_>
    <_>
      4.54261415e-02 1.67464502e-02 4.52883206e-02 8.24209526e-02
      7.79111609e-02 3.33628803e-02 9.08017829e-02 8.05071071e-02
      4.24478985e-02 5.22970892e-02 1.73330791e-02 4.99597192e-02
      4.91273403e-02 2.94702500e-02 4.90686707e-02</_>
    <_>
      5.40064313e-02 1.83938704e-02 5.41622788e-02 4.89269085e-02
      2.07299292e-02 5.31359613e-02 5.35845086e-02 1.21515701e-02
      5.48833013e-02 5.30054606e-02 2.11879401e-03 5.30442894e-02
      4.65663895e-02 1.82668306e-02 4.85665016e-02</_>
    <_>
      4.39877212e-02 1.72422696e-02 4.27971110e-02 8.59363973e-02
      8.62052366e-02 2.33708899e-02 9.41196680e-02 9.02940929e-02
      2.66674198e-02 6.45452067e-02 3.98365483e-02 5.23240082e-02
      5.54885790e-02 4.61739004e-02 5.03721796e-02</_>
    <_>
      5.15775494e-02 2.70525292e-02 5.32705598e-02 4.40624095e-02
      2.11812891e-02 4.87819910e-02 4.79796417e-02 1.11129601e-02
      4.92433682e-02 4.92324196e-02 6.03194116e-03 4.91424799e-02
      4.05233800e-02 1.91973094e-02 4.36660498e-02</_>
    <_>
      5.48256710e-02 1.26023097e-02 5.45541197e-02 5.36142103e-02
      2.10214593e-02 5.69335409e-02 5.80377989e-02 1.31128002e-02
      5.91170788e-02 5.83168305e-02 1.08945305e-02 5.74700385e-02
      4.63948213e-02 2.31027901e-02 4.83268611e-02</_>
    <_>
      4.60470207e-02 2.78514698e-02 4.94528301e-02 4.15878110e-02
      1.98640600e-02 4.59339693e-02 4.29135785e-02 1.09029496e-02
      4.40682508e-02 4.07054313e-02 6.04615780e-03 4.07471284e-02
      3.42679396e-02 1.84179991e-02 3.88843417e-02</_>
    <_>
      5.20495698e-02 9.40111093e-03 5.12168594e-02 4.74217199e-02
      2.19899695e-02 5.06320707e-02 6.29959777e-02 3.13367285e-02
      5.68402186e-02 6.78751990e-02 4.82350700e-02 5.00508100e-02
      5.16239703e-02 4.36456501e-02 4.90935706e-02</_>
    <_>
      5.14301285e-02 1.70780402e-02 5.15267700e-02 5.14643416e-02
      1.94029994e-02 5.15279807e-02 5.39485291e-02 1.01447497e-02
      5.32890111e-02 5.19036800e-02 1.49176903e-02 5.23944497e-02
      4.28907201e-02 2.82071196e-02 4.92977202e-02</_>
    <_>
      4.24654596e-02 2.22497806e-02 4.00749482e-02 3.78835686e-02
      1.65536292e-02 4.11569998e-02 4.14127409e-02 1.12001104e-02
      4.20530215e-02 3.85069996e-02 1.06231002e-02 3.78233194e-02
      3.20052095e-02 1.93125792e-02 3.69500294e-02</_>
    <_>
      5.37295491e-02 1.31561998e-02 5.22118397e-02 6.63190484e-02
      4.73949797e-02 5.74899502e-02 7.17815682e-02 4.33323309e-02
      5.94979115e-02 6.17868006e-02 2.94060800e-02 5.51329292e-02
      4.73911688e-02 2.81127207e-02 4.81637307e-02</_>
    <_>
      5.43284416e-02 1.32297799e-02 5.27684093e-02 6.71350434e-02
      4.67745103e-02 5.88929802e-02 7.34306797e-02 4.43034396e-02
      6.06600791e-02 6.35588691e-02 3.06162294e-02 5.65559790e-02
      4.86031398e-02 2.82814708e-02 4.93397117e-02</_>
    <_>
      5.32479100e-02 1.73690096e-02 5.42941689e-02 5.02233990e-02
      2.21250094e-02 5.29550910e-02 5.99309802e-02 2.20043492e-02
      5.80539592e-02 5.40555492e-02 1.38010997e-02 5.26377596e-02
      4.26366404e-02 2.14194804e-02 4.50147912e-02</_>
    <_>
      5.15863784e-02 2.59428192e-02 5.30432090e-02 4.50051986e-02
      2.15672702e-02 4.98734489e-02 4.99774590e-02 1.18808700e-02
      5.12175299e-02 4.60431203e-02 6.70986809e-03 4.57436703e-02
      3.78079712e-02 1.65612195e-02 4.11094613e-02</_>
    <_>
      4.15003188e-02 4.86544110e-02 5.91739491e-02 4.59575802e-02
      2.30289008e-02 4.91369590e-02 4.79428805e-02 1.43687399e-02
      4.79326993e-02 4.34980616e-02 7.87368510e-03 4.34362404e-02
      3.57831605e-02 1.98732298e-02 4.01580185e-02</_>
    <_>
      5.22799790e-02 1.90721508e-02 5.14812991e-02 5.07893600e-02
      2.04297192e-02 5.42087816e-02 5.69766313e-02 1.40526202e-02
      5.78614809e-02 5.37112989e-02 4.70523490e-03 5.36196306e-02
      4.21322510e-02 1.51156401e-02 4.46526296e-02</_>
    <_>
      4.97808605e-02 2.00672708e-02 4.92687412e-02 4.49609607e-02
      2.12612692e-02 4.67131510e-02 4.60979603e-02 9.73042566e-03
      4.63971384e-02 4.20011990e-02 6.66532200e-03 4.25232500e-02
      3.57982814e-02 2.05718093e-02 4.09593508e-02</_>
    <_>
      5.15402108e-02 1.57682691e-02 5.15253283e-02 4.42664810e-02
      2.12814193e-02 4.75351214e-02 5.35871089e-02 1.94916707e-02
      5.20053394e-02 4.96656485e-02 1.52281001e-02 4.80245799e-02
      3.98351103e-02 2.45026108e-02 4.29920107e-02</_>
    <_>
      3.51500288e-02 5.43154590e-02 5.55103607e-02 8.69234726e-02
      8.97815600e-02 3.10948603e-02 9.49332789e-02 9.25274864e-02
      2.19000708e-02 8.37964937e-02 8.10054690e-02 3.29742208e-02
      6.05921894e-02 6.59856275e-02 4.41528484e-02</_>
    <_>
      4.23129499e-02 3.69043387e-02 5.03729396e-02 3.75643000e-02
      1.97445396e-02 4.24309410e-02 3.86515483e-02 1.10368300e-02
      3.94489318e-02 3.53656895e-02 1.00589599e-02 3.43391895e-02
      2.98105404e-02 1.95573494e-02 3.48459706e-02</_>
    <_>
      3.68089117e-02 4.54464704e-02 4.63426188e-02 5.03781885e-02
      2.34046709e-02 5.31138703e-02 5.26298806e-02 1.28772696e-02
      5.33255711e-02 4.81667295e-02 4.68412414e-03 4.82469089e-02
      3.80596183e-02 1.72428694e-02 4.15996797e-02</_>
    <_>
      4.41860296e-02 4.43160385e-02 5.85960411e-02 4.83946912e-02
      2.57902406e-02 5.13140596e-02 4.92939986e-02 1.56126097e-02
      4.94995788e-02 4.45235409e-02 6.33406686e-03 4.44375612e-02
      3.59300710e-02 1.84853803e-02 3.99748795e-02</_>
    <_>
      2.59863194e-02 6.98067769e-02 6.53818399e-02 9.71005633e-02
      9.94349122e-02 2.78407708e-02 8.32770169e-02 6.93877563e-02
      4.69972789e-02 6.12893999e-02 2.96149794e-02 5.47947399e-02
      6.99593425e-02 7.09722713e-02 5.12024015e-02</_>
    <_>
      4.53747697e-02 1.70226097e-02 4.60505895e-02 8.18572864e-02
      7.61269629e-02 3.71158905e-02 7.44900927e-02 5.09287901e-02
      5.63759394e-02 5.27095012e-02 1.98490191e-02 4.95112687e-02
      4.65787500e-02 2.77262703e-02 4.72606495e-02</_>
    <_>
      5.16913794e-02 4.34868895e-02 6.29382730e-02 6.09432906e-02
      3.90078314e-02 5.98216206e-02 6.63561225e-02 3.58819589e-02
      6.04221188e-02 6.63121268e-02 3.68996896e-02 5.51925488e-02
      5.27279302e-02 3.51276807e-02 4.74060103e-02</_>
    <_>
      5.39170206e-02 1.63647793e-02 5.13864011e-02 4.99198288e-02
      1.93509702e-02 5.35216294e-02 5.55798300e-02 1.14382599e-02
      5.67402095e-02 5.57087287e-02 3.04902089e-03 5.57882600e-02
      4.43639308e-02 1.58188101e-02 4.70996797e-02</_>
    <_>
      4.75890487e-02 4.59733792e-02 6.16660118e-02 5.06113507e-02
      2.42985003e-02 5.31245507e-02 6.37563094e-02 2.95133591e-02
      5.87939695e-02 6.32393509e-02 3.13640386e-02 5.59863895e-02
      4.90183309e-02 3.20335515e-02 4.96451892e-02</_>
    <_>
      5.35545498e-02 2.05329303e-02 5.41569293e-02 4.57231291e-02
      2.18097195e-02 5.02432100e-02 4.93650697e-02 1.37821501e-02
      5.01763485e-02 4.71030399e-02 9.03487299e-03 4.63270582e-02
      4.02125604e-02 1.48143703e-02 4.28186618e-02</_>
    <_>
      4.25758883e-02 2.13864502e-02 4.00238186e-02 4.10147496e-02
      2.08921600e-02 4.57059592e-02 4.33874801e-02 1.16415601e-02
      4.49215695e-02 3.91268097e-02 4.33842186e-03 3.89861912e-02
      3.27393003e-02 1.46497898e-02 3.58556099e-02</_>
    <_>
      5.60734496e-02 1.67906191e-02 5.56196086e-02 5.63783310e-02
      2.23822892e-02 5.91219291e-02 6.10480495e-02 1.54931396e-02
      6.15851395e-02 5.56199998e-02 3.22983600e-03 5.55991307e-02
      4.38516997e-02 1.37284203e-02 4.59017791e-02</_>
    <_>
      5.33740893e-02 1.97450891e-02 5.36847897e-02 4.56908792e-02
      2.17112005e-02 5.01827300e-02 4.94650602e-02 1.37140201e-02
      5.02979383e-02 4.76746708e-02 8.07018206e-03 4.70590517e-02
      4.12139110e-02 1.45837199e-02 4.37134691e-02</_>
    <_>
      5.10089099e-02 1.58492196e-02 5.08918911e-02 4.39526998e-02
      2.06464604e-02 4.70757112e-02 5.11043705e-02 1.55416802e-02
      5.05420119e-02 4.68834713e-02 1.00285402e-02 4.65705991e-02
      3.78939994e-02 2.16981806e-02 4.20639105e-02</_>
    <_>
      4.19687591e-02 2.95883697e-02 4.04500216e-02 3.55828293e-02
      1.71499606e-02 3.94999385e-02 3.76445204e-02 1.09222401e-02
      3.88738289e-02 3.44234817e-02 8.37178528e-03 3.36863399e-02
      2.96772793e-02 1.70900207e-02 3.38027701e-02</_>
    <_>
      4.44279499e-02 3.44781913e-02 4.86864187e-02 4.12390195e-02
      2.07999293e-02 4.58317101e-02 4.21269014e-02 9.61614400e-03
      4.31442596e-02 3.95578891e-02 5.79085993e-03 3.96096706e-02
      3.21787409e-02 1.76468305e-02 3.66821885e-02</_>
    <_>
      4.07647192e-02 5.03992811e-02 5.83879016e-02 6.13692701e-02
      3.46850194e-02 5.99041916e-02 5.98288104e-02 2.08039898e-02
      5.85630201e-02 5.22069708e-02 9.96985193e-03 5.15885688e-02
      3.99131998e-02 1.82254892e-02 4.32695001e-02</_>
    <_>
      5.27726188e-02 1.06069203e-02 5.23768589e-02 4.66732793e-02
      2.15640999e-02 5.12459800e-02 5.15378490e-02 1.22776199e-02
      5.27600087e-02 5.06151989e-02 2.28637690e-03 5.06608784e-02
      4.19830382e-02 1.58091392e-02 4.45685014e-02</_>
    <_>
      4.70047407e-02 1.12781897e-02 4.60871384e-02 3.93233597e-02
      2.29306892e-02 4.39351089e-02 4.22463901e-02 1.70117598e-02
      4.15341295e-02 3.96679901e-02 1.47408303e-02 3.69405895e-02
      3.44857909e-02 1.64487604e-02 3.74807008e-02</_>
    <_>
      4.10862416e-02 2.57726293e-02 3.97837311e-02 3.58759910e-02
      1.80152208e-02 4.01046202e-02 3.77524793e-02 1.12280399e-02
      3.86487618e-02 3.50104608e-02 8.84036906e-03 3.42790708e-02
      3.01256105e-02 1.75617896e-02 3.43927592e-02</_>
    <_>
      4.06557918e-02 2.50504799e-02 3.94217297e-02 3.62945683e-02
      1.87441893e-02 4.08426300e-02 3.76293212e-02 1.14032496e-02
      3.84740010e-02 3.49745713e-02 9.00680386e-03 3.41933817e-02
      2.99758296e-02 1.75217297e-02 3.42392884e-02</_>
    <_>
      4.69322801e-02 1.13351997e-02 4.60008197e-02 3.93173993e-02
      2.29316000e-02 4.39295508e-02 4.22045588e-02 1.70076806e-02
      4.14900593e-02 3.96736301e-02 1.47140501e-02 3.69634405e-02
      3.44711803e-02 1.64646097e-02 3.74844596e-02</_>
    <_>
      4.24659811e-02 2.41622608e-02 4.09551300e-02 3.77825797e-02
      1.99267194e-02 4.27150913e-02 3.89601812e-02 1.23088900e-02
      4.01683599e-02 3.64022404e-02 7.88343046e-03 3.56948711e-02
      3.10026892e-02 1.54760303e-02 3.43916304e-02</_>
    <_>
      3.78815904e-02 2.69448292e-02 3.80549282e-02 3.78719717e-02
      1.96604598e-02 4.22637016e-02 4.00783010e-02 1.37731098e-02
      4.03814092e-02 3.64627205e-02 1.05085103e-02 3.52636687e-02
      3.10403500e-02 1.91991404e-02 3.49362418e-02</_>
    <_>
      4.22887504e-02 3.52752805e-02 4.50527109e-02 4.20988910e-02
      2.22559795e-02 4.57997583e-02 4.37734388e-02 1.09239100e-02
      4.45283391e-02 4.01270390e-02 6.23095594e-03 4.04190309e-02
      3.30231413e-02 2.00812500e-02 3.81109416e-02</_>
    <_>
      5.34950309e-02 1.76139008e-02 5.36876097e-02 5.34661710e-02
      2.07742192e-02 5.65319583e-02 6.04926310e-02 1.63414106e-02
      6.10397495e-02 5.73069490e-02 7.36381905e-03 5.68874590e-02
      4.32885699e-02 1.34928199e-02 4.52813990e-02</_>
    <_>
      4.64470088e-02 1.57576296e-02 4.37767208e-02 4.98018302e-02
      2.44934894e-02 5.22286892e-02 4.44302894e-02 8.96050874e-03
      4.52267602e-02 4.22072411e-02 6.82805711e-03 4.21331711e-02
      3.57602686e-02 1.68202892e-02 3.93348411e-02</_>
    <_>
      2.92456504e-02 6.22516200e-02 6.32299334e-02 8.63332674e-02
      8.75918791e-02 2.91424002e-02 9.54453126e-02 9.38787609e-02
      1.72431506e-02 8.58618766e-02 8.86814296e-02 2.94805709e-02
      6.24394082e-02 7.77314827e-02 4.96828109e-02</_>
    <_>
      2.61353292e-02 4.24905904e-02 3.89652587e-02 7.15196207e-02
      4.37322184e-02 6.24740906e-02 9.08683091e-02 7.78477490e-02
      4.72424105e-02 3.95186692e-02 9.07185301e-03 3.86728197e-02
      3.31940800e-02 1.78124607e-02 3.71375307e-02</_>
    <_>
      5.21562509e-02 3.55293490e-02 5.38021997e-02 6.01396114e-02
      4.22066003e-02 5.23563810e-02 6.76627085e-02 4.30107899e-02
      5.42664118e-02 7.75402635e-02 6.47038966e-02 4.66151908e-02
      6.22885190e-02 6.36359826e-02 4.88806404e-02</_>
    <_>
      4.85935695e-02 5.58132604e-02 6.49000332e-02 8.67334306e-02
      7.62237832e-02 5.61940297e-02 9.90692601e-02 8.79880786e-02
      4.76276986e-02 9.24763530e-02 8.55932683e-02 4.04476188e-02
      6.58056810e-02 6.18149117e-02 5.02865389e-02</_>
    <_>
      4.06503603e-02 3.74722891e-02 4.31259908e-02 4.79095988e-02
      2.59745698e-02 4.99754511e-02 4.60358299e-02 1.08443601e-02
      4.68006507e-02 4.12184894e-02 5.55600412e-03 4.15622592e-02
      3.49884294e-02 1.85449291e-02 3.95798087e-02</_>
    <_>
      5.58032095e-02 2.32717507e-02 5.74476682e-02 5.07240891e-02
      2.22342908e-02 5.31515889e-02 8.75748768e-02 7.73960501e-02
      4.10193503e-02 7.82592297e-02 7.55438134e-02 4.16861400e-02
      5.74735403e-02 7.24552497e-02 5.81333004e-02</_>
    <_>
      4.43268716e-02 1.69114508e-02 4.31549288e-02 8.60441327e-02
      8.65581110e-02 2.38786303e-02 9.38121602e-02 9.02160406e-02
      2.57429108e-02 6.16842397e-02 3.69358994e-02 5.08909598e-02
      5.68863600e-02 4.90670986e-02 5.13444208e-02</_>
    <_>
      3.89079787e-02 2.63047591e-02 3.85658182e-02 3.82049195e-02
      1.80446208e-02 4.18829210e-02 4.07277904e-02 1.39399003e-02
      4.10188287e-02 3.71764190e-02 1.05984397e-02 3.60923186e-02
      3.15955989e-02 1.86096095e-02 3.52635905e-02</_>
    <_>
      4.10770811e-02 3.58873308e-02 4.81654294e-02 3.79165113e-02
      1.77208893e-02 4.18019406e-02 4.00853604e-02 1.15430905e-02
      4.04678993e-02 3.69027704e-02 9.99384001e-03 3.59832495e-02
      3.16361114e-02 1.88268796e-02 3.64281386e-02</_>
    <_>
      4.52065691e-02 4.17832099e-02 5.12195118e-02 4.77355011e-02
      2.76612807e-02 4.94693704e-02 4.67943102e-02 1.42486896e-02
      4.71456684e-02 4.30842787e-02 8.88305157e-03 4.25891094e-02
      3.60960588e-02 2.03064401e-02 3.93309109e-02</_>
    <_>
      5.21022789e-02 2.26934701e-02 5.50391115e-02 4.62421812e-02
      2.17813402e-02 5.00440896e-02 8.20066929e-02 6.70634732e-02
      4.74566594e-02 7.26462305e-02 6.33911788e-02 4.44569401e-02
      5.52696697e-02 5.82864918e-02 5.18991090e-02</_>
    <_>
      4.51880991e-02 3.69163193e-02 5.08194901e-02 4.46618386e-02
      2.20519193e-02 4.84319292e-02 4.81032692e-02 1.24291005e-02
      4.90079410e-02 4.50497605e-02 6.33318210e-03 4.49483395e-02
      3.69729996e-02 1.86191406e-02 4.05464396e-02</_>
    <_>
      5.50420694e-02 2.09199805e-02 5.63493818e-02 5.28172590e-02
      2.17970200e-02 5.55981882e-02 6.01294301e-02 1.65456496e-02
      6.02489300e-02 5.83367608e-02 1.23450505e-02 5.72058298e-02
      4.63833213e-02 1.93220600e-02 4.82538901e-02</_>
    <_>
      5.04158586e-02 1.10686896e-02 5.04588000e-02 6.02301918e-02
      3.53667289e-02 5.75361513e-02 4.53455485e-02 9.96932015e-03
      4.63113002e-02 4.17400412e-02 6.36116182e-03 4.16780002e-02
      3.49079892e-02 1.70453005e-02 3.87860909e-02</_>
    <_>
      5.53083196e-02 1.36217698e-02 5.44950105e-02 5.23812287e-02
      2.10255794e-02 5.44853397e-02 5.52308485e-02 1.21640898e-02
      5.58190010e-02 5.17976508e-02 4.59008384e-03 5.18833697e-02
      4.03348990e-02 1.60179995e-02 4.33688015e-02</_>
    <_>
      4.33739685e-02 4.41248715e-02 5.18748499e-02 4.86841202e-02
      2.29316503e-02 5.16804494e-02 4.24290113e-02 1.03271399e-02
      4.32234406e-02 3.85887697e-02 1.05944602e-02 3.76973115e-02
      3.28382812e-02 1.99929904e-02 3.72785404e-02</_>
    <_>
      5.60983904e-02 2.96363607e-02 5.44600189e-02 5.36069088e-02
      2.28621308e-02 5.33135608e-02 5.59309497e-02 1.52166700e-02
      5.47058918e-02 5.20193204e-02 1.22507103e-02 5.17281890e-02
      4.29017283e-02 2.36068796e-02 4.66939509e-02</_>
    <_>
      5.02016209e-02 3.06143705e-02 5.65076396e-02 4.01402600e-02
      2.00470798e-02 4.48488183e-02 4.14482318e-02 1.12595204e-02
      4.24732305e-02 3.84174809e-02 9.05604474e-03 3.77569087e-02
      3.25807482e-02 1.84712000e-02 3.69336307e-02</_>
    <_>
      4.95055318e-02 5.69945909e-02 6.82469830e-02 9.79582369e-02
      9.79355723e-02 3.07948608e-02 1.08700298e-01 1.07913502e-01
      1.59454700e-02 9.88126472e-02 1.00636102e-01 2.68536899e-02
      7.37413317e-02 8.41228887e-02 4.35519591e-02</_>
    <_>
      5.50116189e-02 1.35397501e-02 5.39461598e-02 5.31877913e-02
      2.07537208e-02 5.66325895e-02 5.72406687e-02 1.29954899e-02
      5.83418310e-02 5.41531593e-02 2.26964103e-03 5.41801304e-02
      4.28568013e-02 1.39483297e-02 4.50530984e-02</_>
    <_>
      3.54541391e-02 4.38035503e-02 4.42119390e-02 4.22766805e-02
      2.24849302e-02 4.70299385e-02 4.66354713e-02 1.33543704e-02
      4.73215096e-02 8.46325234e-02 8.78416821e-02 2.83735208e-02
      6.15856014e-02 7.05592185e-02 4.31152508e-02</_>
    <_>
      5.03100790e-02 1.16900997e-02 5.06439209e-02 5.58577105e-02
      3.17545012e-02 5.50016202e-02 4.60745394e-02 9.80453100e-03
      4.70241793e-02 4.28812802e-02 5.44552598e-03 4.29627784e-02
      3.50178890e-02 1.71247497e-02 3.89314294e-02</_>
    <_>
      5.33310510e-02 1.27318902e-02 5.34786507e-02 4.81754504e-02
      2.14711204e-02 5.18005006e-02 6.08806610e-02 2.64036395e-02
      5.74670807e-02 6.23818412e-02 3.47600207e-02 5.26802614e-02
      4.86220606e-02 3.54056917e-02 4.76238690e-02</_>
    <_>
      5.45794815e-02 1.16144205e-02 5.33707701e-02 6.66166618e-02
      4.60790992e-02 5.94100393e-02 7.26693720e-02 4.27329689e-02
      6.11648299e-02 6.29064888e-02 2.85477806e-02 5.67229316e-02
      4.83231507e-02 2.67241094e-02 4.93362211e-02</_>
    <_>
      4.96978983e-02 5.62734194e-02 6.72640130e-02 9.85853523e-02
      9.94888991e-02 2.85239294e-02 1.09274000e-01 1.09009102e-01
      1.17818601e-02 9.94780064e-02 1.02007799e-01 2.49511395e-02
      7.40710869e-02 8.52155983e-02 4.30496410e-02</_>
    <_>
      5.25991507e-02 3.97189818e-02 6.15468584e-02 6.32922500e-02
      4.47328985e-02 5.80296218e-02 6.99221566e-02 4.35585007e-02
      5.87383211e-02 6.40654936e-02 3.29389907e-02 5.50336987e-02
      5.21100089e-02 3.81326415e-02 4.59396206e-02</_>
    <_>
      4.34291102e-02 2.78967209e-02 4.14562188e-02 3.84456217e-02
      2.14345008e-02 4.38559800e-02 4.15346101e-02 9.77660064e-03
      4.23551090e-02 3.88583392e-02 9.55053419e-03 3.84578705e-02
      3.26242298e-02 1.99680105e-02 3.77673283e-02</_>
    <_>
      3.83925103e-02 3.86894904e-02 4.79041897e-02 4.00536209e-02
      1.96522009e-02 4.44514006e-02 4.34442982e-02 1.35528203e-02
      4.40164991e-02 4.06976193e-02 1.23067303e-02 3.89296003e-02
      3.33062112e-02 1.69384293e-02 3.57414894e-02</_>
    <_>
      4.84525599e-02 4.56032492e-02 6.17890283e-02 5.07754311e-02
      2.45040301e-02 5.32094091e-02 6.27449825e-02 2.96393801e-02
      5.76224104e-02 6.23182617e-02 2.90307198e-02 5.61499707e-02
      4.79110107e-02 3.05611491e-02 4.91549112e-02</_>
    <_>
      5.01359291e-02 2.19353307e-02 4.97103408e-02 4.31220196e-02
      2.11716406e-02 4.79443409e-02 4.78633381e-02 1.10979704e-02
      4.91204113e-02 5.17962091e-02 9.99934226e-03 5.11754006e-02
      4.47448492e-02 2.38425601e-02 4.70634811e-02</_>
    <_>
      5.21086603e-02 3.01762894e-02 5.54563999e-02 5.03478013e-02
      2.20231991e-02 5.39546087e-02 5.64986691e-02 1.53652197e-02
      5.68224303e-02 5.83942682e-02 1.80973709e-02 5.59960604e-02
      4.78510000e-02 2.68007796e-02 4.93960194e-02</_>
    <_>
      4.31804284e-02 3.84695902e-02 4.92629707e-02 4.51800302e-02
      2.59348806e-02 4.71417196e-02 4.70858291e-02 1.44108403e-02
      4.68426198e-02 4.18006405e-02 1.08623197e-02 4.13464904e-02
      3.72840203e-02 2.31149904e-02 4.11929004e-02</_>
    <_>
      5.72399795e-02 1.71530694e-02 5.60078807e-02 5.85751198e-02
      2.07332894e-02 6.11691810e-02 6.72437176e-02 1.90222897e-02
      6.70061931e-02 6.44139200e-02 1.16578704e-02 6.34108335e-02
      4.92329486e-02 1.42885698e-02 5.10224812e-02</_>
    <_>
      5.49476817e-02 2.35965196e-02 5.48839793e-02 5.35703711e-02
      2.06765793e-02 5.65117188e-02 5.95897511e-02 1.48321399e-02
      6.01302497e-02 5.71265407e-02 6.85921079e-03 5.68375215e-02
      4.48470488e-02 1.63643397e-02 4.73524407e-02</_>
    <_>
      5.15480600e-02 1.46708405e-02 5.14339395e-02 4.75279391e-02
      2.11802106e-02 5.20265102e-02 5.26606515e-02 1.18822400e-02
      5.39658405e-02 5.53871095e-02 7.77293602e-03 5.50074801e-02
      4.73719388e-02 2.20904499e-02 4.92362007e-02</_>
    <_>
      4.35430510e-03 8.16435218e-02 8.15313086e-02 8.79755616e-02
      9.18098465e-02 2.92837694e-02 9.69322920e-02 9.69142765e-02
      5.03721600e-03 8.68671909e-02 9.06692892e-02 2.63271201e-02
      6.22328185e-02 7.91894197e-02 4.97952700e-02</_>
    <_>
      3.89340408e-02 2.61011906e-02 3.86072211e-02 3.77841815e-02
      1.90232098e-02 4.18468304e-02 4.03831303e-02 1.39587196e-02
      4.06454206e-02 3.69916894e-02 1.07322596e-02 3.57716903e-02
      3.12424302e-02 1.85892694e-02 3.48497406e-02</_>
    <_>
      4.94853109e-02 2.28679199e-02 5.28423898e-02 4.90847491e-02
      2.09337194e-02 5.31510711e-02 5.93955591e-02 1.64777599e-02
      5.95300794e-02 6.37011230e-02 2.66545601e-02 5.84395304e-02
      5.16805202e-02 3.29524688e-02 5.21523990e-02</_>
    <_>
      4.51921001e-02 1.71835907e-02 4.58382405e-02 8.18150118e-02
      7.59435892e-02 3.78048494e-02 6.67305663e-02 4.00215797e-02
      5.56095615e-02 5.16275801e-02 1.80168208e-02 4.90282103e-02
      4.59050089e-02 2.65932493e-02 4.69567887e-02</_>
    <_>
      5.32755889e-02 1.92870703e-02 5.34688011e-02 4.53969501e-02
      2.18741298e-02 4.99176197e-02 4.91091982e-02 1.38473297e-02
      4.98924404e-02 4.74019311e-02 8.02729372e-03 4.67869118e-02
      4.12767418e-02 1.45718101e-02 4.37614098e-02</_>
    <_>
      5.37533984e-02 2.00843792e-02 5.68335913e-02 4.94196005e-02
      2.22637504e-02 5.27796112e-02 5.89005612e-02 2.05542501e-02
      5.75237200e-02 6.11609891e-02 3.00515201e-02 5.42907305e-02
      4.92986105e-02 3.25522386e-02 4.99511585e-02</_>
    <_>
      4.61293682e-02 1.17479200e-02 4.56774496e-02 3.85720916e-02
      2.29786206e-02 4.32596207e-02 4.15004306e-02 1.69531498e-02
      4.07414213e-02 3.88530418e-02 1.57179609e-02 3.56347486e-02
      3.39294486e-02 1.65625792e-02 3.65751311e-02</_>
    <_>
      4.81332801e-02 4.60303091e-02 6.18468486e-02 5.08667491e-02
      2.46835891e-02 5.32394201e-02 6.31184801e-02 3.09568401e-02
      5.73354401e-02 6.23304993e-02 2.99446508e-02 5.57565391e-02
      4.82465699e-02 3.13154794e-02 4.93099913e-02</_>
    <_>
      4.82598990e-02 1.96274407e-02 4.41016816e-02 5.09110689e-02
      2.07667500e-02 5.46484590e-02 5.97589910e-02 1.39171602e-02
      6.05077483e-02 5.62005192e-02 4.42610309e-03 5.61653301e-02
      4.36396115e-02 1.60020404e-02 4.63827290e-02</_>
    <_>
      5.21018915e-02 2.25226004e-02 5.24011888e-02 4.41131704e-02
      2.16605496e-02 4.90323193e-02 4.88713905e-02 1.22181596e-02
      5.00143915e-02 4.52924483e-02 7.69724092e-03 4.48688604e-02
      3.75166796e-02 1.73137002e-02 4.11367491e-02</_>
    <_>
      3.88183706e-02 3.42390798e-02 4.45591398e-02 4.04173099e-02
      1.95314493e-02 4.48370315e-02 4.26267609e-02 1.07591096e-02
      4.36965115e-02 4.04192097e-02 5.75996982e-03 4.05305289e-02
      3.34522016e-02 1.92509796e-02 3.84334885e-02</_>
    <_>
      5.00358194e-02 4.18004803e-02 6.05018698e-02 5.16347997e-02
      2.43418701e-02 5.40922508e-02 6.06127195e-02 2.44531706e-02
      5.77473603e-02 6.30558804e-02 2.75755599e-02 5.75047806e-02
      4.82697003e-02 2.93346606e-02 4.95086610e-02</_>
    <_>
      5.03022186e-02 1.47238905e-02 4.82264794e-02 4.08843309e-02
      2.20886003e-02 4.59559895e-02 4.13624309e-02 1.51220802e-02
      4.12953608e-02 3.85093093e-02 1.40548097e-02 3.59902903e-02
      3.14974487e-02 1.44321099e-02 3.35479192e-02</_>
    <_>
      5.59687093e-02 1.64855197e-02 5.53696193e-02 5.60466498e-02
      2.23063398e-02 5.88244200e-02 6.06280789e-02 1.53377298e-02
      6.11926802e-02 5.51950112e-02 3.06779402e-03 5.51838502e-02
      4.37495708e-02 1.37545001e-02 4.58081998e-02</_>
    <_>
      5.14171608e-02 1.89881008e-02 5.12497313e-02 4.43281904e-02
      2.09012292e-02 4.89064902e-02 5.02199903e-02 1.09143499e-02
      5.12125306e-02 4.72337492e-02 5.36997803e-03 4.72430810e-02
      3.96285616e-02 1.70035101e-02 4.30250801e-02</_>
    <_>
      4.77706417e-02 4.42829095e-02 5.79567514e-02 5.48783690e-02
      3.15935202e-02 5.36366887e-02 4.59338203e-02 1.23400902e-02
      4.60543595e-02 4.11401019e-02 5.93954790e-03 4.14736792e-02
      3.33662592e-02 1.96519606e-02 3.85742784e-02</_>
    <_>
      4.35449518e-02 4.52050082e-02 5.75368591e-02 5.13586290e-02
      2.87829395e-02 5.19384183e-02 4.47386317e-02 1.16030797e-02
      4.52196300e-02 4.05783094e-02 5.46898786e-03 4.09403704e-02
      3.26682404e-02 1.92529503e-02 3.79178897e-02</_>
    <_>
      4.99439389e-02 2.33109798e-02 4.96054105e-02 4.62022312e-02
      2.30262596e-02 4.77504507e-02 4.36507799e-02 9.08247940e-03
      4.43153493e-02 3.96735705e-02 5.90280723e-03 4.00147885e-02
      3.40463296e-02 1.91661697e-02 3.90441492e-02</_>
    <_>
      4.37219813e-02 3.49545218e-02 4.98394594e-02 3.91170718e-02
      1.86048094e-02 4.32889387e-02 4.10962403e-02 1.16800899e-02
      4.16797698e-02 3.79434191e-02 9.17194504e-03 3.72107401e-02
      3.26066203e-02 1.86260492e-02 3.73586901e-02</_>
    <_>
      5.36325201e-02 2.75150891e-02 5.64422384e-02 4.61997017e-02
      1.94958393e-02 4.98153307e-02 5.08846603e-02 1.14931297e-02
      5.17901704e-02 5.20690009e-02 8.26340169e-03 5.16923815e-02
      4.24944907e-02 1.86699498e-02 4.51791696e-02</_>
    <_>
      4.34029400e-02 4.94297184e-02 6.00562096e-02 4.86648791e-02
      2.63772700e-02 5.17663397e-02 5.17153516e-02 1.89587008e-02
      5.12156188e-02 4.70703803e-02 1.03819799e-02 4.61477302e-02
      3.88182811e-02 1.96882207e-02 4.14192006e-02</_>
    <_>
      5.35854511e-02 1.97706502e-02 5.49226888e-02 5.17327487e-02
      2.45694406e-02 5.45723699e-02 5.35999909e-02 1.39786396e-02
      5.47355898e-02 4.79527116e-02 1.73428596e-03 4.79810499e-02
      3.75873484e-02 1.46313701e-02 4.02627997e-02</_>
    <_>
      2.55342703e-02 7.39516765e-02 7.07652494e-02 9.04719308e-02
      9.15862322e-02 3.63295488e-02 6.67097121e-02 4.01190110e-02
      5.61067611e-02 6.98413402e-02 5.06718904e-02 5.04179299e-02
      6.18255213e-02 6.27900809e-02 4.98940796e-02</_>
    <_>
      4.50065993e-02 1.30780004e-02 4.49470207e-02 3.66075598e-02
      2.29439791e-02 4.16169800e-02 4.11949493e-02 1.57603901e-02
      4.08801883e-02 3.95159088e-02 1.27814999e-02 3.75207812e-02
      3.42119485e-02 1.79890599e-02 3.76581289e-02</_>
    <_>
      4.62979712e-02 3.71548906e-02 5.33121191e-02 4.66579683e-02
      2.51625106e-02 5.03502600e-02 4.99376506e-02 1.53133301e-02
      5.06923310e-02 4.78763394e-02 1.12354802e-02 4.67582308e-02
      3.81870382e-02 1.96740702e-02 4.09009196e-02</_>
    <_>
      4.19444703e-02 2.16891598e-02 3.96819711e-02 4.14015800e-02
      1.95424408e-02 4.53232005e-02 4.39653099e-02 9.79284942e-03
      4.50279899e-02 4.02568392e-02 5.06917387e-03 4.03776504e-02
      3.34581695e-02 1.72083396e-02 3.76225598e-02</_>
    <_>
      3.75303589e-02 4.00867611e-02 4.58883792e-02 4.48605493e-02
      2.47016009e-02 4.73871194e-02 4.83364984e-02 1.54493097e-02
      4.79918607e-02 4.74770889e-02 1.85384694e-02 4.47224192e-02
      4.18019406e-02 2.73598805e-02 4.37653512e-02</_>
    <_>
      4.75840494e-02 2.40957998e-02 4.94540706e-02 4.26295698e-02
      2.06709597e-02 4.67435718e-02 4.26072292e-02 1.03838099e-02
      4.38057110e-02 3.97248417e-02 5.55660296e-03 3.97889204e-02
      3.37674394e-02 1.86286606e-02 3.84315290e-02</_>
    <_>
      5.40551096e-02 1.96934696e-02 5.55996411e-02 5.07735386e-02
      2.04150509e-02 5.40001094e-02 5.79568110e-02 1.47157703e-02
      5.85448183e-02 5.69313914e-02 1.15942396e-02 5.59558384e-02
      4.72561792e-02 2.29364801e-02 4.87910993e-02</_>
    <_>
      4.46539707e-02 1.61855202e-02 4.43129912e-02 8.56143907e-02
      8.56227502e-02 2.47597098e-02 8.28051791e-02 7.71819130e-02
      3.01975608e-02 5.17705195e-02 2.32462399e-02 4.73266393e-02
      5.17704710e-02 3.99959311e-02 5.00113107e-02</_>
    <_>
      5.46353012e-02 1.38411596e-02 5.45604602e-02 4.99315895e-02
      2.20551193e-02 5.29440008e-02 6.27067909e-02 2.75524501e-02
      5.85437007e-02 6.12045191e-02 3.19291204e-02 5.32452688e-02
      4.98973988e-02 3.65911201e-02 4.91183810e-02</_>
    <_>
      5.56400307e-02 1.54890101e-02 5.48558608e-02 5.51135987e-02
      2.17274707e-02 5.81042990e-02 5.91916516e-02 1.42991599e-02
      5.99970296e-02 5.45018911e-02 2.53735809e-03 5.45137785e-02
      4.35524993e-02 1.36973104e-02 4.56121415e-02</_>
    <_>
      5.03146984e-02 1.17207700e-02 5.06777689e-02 5.64070903e-02
      3.19876410e-02 5.54359592e-02 4.62216809e-02 9.80096683e-03
      4.71690185e-02 4.30158898e-02 5.48967393e-03 4.30983417e-02
      3.50426286e-02 1.71452500e-02 3.89549397e-02</_>
    <_>
      4.24336083e-02 3.98515388e-02 5.15873916e-02 3.89372110e-02
      1.98387299e-02 4.36983891e-02 4.13262695e-02 1.14133600e-02
      4.22273800e-02 3.83666307e-02 9.12075862e-03 3.76617312e-02
      3.28088999e-02 1.90296192e-02 3.77568118e-02</_>
    <_>
      5.87313287e-02 2.05594897e-02 5.66628799e-02 5.45859002e-02
      2.42870599e-02 5.69397993e-02 5.72134294e-02 1.51152201e-02
      5.79649396e-02 5.40456884e-02 5.46448492e-03 5.38017116e-02
      4.42436002e-02 1.56421401e-02 4.61052693e-02</_>
    <_>
      2.76906099e-02 7.11537004e-02 6.71720207e-02 9.66977403e-02
      9.98055413e-02 3.15007009e-02 7.53228366e-02 5.28880991e-02
      5.60416095e-02 6.31109774e-02 3.70809399e-02 5.23200184e-02
      6.92049563e-02 6.97191805e-02 5.06602488e-02</_>
    <_>
      5.07332198e-02 2.67096795e-02 5.61774895e-02 4.87125702e-02
      2.12194193e-02 5.24310507e-02 5.41585498e-02 1.36932498e-02
      5.48224300e-02 5.78596815e-02 2.04866100e-02 5.46417609e-02
      4.77766693e-02 2.88516507e-02 4.90782596e-02</_>
    <_>
      3.70337218e-02 2.79121492e-02 3.76635715e-02 3.77232917e-02
      1.98645294e-02 4.22234908e-02 4.00974788e-02 1.37814600e-02
      4.03991602e-02 3.64662185e-02 1.06191002e-02 3.52383405e-02
      3.09429392e-02 1.91773307e-02 3.47645991e-02</_>
    <_>
      4.19148393e-02 2.54137497e-02 4.11073603e-02 4.11090106e-02
      2.24709492e-02 4.59053591e-02 4.33617905e-02 1.22110099e-02
      4.48124409e-02 4.06108908e-02 3.08785401e-03 4.06885184e-02
      3.36746611e-02 1.64203998e-02 3.72480191e-02</_>
    <_>
      4.31410298e-02 4.55683284e-02 5.75144403e-02 4.83488105e-02
      2.51211897e-02 5.05618304e-02 5.13030402e-02 1.75259206e-02
      5.04718088e-02 4.60411385e-02 1.00022899e-02 4.55420092e-02
      3.72623391e-02 2.07636207e-02 4.12046909e-02</_>
    <_>
