<?xml version="1.0"?>
<opencv_storage>
<opencv_ml_svm>
  <format>3</format>
  <svmType>C_SVC</svmType>
  <kernel>
    <type>INTER</type>
    <gamma>1.</gamma></kernel>
  <C>30.</C>
  <term_criteria><epsilon>1.1920928955078125e-07</epsilon>
    <iterations>1000</iterations></term_criteria>
  <var_count>30</var_count>
  <class_count>5</class_count>
  <class_labels type_id="opencv-matrix">
    <rows>5</rows>
    <cols>1</cols>
    <dt>i</dt>
    <data>
      0 1 2 3 4</data></class_labels>
  <sv_total>591</sv_total>
  <support_vectors>
    <_>
      4.42263000e-02 1.49662104e-02 4.17993888e-02 2.94728894e-02
      2.02067699e-02 3.57276611e-02 8.87420923e-02 8.29427689e-02
      3.90155502e-02 7.09923208e-02 6.95605278e-02 2.92057693e-02
      4.95342910e-02 1.24301203e-02 4.96346615e-02 4.66077290e-02
      1.57759394e-02 4.60196584e-02 4.62983586e-02 1.45689398e-02
      4.43684608e-02 4.14987393e-02 9.42160655e-03 4.15701307e-02
      3.75722386e-02 2.08592508e-02 4.06886190e-02 3.44802998e-02
      2.27865893e-02 4.04214300e-02</_>
    <_>
      4.41748016e-02 1.63979102e-02 4.14969884e-02 2.96893101e-02
      2.01922599e-02 3.58337983e-02 4.30408902e-02 2.02877503e-02
      4.73462902e-02 4.54791710e-02 3.06713302e-02 4.63365689e-02
      4.69095483e-02 1.06675001e-02 4.80885208e-02 4.82775494e-02
      2.31497902e-02 4.45532314e-02 4.61607501e-02 4.79007605e-03
      4.63223904e-02 4.53215614e-02 2.24419106e-02 4.14485298e-02
      3.98255885e-02 1.90822594e-02 4.36300412e-02 3.81254889e-02
      3.11946701e-02 4.23769690e-02</_>
    <_>
      4.59399298e-02 3.58755216e-02 4.64850888e-02 2.71353908e-02
      3.13262306e-02 4.12378386e-02 4.03134115e-02 2.03382596e-02
      4.50717919e-02 4.42367308e-02 2.95661408e-02 4.55826595e-02
      4.07922305e-02 9.86796711e-03 4.16891016e-02 4.48463298e-02
      1.93117801e-02 4.26797792e-02 3.74755301e-02 9.58989933e-03
      3.69290113e-02 3.96084413e-02 1.38969803e-02 3.87296900e-02
      3.16896886e-02 1.99256204e-02 3.66288014e-02 3.33859399e-02
      2.51336005e-02 3.94579209e-02</_>
    <_>
      4.87881191e-02 5.23719192e-02 6.90215826e-02 3.31202596e-02
      4.98280004e-02 5.89034595e-02 7.91574568e-02 7.73973465e-02
      4.74652201e-02 6.79705888e-02 7.21740499e-02 3.56576592e-02
      8.10044929e-02 6.68875799e-02 4.98779714e-02 7.07841888e-02
      6.60422072e-02 2.97729298e-02 6.65483177e-02 4.55041006e-02
      4.99011986e-02 5.90894595e-02 5.20457812e-02 3.31368782e-02
      4.33119684e-02 3.31699997e-02 4.43122499e-02 4.20232303e-02
      4.44919690e-02 4.07007188e-02</_>
    <_>
      3.78148705e-02 7.09610730e-02 7.90358931e-02 2.74651702e-02
      5.89283407e-02 6.35353029e-02 8.86906907e-02 9.24484208e-02
      3.39094512e-02 7.16987923e-02 7.69378692e-02 2.91164108e-02
      9.87643823e-02 9.78094488e-02 1.42045701e-02 7.87799731e-02
      7.86691234e-02 5.04845520e-03 8.80279690e-02 9.18256566e-02
      3.19814794e-02 6.85489103e-02 7.35466331e-02 2.72300597e-02
      6.22285604e-02 8.25717971e-02 5.79492114e-02 4.69096303e-02
      6.92139268e-02 5.19301407e-02</_>
    <_>
      3.53495218e-02 7.20682070e-02 7.85872787e-02 2.56208591e-02
      5.82831800e-02 6.24993593e-02 6.33781031e-02 4.57213894e-02
      5.64444214e-02 5.92936091e-02 5.44639900e-02 4.42264602e-02
      8.62497389e-02 7.59957209e-02 4.24683616e-02 7.36508891e-02
      7.05231875e-02 2.26631500e-02 8.34308937e-02 8.00662264e-02
      4.11732495e-02 6.63069785e-02 6.85742795e-02 2.95732394e-02
      5.96658699e-02 7.00955987e-02 5.87845892e-02 4.58770394e-02
      6.47769272e-02 5.24687283e-02</_>
    <_>
      4.77537215e-02 2.45510191e-02 4.45057116e-02 3.00139692e-02
      2.42622606e-02 3.84872705e-02 7.55586103e-02 4.75769900e-02
      6.62114918e-02 6.18446395e-02 4.75407988e-02 5.04002310e-02
      4.68802899e-02 9.31667536e-03 4.77932394e-02 4.83919717e-02
      2.26289593e-02 4.51580994e-02 4.70764302e-02 5.27220499e-03
      4.73293103e-02 4.59057987e-02 2.22587697e-02 4.18083817e-02
      4.17131893e-02 2.38700900e-02 4.53194417e-02 4.04623188e-02
      3.72344814e-02 4.39740084e-02</_>
    <_>
      2.65584793e-02 4.25839312e-02 4.02664803e-02 7.30302418e-03
      4.52011414e-02 4.57870588e-02 4.87678088e-02 2.13845707e-02
      5.32462411e-02 4.64824289e-02 2.79203709e-02 4.85247709e-02
      5.57368211e-02 1.26593597e-02 5.70972785e-02 5.05175702e-02
      2.03605294e-02 4.84861992e-02 5.31824306e-02 3.21197207e-03
      5.31519391e-02 4.65554893e-02 1.69815607e-02 4.46393415e-02
      4.31864113e-02 1.58084091e-02 4.59813699e-02 3.84400003e-02
      2.67961994e-02 4.28439900e-02</_>
    <_>
      2.84039192e-02 6.07513301e-02 5.99564202e-02 1.18971895e-02
      5.29543310e-02 5.41149117e-02 7.24714473e-02 6.78669289e-02
      3.52496691e-02 6.74013570e-02 6.81588128e-02 2.32027993e-02
      4.28321585e-02 1.28351897e-02 4.36602794e-02 4.45008986e-02
      1.66544393e-02 4.35425304e-02 3.68479490e-02 7.09427707e-03
      3.67047191e-02 4.04334590e-02 1.56873502e-02 3.90363596e-02
      3.41855399e-02 1.96677595e-02 3.94170508e-02 3.53250094e-02
      2.77691800e-02 4.03820314e-02</_>
    <_>
      4.34997417e-02 1.39726596e-02 4.18412909e-02 3.04881893e-02
      1.27227101e-02 3.29723395e-02 4.30694818e-02 2.01328807e-02
      4.74730618e-02 4.56002392e-02 2.99648494e-02 4.68453988e-02
      4.47205417e-02 1.13539901e-02 4.58265096e-02 4.67652194e-02
      1.96496993e-02 4.46610115e-02 3.95323113e-02 9.84149054e-03
      3.85750011e-02 4.05762307e-02 1.31336702e-02 3.98423783e-02
      3.22427601e-02 1.74173508e-02 3.57988589e-02 3.40623409e-02
      2.47317292e-02 3.99725400e-02</_>
    <_>
      5.45450412e-02 2.37744991e-02 5.19575886e-02 3.66489105e-02
      1.92135703e-02 4.13799509e-02 6.39200136e-02 3.87124717e-02
      6.11125492e-02 5.73683083e-02 4.74864207e-02 4.82723787e-02
      6.25026077e-02 2.15797294e-02 6.11466393e-02 5.66948988e-02
      3.44793983e-02 4.71232384e-02 5.81162497e-02 1.39966300e-02
      5.67524396e-02 5.07021509e-02 2.89679598e-02 4.38222811e-02
      4.56032902e-02 2.14975402e-02 4.82160598e-02 4.03798893e-02
      3.36065292e-02 4.35942188e-02</_>
    <_>
      2.12004296e-02 7.06933737e-02 6.93095475e-02 9.20460746e-03
      5.77240214e-02 5.79713397e-02 8.53089765e-02 8.38996693e-02
      3.07112895e-02 7.00257123e-02 7.20533133e-02 2.25586593e-02
      3.97322290e-02 1.19493101e-02 4.06471603e-02 4.37349305e-02
      1.70757696e-02 4.25118618e-02 3.82285304e-02 8.97040870e-03
      3.76255587e-02 4.00519483e-02 1.38031496e-02 3.91676687e-02
      3.25857811e-02 1.91104207e-02 3.71781290e-02 3.39541882e-02
      2.53192708e-02 3.98164988e-02</_>
    <_>
      5.38522191e-02 3.40671986e-02 5.68405688e-02 3.57887484e-02
      3.06453593e-02 4.71049398e-02 7.67293572e-02 6.98356181e-02
      5.07558882e-02 6.64662570e-02 6.77981824e-02 3.70014682e-02
      8.18240270e-02 6.37070835e-02 5.35699315e-02 7.02788383e-02
      6.30624294e-02 3.29086408e-02 7.36359879e-02 5.60175106e-02
      5.08446097e-02 6.17923811e-02 5.67457601e-02 3.36110294e-02
      5.67393713e-02 5.03263995e-02 5.02082407e-02 4.64651398e-02
      5.30987009e-02 4.34692800e-02</_>
    <_>
      2.51059998e-02 5.33718094e-02 4.87659797e-02 3.95007292e-03
      4.83511090e-02 4.84357588e-02 7.67880231e-02 7.34246671e-02
      3.20039392e-02 6.61185011e-02 6.76677227e-02 2.02890709e-02
      4.66437191e-02 1.16847297e-02 4.78883684e-02 4.65350598e-02
      2.00093109e-02 4.42002714e-02 4.10010293e-02 7.07718823e-03
      4.13515791e-02 4.43036295e-02 2.39138193e-02 3.94588709e-02
      3.17946710e-02 2.21686307e-02 3.87236699e-02 3.48582901e-02
      2.94114202e-02 3.92455496e-02</_>
    <_>
      3.11854202e-02 7.50691369e-02 8.12799409e-02 2.68014297e-02
      7.07149133e-02 7.07511380e-02 8.21799934e-02 8.93875733e-02
      3.64554711e-02 7.11132437e-02 7.83261433e-02 3.39016989e-02
      9.22172815e-02 9.19299200e-02 8.72440822e-03 7.90247992e-02
      7.87773132e-02 6.60226913e-03 8.26770067e-02 8.69441032e-02
      3.01260799e-02 6.86907321e-02 7.42125586e-02 2.87395399e-02
      5.74185401e-02 7.92594701e-02 5.61934486e-02 4.57950793e-02
      7.07800984e-02 5.40112406e-02</_>
    <_>
      5.88859506e-02 2.54967399e-02 5.93402795e-02 4.10446189e-02
      2.37171799e-02 4.72424701e-02 7.27112964e-02 6.29256293e-02
      5.39388210e-02 6.44858629e-02 6.45923764e-02 4.00351398e-02
      7.84874707e-02 5.56487404e-02 5.79591207e-02 6.78610131e-02
      5.80528416e-02 3.74362990e-02 7.08160326e-02 4.42794301e-02
      5.65008782e-02 5.91360517e-02 4.85135689e-02 3.83793898e-02
      5.44202887e-02 4.02080305e-02 5.14797494e-02 4.50071096e-02
      4.63842489e-02 4.37705182e-02</_>
    <_>
      4.08139192e-02 6.86791912e-02 7.76391998e-02 2.86335796e-02
      5.58059216e-02 6.17880113e-02 9.05444995e-02 9.46519673e-02
      2.85370201e-02 7.35016689e-02 7.82312602e-02 2.70476099e-02
      9.97979119e-02 9.95518565e-02 7.41317589e-03 8.03349763e-02
      8.03197771e-02 2.60776700e-03 8.95403475e-02 9.40248668e-02
      2.98248902e-02 7.01761395e-02 7.52404928e-02 2.73808800e-02
      6.24170899e-02 8.46287608e-02 5.79978898e-02 4.73128110e-02
      7.10332319e-02 5.29890992e-02</_>
    <_>
      5.66943586e-02 2.94480696e-02 5.80000915e-02 3.86215709e-02
      2.67783795e-02 4.69315313e-02 6.97399080e-02 4.77689393e-02
      6.29344508e-02 6.02965988e-02 5.27656898e-02 4.82794493e-02
      8.21646899e-02 5.62118106e-02 6.20640218e-02 6.81083873e-02
      5.56509309e-02 4.10177112e-02 7.78417364e-02 5.69208190e-02
      5.54136597e-02 6.20690212e-02 5.38688712e-02 3.72142904e-02
      6.12305216e-02 5.49621917e-02 5.29372096e-02 4.75403294e-02
      5.32211401e-02 4.48576510e-02</_>
    <_>
      2.87368093e-02 8.75345990e-02 9.19563919e-02 2.86340695e-02
      7.40656331e-02 7.33834431e-02 8.82497728e-02 9.28210169e-02
      3.49723212e-02 7.24961534e-02 7.84208924e-02 3.01536992e-02
      9.70699564e-02 9.58769470e-02 1.62136406e-02 7.91544467e-02
      7.91982263e-02 4.35473118e-03 8.54861513e-02 8.67422968e-02
      3.63570601e-02 6.82589188e-02 7.29980022e-02 2.84536704e-02
      5.97051792e-02 7.74197802e-02 6.09963611e-02 4.57062982e-02
      6.93680719e-02 5.50266206e-02</_>
    <_>
      6.89974893e-03 8.55193436e-02 8.57902765e-02 1.86090507e-02
      7.06887618e-02 6.85485378e-02 7.58915171e-02 7.88269266e-02
      2.86414195e-02 6.68819696e-02 7.14364201e-02 2.51136292e-02
      9.13175568e-02 9.20108184e-02 1.18777798e-02 7.42755085e-02
      7.40230531e-02 1.37916896e-02 7.70861283e-02 7.83937201e-02
      3.27684507e-02 6.34652600e-02 6.83040470e-02 2.63859499e-02
      5.49008399e-02 6.51395619e-02 4.85669896e-02 4.44722213e-02
      6.22494482e-02 4.59882915e-02</_>
    <_>
      2.57393606e-02 8.19389522e-02 8.54401290e-02 2.21368503e-02
      6.64774328e-02 6.75364211e-02 8.08657408e-02 8.54738280e-02
      2.91368701e-02 7.07366392e-02 7.55630583e-02 2.86412202e-02
      8.85759220e-02 8.84112194e-02 7.94428028e-03 7.70252123e-02
      7.66266063e-02 1.02384696e-02 7.78819174e-02 8.09113309e-02
      2.99446099e-02 6.66376427e-02 7.20471069e-02 2.76129395e-02
      5.53509817e-02 7.11805299e-02 5.51760308e-02 4.48949300e-02
      6.81879073e-02 5.26648201e-02</_>
    <_>
      4.21462990e-02 1.81385297e-02 4.03781198e-02 2.77478099e-02
      2.56117806e-02 3.76937203e-02 4.01569493e-02 1.86229702e-02
      4.41856198e-02 4.33760211e-02 2.71784309e-02 4.58955690e-02
      4.28478308e-02 1.25422198e-02 4.32279408e-02 4.46848087e-02
      1.62796900e-02 4.38466705e-02 3.88301909e-02 1.20965103e-02
      3.73684689e-02 3.96254808e-02 1.15207098e-02 3.93170118e-02
      3.14852595e-02 1.81633197e-02 3.52477916e-02 3.35547216e-02
      2.44967192e-02 3.96207497e-02</_>
    <_>
      3.97602394e-02 4.29444984e-02 4.90701608e-02 2.14469396e-02
      4.14038599e-02 4.66257297e-02 6.10819496e-02 6.01068698e-02
      3.47781517e-02 6.24742396e-02 6.61318526e-02 2.58617401e-02
      6.45015463e-02 5.73636591e-02 3.06622591e-02 6.66959882e-02
      6.54991716e-02 1.33179696e-02 5.14982082e-02 2.19121594e-02
      4.78102900e-02 5.13094813e-02 3.82206999e-02 3.84586789e-02
      4.33351882e-02 3.16627882e-02 4.52109315e-02 4.18191701e-02
      4.34222482e-02 4.21157405e-02</_>
    <_>
      4.45792787e-02 1.63044501e-02 4.16522287e-02 3.01321894e-02
      1.35350702e-02 3.29281501e-02 4.13470715e-02 1.97129101e-02
      4.57617193e-02 4.43288609e-02 2.92632598e-02 4.58798707e-02
      4.37928289e-02 1.12062600e-02 4.50336412e-02 4.61309515e-02
      1.99897699e-02 4.37558107e-02 4.15538810e-02 6.08454319e-03
      4.14284989e-02 4.20500003e-02 1.65822692e-02 4.03384417e-02
      3.63238491e-02 1.72278993e-02 4.01876606e-02 3.60257402e-02
      2.74744108e-02 4.12647910e-02</_>
    <_>
      3.40533517e-02 3.72659899e-02 3.66235785e-02 1.37127303e-02
      3.72075215e-02 3.95485610e-02 9.12274718e-02 9.20403674e-02
      2.76248902e-02 7.32612908e-02 7.59764016e-02 2.35862304e-02
      6.09052703e-02 1.23691196e-02 6.19285889e-02 5.29661402e-02
      2.39411499e-02 4.97553796e-02 5.51708490e-02 7.98341632e-03
      5.47217913e-02 4.56232093e-02 1.23022897e-02 4.48922887e-02
      4.47589904e-02 1.70237999e-02 4.72249612e-02 3.71293686e-02
      2.28302907e-02 4.21058387e-02</_>
    <_>
      3.38962786e-02 3.54360193e-02 3.72593589e-02 1.52785797e-02
      3.78822610e-02 4.06836309e-02 4.22886908e-02 1.92852896e-02
      4.64230292e-02 4.52902392e-02 2.97576394e-02 4.67563719e-02
      4.55981791e-02 1.00786900e-02 4.64322083e-02 4.70673516e-02
      1.99238993e-02 4.49111611e-02 4.22056615e-02 6.36477489e-03
      4.21721488e-02 4.28654589e-02 1.73601303e-02 4.08676602e-02
      3.40770483e-02 1.89705696e-02 3.89578715e-02 3.56304906e-02
      2.80721597e-02 4.08935994e-02</_>
    <_>
      3.65561806e-02 6.84147179e-02 7.62936622e-02 2.59269308e-02
      6.08692318e-02 6.43375963e-02 8.58327523e-02 9.11279097e-02
      3.60885598e-02 7.12387487e-02 7.77337998e-02 3.12525891e-02
      9.58210975e-02 9.50815231e-02 1.21227195e-02 7.85628483e-02
      7.85660222e-02 7.60859228e-04 8.49825963e-02 8.86642933e-02
      3.08436099e-02 6.81103319e-02 7.33658671e-02 2.72692908e-02
      5.95619008e-02 7.98930675e-02 5.59914000e-02 4.59439605e-02
      6.94903135e-02 5.22415787e-02</_>
    <_>
      4.35891300e-02 1.37388604e-02 4.18409593e-02 3.05292793e-02
      1.34467399e-02 3.32996994e-02 4.28706482e-02 2.02869195e-02
      4.73810211e-02 4.54430804e-02 2.97294091e-02 4.67685014e-02
      4.45447303e-02 1.16017396e-02 4.56710905e-02 4.66235913e-02
      1.94186307e-02 4.46113795e-02 3.95985618e-02 9.75300185e-03
      3.86658013e-02 4.06376794e-02 1.32081602e-02 3.98842394e-02
      3.23386900e-02 1.74509604e-02 3.59108187e-02 3.41019295e-02
      2.47610603e-02 4.00019102e-02</_>
    <_>
      3.90706100e-02 2.09236201e-02 3.87442708e-02 2.51936801e-02
      2.92255394e-02 3.85079607e-02 3.91786508e-02 2.05266792e-02
      4.34492417e-02 4.09570187e-02 2.46868692e-02 4.46580090e-02
      4.29798588e-02 1.49664003e-02 4.31752503e-02 4.32637408e-02
      1.43488003e-02 4.31620590e-02 4.14016210e-02 1.20955100e-02
      3.97465304e-02 3.97980399e-02 1.04060201e-02 3.96158583e-02
      3.30497511e-02 1.49777904e-02 3.52470204e-02 3.35909501e-02
      2.30716504e-02 3.92825194e-02</_>
    <_>
      2.26067100e-02 6.82788566e-02 6.50908500e-02 6.40136516e-03
      5.13356701e-02 5.17282300e-02 9.02205408e-02 8.76105204e-02
      3.32681201e-02 7.20760077e-02 7.25515187e-02 2.60899495e-02
      4.90802191e-02 1.11308200e-02 4.95402701e-02 4.72011007e-02
      1.75961703e-02 4.60256599e-02 4.65516299e-02 1.29736699e-02
      4.51213308e-02 4.20146510e-02 1.06360903e-02 4.18267287e-02
      3.86830792e-02 1.98665392e-02 4.20411713e-02 3.51627804e-02
      2.34411694e-02 4.08048294e-02</_>
    <_>
      4.99145314e-02 2.14910209e-02 4.73454706e-02 3.28737795e-02
      2.30570696e-02 4.01431695e-02 4.09176201e-02 1.97944902e-02
      4.51338291e-02 4.30846699e-02 2.59936899e-02 4.61309999e-02
      4.56031896e-02 1.08857099e-02 4.65023592e-02 4.69303094e-02
      1.92758199e-02 4.50381711e-02 4.43357006e-02 6.97893696e-03
      4.40984406e-02 4.32903916e-02 1.58848204e-02 4.17327583e-02
      3.74650098e-02 1.75003391e-02 4.13338505e-02 3.72717790e-02
      2.88953707e-02 4.22097407e-02</_>
    <_>
      2.81412192e-02 6.42950982e-02 6.40457794e-02 1.25491004e-02
      4.94293310e-02 5.08855097e-02 9.15817395e-02 9.18941125e-02
      2.51689795e-02 7.32128620e-02 7.52934590e-02 2.19297502e-02
      5.77841811e-02 1.21069998e-02 5.87322488e-02 5.25109284e-02
      2.53398195e-02 4.85253893e-02 5.40427305e-02 5.51106595e-03
      5.38777187e-02 4.61093411e-02 1.48041500e-02 4.47419807e-02
      4.33409512e-02 1.56626999e-02 4.59813401e-02 3.76588590e-02
      2.48860493e-02 4.23059985e-02</_>
    <_>
      3.85178998e-02 2.13623904e-02 3.84220183e-02 2.46365294e-02
      2.98040900e-02 3.85913104e-02 3.96790802e-02 2.00602803e-02
      4.40280288e-02 4.17262614e-02 2.54531894e-02 4.50304113e-02
      4.28080596e-02 1.49214696e-02 4.30068001e-02 4.32190895e-02
      1.43622896e-02 4.31087501e-02 4.10730094e-02 1.23934299e-02
      3.93139794e-02 3.95866483e-02 1.01743601e-02 3.94534916e-02
      3.28175612e-02 1.50623098e-02 3.50023992e-02 3.34649682e-02
      2.29754299e-02 3.91756594e-02</_>
    <_>
      2.41030995e-02 4.72525805e-02 4.26959209e-02 2.63242493e-03
      4.74249609e-02 4.74630482e-02 5.00087589e-02 2.06610691e-02
      5.41083887e-02 4.68062796e-02 2.79976092e-02 4.88195010e-02
      5.75029813e-02 1.27981603e-02 5.88663183e-02 5.09119704e-02
      2.02132091e-02 4.89969105e-02 5.56236990e-02 2.95332400e-03
      5.56276105e-02 4.71571088e-02 1.67408604e-02 4.52412404e-02
      4.52741906e-02 1.63108408e-02 4.80398983e-02 3.90202701e-02
      2.70025507e-02 4.29805703e-02</_>
    <_>
      4.26433012e-02 4.32035998e-02 4.69232500e-02 2.25563906e-02
      3.65024209e-02 4.26454693e-02 9.18079168e-02 9.33853164e-02
      3.10452599e-02 7.31751770e-02 7.64098018e-02 2.69587692e-02
      4.32266295e-02 1.09682595e-02 4.39358391e-02 4.57760692e-02
      1.81317292e-02 4.42633592e-02 4.03454192e-02 1.09121399e-02
      3.93580794e-02 4.07353602e-02 1.26257902e-02 4.01406512e-02
      3.36903185e-02 1.95971504e-02 3.79332304e-02 3.43113206e-02
      2.45841108e-02 4.01449092e-02</_>
    <_>
      3.83876599e-02 2.15666909e-02 3.83581594e-02 2.44778898e-02
      2.99874209e-02 3.86312604e-02 3.97852398e-02 2.00171098e-02
      4.41520102e-02 4.18634005e-02 2.55923904e-02 4.51005697e-02
      4.28531803e-02 1.49092404e-02 4.30590808e-02 4.32438105e-02
      1.43823801e-02 4.31274399e-02 4.10785191e-02 1.24353599e-02
      3.93055007e-02 3.95753607e-02 1.01365400e-02 3.94488908e-02
      3.28359902e-02 1.50592197e-02 3.50048393e-02 3.34602296e-02
      2.29425300e-02 3.91662605e-02</_>
    <_>
      4.37274799e-02 1.31329196e-02 4.20589708e-02 3.07794400e-02
      1.37381703e-02 3.36852185e-02 4.13077585e-02 2.05243994e-02
      4.60715704e-02 4.43938002e-02 2.93866899e-02 4.57851104e-02
      4.35640216e-02 1.08273700e-02 4.46274988e-02 4.57867309e-02
      1.95139293e-02 4.36266288e-02 4.22923490e-02 5.48444502e-03
      4.23002504e-02 4.25297208e-02 1.75822396e-02 4.04812396e-02
      3.65543403e-02 1.73802003e-02 4.04730998e-02 3.61421108e-02
      2.78308298e-02 4.13222499e-02</_>
    <_>
      4.78466414e-02 2.23398507e-02 4.31602597e-02 3.03209405e-02
      1.88353192e-02 3.55077907e-02 9.08528566e-02 9.06891897e-02
      3.06352600e-02 7.28545636e-02 7.50812516e-02 2.50775293e-02
      4.80945110e-02 1.07448399e-02 4.92779091e-02 4.91794683e-02
      2.30540000e-02 4.56705987e-02 4.44169492e-02 6.27650600e-03
      4.44309302e-02 4.36443090e-02 1.74151305e-02 4.15616706e-02
      3.69066298e-02 1.80274993e-02 4.10491116e-02 3.65528315e-02
      2.76196599e-02 4.14781794e-02</_>
    <_>
      3.44074816e-02 3.71437892e-02 3.90193500e-02 1.57180596e-02
      3.83781791e-02 4.13704589e-02 4.25688103e-02 2.04009600e-02
      4.69788201e-02 4.53576297e-02 3.05680893e-02 4.62320410e-02
      4.75421287e-02 1.11104399e-02 4.88132387e-02 4.84369881e-02
      2.28070505e-02 4.48724702e-02 5.00909798e-02 1.28730796e-02
      4.90798093e-02 4.87074703e-02 3.04843206e-02 4.10169512e-02
      4.25833315e-02 2.34344304e-02 4.58478294e-02 4.00672108e-02
      3.60976197e-02 4.32265289e-02</_>
    <_>
      4.58147116e-02 3.88596691e-02 4.70109098e-02 2.65601408e-02
      3.14767994e-02 4.09142300e-02 9.11297575e-02 9.38562229e-02
      2.48611309e-02 7.26664364e-02 7.63091221e-02 2.38106903e-02
      4.15656008e-02 9.71617643e-03 4.25867885e-02 4.55878489e-02
      2.05240604e-02 4.29150090e-02 3.84409986e-02 8.48659966e-03
      3.83181013e-02 4.05028388e-02 1.54969096e-02 3.91170904e-02
      3.19604911e-02 2.08164304e-02 3.77601683e-02 3.38261984e-02
      2.62441896e-02 3.95798497e-02</_>
    <_>
      5.43974712e-02 3.31385992e-02 5.68829216e-02 3.63689102e-02
      2.95573995e-02 4.68530618e-02 7.40983933e-02 6.58185482e-02
      5.21279313e-02 6.53661415e-02 6.61710873e-02 3.83066610e-02
      8.06835517e-02 6.10129312e-02 5.51615804e-02 6.94923773e-02
      6.14407584e-02 3.45035605e-02 7.40520135e-02 5.67940995e-02
      5.05962707e-02 6.19933307e-02 5.70935383e-02 3.33598107e-02
      5.70569411e-02 5.09268008e-02 5.00286818e-02 4.65906598e-02
      5.33131212e-02 4.32625487e-02</_>
    <_>
      4.93798107e-02 1.78595409e-02 4.60844599e-02 3.31718214e-02
      1.61340404e-02 3.68680395e-02 9.07221884e-02 9.05093998e-02
      2.97238696e-02 7.28725865e-02 7.50503391e-02 2.42445506e-02
      4.92755696e-02 1.10540604e-02 5.04853614e-02 4.96651791e-02
      2.34543700e-02 4.59907502e-02 4.52876613e-02 6.03730185e-03
      4.53613512e-02 4.40372489e-02 1.77726392e-02 4.17990610e-02
      3.73595208e-02 1.78135205e-02 4.13793102e-02 3.67737599e-02
      2.77963709e-02 4.16470207e-02</_>
    <_>
      3.67079489e-02 5.06439991e-02 4.77547087e-02 1.56114995e-02
      4.11999114e-02 4.38212603e-02 9.22421068e-02 9.52704027e-02
      2.38310304e-02 7.39453509e-02 7.75287971e-02 2.41942406e-02
      4.43212502e-02 1.04013504e-02 4.54036705e-02 4.84378301e-02
      2.51407102e-02 4.35911082e-02 4.04651798e-02 9.98551212e-03
      3.94572616e-02 4.08434309e-02 1.28917703e-02 4.01508100e-02
      3.57052088e-02 2.13146303e-02 3.95317487e-02 3.41689996e-02
      2.32687201e-02 4.02069502e-02</_>
    <_>
      2.67353002e-02 6.47682771e-02 6.31730035e-02 1.00187697e-02
      4.95114103e-02 5.04637584e-02 9.14840028e-02 9.16233733e-02
      2.53690798e-02 7.31463134e-02 7.51222670e-02 2.19045393e-02
      5.69639094e-02 1.19318804e-02 5.79424202e-02 5.22701889e-02
      2.51755994e-02 4.82978299e-02 5.30215390e-02 5.79277007e-03
      5.28431088e-02 4.58041914e-02 1.49568701e-02 4.44039293e-02
      4.24760394e-02 1.60990003e-02 4.52977717e-02 3.74300107e-02
      2.50824001e-02 4.21301089e-02</_>
    <_>
      4.04213108e-02 8.10288563e-02 9.04968083e-02 3.41653489e-02
      6.75897524e-02 7.09484890e-02 8.73037428e-02 8.91627371e-02
      2.72029508e-02 7.19000772e-02 7.55047575e-02 2.34992392e-02
      9.44264531e-02 9.19175297e-02 2.21797600e-02 7.74883404e-02
      7.72001073e-02 8.13762844e-03 8.46530199e-02 8.39059874e-02
      4.00130190e-02 6.71612397e-02 7.06391335e-02 3.01840100e-02
      6.17603287e-02 7.91762471e-02 6.07059002e-02 4.67174798e-02
      6.73660785e-02 5.32978512e-02</_>
    <_>
      3.88570204e-02 3.42736989e-02 4.07689996e-02 2.06736606e-02
      3.52664813e-02 4.07408290e-02 4.21965495e-02 2.13790108e-02
      4.67807017e-02 4.58197109e-02 3.17949690e-02 4.58931699e-02
      4.39386182e-02 1.15511697e-02 4.49415296e-02 4.55673710e-02
      1.83802899e-02 4.39219587e-02 4.13154811e-02 8.61384440e-03
      4.06555608e-02 4.10296991e-02 1.37140704e-02 4.01199386e-02
      3.49530913e-02 1.75952800e-02 3.88864689e-02 3.50399390e-02
      2.60390993e-02 4.05517817e-02</_>
    <_>
      5.45758083e-02 2.37933900e-02 5.19986600e-02 3.66732702e-02
      1.92161202e-02 4.14026789e-02 6.39485493e-02 3.85845304e-02
      6.11900985e-02 5.73471896e-02 4.73429784e-02 4.83313799e-02
      6.29353821e-02 2.20316909e-02 6.14375398e-02 5.69218583e-02
      3.47652584e-02 4.71733510e-02 5.86797595e-02 1.46978600e-02
      5.71617782e-02 5.09780310e-02 2.93636192e-02 4.39140797e-02
      4.62050810e-02 2.19334792e-02 4.86731790e-02 4.06181701e-02
      3.39242816e-02 4.37391996e-02</_>
    <_>
      4.37601395e-02 1.37941102e-02 4.19194810e-02 3.05856001e-02
      1.33091696e-02 3.33201103e-02 4.11733687e-02 2.04281006e-02
      4.59155589e-02 4.43146788e-02 2.93081608e-02 4.57587801e-02
      4.33207788e-02 1.08928103e-02 4.43571508e-02 4.56017107e-02
      1.92576591e-02 4.35441583e-02 4.16973606e-02 6.14089798e-03
      4.15962115e-02 4.20571193e-02 1.67345405e-02 4.02887315e-02
      3.60145308e-02 1.72161199e-02 3.98867615e-02 3.58144902e-02
      2.73092501e-02 4.11286093e-02</_>
    <_>
      3.82707082e-02 7.06871971e-02 7.83737823e-02 2.69622691e-02
      5.78348786e-02 6.27202988e-02 9.08670872e-02 9.61773023e-02
      3.41415890e-02 7.31355026e-02 7.91738108e-02 3.04454099e-02
      1.00923903e-01 1.00736000e-01 9.20436531e-03 8.05383474e-02
      8.06167126e-02 3.56799597e-03 9.04335827e-02 9.27310884e-02
      2.55382508e-02 7.05508366e-02 7.40875974e-02 2.27643494e-02
      6.54548183e-02 7.98134431e-02 5.11586517e-02 4.95520309e-02
      6.74736872e-02 4.71237898e-02</_>
    <_>
      3.54864709e-02 6.69909865e-02 7.22533688e-02 2.23630797e-02
      5.67802116e-02 6.03551418e-02 8.98076817e-02 9.46627632e-02
      3.20987217e-02 7.31765702e-02 7.87673593e-02 2.91620009e-02
      9.93766785e-02 9.89035517e-02 1.00316601e-02 8.02754015e-02
      8.02807510e-02 1.20891200e-03 8.89623463e-02 9.22669917e-02
      2.83935107e-02 7.01921135e-02 7.46877119e-02 2.55210195e-02
      6.32676706e-02 8.23047832e-02 5.43383099e-02 4.82774489e-02
      6.98580667e-02 5.05530313e-02</_>
    <_>
      4.27048206e-02 3.95816714e-02 4.53105010e-02 2.33389400e-02
      3.45960595e-02 4.15084101e-02 9.05472189e-02 9.45321470e-02
      2.71726400e-02 7.24295005e-02 7.68584982e-02 2.65024807e-02
      4.27874699e-02 1.14725698e-02 4.39424813e-02 4.54548486e-02
      1.89029891e-02 4.35463786e-02 3.95013206e-02 9.37574822e-03
      3.86657193e-02 4.01986390e-02 1.30807599e-02 3.94724682e-02
      3.30311209e-02 1.88248195e-02 3.73876989e-02 3.40257883e-02
      2.51839496e-02 3.98650914e-02</_>
    <_>
      4.87100892e-02 3.40780914e-02 5.00991717e-02 3.00283507e-02
      3.24093886e-02 4.41483594e-02 4.50596809e-02 2.06203591e-02
      4.95533794e-02 4.55200113e-02 2.85118707e-02 4.73628193e-02
      4.94910106e-02 1.24809900e-02 5.05295806e-02 4.78472710e-02
      1.85338501e-02 4.63831201e-02 4.75634299e-02 8.40857346e-03
      4.69782315e-02 4.36229110e-02 1.36784799e-02 4.26397212e-02
      3.88042293e-02 1.63638107e-02 4.17468995e-02 3.63681801e-02
      2.49085296e-02 4.14953604e-02</_>
    <_>
      4.30524684e-02 1.34489900e-02 4.17675115e-02 3.04836892e-02
      1.22187203e-02 3.27926092e-02 4.66580205e-02 2.16476806e-02
      5.07247783e-02 4.80172895e-02 3.28464694e-02 4.76907603e-02
      4.82860394e-02 1.13394102e-02 4.95890900e-02 4.93539609e-02
      2.33130809e-02 4.56364006e-02 4.10564095e-02 8.11960641e-03
      4.05221991e-02 4.16903496e-02 1.47879403e-02 4.05104496e-02
      3.33102010e-02 1.78052597e-02 3.72520201e-02 3.46965306e-02
      2.56309099e-02 4.04401906e-02</_>
    <_>
      4.72366512e-02 3.32014598e-02 4.52439003e-02 2.82499809e-02
      2.73715891e-02 3.90763991e-02 9.12784189e-02 9.37377587e-02
      2.26459596e-02 7.27601126e-02 7.60757923e-02 2.24204808e-02
      4.23190109e-02 9.89724882e-03 4.34127487e-02 4.60541397e-02
      2.10915599e-02 4.31409702e-02 3.93366590e-02 7.86999241e-03
      3.93272787e-02 4.10356112e-02 1.62099507e-02 3.93989086e-02
      3.30945700e-02 2.02421602e-02 3.85844298e-02 3.44077498e-02
      2.67348699e-02 3.98783796e-02</_>
    <_>
      3.85428183e-02 6.63736910e-02 7.24904016e-02 2.52308995e-02
      5.23281209e-02 5.77992089e-02 9.16190818e-02 9.49376598e-02
      2.97194403e-02 7.34978095e-02 7.79747665e-02 2.67029405e-02
      1.01152197e-01 1.00525700e-01 1.14758899e-02 8.03610310e-02
      8.03048909e-02 3.56656499e-03 9.02576819e-02 9.31141600e-02
      3.02998107e-02 7.00505227e-02 7.42605180e-02 2.56642792e-02
      6.55334070e-02 8.18335190e-02 5.44776395e-02 4.92822118e-02
      6.79685473e-02 4.89572398e-02</_>
    <_>
      4.67975214e-02 2.02171896e-02 4.27570194e-02 3.02875303e-02
      1.90647505e-02 3.56203690e-02 3.99018712e-02 2.23829709e-02
      4.57382202e-02 4.37392704e-02 2.81768106e-02 4.57952097e-02
      4.21905294e-02 1.09725902e-02 4.25965488e-02 4.48740013e-02
      1.72324609e-02 4.36296798e-02 4.41179797e-02 6.19026413e-03
      4.42833304e-02 4.38692607e-02 1.81895792e-02 4.14641388e-02
      4.36926484e-02 2.23893002e-02 4.67465818e-02 4.10996489e-02
      3.45882997e-02 4.34327498e-02</_>
    <_>
      4.55887504e-02 4.23786603e-02 5.17875217e-02 2.64899805e-02
      3.77836712e-02 4.60952595e-02 4.23548184e-02 2.19068900e-02
      4.76445407e-02 4.53373007e-02 2.94729508e-02 4.65482809e-02
      4.41100597e-02 1.15141403e-02 4.53142002e-02 4.66924906e-02
      1.97921097e-02 4.44990285e-02 4.08002287e-02 8.68617836e-03
      4.06991616e-02 4.18150797e-02 1.58792306e-02 4.02598009e-02
      3.41469608e-02 2.09265891e-02 3.99476290e-02 3.52636501e-02
      2.73827892e-02 4.01909500e-02</_>
    <_>
      4.94645014e-02 2.13502403e-02 4.68300208e-02 3.25163901e-02
      2.30471995e-02 3.98401208e-02 4.06176299e-02 2.02028193e-02
      4.51000892e-02 4.31239493e-02 2.62776092e-02 4.60980982e-02
      4.57726307e-02 1.05693899e-02 4.67223004e-02 4.72215004e-02
      1.99309792e-02 4.50636484e-02 4.46650609e-02 6.25695009e-03
      4.45659682e-02 4.36582901e-02 1.67900100e-02 4.18130904e-02
      3.84540707e-02 1.84988901e-02 4.24053110e-02 3.81270610e-02
      3.08568105e-02 4.27790284e-02</_>
    <_>
      4.29093502e-02 4.26962115e-02 4.75439318e-02 2.29647104e-02
      3.68534587e-02 4.32524607e-02 9.10478681e-02 9.42487866e-02
      3.73025909e-02 7.26906136e-02 7.74890706e-02 3.16538289e-02
      9.27927569e-02 7.45551065e-02 5.52956387e-02 7.35893175e-02
      6.33929223e-02 3.74161303e-02 3.99394706e-02 6.70443196e-03
      4.00947295e-02 4.22323793e-02 1.81725994e-02 3.99347804e-02
      3.30595300e-02 2.04581395e-02 3.88714783e-02 3.57703492e-02
      2.94969808e-02 4.06251289e-02</_>
    <_>
      5.16009592e-02 1.24712102e-02 5.23663312e-02 3.96146215e-02
      1.01209898e-02 4.02869210e-02 4.23042811e-02 1.63592901e-02
      4.45821583e-02 4.25328389e-02 2.36303303e-02 4.57724705e-02
      4.65818793e-02 1.42712900e-02 4.58575785e-02 4.47179414e-02
      1.33073898e-02 4.47410010e-02 4.86357398e-02 3.28522897e-03
      4.87188399e-02 4.62062508e-02 1.91367008e-02 4.36319299e-02
      4.13496196e-02 1.58323906e-02 4.42617610e-02 3.77248488e-02
      2.63834205e-02 4.24115211e-02</_>
    <_>
      2.98748706e-02 4.86638583e-02 4.57405895e-02 9.64706857e-03
      4.55386713e-02 4.65433598e-02 9.10414532e-02 9.63691324e-02
      3.24032418e-02 7.25737363e-02 7.81923831e-02 3.00249401e-02
      4.38897796e-02 1.23476796e-02 4.48903106e-02 4.52658385e-02
      1.76152494e-02 4.39497605e-02 4.02881503e-02 1.11365896e-02
      3.89275588e-02 3.98405492e-02 1.12702297e-02 3.95039096e-02
      3.36240493e-02 1.72125697e-02 3.68257985e-02 3.39524783e-02
      2.39752792e-02 3.97542901e-02</_>
    <_>
      3.82072292e-02 3.48985083e-02 4.13255915e-02 2.01060604e-02
      3.71875986e-02 4.21729684e-02 4.22108583e-02 2.04575807e-02
      4.69049513e-02 4.49236296e-02 2.88219191e-02 4.66637611e-02
      4.44364697e-02 1.17676901e-02 4.52693105e-02 4.60656099e-02
      1.81120094e-02 4.46017310e-02 4.05616909e-02 9.73800104e-03
      3.97896618e-02 4.10773791e-02 1.36041800e-02 4.02214490e-02
      3.44547592e-02 1.91224497e-02 3.92424800e-02 3.54736112e-02
      2.70057097e-02 4.07503918e-02</_>
    <_>
      4.47782613e-02 2.30697505e-02 4.21339609e-02 2.81201806e-02
      2.59893909e-02 3.81651707e-02 4.05757017e-02 1.94529593e-02
      4.49660495e-02 4.38042283e-02 2.77640708e-02 4.60969694e-02
      4.32840213e-02 1.21263098e-02 4.39292789e-02 4.52742912e-02
      1.72055494e-02 4.41221893e-02 4.21009101e-02 9.56090540e-03
      4.16155607e-02 4.17325795e-02 1.44024100e-02 4.06373404e-02
      3.54413204e-02 1.94805004e-02 4.04094495e-02 3.60455103e-02
      2.77862791e-02 4.08869088e-02</_>
    <_>
      3.85455899e-02 4.68920283e-02 4.59111184e-02 1.76704805e-02
      3.92592810e-02 4.28093411e-02 9.19890329e-02 9.48236883e-02
      2.34110896e-02 7.39028007e-02 7.74510577e-02 2.34434605e-02
      4.43954282e-02 1.03431996e-02 4.55772392e-02 4.75619808e-02
      2.25356296e-02 4.40773889e-02 4.12826687e-02 1.03519596e-02
      4.01666500e-02 4.09845784e-02 1.24510201e-02 4.03796397e-02
      3.61439995e-02 2.10927408e-02 3.99035700e-02 3.43386084e-02
      2.33040508e-02 4.03087698e-02</_>
    <_>
      4.24392708e-02 2.46252809e-02 4.13367487e-02 2.63150092e-02
      2.91441102e-02 3.91864590e-02 4.37379591e-02 1.96281709e-02
      4.76787910e-02 4.56730202e-02 3.08301598e-02 4.66434993e-02
      4.91914600e-02 1.18488101e-02 5.01471609e-02 5.00993505e-02
      2.62950808e-02 4.48107384e-02 5.01003489e-02 1.06984200e-02
      4.94946018e-02 4.81813289e-02 2.83973608e-02 4.15323898e-02
      4.16709818e-02 2.16212403e-02 4.51855510e-02 3.93525101e-02
      3.41294594e-02 4.27230895e-02</_>
    <_>
      4.09631617e-02 3.80196311e-02 4.55535017e-02 2.25058794e-02
      3.73973995e-02 4.36006188e-02 6.14591688e-02 6.08671010e-02
      3.30381207e-02 6.27279878e-02 6.63077831e-02 2.43969299e-02
      5.92552498e-02 4.38730009e-02 4.13390994e-02 6.29084185e-02
      5.70536107e-02 2.74730101e-02 5.02881706e-02 1.58436392e-02
      4.85695302e-02 4.95650508e-02 3.30807604e-02 4.02317792e-02
      4.28672098e-02 2.83551309e-02 4.53387089e-02 4.11489792e-02
      4.04086001e-02 4.20400202e-02</_>
    <_>
      4.33839485e-02 2.23639607e-02 4.12998684e-02 2.74640899e-02
      2.64464803e-02 3.80325206e-02 4.14395109e-02 1.96912307e-02
      4.58749011e-02 4.40357812e-02 2.85996404e-02 4.58760187e-02
      4.54984307e-02 1.09997997e-02 4.67524491e-02 4.70454991e-02
      2.09588408e-02 4.42934111e-02 4.39909212e-02 4.34821099e-03
      4.41253111e-02 4.36043702e-02 1.92022808e-02 4.09952998e-02
      3.75393704e-02 1.81844402e-02 4.16290797e-02 3.68997492e-02
      2.93915309e-02 4.16953005e-02</_>
    <_>
      3.41006704e-02 7.12374374e-02 7.85823464e-02 2.60286704e-02
      6.63113669e-02 6.80076629e-02 8.45765695e-02 9.13851410e-02
      3.56017612e-02 7.18604028e-02 7.86983073e-02 3.30919996e-02
      9.48431566e-02 9.47044566e-02 6.00867998e-03 7.96829984e-02
      7.93552771e-02 7.30217481e-03 8.48221928e-02 8.99098292e-02
      3.09361108e-02 6.90989867e-02 7.47815892e-02 2.99108103e-02
      5.78842312e-02 8.23041499e-02 5.92627488e-02 4.52969708e-02
      7.17254803e-02 5.57404310e-02</_>
    <_>
      4.04340811e-02 2.04255804e-02 3.94850783e-02 2.61608995e-02
      2.79884096e-02 3.82368304e-02 4.00511399e-02 1.88202504e-02
      4.41439897e-02 4.25921716e-02 2.66742893e-02 4.52699997e-02
      4.31871600e-02 1.32422000e-02 4.39222008e-02 4.42876592e-02
      1.63137708e-02 4.34586294e-02 4.17524986e-02 8.92836601e-03
      4.09994610e-02 4.09822091e-02 1.33758299e-02 4.01530601e-02
      3.42945382e-02 1.57248192e-02 3.73538397e-02 3.46819982e-02
      2.51279809e-02 4.03651781e-02</_>
    <_>
      4.27997112e-02 1.27131799e-02 4.18479703e-02 3.06966305e-02
      1.20976996e-02 3.29650603e-02 4.42433693e-02 2.02377308e-02
      4.83420901e-02 4.66127098e-02 3.14884707e-02 4.72509004e-02
      4.56309319e-02 1.10736396e-02 4.68184799e-02 4.74851392e-02
      2.06908192e-02 4.49513495e-02 3.90191004e-02 1.11715999e-02
      3.76566984e-02 3.99386883e-02 1.18247299e-02 3.95118892e-02
      3.15567292e-02 1.79488696e-02 3.50337215e-02 3.34972590e-02
      2.40301993e-02 3.95291597e-02</_>
    <_>
      3.13274488e-02 7.84021020e-02 8.44292417e-02 2.75182705e-02
      7.04034790e-02 7.08241612e-02 8.26203525e-02 8.66568834e-02
      3.85689214e-02 7.03611672e-02 7.67360702e-02 3.17729712e-02
      9.08104181e-02 8.78071412e-02 2.34396402e-02 7.70834386e-02
      7.67774507e-02 6.99163787e-03 8.07269812e-02 8.12301934e-02
      3.53937410e-02 6.66960031e-02 7.13310987e-02 2.76399795e-02
      5.68926707e-02 7.63770267e-02 5.82494400e-02 4.47531790e-02
      6.94813877e-02 5.42043597e-02</_>
    <_>
      2.20767204e-02 6.59478828e-02 6.32107705e-02 5.91054419e-03
      5.53455316e-02 5.54025583e-02 7.63877407e-02 7.66601190e-02
      2.65337396e-02 6.96299374e-02 7.23932385e-02 2.03702394e-02
      8.15066025e-02 8.13316032e-02 5.97526412e-03 7.42435232e-02
      7.35193864e-02 1.13450699e-02 8.08093771e-02 8.45607668e-02
      2.51969509e-02 6.49060532e-02 6.81611896e-02 2.91027296e-02
      5.87718412e-02 7.40986168e-02 4.67775799e-02 4.90757003e-02
      6.73742965e-02 4.61884886e-02</_>
    <_>
      4.45236303e-02 2.12054104e-02 4.23369296e-02 2.86969692e-02
      2.59022508e-02 3.85751203e-02 4.34495993e-02 1.90347396e-02
      4.73355204e-02 4.58486006e-02 3.01109608e-02 4.72247489e-02
      4.68144082e-02 9.66059882e-03 4.76893485e-02 4.78777811e-02
      2.09071692e-02 4.53866906e-02 4.46420088e-02 7.20553799e-03
      4.46154289e-02 4.34667692e-02 1.66381095e-02 4.16060388e-02
      4.56485189e-02 2.97698509e-02 4.75944206e-02 4.27725017e-02
      4.18534204e-02 4.40028198e-02</_>
    <_>
      5.49464114e-02 2.36108806e-02 5.26453517e-02 3.71002518e-02
      1.96795203e-02 4.19940799e-02 6.20036311e-02 3.71553898e-02
      5.99884689e-02 5.66883087e-02 4.69075590e-02 4.81586605e-02
      5.84905706e-02 1.75120793e-02 5.82874194e-02 5.46499304e-02
      3.14916708e-02 4.67788205e-02 5.50417490e-02 1.06326304e-02
      5.43439388e-02 4.93131205e-02 2.70356201e-02 4.33534011e-02
      4.38812785e-02 2.09874902e-02 4.68821302e-02 3.99260595e-02
      3.32743190e-02 4.32712995e-02</_>
    <_>
      3.29618081e-02 7.72716403e-02 8.39637071e-02 2.90737096e-02
      7.13623613e-02 7.16168210e-02 8.10465366e-02 8.39041173e-02
      3.22020985e-02 7.01841936e-02 7.51317888e-02 2.69818306e-02
      8.92075673e-02 8.72115791e-02 1.90216396e-02 7.63629228e-02
      7.63890892e-02 3.76769202e-03 8.00418109e-02 8.19930434e-02
      3.42589617e-02 6.63410574e-02 7.17584416e-02 2.80719493e-02
      5.64092100e-02 7.28081167e-02 5.63381985e-02 4.48910408e-02
      6.80091381e-02 5.28032295e-02</_>
    <_>
      2.58809105e-02 5.42766117e-02 4.82900217e-02 1.40060298e-03
      4.72939909e-02 4.73145805e-02 7.77821168e-02 7.63415322e-02
      2.59465203e-02 6.65944368e-02 6.85545206e-02 1.75089203e-02
      4.34484184e-02 1.08515201e-02 4.47342210e-02 4.64627594e-02
      2.10335106e-02 4.35789116e-02 3.79099101e-02 7.03426218e-03
      3.78867202e-02 4.09174711e-02 1.62784494e-02 3.93084511e-02
      3.15119810e-02 2.17950791e-02 3.81045491e-02 3.37054916e-02
      2.70361304e-02 3.92493196e-02</_>
    <_>
      4.98895198e-02 4.03182209e-02 5.70507012e-02 3.18597704e-02
      3.70882004e-02 4.88724187e-02 8.12585130e-02 7.60017335e-02
      4.81230617e-02 6.80012107e-02 6.95585385e-02 3.49800102e-02
      7.75299817e-02 6.37006164e-02 4.60674390e-02 7.02501088e-02
      6.57890514e-02 2.61799693e-02 6.89222589e-02 5.01143299e-02
      4.97326702e-02 6.03320897e-02 5.48177510e-02 3.31986696e-02
      5.25431708e-02 4.42104489e-02 4.81536016e-02 4.53798883e-02
      5.05635403e-02 4.21575904e-02</_>
    <_>
      4.45050895e-02 1.37994504e-02 4.36176993e-02 3.19733992e-02
      1.06618600e-02 3.36926095e-02 4.67244014e-02 2.14543398e-02
      5.08498698e-02 4.78124917e-02 3.23419496e-02 4.77289483e-02
      4.82968912e-02 1.13050500e-02 4.95980717e-02 4.92777191e-02
      2.30947807e-02 4.56781089e-02 4.19137813e-02 6.51046401e-03
      4.17377688e-02 4.25803512e-02 1.66840404e-02 4.08378690e-02
      3.41003202e-02 1.77057609e-02 3.81765999e-02 3.52985710e-02
      2.65172701e-02 4.08593602e-02</_>
    <_>
      4.66192886e-02 3.80529612e-02 4.66844812e-02 2.67804693e-02
      3.11101004e-02 4.07660007e-02 4.52258401e-02 2.28613205e-02
      5.05810603e-02 4.64555398e-02 2.96800900e-02 4.72825505e-02
      4.57940400e-02 9.84149985e-03 4.64374609e-02 4.70360592e-02
      1.89684592e-02 4.53029796e-02 3.86524498e-02 1.10412203e-02
      3.80533598e-02 4.01168317e-02 1.37652000e-02 3.92886698e-02
      3.44041884e-02 2.14156192e-02 3.90683189e-02 3.38237695e-02
      2.44042594e-02 3.99021804e-02</_>
    <_>
      5.73295988e-02 4.95380014e-02 7.37671480e-02 4.10043895e-02
      4.30549383e-02 5.84756210e-02 7.73982406e-02 6.71880171e-02
      5.48141301e-02 6.58599809e-02 6.50980920e-02 4.01151106e-02
      8.30073282e-02 6.43440709e-02 5.53612001e-02 7.02041164e-02
      6.24978282e-02 3.46156284e-02 7.35959932e-02 5.18503301e-02
      5.37311807e-02 6.09902889e-02 5.29873706e-02 3.54836397e-02
      5.38807586e-02 3.91165093e-02 5.12991399e-02 4.49268594e-02
      4.58160192e-02 4.37339284e-02</_>
    <_>
      2.55401991e-02 6.39949664e-02 6.07965700e-02 7.45931687e-03
      5.21420017e-02 5.26358299e-02 8.42530280e-02 8.59924108e-02
      1.89212300e-02 7.27913380e-02 7.44782388e-02 2.23011505e-02
      8.74146819e-02 8.67877528e-02 1.89570300e-02 7.35834315e-02
      7.39347786e-02 7.56826019e-03 4.12670299e-02 8.24057683e-03
      4.06876206e-02 4.09532897e-02 1.43112000e-02 3.99009995e-02
      3.39643098e-02 1.58188697e-02 3.74503210e-02 3.53693590e-02
      2.74966601e-02 4.12297212e-02</_>
    <_>
      5.96005917e-02 4.12289985e-02 6.94977269e-02 4.22694199e-02
      3.55538689e-02 5.46445884e-02 7.86770880e-02 7.04403967e-02
      5.75732999e-02 6.57282472e-02 6.64230511e-02 4.31637503e-02
      8.72514993e-02 7.14245737e-02 5.37588783e-02 7.18364269e-02
      6.51173666e-02 3.36934105e-02 7.97066465e-02 6.33030906e-02
      5.09792306e-02 6.36299774e-02 5.78117482e-02 3.36501896e-02
      5.96201606e-02 5.02137393e-02 5.38052991e-02 4.69672009e-02
      5.10612689e-02 4.55069207e-02</_>
    <_>
      3.85591015e-02 7.02941194e-02 7.87412897e-02 2.78816707e-02
      5.84400706e-02 6.33184910e-02 8.85534063e-02 9.22948569e-02
      3.40534300e-02 7.16443285e-02 7.69022331e-02 2.91652195e-02
      9.88091901e-02 9.79395509e-02 1.34844696e-02 7.88497701e-02
      7.87624270e-02 4.46250103e-03 8.80391300e-02 9.18458998e-02
      3.18567306e-02 6.85681775e-02 7.35606179e-02 2.71737091e-02
      6.22384511e-02 8.27209726e-02 5.77980503e-02 4.69640493e-02
      6.93129227e-02 5.18749692e-02</_>
    <_>
      5.59048690e-02 1.40776196e-02 5.41085713e-02 3.99801396e-02
      1.36782704e-02 4.20306884e-02 7.80626535e-02 6.03806116e-02
      6.19744509e-02 6.38937429e-02 5.78070693e-02 4.59647588e-02
      8.78255814e-02 6.39994219e-02 6.15274794e-02 6.98007271e-02
      5.71019389e-02 4.12812084e-02 6.54840693e-02 2.36415006e-02
      6.15084916e-02 5.40138297e-02 3.36958282e-02 4.46966812e-02
      5.48447296e-02 2.96485797e-02 5.52813299e-02 4.28820513e-02
      3.67847197e-02 4.59652394e-02</_>
    <_>
      5.09598888e-02 1.48678003e-02 5.26562892e-02 3.95747907e-02
      8.32550600e-03 3.96887287e-02 4.16112691e-02 1.69436894e-02
      4.39503603e-02 4.21036482e-02 2.33173408e-02 4.55012508e-02
      4.60152291e-02 1.47459600e-02 4.50678803e-02 4.42801788e-02
      1.27832703e-02 4.44176011e-02 4.77309600e-02 4.39250004e-03
      4.76916991e-02 4.52802218e-02 1.73097495e-02 4.32940796e-02
      4.03315015e-02 1.55595699e-02 4.30106893e-02 3.69547494e-02
      2.49897093e-02 4.19083089e-02</_>
    <_>
      4.79516387e-02 2.76097693e-02 4.47855182e-02 2.95199007e-02
      2.54900008e-02 3.88341919e-02 4.72323112e-02 2.20512003e-02
      5.18574119e-02 4.75419685e-02 3.07454597e-02 4.79133204e-02
      4.74337004e-02 9.96054709e-03 4.81392890e-02 4.74756397e-02
      1.95080005e-02 4.55668792e-02 4.07275297e-02 1.24293696e-02
      3.95950302e-02 4.02518697e-02 1.21600302e-02 3.98360193e-02
      3.49465199e-02 2.12730896e-02 3.93569805e-02 3.40348892e-02
      2.40935497e-02 4.00597788e-02</_>
    <_>
      4.42380011e-02 1.50025403e-02 4.20207791e-02 3.05389296e-02
      1.27154198e-02 3.30209695e-02 4.08272408e-02 2.01787408e-02
      4.55079302e-02 4.41163108e-02 2.91543305e-02 4.56688516e-02
      4.28178087e-02 1.10615501e-02 4.38374504e-02 4.52989414e-02
      1.89153198e-02 4.33697701e-02 4.07118388e-02 7.18933204e-03
      4.04230095e-02 4.13393788e-02 1.55772604e-02 3.99336405e-02
      3.51489782e-02 1.70940496e-02 3.89560089e-02 3.53041999e-02
      2.65697204e-02 4.07991298e-02</_>
    <_>
      4.43664491e-02 1.20798098e-02 4.28229608e-02 3.17234397e-02
      1.50798196e-02 3.51193883e-02 3.99686582e-02 1.86287705e-02
      4.40699309e-02 4.29787710e-02 2.73664705e-02 4.53758016e-02
      4.18810993e-02 1.17030600e-02 4.27184701e-02 4.44425493e-02
      1.75185408e-02 4.30709608e-02 4.00826409e-02 8.32831673e-03
      3.95802818e-02 4.07610685e-02 1.44441500e-02 3.96816507e-02
      3.36171985e-02 1.70070603e-02 3.73441391e-02 3.45697105e-02
      2.57410891e-02 4.03095111e-02</_>
    <_>
      4.41526510e-02 1.79641396e-02 4.14785706e-02 2.94021200e-02
      2.18310505e-02 3.65182795e-02 3.82536985e-02 1.88979991e-02
      4.25678790e-02 4.20718417e-02 2.66830493e-02 4.47818711e-02
      4.00103889e-02 1.30064804e-02 4.06421497e-02 4.31057289e-02
      1.58625394e-02 4.23653908e-02 3.72878611e-02 1.13597801e-02
      3.58502716e-02 3.86671014e-02 1.13269603e-02 3.83825190e-02
      3.09474301e-02 1.71518102e-02 3.42377611e-02 3.29394303e-02
      2.38056500e-02 3.90173085e-02</_>
    <_>
      6.66442001e-03 8.55868533e-02 8.58366936e-02 1.86708998e-02
      7.07962736e-02 6.86141700e-02 7.55433291e-02 7.84231722e-02
      2.88236793e-02 6.67888299e-02 7.13551417e-02 2.51205191e-02
      9.13295299e-02 9.20045227e-02 1.16763096e-02 7.42944032e-02
      7.40394965e-02 1.36522101e-02 7.70836174e-02 7.84781277e-02
      3.24564204e-02 6.35066181e-02 6.83512911e-02 2.62663700e-02
      5.49274199e-02 6.56371117e-02 4.84682396e-02 4.44776788e-02
      6.25011921e-02 4.60353494e-02</_>
    <_>
      1.82166491e-02 8.00798163e-02 8.17657411e-02 1.80971306e-02
      6.29842803e-02 6.36402965e-02 8.42563435e-02 8.79428610e-02
      2.69589294e-02 6.90897927e-02 7.35990480e-02 2.55003795e-02
      9.10845771e-02 9.07527134e-02 1.33867702e-02 7.43997023e-02
      7.46532902e-02 6.16748817e-03 7.94688016e-02 8.00120905e-02
      3.56222913e-02 6.38372526e-02 6.81791231e-02 2.75676697e-02
      5.76774590e-02 6.49668798e-02 5.47748990e-02 4.46701199e-02
      6.06320389e-02 4.89487797e-02</_>
    <_>
      2.41093803e-02 6.66173473e-02 6.47429898e-02 1.10410303e-02
      5.04390299e-02 5.16193211e-02 8.42441767e-02 8.53525624e-02
      2.70666294e-02 7.23837018e-02 7.30118975e-02 2.96080504e-02
      9.77881998e-02 9.83650833e-02 2.24961694e-02 7.80345798e-02
      7.72047266e-02 2.09139194e-02 3.86090800e-02 1.70089193e-02
      3.67704593e-02 4.65846509e-02 3.13684195e-02 3.72593515e-02
      2.69579701e-02 2.02119201e-02 3.36591713e-02 3.35182212e-02
      2.59354692e-02 3.96433994e-02</_>
    <_>
      4.13761400e-02 2.20486894e-02 3.99144515e-02 2.57740207e-02
      2.85562295e-02 3.83901596e-02 3.92425396e-02 2.29778197e-02
      4.54693809e-02 4.36045304e-02 2.82855798e-02 4.55798917e-02
      4.07663994e-02 1.29965898e-02 4.14549597e-02 4.41127494e-02
      1.64667591e-02 4.32127789e-02 3.73704284e-02 1.11689800e-02
      3.60132009e-02 3.93933393e-02 1.18410904e-02 3.89917083e-02
      3.12624499e-02 1.72529109e-02 3.50263193e-02 3.38940583e-02
      2.52242293e-02 3.99154089e-02</_>
    <_>
      3.21984589e-02 4.86575589e-02 4.64992411e-02 1.21047804e-02
      4.44324501e-02 4.60283794e-02 9.10674930e-02 9.54657421e-02
      2.99978405e-02 7.27024525e-02 7.74177909e-02 2.86405999e-02
      4.39754389e-02 1.17923198e-02 4.51063514e-02 4.57050987e-02
      1.86326001e-02 4.39568982e-02 4.04404402e-02 1.05755003e-02
      3.92506495e-02 4.00822908e-02 1.17922500e-02 3.96335088e-02
      3.35044302e-02 1.72822103e-02 3.69088314e-02 3.40537094e-02
      2.43786909e-02 3.98571081e-02</_>
    <_>
      4.24992219e-02 4.11295816e-02 4.92688306e-02 2.36579496e-02
      3.96444798e-02 4.61525917e-02 9.22527388e-02 9.56233665e-02
      3.04606408e-02 7.35139772e-02 7.79216364e-02 2.75211409e-02
      4.35233004e-02 1.24347704e-02 4.41554300e-02 4.53606397e-02
      1.68643892e-02 4.43663411e-02 3.96188982e-02 1.15811899e-02
      3.81234698e-02 4.00979891e-02 1.12610599e-02 3.97703908e-02
      3.25253308e-02 1.87776107e-02 3.61144692e-02 3.37187611e-02
      2.38026697e-02 3.97022292e-02</_>
    <_>
      4.76624817e-02 3.63814496e-02 4.72651608e-02 2.81281397e-02
      3.02326791e-02 4.10430282e-02 9.23217237e-02 9.50555131e-02
      2.93196198e-02 7.34984204e-02 7.73797333e-02 2.65628397e-02
      4.25380990e-02 9.77184623e-03 4.34619188e-02 4.63879593e-02
      2.02324092e-02 4.39884290e-02 3.92348692e-02 9.35211778e-03
      3.87468003e-02 4.09833491e-02 1.43714799e-02 3.99349295e-02
      3.27483118e-02 2.00505704e-02 3.76952998e-02 3.43136005e-02
      2.54323203e-02 4.01100107e-02</_>
    <_>
      5.77173792e-02 4.82277013e-02 7.30767176e-02 4.11896184e-02
      4.20608297e-02 5.79539202e-02 7.73639232e-02 6.66263103e-02
      5.52812293e-02 6.57439530e-02 6.46376908e-02 4.04703990e-02
      8.29751566e-02 6.37708828e-02 5.59465699e-02 7.00830072e-02
      6.20247796e-02 3.51923108e-02 7.37029836e-02 5.15616313e-02
      5.41565493e-02 6.09441809e-02 5.26706614e-02 3.58734690e-02
      5.40874600e-02 3.90208587e-02 5.15330397e-02 4.49522510e-02
      4.56253514e-02 4.38606404e-02</_>
    <_>
      4.34477106e-02 1.41040301e-02 4.16190699e-02 3.02149691e-02
      1.27983000e-02 3.27713005e-02 4.03763205e-02 1.97963696e-02
      4.49625589e-02 4.33768593e-02 2.79050097e-02 4.55437489e-02
      4.25538085e-02 1.10104401e-02 4.35464084e-02 4.51619998e-02
      1.88291296e-02 4.32584994e-02 4.06936891e-02 6.71307091e-03
      4.05306816e-02 4.15382311e-02 1.62853897e-02 3.99176888e-02
      3.51186618e-02 1.73687991e-02 3.91124412e-02 3.54685485e-02
      2.70893704e-02 4.09072004e-02</_>
    <_>
      4.13689613e-02 1.61741897e-02 3.97619791e-02 2.74155494e-02
      2.51626503e-02 3.71870995e-02 9.19700414e-02 9.33003128e-02
      2.13032793e-02 7.35753775e-02 7.61464834e-02 2.03586295e-02
      5.94541281e-02 2.43394691e-02 5.66575602e-02 5.75124994e-02
      3.95885482e-02 4.38309312e-02 5.50220497e-02 4.64919209e-03
      5.49889207e-02 4.66924608e-02 1.56843103e-02 4.50332910e-02
      4.47390191e-02 1.60398297e-02 4.74144593e-02 3.78727093e-02
      2.44070794e-02 4.24140394e-02</_>
    <_>
      5.31262606e-02 2.92657893e-02 5.17391115e-02 3.47501114e-02
      2.38027703e-02 4.21029218e-02 4.99774218e-02 2.60567702e-02
      5.25000207e-02 5.08106612e-02 3.86468805e-02 4.71082218e-02
      5.24332486e-02 1.84800401e-02 5.14153689e-02 5.40307015e-02
      3.47523801e-02 4.35454994e-02 4.79346700e-02 1.40448604e-02
      4.67031784e-02 4.85351495e-02 3.17671485e-02 3.97418812e-02
      4.01469916e-02 2.67972499e-02 4.37546112e-02 4.00219597e-02
      3.93736884e-02 4.18913402e-02</_>
    <_>
      1.95876006e-02 7.60840699e-02 7.63200223e-02 1.31735196e-02
      6.16218001e-02 6.19118102e-02 8.50358382e-02 8.23690370e-02
      3.75283994e-02 7.10053220e-02 7.21405819e-02 2.88466495e-02
      4.13220190e-02 1.14443600e-02 4.24281992e-02 4.48740311e-02
      1.83617696e-02 4.31641601e-02 3.81768085e-02 1.00830300e-02
      3.73826809e-02 3.96405905e-02 1.30499499e-02 3.89697403e-02
      3.21337618e-02 1.72450393e-02 3.57635505e-02 3.38569507e-02
      2.45275404e-02 3.97350006e-02</_>
    <_>
      2.25035306e-02 7.67388418e-02 7.80352876e-02 1.61756407e-02
      6.09717295e-02 6.20183311e-02 8.30316022e-02 8.67907628e-02
      2.90386602e-02 7.06200674e-02 7.53845200e-02 2.67056506e-02
      9.14003626e-02 9.08297524e-02 1.10890297e-02 7.69250691e-02
      7.68923685e-02 5.32016577e-03 7.41657764e-02 6.83271065e-02
      3.76020782e-02 6.41169697e-02 6.57254383e-02 2.49986202e-02
      5.45241013e-02 4.86024395e-02 5.19816503e-02 4.55344617e-02
      5.36169894e-02 4.63298187e-02</_>
    <_>
      4.28642817e-02 3.09507903e-02 4.46793586e-02 2.55889501e-02
      3.47278602e-02 4.31125015e-02 4.17165495e-02 1.99877508e-02
      4.62222509e-02 4.50805388e-02 2.94948798e-02 4.65641692e-02
      4.33768518e-02 1.07122902e-02 4.41015810e-02 4.58883084e-02
      1.84838492e-02 4.42330502e-02 4.07880098e-02 8.21328536e-03
      4.05420512e-02 4.18367907e-02 1.56546105e-02 4.03816290e-02
      3.57408486e-02 2.32143793e-02 4.10599783e-02 3.84442694e-02
      3.52412313e-02 4.16705310e-02</_>
    <_>
      3.08342297e-02 7.80551136e-02 8.39246437e-02 2.71994192e-02
      7.05424473e-02 7.07937628e-02 8.22640136e-02 8.61414373e-02
      3.87866609e-02 7.02408999e-02 7.65833035e-02 3.18036713e-02
      9.05475765e-02 8.73551667e-02 2.40655299e-02 7.69343004e-02
      7.65854791e-02 7.40080606e-03 8.05483833e-02 8.09476674e-02
      3.59125212e-02 6.65396973e-02 7.12111965e-02 2.79284306e-02
      5.66206910e-02 7.62123391e-02 5.85418493e-02 4.45322692e-02
      6.94943219e-02 5.44549897e-02</_>
    <_>
      4.04880010e-02 2.62995791e-02 3.98005210e-02 2.39846092e-02
      3.12952995e-02 3.93063091e-02 4.39298600e-02 1.95654798e-02
      4.79886197e-02 4.60168906e-02 3.01569309e-02 4.72820699e-02
      4.73962203e-02 1.03259897e-02 4.84462418e-02 4.82455716e-02
      2.14154702e-02 4.55092117e-02 4.27839197e-02 7.11373799e-03
      4.27277200e-02 4.28648517e-02 1.67860892e-02 4.10098210e-02
      3.58980708e-02 1.84726994e-02 4.03227918e-02 3.61763388e-02
      2.75465492e-02 4.12072390e-02</_>
    <_>
      4.08483595e-02 3.28835994e-02 4.30215709e-02 2.31240895e-02
      3.56957801e-02 4.24651392e-02 4.21179608e-02 1.98037997e-02
      4.65030409e-02 4.52153385e-02 2.95350607e-02 4.67013307e-02
      4.42638397e-02 1.05093103e-02 4.50331606e-02 4.63391095e-02
      1.89590193e-02 4.45252396e-02 4.15299907e-02 7.85512105e-03
      4.14088592e-02 4.22318988e-02 1.62387807e-02 4.05691788e-02
      3.48902792e-02 2.31234506e-02 4.05060016e-02 3.81355509e-02
      3.46674584e-02 4.14038599e-02</_>
    <_>
      4.60877903e-02 3.91165614e-02 4.69856113e-02 2.62908507e-02
      3.22537608e-02 4.13169302e-02 9.18125734e-02 9.43672732e-02
      3.26189101e-02 7.31637180e-02 7.71597102e-02 2.84699704e-02
      4.27350290e-02 9.45503078e-03 4.33112904e-02 4.57569510e-02
      1.89664699e-02 4.38767783e-02 3.95124704e-02 8.58370773e-03
      3.94138284e-02 4.14411202e-02 1.59379300e-02 3.98948602e-02
      3.31437513e-02 2.06802506e-02 3.87847908e-02 3.48139703e-02
      2.66410597e-02 4.02048491e-02</_>
    <_>
      2.81349607e-02 3.55953909e-02 3.50290909e-02 1.00253904e-02
      4.04526703e-02 4.16204110e-02 3.90443206e-02 2.32666805e-02
      4.49634902e-02 4.20757793e-02 2.60198694e-02 4.56228890e-02
      4.10264991e-02 1.55750001e-02 4.08763289e-02 4.28134501e-02
      1.38023300e-02 4.29035909e-02 3.68873291e-02 1.50634600e-02
      3.39452401e-02 3.77328992e-02 8.43120739e-03 3.79667208e-02
      2.99882200e-02 1.82639994e-02 3.29045206e-02 3.23423184e-02
      2.27227509e-02 3.85309085e-02</_>
    <_>
      5.60400188e-02 1.39123900e-02 5.43216392e-02 4.01501283e-02
      1.46039398e-02 4.24867496e-02 7.43410066e-02 5.17010316e-02
      6.43241033e-02 6.15500994e-02 5.28098717e-02 4.80700694e-02
      7.51273334e-02 3.33351605e-02 6.97018430e-02 6.05489090e-02
      3.79057787e-02 4.91306297e-02 6.20702207e-02 1.31312301e-02
      6.08713701e-02 5.07508516e-02 2.60728002e-02 4.54083309e-02
      4.90180403e-02 2.00506207e-02 5.10283113e-02 4.08056788e-02
      3.13918218e-02 4.45046984e-02</_>
    <_>
      5.16868904e-02 1.16669200e-02 5.09681106e-02 3.82303409e-02
      1.24841398e-02 4.00196202e-02 4.39154506e-02 2.23210398e-02
      4.92071509e-02 4.47528288e-02 2.75763292e-02 4.70948406e-02
      4.79181409e-02 1.25812897e-02 4.90401499e-02 4.74412590e-02
      1.86572894e-02 4.58796993e-02 4.87180091e-02 4.16624919e-03
      4.86813486e-02 4.52925786e-02 1.75747797e-02 4.32266593e-02
      4.03356887e-02 1.64673105e-02 4.34856117e-02 3.82427499e-02
      2.88869496e-02 4.30574603e-02</_>
    <_>
      5.38499616e-02 1.86168794e-02 5.05391993e-02 3.69438305e-02
      1.09221404e-02 3.85073908e-02 5.40790409e-02 2.10305508e-02
      5.74360304e-02 4.89337109e-02 3.08648404e-02 4.96885590e-02
      5.82564101e-02 1.26670599e-02 5.93534485e-02 5.21391407e-02
      2.39181202e-02 4.86287512e-02 5.57867512e-02 3.05190100e-03
      5.58699295e-02 4.70944792e-02 1.75710209e-02 4.48039509e-02
      4.49561886e-02 1.63218901e-02 4.77935784e-02 3.76233198e-02
      2.44819205e-02 4.20898795e-02</_>
    <_>
      5.70924506e-02 3.12310103e-02 5.92817217e-02 3.89489494e-02
      2.76041497e-02 4.76562008e-02 7.34238774e-02 5.25776818e-02
      6.45151436e-02 6.13957383e-02 5.43607883e-02 4.88187000e-02
      8.37466493e-02 5.73278815e-02 6.31159171e-02 6.82840422e-02
      5.50964288e-02 4.20343690e-02 7.85214975e-02 5.57466000e-02
      5.76484390e-02 6.17409907e-02 5.19981198e-02 3.93067189e-02
      6.18494414e-02 5.33079505e-02 5.56465499e-02 4.73463088e-02
      5.12538403e-02 4.66373786e-02</_>
    <_>
      4.43689898e-02 1.53623298e-02 4.16655689e-02 3.02253291e-02
      1.50912702e-02 3.37041318e-02 4.21658717e-02 2.00685691e-02
      4.66073491e-02 4.48099002e-02 2.97132693e-02 4.61102501e-02
      4.49909009e-02 1.07391598e-02 4.61766310e-02 4.67757992e-02
      2.07719896e-02 4.41024788e-02 4.36428711e-02 4.71498910e-03
      4.37488295e-02 4.33381908e-02 1.86030492e-02 4.09260616e-02
      3.79380211e-02 1.76654607e-02 4.18011807e-02 3.69365215e-02
      2.88795903e-02 4.18057218e-02</_>
    <_>
      5.24279810e-02 1.86536908e-02 4.90881614e-02 3.58539708e-02
      9.12355445e-03 3.69893089e-02 5.36856204e-02 2.13080291e-02
      5.71791604e-02 4.89486009e-02 3.08290403e-02 4.95894998e-02
      5.73940501e-02 1.27390698e-02 5.84930591e-02 5.21474890e-02
      2.42351703e-02 4.84282896e-02 5.52136712e-02 3.17965308e-03
      5.53051382e-02 4.70982902e-02 1.78359300e-02 4.47172895e-02
      4.48273495e-02 1.62828993e-02 4.76694517e-02 3.76874618e-02
      2.46295203e-02 4.21203710e-02</_>
    <_>
      4.69464511e-02 3.59967798e-02 4.60955091e-02 2.73557007e-02
      3.01637296e-02 4.04308699e-02 9.16992724e-02 9.41917226e-02
      3.28954794e-02 7.31265619e-02 7.71333799e-02 2.85381600e-02
      4.43296582e-02 9.06763040e-03 4.51266989e-02 4.69717681e-02
      2.09356807e-02 4.43596393e-02 4.07850817e-02 7.70134199e-03
      4.08798605e-02 4.22052406e-02 1.71428993e-02 4.02138494e-02
      3.42228003e-02 2.03306600e-02 3.96911092e-02 3.53743099e-02
      2.73067895e-02 4.04216200e-02</_>
    <_>
      3.59132104e-02 6.85991868e-02 7.59809986e-02 2.52399296e-02
      6.05710484e-02 6.39317632e-02 8.63056183e-02 9.23209563e-02
      3.76428887e-02 7.11588413e-02 7.81845078e-02 3.25675383e-02
      9.64828134e-02 9.58840027e-02 1.20313298e-02 7.87531063e-02
      7.87903965e-02 2.43367092e-03 8.61474425e-02 8.95679668e-02
      2.90658306e-02 6.85960725e-02 7.33771995e-02 2.60555297e-02
      6.00961111e-02 8.17747712e-02 5.64654283e-02 4.61214595e-02
      6.99235871e-02 5.25600314e-02</_>
    <_>
      5.16706295e-02 1.01157399e-02 5.11603989e-02 3.86617109e-02
      2.25773193e-02 4.44441587e-02 4.41853814e-02 2.34214403e-02
      4.91168611e-02 4.31117192e-02 2.50464603e-02 4.70651612e-02
      4.89353910e-02 1.45260300e-02 4.96272296e-02 4.66429293e-02
      1.60099007e-02 4.61551510e-02 4.87637892e-02 6.32898882e-03
      4.84400392e-02 4.45721112e-02 1.50179304e-02 4.32352908e-02
      4.06100713e-02 1.43889096e-02 4.30801585e-02 3.77544388e-02
      2.64946409e-02 4.27319109e-02</_>
    <_>
      5.97921908e-02 2.10981499e-02 5.91406189e-02 4.21192199e-02
      2.01992393e-02 4.64623012e-02 7.23070502e-02 5.26178218e-02
      6.31953478e-02 6.15208000e-02 5.54368794e-02 4.79940213e-02
      8.04631263e-02 5.14865816e-02 6.42940998e-02 6.67260513e-02
      5.24344295e-02 4.33445387e-02 7.37160370e-02 4.36608195e-02
      6.05820194e-02 5.91303296e-02 4.55909595e-02 4.17307094e-02
      5.63429408e-02 3.66325006e-02 5.51748499e-02 4.48037200e-02
      4.23174687e-02 4.62515801e-02</_>
    <_>
      4.06966582e-02 2.81667504e-02 4.06274684e-02 2.41828393e-02
      3.22248414e-02 4.01106216e-02 6.81847632e-02 2.77489107e-02
      6.92508966e-02 5.41372411e-02 3.17719691e-02 5.35818599e-02
      4.45171483e-02 1.41193001e-02 4.50852588e-02 4.50964794e-02
      1.58752594e-02 4.45363186e-02 4.24879082e-02 1.32256402e-02
      4.07461300e-02 4.05478515e-02 1.04619497e-02 4.04176190e-02
      3.57716009e-02 2.13254094e-02 3.95611189e-02 3.40626389e-02
      2.33203694e-02 4.01388519e-02</_>
    <_>
      2.86563393e-02 8.81825313e-02 9.24496204e-02 2.90731695e-02
      7.48602897e-02 7.38593265e-02 8.78638625e-02 9.28353220e-02
      3.54681611e-02 7.23756924e-02 7.85771534e-02 3.07248197e-02
      9.69042033e-02 9.58165973e-02 1.49712097e-02 7.92506635e-02
      7.92819634e-02 2.99448194e-03 8.53239074e-02 8.66035223e-02
      3.49645503e-02 6.83930665e-02 7.30334669e-02 2.75832601e-02
      5.97576983e-02 7.74067491e-02 5.97794093e-02 4.59404513e-02
      6.93988577e-02 5.43200001e-02</_>
    <_>
      4.61205207e-02 2.44810600e-02 4.40050215e-02 2.94393301e-02
      2.61423104e-02 3.92725095e-02 3.95177491e-02 1.81111600e-02
      4.34680395e-02 4.30638716e-02 2.78215297e-02 4.52931300e-02
      4.13157903e-02 1.18186204e-02 4.20567282e-02 4.40770015e-02
      1.70720797e-02 4.28644903e-02 3.80805992e-02 1.04496097e-02
      3.69420983e-02 3.92771587e-02 1.21810399e-02 3.87908518e-02
      3.16895284e-02 1.78075396e-02 3.52354087e-02 3.31840590e-02
      2.40426809e-02 3.92462499e-02</_>
    <_>
      1.83320194e-02 7.55204931e-02 7.50010237e-02 1.10063404e-02
      6.05442114e-02 6.06739894e-02 8.64388272e-02 8.45915973e-02
      3.43490988e-02 7.12489933e-02 7.29984418e-02 2.58459207e-02
      3.99246700e-02 1.15904901e-02 4.09395695e-02 4.41234708e-02
      1.76154301e-02 4.26888987e-02 3.79846804e-02 1.07883196e-02
      3.67953703e-02 3.92518118e-02 1.18404496e-02 3.88466902e-02
      3.18711996e-02 1.70813091e-02 3.52563299e-02 3.35780606e-02
      2.40282100e-02 3.94870304e-02</_>
    <_>
      4.64281403e-02 2.62738392e-02 4.33173403e-02 2.84996107e-02
      2.59330906e-02 3.83593291e-02 9.19362903e-02 9.37445536e-02
      2.89924107e-02 7.33653829e-02 7.66931623e-02 2.55893394e-02
      7.86961690e-02 3.44333313e-02 7.32187703e-02 6.24791794e-02
      3.58362086e-02 5.32389916e-02 4.23889197e-02 6.36479817e-03
      4.25201803e-02 4.30521108e-02 1.82378106e-02 4.06892709e-02
      3.55764590e-02 2.02946905e-02 4.09451611e-02 3.63234989e-02
      2.91338991e-02 4.06111218e-02</_>
    <_>
      4.65217903e-02 2.53946409e-02 4.31175493e-02 2.91368105e-02
      2.40090992e-02 3.75487991e-02 4.02553305e-02 2.03631092e-02
      4.51119915e-02 4.34807800e-02 2.81583406e-02 4.55139801e-02
      4.13555913e-02 1.13386698e-02 4.24865410e-02 4.48642112e-02
      1.87693704e-02 4.29533683e-02 3.75405811e-02 9.38964356e-03
      3.67362686e-02 3.95018682e-02 1.32948998e-02 3.87600511e-02
      3.17958109e-02 1.85776092e-02 3.60447392e-02 3.35109904e-02
      2.49233898e-02 3.95428687e-02</_>
    <_>
      3.84041294e-02 2.17240304e-02 3.83864418e-02 2.44468097e-02
      3.00574899e-02 3.86641398e-02 3.98950689e-02 2.00433191e-02
      4.42893989e-02 4.19628210e-02 2.56822407e-02 4.51620817e-02
      4.29382212e-02 1.48801701e-02 4.31594811e-02 4.32889201e-02
      1.44289397e-02 4.31575701e-02 4.11627106e-02 1.23656001e-02
      3.94146293e-02 3.96258682e-02 1.01913400e-02 3.94878983e-02
      3.29096913e-02 1.50343599e-02 3.50721218e-02 3.34917605e-02
      2.29469705e-02 3.91894206e-02</_>
    <_>
      3.78588811e-02 3.00713908e-02 3.86358611e-02 2.06894297e-02
      3.38062905e-02 3.95239703e-02 4.21349816e-02 1.98433697e-02
      4.64831106e-02 4.47940417e-02 2.97060199e-02 4.61341105e-02
      4.68159616e-02 1.08281104e-02 4.80311215e-02 4.76628207e-02
      2.14622505e-02 4.47517112e-02 4.97436784e-02 1.05647799e-02
      4.91691604e-02 4.80308495e-02 2.83586308e-02 4.14043888e-02
      4.19826992e-02 2.21932102e-02 4.54141796e-02 3.95946316e-02
      3.47763784e-02 4.28835489e-02</_>
    <_>
      3.28326002e-02 4.58961390e-02 4.14475910e-02 1.09316604e-02
      4.14942503e-02 4.27251607e-02 9.24724787e-02 9.40190405e-02
      1.78156402e-02 7.39324465e-02 7.60924071e-02 2.01016702e-02
      1.00848801e-01 9.96349230e-02 1.87135898e-02 7.99198821e-02
      7.96646774e-02 1.02242902e-02 5.23923002e-02 4.02660901e-03
      5.23012392e-02 4.61938903e-02 1.62711609e-02 4.44845594e-02
      4.30581495e-02 1.55263497e-02 4.57212701e-02 3.77953909e-02
      2.53682304e-02 4.24108803e-02</_>
    <_>
      5.84218092e-02 3.95920202e-02 6.77432269e-02 4.10292596e-02
      3.79699692e-02 5.52546717e-02 7.64747187e-02 7.14034811e-02
      4.25494909e-02 6.76064566e-02 6.91484809e-02 2.96946093e-02
      8.17513019e-02 6.96333796e-02 4.40925509e-02 7.20813125e-02
      6.83041736e-02 2.39352807e-02 7.33309388e-02 5.77900112e-02
      4.85137999e-02 6.25300631e-02 5.85673600e-02 3.20402682e-02
      5.56323007e-02 4.75309715e-02 5.09609617e-02 4.63163294e-02
      5.18656112e-02 4.43853512e-02</_>
    <_>
      4.38639484e-02 1.37341199e-02 4.18041497e-02 3.05349603e-02
      1.51427304e-02 3.40197384e-02 4.18379717e-02 2.02015601e-02
      4.64567803e-02 4.47566397e-02 2.89382003e-02 4.64713499e-02
      4.35924716e-02 1.21933501e-02 4.46283184e-02 4.58837412e-02
      1.83269698e-02 4.43123393e-02 3.93276997e-02 1.03230895e-02
      3.82304899e-02 4.03585099e-02 1.26261897e-02 3.97462510e-02
      3.22449394e-02 1.74869001e-02 3.57027389e-02 3.39555405e-02
      2.44347900e-02 3.98725607e-02</_>
    <_>
      4.25049514e-02 3.61077487e-02 4.67809588e-02 2.46310607e-02
      3.69164795e-02 4.43637185e-02 4.35812697e-02 2.08985601e-02
      4.78288010e-02 4.61739302e-02 3.18191610e-02 4.64282297e-02
      4.68310490e-02 1.05686700e-02 4.79536206e-02 4.84669097e-02
      2.37533599e-02 4.44581211e-02 4.45020385e-02 4.67617903e-03
      4.46792804e-02 4.37949114e-02 1.92670599e-02 4.10830490e-02
      3.74162197e-02 1.85135007e-02 4.16857414e-02 3.67889106e-02
      2.91277803e-02 4.14264500e-02</_>
    <_>
      4.43538800e-02 2.05405299e-02 4.17542607e-02 2.85211299e-02
      2.47739702e-02 3.76766510e-02 4.02917415e-02 2.02517994e-02
      4.50728796e-02 4.37834002e-02 2.79917195e-02 4.59762886e-02
      4.34153788e-02 1.10714398e-02 4.39465195e-02 4.54383604e-02
      1.76628493e-02 4.40813489e-02 4.12111916e-02 9.23548173e-03
      4.08709496e-02 4.16297503e-02 1.49543099e-02 4.03781012e-02
      3.52169313e-02 1.87710207e-02 3.98928411e-02 3.60761583e-02
      2.82803308e-02 4.11293693e-02</_>
    <_>
      3.56398001e-02 6.94835931e-02 7.48904198e-02 2.35311203e-02
      5.64373806e-02 6.04990199e-02 9.04858634e-02 9.64228883e-02
      3.69936414e-02 7.28095323e-02 7.94926435e-02 3.23310383e-02
      1.00385003e-01 9.99385789e-02 1.38871800e-02 8.03040788e-02
      8.04339498e-02 5.89712989e-03 9.04685333e-02 9.27368179e-02
      2.53554508e-02 7.06004500e-02 7.40984529e-02 2.26412192e-02
      6.45675883e-02 8.21839422e-02 5.39639518e-02 4.88489382e-02
      6.91154674e-02 4.94793802e-02</_>
    <_>
      4.32296805e-02 2.21071206e-02 4.11456786e-02 2.72260606e-02
      2.70355903e-02 3.82709801e-02 4.22859900e-02 1.88440792e-02
      4.62368913e-02 4.52825204e-02 2.97312904e-02 4.68187109e-02
      4.61496785e-02 9.65495873e-03 4.70405892e-02 4.76721898e-02
      2.09711306e-02 4.51169014e-02 4.29260097e-02 6.94302982e-03
      4.30638418e-02 4.31871004e-02 1.76559109e-02 4.09772694e-02
      3.76481004e-02 2.02776697e-02 4.22736593e-02 3.79396789e-02
      3.19156796e-02 4.17784490e-02</_>
    <_>
      4.35007401e-02 2.04611197e-02 4.12409008e-02 2.80739795e-02
      2.50839293e-02 3.75645086e-02 4.35923599e-02 1.98725201e-02
      4.76585589e-02 4.56221104e-02 3.07723507e-02 4.65474203e-02
      4.84742709e-02 1.14345299e-02 4.95222695e-02 4.95775491e-02
      2.54768692e-02 4.46932018e-02 4.86206710e-02 7.94932619e-03
      4.84444611e-02 4.70621698e-02 2.59960592e-02 4.16279286e-02
      4.08765599e-02 2.03320999e-02 4.45550717e-02 3.87906097e-02
      3.27359289e-02 4.25916612e-02</_>
    <_>
      4.49418984e-02 2.13032700e-02 4.20897789e-02 2.86046099e-02
      2.45747007e-02 3.76107097e-02 4.18356806e-02 2.22822800e-02
      4.73969616e-02 4.45967801e-02 2.83410791e-02 4.64920700e-02
      4.46292609e-02 1.16966497e-02 4.56378087e-02 4.64282818e-02
      1.88148394e-02 4.46850508e-02 4.25946601e-02 6.79392787e-03
      4.23290208e-02 4.27212007e-02 1.60496496e-02 4.11610492e-02
      5.39567992e-02 4.91916500e-02 5.10580093e-02 4.72851992e-02
      5.50549999e-02 4.65878583e-02</_>
    <_>
      4.34302688e-02 2.31131800e-02 4.13399413e-02 2.71040499e-02
      2.74327192e-02 3.84543091e-02 4.18642908e-02 1.93366595e-02
      4.61129397e-02 4.45618518e-02 2.84031108e-02 4.65646088e-02
      4.49469797e-02 1.13593098e-02 4.56720106e-02 4.62074615e-02
      1.81508306e-02 4.47332002e-02 4.17868383e-02 9.00347624e-03
      4.11537290e-02 4.16752696e-02 1.41839897e-02 4.06462401e-02
      3.61101702e-02 1.83236599e-02 4.03382890e-02 3.58782485e-02
      2.67906599e-02 4.10470404e-02</_>
    <_>
      4.35319915e-02 1.96240600e-02 4.12500203e-02 2.82276608e-02
      2.51240693e-02 3.77017297e-02 4.03525308e-02 1.95457991e-02
      4.48063985e-02 4.37197909e-02 2.78119296e-02 4.59977798e-02
      4.34027314e-02 1.14926500e-02 4.39348817e-02 4.53175195e-02
      1.73788201e-02 4.40738387e-02 4.03865390e-02 1.02166897e-02
      3.97356600e-02 4.09426391e-02 1.38251297e-02 4.00454998e-02
      3.37196402e-02 1.85190905e-02 3.81961800e-02 3.50246616e-02
      2.66708396e-02 4.06065993e-02</_>
    <_>
      4.47900817e-02 1.37441596e-02 4.39113788e-02 3.22696008e-02
      1.06251296e-02 3.39651704e-02 4.66220006e-02 2.15530097e-02
      5.07124215e-02 4.79105301e-02 3.26581709e-02 4.76819389e-02
      4.81355898e-02 1.11960601e-02 4.94115315e-02 4.92933393e-02
      2.32896805e-02 4.56003696e-02 4.16296311e-02 6.59976201e-03
      4.14570011e-02 4.24783714e-02 1.66734401e-02 4.07392792e-02
      3.39083709e-02 1.78544596e-02 3.80678512e-02 3.52296196e-02
      2.65315101e-02 4.08062488e-02</_>
    <_>
      4.45628501e-02 2.07354501e-02 4.18355018e-02 2.89497692e-02
      2.36911401e-02 3.72797102e-02 3.86711210e-02 1.83725208e-02
      4.27732803e-02 4.24518213e-02 2.71219108e-02 4.49555404e-02
      4.04462889e-02 1.27967298e-02 4.11633104e-02 4.34199683e-02
      1.62376892e-02 4.25442308e-02 3.74659412e-02 1.12613495e-02
      3.60622592e-02 3.87651809e-02 1.14167202e-02 3.84582095e-02
      3.10715903e-02 1.73783395e-02 3.43687311e-02 3.29111107e-02
      2.37003807e-02 3.89947109e-02</_>
    <_>
      4.00845483e-02 2.55645402e-02 3.94332595e-02 2.38652695e-02
      3.06936204e-02 3.87966111e-02 4.20781597e-02 1.97749194e-02
      4.64162715e-02 4.47074398e-02 2.96009202e-02 4.61015999e-02
      4.66272794e-02 1.06886197e-02 4.78209816e-02 4.76383306e-02
      2.15947796e-02 4.46635000e-02 4.94897105e-02 9.93725192e-03
      4.90229093e-02 4.78100590e-02 2.77933199e-02 4.14616093e-02
      4.16839495e-02 2.17616409e-02 4.51942682e-02 3.93916816e-02
      3.42857391e-02 4.27355208e-02</_>
    <_>
      4.94186506e-02 1.49015104e-02 4.74159718e-02 3.46212797e-02
      1.95790902e-02 3.97710018e-02 4.06622291e-02 2.31999606e-02
      4.63565513e-02 4.26893383e-02 2.60577500e-02 4.61472496e-02
      4.30560000e-02 1.44018801e-02 4.34513986e-02 4.43784297e-02
      1.52539797e-02 4.40140106e-02 4.03836817e-02 1.23528596e-02
      3.86364982e-02 4.00860384e-02 1.05248801e-02 3.98886688e-02
      3.52775715e-02 1.67408492e-02 3.79260890e-02 3.47399116e-02
      2.35693008e-02 4.03262191e-02</_>
    <_>
      6.08419999e-02 2.47643609e-02 6.32537231e-02 4.37350906e-02
      2.89003495e-02 5.17757311e-02 7.64606595e-02 6.39193282e-02
      5.73401302e-02 6.50551990e-02 6.29382804e-02 4.23228182e-02
      8.07842612e-02 5.81827611e-02 5.85306808e-02 6.87400028e-02
      5.87583594e-02 3.78169790e-02 6.78968877e-02 3.65752690e-02
      5.81708401e-02 5.74381500e-02 4.38644290e-02 4.09253500e-02
      5.15170209e-02 3.24360915e-02 5.17052896e-02 4.36147302e-02
      4.16660085e-02 4.49153483e-02</_>
    <_>
      5.22184297e-02 3.04243602e-02 5.06912917e-02 3.36997882e-02
      2.41679493e-02 4.14226092e-02 4.76782992e-02 2.42247693e-02
      5.08472398e-02 4.93998900e-02 3.68800089e-02 4.69870009e-02
      4.84992489e-02 1.44101297e-02 4.86289188e-02 5.15378304e-02
      3.07729691e-02 4.35024090e-02 4.40927409e-02 7.97598436e-03
      4.40989695e-02 4.57287990e-02 2.61574592e-02 4.00625691e-02
      3.73839699e-02 2.16700397e-02 4.20449190e-02 3.80127393e-02
      3.37927192e-02 4.17515598e-02</_>
    <_>
      4.75315899e-02 2.54584495e-02 4.33112197e-02 2.96151806e-02
      2.18685698e-02 3.66141088e-02 9.11599770e-02 9.30044129e-02
      2.04229504e-02 7.26665035e-02 7.54375532e-02 2.06632707e-02
      4.35666293e-02 1.03889601e-02 4.47675399e-02 4.66503091e-02
      2.15179995e-02 4.35635783e-02 4.03762087e-02 6.65011583e-03
      4.04634513e-02 4.17750701e-02 1.73271094e-02 3.97647694e-02
      3.40749808e-02 1.94758698e-02 3.91894318e-02 3.50680985e-02
      2.75089704e-02 4.02943306e-02</_>
    <_>
      5.96052408e-02 2.48994399e-02 6.05269186e-02 4.18830700e-02
      2.49334108e-02 4.84731309e-02 7.68124536e-02 6.93041235e-02
      4.99745607e-02 6.66589364e-02 6.74011707e-02 3.60719413e-02
      8.15239474e-02 6.30053505e-02 5.38300611e-02 7.00208172e-02
      6.26233295e-02 3.30694392e-02 6.94399402e-02 4.23895195e-02
      5.63544109e-02 5.86261414e-02 4.79155183e-02 3.86883393e-02
      5.22144102e-02 3.66039909e-02 5.10822497e-02 4.41086702e-02
      4.47481088e-02 4.41257991e-02</_>
    <_>
      4.03027982e-02 1.65161509e-02 3.91729996e-02 2.69993898e-02
      2.62764003e-02 3.76305394e-02 3.99684086e-02 1.83262397e-02
      4.37210500e-02 4.28100191e-02 2.60942206e-02 4.57044207e-02
      4.20609601e-02 1.48503603e-02 4.22449000e-02 4.36463915e-02
      1.46729797e-02 4.34580110e-02 3.71737294e-02 1.50231700e-02
      3.42638083e-02 3.78753692e-02 8.44245311e-03 3.80995013e-02
      2.89023407e-02 1.68385394e-02 3.10745407e-02 3.18723693e-02
      2.18901802e-02 3.78740989e-02</_>
    <_>
      5.49223311e-02 2.10124496e-02 5.12880497e-02 3.72872204e-02
      1.21572996e-02 3.92078310e-02 7.20873326e-02 4.31599692e-02
      6.83799237e-02 5.81863895e-02 4.54722792e-02 5.20052984e-02
      8.17719772e-02 4.41674404e-02 7.11103678e-02 6.39488697e-02
      4.22250889e-02 4.99477684e-02 7.54205585e-02 3.65171693e-02
      6.68773875e-02 5.69232590e-02 3.54435891e-02 4.72898707e-02
      5.54733090e-02 2.49160100e-02 5.59976101e-02 4.21444289e-02
      3.13149691e-02 4.52371798e-02</_>
    <_>
      5.47877215e-02 1.84874404e-02 5.28076515e-02 3.79429497e-02
      2.02062000e-02 4.29439917e-02 9.12569612e-02 9.20164287e-02
      2.00255606e-02 7.32598230e-02 7.54199624e-02 1.87382307e-02
      5.25499210e-02 1.33030703e-02 5.34114391e-02 5.24024814e-02
      2.77741104e-02 4.64699604e-02 4.80922684e-02 5.16466098e-03
      4.82034795e-02 4.67666313e-02 2.33391207e-02 4.25071493e-02
      4.06519882e-02 1.95385907e-02 4.44334410e-02 3.91566306e-02
      3.16784084e-02 4.28649783e-02</_>
    <_>
      4.24293391e-02 3.68437618e-02 4.72275205e-02 2.45062895e-02
      3.74328308e-02 4.47299890e-02 4.36297506e-02 2.08202507e-02
      4.78574000e-02 4.61681709e-02 3.17390412e-02 4.64818291e-02
      4.74316292e-02 1.10090096e-02 4.84611392e-02 4.91804406e-02
      2.52198707e-02 4.44326699e-02 4.52097505e-02 4.52656578e-03
      4.54358011e-02 4.44743112e-02 2.07756292e-02 4.11705002e-02
      3.81314084e-02 1.89562608e-02 4.23724987e-02 3.72810997e-02
      3.00513692e-02 4.16176096e-02</_>
    <_>
      3.81288491e-02 6.60805181e-02 7.38255233e-02 2.58326102e-02
      5.65152206e-02 6.12144209e-02 5.97580895e-02 3.72220688e-02
      5.67510910e-02 5.69388382e-02 4.77336384e-02 4.57924195e-02
      9.74368230e-02 9.58559066e-02 1.84435006e-02 7.80530125e-02
      7.78262168e-02 7.45734992e-03 8.66078064e-02 8.89174864e-02
      3.52283791e-02 6.77150935e-02 7.23928213e-02 2.82366108e-02
      5.99763915e-02 6.58915117e-02 5.46223484e-02 4.71171103e-02
      6.24321401e-02 4.89982702e-02</_>
    <_>
      5.83084188e-02 4.61668186e-02 7.20321611e-02 4.14939411e-02
      4.05016318e-02 5.71564287e-02 7.72602037e-02 6.58940673e-02
      5.60104586e-02 6.55424669e-02 6.40576184e-02 4.10758704e-02
      8.29346105e-02 6.30280674e-02 5.67285903e-02 6.99068680e-02
      6.13884293e-02 3.59614417e-02 7.36415982e-02 5.07440194e-02
      5.48156798e-02 6.07787482e-02 5.20223193e-02 3.64836305e-02
      5.42932712e-02 3.87134105e-02 5.18477783e-02 4.49512489e-02
      4.52597700e-02 4.40424308e-02</_>
    <_>
      3.92886885e-02 3.34423818e-02 4.08282988e-02 2.12959591e-02
      3.47464904e-02 4.06152718e-02 4.18852717e-02 2.10602898e-02
      4.64805700e-02 4.54912186e-02 3.13845389e-02 4.58426289e-02
      4.38341089e-02 1.15696797e-02 4.48015407e-02 4.54575792e-02
      1.82251595e-02 4.38714996e-02 4.13260609e-02 8.58271960e-03
      4.06852998e-02 4.10503298e-02 1.37893502e-02 4.01220992e-02
      3.48937884e-02 1.75950192e-02 3.88335101e-02 3.50267403e-02
      2.60473303e-02 4.05455604e-02</_>
    <_>
      4.28320318e-02 1.70568302e-02 4.08302918e-02 2.87195593e-02
      2.39713192e-02 3.73285189e-02 4.74007018e-02 2.17159204e-02
      5.18629104e-02 4.74961400e-02 3.09226792e-02 4.78864983e-02
      4.99097109e-02 1.16995303e-02 5.12447990e-02 4.92754206e-02
      2.18213592e-02 4.63613607e-02 4.29849215e-02 7.48529797e-03
      4.25489917e-02 4.24864590e-02 1.51945604e-02 4.11713794e-02
      3.48533392e-02 1.70613397e-02 3.84385996e-02 3.53247188e-02
      2.57997103e-02 4.08716388e-02</_>
    <_>
      3.98394912e-02 6.18056692e-02 6.94151372e-02 2.49076709e-02
      5.38328402e-02 5.87575585e-02 4.29191701e-02 2.09090505e-02
      4.71998714e-02 4.66929600e-02 3.23549099e-02 4.68294211e-02
      4.44899015e-02 8.98878928e-03 4.53303382e-02 4.73367609e-02
      2.14433800e-02 4.45331782e-02 4.04355712e-02 8.83255433e-03
      4.03331406e-02 4.17136699e-02 1.57242306e-02 4.02116589e-02
      3.35434489e-02 2.11681202e-02 3.92009914e-02 3.46282385e-02
      2.60146800e-02 4.01180498e-02</_>
    <_>
      3.79458293e-02 6.64469972e-02 7.20268264e-02 2.46382505e-02
      5.20680808e-02 5.73575683e-02 9.16903466e-02 9.49786529e-02
      2.99928393e-02 7.34878033e-02 7.79549927e-02 2.68643294e-02
      1.01159900e-01 1.00403398e-01 1.27109000e-02 8.03022012e-02
      8.02014917e-02 4.72714705e-03 9.03783664e-02 9.31641906e-02
      3.03830206e-02 7.00580105e-02 7.41907731e-02 2.56494805e-02
      6.50492683e-02 8.27877522e-02 5.55677004e-02 4.89371903e-02
      6.87483326e-02 4.98919897e-02</_>
    <_>
      3.68903391e-02 6.93873465e-02 7.68090189e-02 2.58957893e-02
      5.87335005e-02 6.28650412e-02 8.77884179e-02 9.35166478e-02
      3.68355811e-02 7.14326501e-02 7.81211928e-02 3.19553688e-02
      9.79983732e-02 9.74393189e-02 1.18134096e-02 7.89530724e-02
      7.89909065e-02 2.92380992e-03 8.74980316e-02 9.11569074e-02
      2.99084093e-02 6.87312633e-02 7.35778064e-02 2.63138302e-02
      6.13869615e-02 8.29239115e-02 5.70623688e-02 4.65295091e-02
      6.98524788e-02 5.21585494e-02</_>
    <_>
      4.46213484e-02 2.03950498e-02 4.21948694e-02 2.88906395e-02
      2.49382202e-02 3.80803794e-02 4.33434919e-02 1.89663395e-02
      4.72301990e-02 4.57360409e-02 2.99475007e-02 4.71773185e-02
      4.65882793e-02 9.77483205e-03 4.74517308e-02 4.76897210e-02
      2.05940995e-02 4.53150198e-02 4.42832112e-02 7.65916100e-03
      4.41936813e-02 4.31864485e-02 1.61975101e-02 4.14781496e-02
      4.23483811e-02 2.36642994e-02 4.56935614e-02 4.06250507e-02
      3.64613608e-02 4.31066602e-02</_>
    <_>
      5.85190915e-02 4.55287099e-02 7.15725273e-02 4.16988917e-02
      3.88449393e-02 5.62729500e-02 7.86537006e-02 7.06390813e-02
      5.46500310e-02 6.63354173e-02 6.69603422e-02 4.04041708e-02
      8.55907872e-02 7.00283721e-02 5.25637716e-02 7.16495365e-02
      6.54760078e-02 3.22072208e-02 7.76335821e-02 6.11173213e-02
      5.02148904e-02 6.31814972e-02 5.78126609e-02 3.26627195e-02
      5.73817715e-02 4.68950309e-02 5.22920787e-02 4.64030392e-02
      5.00806309e-02 4.44998704e-02</_>
    <_>
      1.84687003e-02 7.93695524e-02 8.10178593e-02 1.77917499e-02
      6.21551797e-02 6.29723072e-02 8.50905627e-02 8.88648927e-02
      2.60447394e-02 6.93089291e-02 7.36513585e-02 2.54820697e-02
      9.15257931e-02 9.10797268e-02 1.29372003e-02 7.45918378e-02
      7.47760087e-02 5.24591794e-03 8.05090591e-02 8.15838203e-02
      3.43737304e-02 6.42087832e-02 6.85592666e-02 2.69905198e-02
      5.84410615e-02 6.67144731e-02 5.39650396e-02 4.50657010e-02
      6.11541495e-02 4.82931398e-02</_>
    <_>
      5.71127683e-02 5.02071008e-02 7.41101727e-02 4.08960693e-02
      4.35610488e-02 5.87358214e-02 7.74206966e-02 6.76079616e-02
      5.44371493e-02 6.59486428e-02 6.54426888e-02 3.98261696e-02
      8.30576271e-02 6.48061484e-02 5.49000502e-02 7.03102574e-02
      6.28647581e-02 3.41645218e-02 7.35167265e-02 5.20678014e-02
      5.34249097e-02 6.10284209e-02 5.32312617e-02 3.52153704e-02
      5.37632108e-02 3.92052718e-02 5.11645488e-02 4.49143499e-02
      4.59544808e-02 4.36683781e-02</_>
    <_>
      4.49765995e-02 1.67714301e-02 4.17327099e-02 3.01834606e-02
      1.55328596e-02 3.38285603e-02 4.17442098e-02 1.95450000e-02
      4.60126810e-02 4.45985310e-02 2.96352599e-02 4.60157208e-02
      4.42814417e-02 1.10389302e-02 4.55421582e-02 4.65210490e-02
      2.05735508e-02 4.38944995e-02 4.18406203e-02 5.88181382e-03
      4.17437293e-02 4.22158688e-02 1.67913493e-02 4.04372402e-02
      3.62330191e-02 1.72263794e-02 4.01071608e-02 3.60117815e-02
      2.75477692e-02 4.12692688e-02</_>
    <_>
      3.37119587e-02 5.48101813e-02 5.00556901e-02 1.22423703e-02
      4.37187105e-02 4.52035591e-02 9.27126035e-02 9.53288376e-02
      2.60827094e-02 7.39448667e-02 7.70066530e-02 2.62620505e-02
      5.03301993e-02 1.88361201e-02 4.89772782e-02 5.38776293e-02
      3.65046710e-02 4.14218195e-02 3.79913189e-02 9.18718521e-03
      3.73062789e-02 4.04547714e-02 1.39043704e-02 3.95489112e-02
      3.48357186e-02 2.17132699e-02 3.88383493e-02 3.38604115e-02
      2.32422296e-02 4.00190093e-02</_>
    <_>
      4.48128395e-02 3.79387587e-02 4.59052585e-02 2.55409796e-02
      3.22435610e-02 4.08975296e-02 9.00834873e-02 9.35156196e-02
      2.54312791e-02 7.22441375e-02 7.63235167e-02 2.49098707e-02
      4.24757004e-02 1.05822198e-02 4.35587615e-02 4.56115790e-02
      1.96729507e-02 4.33506407e-02 3.94055992e-02 9.06056911e-03
      3.88599411e-02 4.04131897e-02 1.40191996e-02 3.94600518e-02
      3.29287797e-02 1.95229203e-02 3.77642103e-02 3.40673700e-02
      2.56122407e-02 3.98539789e-02</_>
    <_>
      4.29645702e-02 1.25964601e-02 4.10905294e-02 3.01521309e-02
      1.65957808e-02 3.43829915e-02 6.72142282e-02 3.11225802e-02
      6.77766874e-02 5.45075312e-02 3.53582017e-02 5.33818305e-02
      4.11493406e-02 1.23332897e-02 4.20297012e-02 4.40127514e-02
      1.70580000e-02 4.28257883e-02 3.89627814e-02 8.26098397e-03
      3.85470390e-02 4.04106304e-02 1.48691898e-02 3.92322205e-02
      3.27618010e-02 1.84068605e-02 3.72632518e-02 3.42282206e-02
      2.62960903e-02 4.00369503e-02</_>
    <_>
      2.93572005e-02 4.56099808e-02 4.25014906e-02 9.00182780e-03
      4.41378206e-02 4.50338684e-02 4.35673706e-02 2.19460204e-02
      4.77273017e-02 4.69213799e-02 3.34664695e-02 4.62094918e-02
      5.01003116e-02 1.42248804e-02 5.05058914e-02 5.16372696e-02
      2.97475997e-02 4.41465415e-02 5.03823087e-02 1.79846492e-02
      4.80548590e-02 4.99657691e-02 3.50883789e-02 3.93371284e-02
      4.37113196e-02 2.62316000e-02 4.65680808e-02 4.09346111e-02
      3.87071408e-02 4.36093397e-02</_>
    <_>
      4.32514697e-02 1.31348297e-02 4.12174501e-02 3.01638804e-02
      1.65715199e-02 3.43747288e-02 6.82783499e-02 3.35980207e-02
      6.78278878e-02 5.55715114e-02 3.72988693e-02 5.32023385e-02
      4.10176404e-02 1.23312203e-02 4.18922715e-02 4.39576991e-02
      1.70249399e-02 4.27803509e-02 3.88550088e-02 8.39904044e-03
      3.84193696e-02 4.03480195e-02 1.47347003e-02 3.92084606e-02
      3.27483118e-02 1.85021497e-02 3.73015404e-02 3.42396796e-02
      2.63063591e-02 4.00361083e-02</_>
    <_>
      4.62173410e-02 3.73702906e-02 4.64905016e-02 2.70019993e-02
      3.04940492e-02 4.04621996e-02 9.12266374e-02 9.39242765e-02
      2.40591802e-02 7.27262497e-02 7.62911364e-02 2.33673900e-02
      4.16599885e-02 9.85033531e-03 4.27034087e-02 4.56011295e-02
      2.04792991e-02 4.29472104e-02 3.86952609e-02 8.51298124e-03
      3.85619104e-02 4.05679792e-02 1.54626602e-02 3.91888618e-02
      3.23213115e-02 2.05903500e-02 3.79678495e-02 3.39745991e-02
      2.62842197e-02 3.96709703e-02</_>
    <_>
      4.02727686e-02 2.05931496e-02 3.92761007e-02 2.57157292e-02
      2.86389608e-02 3.84119116e-02 4.69164886e-02 2.15612501e-02
      5.15974388e-02 4.65975888e-02 2.92866603e-02 4.78940010e-02
      5.05210012e-02 1.22151701e-02 5.18040098e-02 4.88064811e-02
      2.01191697e-02 4.66990210e-02 4.44813110e-02 7.80546200e-03
      4.39535305e-02 4.28189188e-02 1.45693701e-02 4.16523106e-02
      3.61487791e-02 1.65011398e-02 3.93185690e-02 3.56123112e-02
      2.52774004e-02 4.10385802e-02</_>
    <_>
      4.37094495e-02 1.37898903e-02 4.14792486e-02 3.02916802e-02
      1.71073899e-02 3.47407609e-02 4.06815782e-02 1.94479898e-02
      4.50577512e-02 4.31884713e-02 2.74051409e-02 4.55755703e-02
      4.31474485e-02 1.20140798e-02 4.41958904e-02 4.51187082e-02
      1.80610791e-02 4.35795411e-02 4.11787890e-02 7.24213803e-03
      4.08785492e-02 4.15134393e-02 1.54238902e-02 4.01417986e-02
      3.46595794e-02 1.74198598e-02 3.86271887e-02 3.51473689e-02
      2.64364202e-02 4.06691395e-02</_>
    <_>
      4.57879193e-02 3.90211716e-02 4.70794290e-02 2.65309196e-02
      3.15558091e-02 4.09551002e-02 9.11193117e-02 9.38383788e-02
      2.49063503e-02 7.26606771e-02 7.63025805e-02 2.38273703e-02
      4.15376611e-02 9.67614911e-03 4.25524302e-02 4.55835201e-02
      2.05406304e-02 4.29033488e-02 3.83840799e-02 8.47643334e-03
      3.82716693e-02 4.04940508e-02 1.55324796e-02 3.90973091e-02
      3.19021307e-02 2.08697300e-02 3.77427302e-02 3.38057503e-02
      2.62621399e-02 3.95621397e-02</_>
    <_>
      3.38962786e-02 3.54360193e-02 3.72593589e-02 1.52785797e-02
      3.78822610e-02 4.06836309e-02 4.22886908e-02 1.92852896e-02
      4.64230292e-02 4.52902392e-02 2.97576394e-02 4.67563719e-02
      4.55981791e-02 1.00786900e-02 4.64322083e-02 4.70673516e-02
      1.99238993e-02 4.49111611e-02 4.22056615e-02 6.36477489e-03
      4.21721488e-02 4.28654589e-02 1.73601303e-02 4.08676602e-02
      3.40770483e-02 1.89705696e-02 3.89578715e-02 3.56304906e-02
      2.80721597e-02 4.08935994e-02</_>
    <_>
      4.70114909e-02 2.06660908e-02 4.45448011e-02 3.07317991e-02
      2.41861101e-02 3.90712991e-02 4.22844589e-02 1.97397098e-02
      4.66646999e-02 4.48150001e-02 2.87302900e-02 4.66522910e-02
      4.45056707e-02 1.14777097e-02 4.52320985e-02 4.60345000e-02
      1.80044603e-02 4.46071588e-02 4.36967909e-02 7.57241808e-03
      4.36254106e-02 4.30304408e-02 1.63867008e-02 4.12720703e-02
      3.74500118e-02 2.15023998e-02 4.21866700e-02 3.83525491e-02
      3.37126888e-02 4.19082008e-02</_>
    <_>
      4.20064703e-02 2.29018908e-02 4.04203311e-02 2.60807201e-02
      2.85405107e-02 3.85671705e-02 4.10940014e-02 1.93346106e-02
      4.53048609e-02 4.36558686e-02 2.69898791e-02 4.62583415e-02
      4.43287194e-02 1.30830901e-02 4.51754592e-02 4.56253216e-02
      1.71335395e-02 4.45734188e-02 4.15044203e-02 9.85640287e-03
      4.07313816e-02 4.13579196e-02 1.35200201e-02 4.05121297e-02
      3.48831788e-02 1.84756201e-02 3.89728397e-02 3.50919701e-02
      2.56247800e-02 4.06247713e-02</_>
    <_>
      2.88715605e-02 3.94001193e-02 3.88036184e-02 1.04207499e-02
      4.29041609e-02 4.41357009e-02 4.83405404e-02 2.14403495e-02
      5.28815798e-02 4.64970805e-02 2.81726401e-02 4.84052114e-02
      5.48593812e-02 1.25446497e-02 5.62127717e-02 5.03016300e-02
      2.04805192e-02 4.81888987e-02 5.16923890e-02 3.78462393e-03
      5.16350083e-02 4.60643694e-02 1.68924499e-02 4.41839099e-02
      4.19677608e-02 1.57761592e-02 4.48346809e-02 3.80565114e-02
      2.66757607e-02 4.26411293e-02</_>
    <_>
      1.88459009e-02 7.95978904e-02 8.13812017e-02 1.82394609e-02
      6.24188706e-02 6.32638782e-02 8.47605765e-02 8.85275379e-02
      2.63904408e-02 6.92216009e-02 7.36438036e-02 2.55007502e-02
      9.12905335e-02 9.09055173e-02 1.31080505e-02 7.44964033e-02
      7.47141987e-02 5.70743717e-03 8.00820664e-02 8.09893236e-02
      3.49503607e-02 6.40441701e-02 6.84286207e-02 2.72934102e-02
      5.80793507e-02 6.58841133e-02 5.44340387e-02 4.48676310e-02
      6.09047711e-02 4.86559682e-02</_>
    <_>
      4.40643318e-02 1.38186999e-02 4.31423001e-02 3.15193795e-02
      1.08263502e-02 3.33096310e-02 4.66718487e-02 2.13173106e-02
      5.08644208e-02 4.76064309e-02 3.18762213e-02 4.77402806e-02
      4.83384691e-02 1.13907000e-02 4.96624187e-02 4.91388589e-02
      2.26873904e-02 4.57367785e-02 4.20340002e-02 6.63381303e-03
      4.18096893e-02 4.25400212e-02 1.64238997e-02 4.08803411e-02
      3.41532603e-02 1.75410807e-02 3.81194390e-02 3.52693982e-02
      2.63537504e-02 4.08471785e-02</_>
    <_>
      5.18821701e-02 2.14917306e-02 4.95427288e-02 3.46053690e-02
      2.25431193e-02 4.13004011e-02 4.35376614e-02 2.28115600e-02
      4.91478294e-02 4.54137288e-02 2.86969803e-02 4.69801910e-02
      4.57298383e-02 1.16263600e-02 4.66555618e-02 4.68045585e-02
      1.85873602e-02 4.52064909e-02 4.35214005e-02 8.44979286e-03
      4.29510288e-02 4.25728597e-02 1.41404402e-02 4.15182412e-02
      3.62344608e-02 1.70999207e-02 3.95707712e-02 3.56714390e-02
      2.49978695e-02 4.10412513e-02</_>
    <_>
      4.58079204e-02 3.92378904e-02 4.72029485e-02 2.65505407e-02
      3.15835997e-02 4.09867205e-02 9.10677463e-02 9.37373117e-02
      2.50154100e-02 7.26351216e-02 7.62583688e-02 2.38346495e-02
      4.14934009e-02 9.51307639e-03 4.24826518e-02 4.55963798e-02
      2.06344705e-02 4.28778306e-02 3.82273011e-02 8.44379142e-03
      3.81543785e-02 4.04784493e-02 1.56686306e-02 3.90380286e-02
      3.17483991e-02 2.10202299e-02 3.77107188e-02 3.37558202e-02
      2.63393298e-02 3.95126007e-02</_>
    <_>
      4.57763411e-02 3.92356403e-02 4.71857414e-02 2.65184101e-02
      3.16267796e-02 4.09999713e-02 9.10892263e-02 9.37819928e-02
      2.49790903e-02 7.26451129e-02 7.62782320e-02 2.38389596e-02
      4.14987504e-02 9.57937166e-03 4.24980186e-02 4.55848314e-02
      2.05889493e-02 4.28846888e-02 3.82742696e-02 8.45578127e-03
      3.81850898e-02 4.04795595e-02 1.56128500e-02 3.90575007e-02
      3.17933485e-02 2.09724996e-02 3.77144702e-02 3.37677784e-02
      2.63041891e-02 3.95278297e-02</_>
    <_>
      4.60022017e-02 3.80094498e-02 4.66835909e-02 2.67651305e-02
      3.09826806e-02 4.06742394e-02 9.11939815e-02 9.39284489e-02
      2.44436208e-02 7.27055073e-02 7.63212070e-02 2.36000698e-02
      4.16580997e-02 9.83190909e-03 4.26956005e-02 4.55951691e-02
      2.04617009e-02 4.29505818e-02 3.86367701e-02 8.52875970e-03
      3.84894684e-02 4.05373499e-02 1.54083204e-02 3.91774289e-02
      3.21964882e-02 2.06280202e-02 3.78627293e-02 3.39164212e-02
      2.62310300e-02 3.96445915e-02</_>
    <_>
      4.52019311e-02 2.28012092e-02 4.27227393e-02 2.89999098e-02
      2.51193307e-02 3.82448696e-02 3.91342416e-02 1.80846695e-02
      4.30951789e-02 4.27625515e-02 2.74361596e-02 4.51350212e-02
      4.09229100e-02 1.23738796e-02 4.16534282e-02 4.37459983e-02
      1.66059192e-02 4.27228697e-02 3.78284603e-02 1.09248096e-02
      3.65374796e-02 3.90170403e-02 1.17246201e-02 3.86367217e-02
      3.13893184e-02 1.76066495e-02 3.47786509e-02 3.30232494e-02
      2.38019302e-02 3.90987694e-02</_>
    <_>
      4.76895794e-02 2.94062197e-02 4.42151017e-02 2.90847402e-02
      2.44998299e-02 3.77901085e-02 9.12089497e-02 9.33891833e-02
      2.17288006e-02 7.27248117e-02 7.58060515e-02 2.16656495e-02
      4.29594889e-02 1.01276897e-02 4.41107191e-02 4.63984497e-02
      2.14222092e-02 4.33437899e-02 3.98817882e-02 7.22903712e-03
      3.99384908e-02 4.14350703e-02 1.68337002e-02 3.95861417e-02
      3.36530395e-02 1.98749695e-02 3.89690995e-02 3.47688384e-02
      2.71511804e-02 4.00802307e-02</_>
    <_>
      4.77322191e-02 2.87370905e-02 4.40466292e-02 2.92135291e-02
      2.39615291e-02 3.75490300e-02 9.11968201e-02 9.33287963e-02
      2.15495396e-02 7.27186874e-02 7.57579133e-02 2.15225909e-02
      4.30809408e-02 1.01633603e-02 4.42414209e-02 4.64691408e-02
      2.15017609e-02 4.33793701e-02 3.99586894e-02 7.12424517e-03
      4.00270894e-02 4.14982215e-02 1.69465598e-02 3.96107696e-02
      3.37304212e-02 1.98241994e-02 3.90235782e-02 3.48250717e-02
      2.72282902e-02 4.01121192e-02</_>
    <_>
      4.21618111e-02 3.38772796e-02 4.26733494e-02 2.36653704e-02
      3.36968191e-02 4.09537703e-02 7.03762472e-02 3.37555595e-02
      6.86867535e-02 5.70592694e-02 3.70921604e-02 5.30924611e-02
      4.26454805e-02 1.37198400e-02 4.32255715e-02 4.45389189e-02
      1.59785692e-02 4.38878201e-02 4.08785306e-02 1.36936903e-02
      3.90712917e-02 3.99464592e-02 1.03776203e-02 3.98920290e-02
      3.43629308e-02 2.17333194e-02 3.86850499e-02 3.37129794e-02
      2.36585904e-02 3.99058089e-02</_>
    <_>
      4.60623391e-02 2.78872903e-02 4.34857011e-02 2.83776000e-02
      2.64864992e-02 3.86000499e-02 4.02439795e-02 2.02440899e-02
      4.50488590e-02 4.35471311e-02 2.82768998e-02 4.55253311e-02
      4.11023311e-02 1.14946701e-02 4.21885289e-02 4.46155109e-02
      1.83847193e-02 4.28654887e-02 3.73644307e-02 9.75576229e-03
      3.64531912e-02 3.93027514e-02 1.29181100e-02 3.86565216e-02
      3.14663202e-02 1.86796002e-02 3.56816314e-02 3.32893282e-02
      2.46806797e-02 3.93875502e-02</_>
    <_>
      1.90633908e-02 7.43318573e-02 7.36098737e-02 1.05218496e-02
      5.98686785e-02 6.00288808e-02 8.61418992e-02 8.44166800e-02
      3.32623385e-02 7.10506216e-02 7.29254708e-02 2.47031599e-02
      3.97776812e-02 1.16577297e-02 4.07695286e-02 4.39938419e-02
      1.74807496e-02 4.26090211e-02 3.80990505e-02 1.03612002e-02
      3.70853096e-02 3.94678004e-02 1.23687498e-02 3.89466509e-02
      3.21728401e-02 1.76951494e-02 3.58817503e-02 3.36997695e-02
      2.43890695e-02 3.96228097e-02</_>
    <_>
      4.09019887e-02 2.37942394e-02 3.99407297e-02 2.52679307e-02
      2.98804399e-02 3.90159488e-02 4.00639288e-02 2.04130393e-02
      4.48637418e-02 4.33405302e-02 2.72277594e-02 4.59100604e-02
      4.19597402e-02 1.37312496e-02 4.24675792e-02 4.41743098e-02
      1.58017091e-02 4.35619801e-02 3.79762985e-02 1.25313401e-02
      3.61309201e-02 3.90613601e-02 1.06084496e-02 3.89048494e-02
      3.15850191e-02 1.79135203e-02 3.54383402e-02 3.37666795e-02
      2.49453802e-02 3.97982001e-02</_>
    <_>
      3.80206592e-02 5.89934401e-02 6.19213209e-02 2.08265297e-02
      4.80449609e-02 5.23524098e-02 4.22701500e-02 1.97314303e-02
      4.66269292e-02 4.50703017e-02 2.93838307e-02 4.66275997e-02
      4.62615192e-02 1.07871396e-02 4.70806509e-02 4.70252596e-02
      1.91074405e-02 4.52233702e-02 4.35616486e-02 9.76107828e-03
      4.29465398e-02 4.22286689e-02 1.36814900e-02 4.13064994e-02
      3.59723195e-02 1.82705801e-02 3.95983718e-02 3.52676287e-02
      2.46366598e-02 4.07509692e-02</_>
    <_>
      4.51062284e-02 2.08561495e-02 4.20745499e-02 2.92169992e-02
      2.29001194e-02 3.69892195e-02 7.20111430e-02 4.11307886e-02
      6.80501014e-02 5.81030399e-02 4.24153507e-02 5.23622818e-02
      4.24696803e-02 1.03506902e-02 4.35617603e-02 4.57325689e-02
      2.01524794e-02 4.32493389e-02 3.96170802e-02 7.41445413e-03
      3.95701416e-02 4.11687382e-02 1.63895003e-02 3.94889489e-02
      3.32485400e-02 1.93570592e-02 3.83387208e-02 3.46631892e-02
      2.71173995e-02 4.01528291e-02</_>
    <_>
      4.57172692e-02 2.91249398e-02 4.35755812e-02 2.77362801e-02
      2.76889596e-02 3.89940217e-02 8.76376033e-02 8.42517167e-02
      3.37822102e-02 7.07461312e-02 7.07167163e-02 2.60572694e-02
      4.23151106e-02 1.02372598e-02 4.34254408e-02 4.58174907e-02
      2.04451997e-02 4.31956612e-02 3.95125709e-02 7.78812403e-03
      3.93819697e-02 4.09906618e-02 1.58725996e-02 3.94800194e-02
      3.30959596e-02 1.94028206e-02 3.81892398e-02 3.45557518e-02
      2.68892106e-02 4.00972702e-02</_>
    <_>
      1.28462398e-02 7.36813769e-02 7.25534409e-02 6.99069304e-03
      5.84501512e-02 5.80462813e-02 8.58848915e-02 9.23565701e-02
      3.45845893e-02 6.90169036e-02 7.57620633e-02 3.12526710e-02
      9.57489014e-02 9.57102105e-02 3.01358593e-03 7.61073530e-02
      7.60936812e-02 1.49276399e-03 8.40230137e-02 9.02240500e-02
      3.36798318e-02 6.53067604e-02 7.16131628e-02 2.93876007e-02
      5.68474382e-02 8.27912018e-02 6.09119795e-02 4.29656506e-02
      6.90172464e-02 5.41061983e-02</_>
    <_>
      4.40302007e-02 3.85235101e-02 4.56860699e-02 2.47364696e-02
      3.31824906e-02 4.11573984e-02 9.02361274e-02 9.39739197e-02
      2.62975097e-02 7.23005533e-02 7.65700415e-02 2.57467106e-02
      4.25857194e-02 1.10473502e-02 4.37248200e-02 4.55407202e-02
      1.93452798e-02 4.34260592e-02 3.94802503e-02 9.08782054e-03
      3.88210304e-02 4.03572693e-02 1.36835799e-02 3.94885503e-02
      3.29801813e-02 1.91737898e-02 3.76052000e-02 3.40785198e-02
      2.54843105e-02 3.98825482e-02</_>
    <_>
      4.64606099e-02 3.65596190e-02 4.62428406e-02 2.72780992e-02
      2.98874304e-02 4.01963182e-02 9.12459791e-02 9.38860476e-02
      2.36740094e-02 7.27388933e-02 7.62405396e-02 2.31159404e-02
      4.17460501e-02 9.84703843e-03 4.27987985e-02 4.56724316e-02
      2.05945801e-02 4.29685786e-02 3.87925692e-02 8.42832308e-03
      3.86893488e-02 4.06414308e-02 1.56014301e-02 3.92145999e-02
      3.24826911e-02 2.05481406e-02 3.81149314e-02 3.40599790e-02
      2.63813008e-02 3.97064313e-02</_>
    <_>
      4.11522090e-02 2.16591395e-02 4.00036499e-02 2.62704901e-02
      2.81118806e-02 3.83894108e-02 4.07048017e-02 1.90602094e-02
      4.49273512e-02 4.32649814e-02 2.75881793e-02 4.55700196e-02
      4.39219512e-02 1.25809899e-02 4.48667109e-02 4.50181104e-02
      1.73694007e-02 4.37894501e-02 4.23116200e-02 7.82399718e-03
      4.18061987e-02 4.15421203e-02 1.44350603e-02 4.04349901e-02
      3.48057300e-02 1.60114001e-02 3.80749702e-02 3.50381806e-02
      2.57320907e-02 4.06583510e-02</_>
    <_>
      3.02847698e-02 4.89972904e-02 4.59814407e-02 9.91738029e-03
      4.53205593e-02 4.63834815e-02 9.09722820e-02 9.58364084e-02
      3.17393094e-02 7.25971535e-02 7.77169392e-02 2.98372097e-02
      4.40149605e-02 1.19656902e-02 4.51093316e-02 4.55910712e-02
      1.83068104e-02 4.39862013e-02 4.02672887e-02 1.09777804e-02
      3.89558896e-02 3.98903005e-02 1.14187803e-02 3.95232886e-02
      3.34944092e-02 1.69358496e-02 3.66298296e-02 3.39562893e-02
      2.40034591e-02 3.97512205e-02</_>
    <_>
