<?xml version="1.0"?>
<opencv_storage>
<opencv_ml_svm>
  <format>3</format>
  <svmType>C_SVC</svmType>
  <kernel>
    <type>RBF</type>
    <gamma>1.</gamma></kernel>
  <C>1.</C>
  <term_criteria><epsilon>1.1920928955078125e-07</epsilon>
    <iterations>1000</iterations></term_criteria>
  <var_count>15</var_count>
  <class_count>4</class_count>
  <class_labels type_id="opencv-matrix">
    <rows>4</rows>
    <cols>1</cols>
    <dt>i</dt>
    <data>
      0 1 2 3</data></class_labels>
  <sv_total>2552</sv_total>
  <support_vectors>
    <_>
      5.23156784e-02 2.81562507e-02 5.49632087e-02 4.50589806e-02
      2.15683598e-02 4.99210097e-02 4.95230183e-02 1.21431099e-02
      5.07029891e-02 4.59454991e-02 7.16261193e-03 4.55463193e-02
      3.81597504e-02 1.63277593e-02 4.13408689e-02</_>
    <_>
      5.26838489e-02 1.08853905e-02 5.22040986e-02 4.65760604e-02
      2.15860009e-02 5.11451811e-02 5.16051799e-02 1.23122605e-02
      5.28233312e-02 5.13893515e-02 2.19343998e-03 5.14361113e-02
      4.26016413e-02 1.59870107e-02 4.51153107e-02</_>
    <_>
      4.08857390e-02 4.36877497e-02 5.08729406e-02 4.37047891e-02
      2.41794791e-02 4.80514802e-02 4.21918817e-02 1.11498199e-02
      4.36313599e-02 3.62947807e-02 4.69976990e-03 3.62128802e-02
      3.11502498e-02 1.62557196e-02 3.51275094e-02</_>
    <_>
      5.36844209e-02 1.99438203e-02 5.46356402e-02 5.02087697e-02
      2.03680191e-02 5.29893190e-02 5.72905689e-02 1.51319401e-02
      5.74816205e-02 5.64499311e-02 1.33299697e-02 5.51748015e-02
      4.69157510e-02 2.43024100e-02 4.82738316e-02</_>
    <_>
      5.17089106e-02 1.32814702e-02 5.00163585e-02 5.23313507e-02
      2.42805891e-02 5.29636890e-02 5.64891510e-02 1.73876192e-02
      5.52267507e-02 5.08159101e-02 1.11060804e-02 5.03752604e-02
      3.94608006e-02 2.06333697e-02 4.33200113e-02</_>
    <_>
      4.60069217e-02 3.99667211e-02 5.47812693e-02 4.21278402e-02
      2.10115295e-02 4.68097590e-02 4.31100503e-02 1.07918801e-02
      4.43254001e-02 4.07551117e-02 6.95389695e-03 4.05167118e-02
      3.42085212e-02 1.74656101e-02 3.84088792e-02</_>
    <_>
      5.51078282e-02 1.24577796e-02 5.37417904e-02 6.77968115e-02
      4.36624996e-02 6.23739101e-02 7.57868364e-02 4.46595103e-02
      6.34383410e-02 6.77256286e-02 3.33616696e-02 5.96909411e-02
      5.15652709e-02 2.82435603e-02 5.19831702e-02</_>
    <_>
      4.92376387e-02 1.29347201e-02 4.75641601e-02 8.35399777e-02
      7.81982467e-02 3.58037688e-02 4.53557000e-02 1.16645498e-02
      4.64832410e-02 4.13095318e-02 9.71690938e-03 4.05018888e-02
      3.49599309e-02 1.72180701e-02 3.83689106e-02</_>
    <_>
      5.46295382e-02 2.09874604e-02 5.11590913e-02 5.62509894e-02
      1.89978592e-02 5.83765991e-02 6.45791814e-02 1.63057204e-02
      6.41821772e-02 6.24404512e-02 1.19814500e-02 6.15774207e-02
      4.69849110e-02 1.70602892e-02 4.97662202e-02</_>
    <_>
      4.97351587e-02 2.50205901e-02 5.28014489e-02 4.49758209e-02
      2.10283305e-02 4.96359989e-02 4.77237217e-02 1.26409903e-02
      4.87336405e-02 4.43448685e-02 8.81539471e-03 4.35843393e-02
      3.74672487e-02 1.62134003e-02 4.06198613e-02</_>
    <_>
      5.46500199e-02 3.81995887e-02 6.30848780e-02 6.41860291e-02
      4.46260385e-02 5.93873896e-02 7.12485164e-02 4.36984189e-02
      6.03048801e-02 6.54720068e-02 3.34648788e-02 5.63612394e-02
      5.12005910e-02 3.31765190e-02 4.72110994e-02</_>
    <_>
      3.87513489e-02 5.21230809e-02 5.24123907e-02 8.44386667e-02
      7.11106434e-02 5.39726801e-02 9.51994210e-02 7.90654570e-02
      5.39244488e-02 8.72759372e-02 7.21972734e-02 5.16936406e-02
      6.19477704e-02 4.80651595e-02 5.53151518e-02</_>
    <_>
      4.58702706e-02 2.61855107e-02 4.19390686e-02 8.72900933e-02
      8.86366814e-02 2.30135508e-02 8.51902366e-02 6.44903108e-02
      5.62801585e-02 4.14611287e-02 4.38693678e-03 4.16354015e-02
      3.51745188e-02 1.70962699e-02 3.90969515e-02</_>
    <_>
      4.68359888e-02 1.23502603e-02 4.52354997e-02 3.78993116e-02
      2.29958706e-02 4.26701196e-02 4.12642807e-02 1.69112701e-02
      4.05001305e-02 3.99377793e-02 1.44386496e-02 3.73951308e-02
      3.51741090e-02 1.68097802e-02 3.83015797e-02</_>
    <_>
      3.65902893e-02 3.84195484e-02 4.77851294e-02 3.78698707e-02
      1.80013105e-02 4.17933092e-02 4.07058410e-02 1.23519897e-02
      4.07153293e-02 3.83230001e-02 1.20700896e-02 3.68255004e-02
      3.19505110e-02 1.88230891e-02 3.55172008e-02</_>
    <_>
      3.41703482e-02 5.00400402e-02 4.85174209e-02 8.70404094e-02
      8.74087363e-02 2.43214797e-02 9.60872471e-02 9.48156416e-02
      1.56716201e-02 8.71458501e-02 8.93729180e-02 2.36067306e-02
      6.41150326e-02 7.61969537e-02 4.34187092e-02</_>
    <_>
      4.39422093e-02 2.74001695e-02 4.10904810e-02 4.08730991e-02
      2.14047991e-02 4.50654700e-02 4.06244695e-02 1.08912196e-02
      4.20290418e-02 3.69568989e-02 3.29472497e-03 3.69938314e-02
      3.17969099e-02 1.70297101e-02 3.60016488e-02</_>
    <_>
      5.13852201e-02 3.61183882e-02 5.86009510e-02 4.33465391e-02
      2.12153308e-02 4.81591597e-02 4.66892496e-02 1.09572001e-02
      4.79571298e-02 4.50264700e-02 3.76460399e-03 4.51668389e-02
      3.67646292e-02 1.75314508e-02 4.04622406e-02</_>
    <_>
      4.06706100e-03 8.21308866e-02 8.20594877e-02 8.79787132e-02
      9.18457732e-02 2.70719398e-02 9.65951607e-02 9.66778174e-02
      4.15258110e-03 8.65320489e-02 9.02785212e-02 2.73768995e-02
      6.23832196e-02 7.81758130e-02 4.93219085e-02</_>
    <_>
      5.38351312e-02 2.00578999e-02 5.48564009e-02 5.04513197e-02
      2.04353798e-02 5.32431789e-02 5.75263985e-02 1.51934298e-02
      5.77221811e-02 5.66888303e-02 1.33831501e-02 5.54010086e-02
      4.70718816e-02 2.42366605e-02 4.84272204e-02</_>
    <_>
      5.20961918e-02 1.91493202e-02 5.17140105e-02 4.43139896e-02
      2.16524396e-02 4.92059886e-02 4.94135208e-02 1.20768500e-02
      5.05334586e-02 4.60508689e-02 7.18022091e-03 4.57296297e-02
      3.81907187e-02 1.68614592e-02 4.16826904e-02</_>
    <_>
      4.74130884e-02 1.48679800e-02 4.73738015e-02 8.50967094e-02
      8.45473632e-02 2.53959093e-02 4.65761013e-02 1.91023592e-02
      4.46203202e-02 4.71815392e-02 8.38610157e-03 4.69497107e-02
      4.11414206e-02 2.00761203e-02 4.42379415e-02</_>
    <_>
      2.81091500e-02 7.10363016e-02 6.61308989e-02 9.76897031e-02
      1.00412697e-01 3.17088701e-02 6.64537027e-02 4.29947488e-02
      5.37374802e-02 6.56203404e-02 4.09140289e-02 5.27079403e-02
      5.63205816e-02 4.42931689e-02 5.10954484e-02</_>
    <_>
      5.07201701e-02 2.50819307e-02 5.09437099e-02 4.73754182e-02
      2.15010308e-02 5.05580492e-02 5.87271899e-02 2.18983106e-02
      5.69797792e-02 5.99349402e-02 2.50030998e-02 5.49686998e-02
      4.71571311e-02 3.00858207e-02 4.73865010e-02</_>
    <_>
      5.48686199e-02 1.30456900e-02 5.38092218e-02 5.28244600e-02
      2.06851494e-02 5.64567782e-02 5.68132401e-02 1.26218097e-02
      5.80131896e-02 5.40687218e-02 2.09388393e-03 5.41009009e-02
      4.23916392e-02 1.41514502e-02 4.46858183e-02</_>
    <_>
      2.40246803e-02 7.36730471e-02 7.00652525e-02 9.76865292e-02
      1.00291699e-01 2.44937893e-02 8.80510733e-02 7.42370486e-02
      4.77181114e-02 7.81394467e-02 6.54862970e-02 4.95155789e-02
      6.13200888e-02 6.18068688e-02 5.01653999e-02</_>
    <_>
      4.88610491e-02 2.63396595e-02 5.07872403e-02 4.19283211e-02
      2.10392196e-02 4.64210697e-02 5.39852902e-02 1.92527808e-02
      5.37191406e-02 5.54626398e-02 2.00905893e-02 5.18626310e-02
      4.25996818e-02 2.37599108e-02 4.34697308e-02</_>
    <_>
      3.83606590e-02 4.34144810e-02 4.75901105e-02 4.64937910e-02
      2.89598498e-02 4.81105186e-02 4.94296998e-02 1.94224603e-02
      4.83065508e-02 4.83638085e-02 2.48759203e-02 4.24636789e-02
      4.10406217e-02 2.67031100e-02 4.21672687e-02</_>
    <_>
      5.00186197e-02 2.22877208e-02 5.17680310e-02 4.55989316e-02
      1.99220702e-02 4.97548804e-02 4.85251509e-02 1.09799597e-02
      4.93643284e-02 4.54914793e-02 8.65188520e-03 4.48451787e-02
      3.73208597e-02 1.49626099e-02 3.98108810e-02</_>
    <_>
      3.96553688e-02 5.62438294e-02 6.38867170e-02 8.36562514e-02
      8.58652815e-02 3.56773883e-02 9.43315029e-02 9.26848575e-02
      2.10048202e-02 8.59757885e-02 8.64426121e-02 2.47820802e-02
      6.34500533e-02 7.49234632e-02 4.37597185e-02</_>
    <_>
      5.34503311e-02 1.63438600e-02 5.38839512e-02 4.92011718e-02
      2.42290404e-02 5.15285209e-02 5.77732511e-02 2.33568791e-02
      5.50467409e-02 6.86404705e-02 5.05975001e-02 4.86181118e-02
      5.37910983e-02 4.93463203e-02 4.83835898e-02</_>
    <_>
      4.89764698e-02 3.21211815e-02 5.37197590e-02 4.87430282e-02
      2.79346704e-02 5.28519116e-02 5.15223891e-02 1.77138802e-02
      5.25916889e-02 5.04032001e-02 1.31895803e-02 4.86815311e-02
      3.97026315e-02 1.93404201e-02 4.12613004e-02</_>
    <_>
      4.96809408e-02 4.54099514e-02 6.40051514e-02 4.25642915e-02
      2.09249705e-02 4.70666103e-02 4.38682996e-02 9.61302780e-03
      4.48993109e-02 4.00475413e-02 6.16564881e-03 4.02151607e-02
      3.30395103e-02 1.85621195e-02 3.78585905e-02</_>
    <_>
      4.18371707e-02 2.70227101e-02 3.97147089e-02 3.55120488e-02
      1.68248992e-02 3.92942205e-02 3.77228782e-02 1.00573702e-02
      3.86833511e-02 3.48114893e-02 8.04466102e-03 3.44525799e-02
      2.99878195e-02 1.80404596e-02 3.47480588e-02</_>
    <_>
      5.01544997e-02 1.05339596e-02 4.97866087e-02 8.40199292e-02
      8.11999887e-02 3.15450914e-02 4.77940105e-02 1.05527099e-02
      4.89441417e-02 4.50889394e-02 4.49373014e-03 4.52065617e-02
      3.68605517e-02 1.63346101e-02 4.03173007e-02</_>
    <_>
      5.55021092e-02 1.63323507e-02 5.31609505e-02 5.49180396e-02
      1.87011492e-02 5.77332303e-02 6.10952117e-02 1.30607896e-02
      6.19692504e-02 6.02700897e-02 5.46974503e-03 6.01251312e-02
      4.72482592e-02 1.51403304e-02 4.95364890e-02</_>
    <_>
      4.94554490e-02 2.44884994e-02 5.26182614e-02 4.68218997e-02
      1.96276400e-02 5.07481396e-02 5.03959209e-02 1.00367796e-02
      5.12183309e-02 4.71054688e-02 7.44230812e-03 4.67664190e-02
      3.89911793e-02 1.51220299e-02 4.17141318e-02</_>
    <_>
      4.39817086e-02 4.26931195e-02 5.07346801e-02 5.31135388e-02
      3.65425907e-02 5.02895005e-02 5.82202002e-02 3.12264208e-02
      5.23043387e-02 7.34925866e-02 6.18472286e-02 4.24590893e-02
      5.64655215e-02 5.28254882e-02 4.49110791e-02</_>
    <_>
      3.11992299e-02 4.27949689e-02 4.11697291e-02 4.13487405e-02
      2.18270198e-02 4.67179418e-02 4.47478108e-02 1.07412003e-02
      4.60057594e-02 4.10982892e-02 4.28342493e-03 4.12644893e-02
      3.86832915e-02 1.96547098e-02 4.24989797e-02</_>
    <_>
      5.33671007e-02 1.78860202e-02 5.48186600e-02 5.00567183e-02
      2.20931098e-02 5.26513718e-02 6.24483004e-02 2.81284694e-02
      5.78359999e-02 5.92134297e-02 2.91406792e-02 5.24056889e-02
      4.76208888e-02 3.44883502e-02 4.71784510e-02</_>
    <_>
      4.60836105e-03 8.14584866e-02 8.13282803e-02 8.79471973e-02
      9.17176977e-02 2.92021409e-02 9.68598798e-02 9.68492180e-02
      5.05628297e-03 8.68563130e-02 9.06776935e-02 2.62913704e-02
      6.22096807e-02 7.91651979e-02 4.97139208e-02</_>
    <_>
      4.38103406e-03 8.22180882e-02 8.22027624e-02 8.78183171e-02
      9.24566835e-02 2.89749708e-02 9.66431722e-02 9.65506136e-02
      5.16860606e-03 8.65031183e-02 9.01032686e-02 2.78702397e-02
      6.19550906e-02 7.95775503e-02 5.11426404e-02</_>
    <_>
      5.25967889e-02 1.80873591e-02 5.29623590e-02 4.26508300e-02
      2.05731299e-02 4.66583893e-02 4.59455103e-02 1.30829103e-02
      4.62044105e-02 4.41151299e-02 1.02442196e-02 4.33330983e-02
      3.87180485e-02 1.59302298e-02 4.18164693e-02</_>
    <_>
      3.86429094e-02 4.04104590e-02 4.93620187e-02 3.99691612e-02
      1.96897909e-02 4.44028787e-02 4.33026589e-02 1.32487603e-02
      4.39534299e-02 4.06952500e-02 1.20025603e-02 3.90879996e-02
      3.32659893e-02 1.71615407e-02 3.59041616e-02</_>
    <_>
      3.40658017e-02 4.09771912e-02 4.47576083e-02 3.78068201e-02
      1.95869692e-02 4.23130319e-02 4.14707400e-02 1.37190297e-02
      4.18787599e-02 3.88943292e-02 1.30111296e-02 3.67970318e-02
      3.11018992e-02 1.67875700e-02 3.32406797e-02</_>
    <_>
      5.39204702e-02 2.03636605e-02 5.49357198e-02 5.06073311e-02
      2.05214303e-02 5.33348918e-02 5.77948801e-02 1.54715404e-02
      5.79144992e-02 5.68898208e-02 1.37847103e-02 5.55132404e-02
      4.73170206e-02 2.46659201e-02 4.85457703e-02</_>
    <_>
      4.75358702e-02 3.92913893e-02 5.77264912e-02 4.20402512e-02
      1.95932593e-02 4.62955087e-02 4.25731912e-02 9.86909308e-03
      4.33140993e-02 3.92093696e-02 9.39319190e-03 3.87849696e-02
      3.30062397e-02 1.92891005e-02 3.78125794e-02</_>
    <_>
      5.04487306e-02 2.13647597e-02 5.29234484e-02 4.87530418e-02
      2.09391993e-02 5.30184992e-02 5.74990101e-02 1.36535903e-02
      5.84113002e-02 5.87629713e-02 1.55150797e-02 5.69818616e-02
      4.87602614e-02 2.47530509e-02 5.03637493e-02</_>
    <_>
      4.01835404e-02 5.11145405e-02 5.82978800e-02 6.21390790e-02
      3.58504988e-02 6.02056198e-02 6.32530227e-02 2.46095695e-02
      6.08274117e-02 5.53153418e-02 1.36577599e-02 5.39360717e-02
      4.18109186e-02 1.91777200e-02 4.47676294e-02</_>
    <_>
      3.79764102e-02 4.29375917e-02 4.70633619e-02 4.56334986e-02
      2.84924991e-02 4.78123911e-02 4.88611683e-02 1.92745496e-02
      4.79599386e-02 4.73869108e-02 2.25290507e-02 4.24549207e-02
      3.95768508e-02 2.46668309e-02 4.11255993e-02</_>
    <_>
      5.01636714e-02 2.10759901e-02 5.26008904e-02 4.75529693e-02
      2.08825208e-02 5.19333594e-02 5.57394288e-02 1.26064904e-02
      5.68858087e-02 5.66144511e-02 1.16793504e-02 5.56456000e-02
      4.75009792e-02 2.33827196e-02 4.93557490e-02</_>
    <_>
      5.22516891e-02 2.78880596e-02 5.47084995e-02 4.91630584e-02
      2.16607396e-02 5.32517210e-02 5.45407608e-02 1.32485302e-02
      5.54227717e-02 5.60411401e-02 1.38480701e-02 5.46624996e-02
      4.66806814e-02 2.45791394e-02 4.86007705e-02</_>
    <_>
      4.24654596e-02 2.22497806e-02 4.00749482e-02 3.78835686e-02
      1.65536292e-02 4.11569998e-02 4.14127409e-02 1.12001104e-02
      4.20530215e-02 3.85069996e-02 1.06231002e-02 3.78233194e-02
      3.20052095e-02 1.93125792e-02 3.69500294e-02</_>
    <_>
      5.24070300e-02 1.39760599e-02 5.05177788e-02 5.25329709e-02
      2.57958807e-02 5.33250496e-02 5.81927188e-02 2.05993298e-02
      5.62577806e-02 5.34424298e-02 1.70231592e-02 5.14383018e-02
      4.26568091e-02 2.45582797e-02 4.53874208e-02</_>
    <_>
      5.01695797e-02 1.38233500e-02 4.83013503e-02 8.39652792e-02
      7.98594877e-02 3.57515290e-02 4.55873497e-02 1.08311800e-02
      4.68505286e-02 4.26417999e-02 6.98043406e-03 4.23043706e-02
      3.52753289e-02 1.56991705e-02 3.85039598e-02</_>
    <_>
      4.18109000e-02 2.95793395e-02 4.03706618e-02 3.52702588e-02
      1.73198096e-02 3.92920189e-02 3.75606790e-02 1.10259103e-02
      3.88381183e-02 3.44196185e-02 8.11770745e-03 3.37474793e-02
      2.97027193e-02 1.70095395e-02 3.38438898e-02</_>
    <_>
      5.61630689e-02 2.34079603e-02 5.85791394e-02 5.10064997e-02
      2.11735498e-02 5.34987710e-02 8.45095292e-02 6.68319017e-02
      5.18004298e-02 7.68605024e-02 6.71739131e-02 4.69636582e-02
      5.91005795e-02 6.40495420e-02 5.67264110e-02</_>
    <_>
      5.22512309e-02 1.51254898e-02 5.28066494e-02 4.76489402e-02
      2.06278600e-02 5.19107804e-02 5.19158207e-02 1.17216399e-02
      5.32176495e-02 5.17707802e-02 5.17361099e-03 5.16982004e-02
      4.37690392e-02 1.95928700e-02 4.62923609e-02</_>
    <_>
      4.53859307e-02 1.67372096e-02 4.52936888e-02 8.25787336e-02
      7.82604367e-02 3.29284407e-02 9.07901973e-02 8.04033503e-02
      4.26420309e-02 5.20277992e-02 1.71939693e-02 4.97285090e-02
      4.90802303e-02 2.95008793e-02 4.89920303e-02</_>
    <_>
      4.75767292e-02 1.55390901e-02 4.73720208e-02 8.39298889e-02
      8.12419429e-02 3.07877492e-02 5.02968803e-02 1.43463099e-02
      5.05388789e-02 4.59096394e-02 5.12074120e-03 4.60994691e-02
      3.82806100e-02 1.78504400e-02 4.19292897e-02</_>
    <_>
      4.40027192e-02 4.57533486e-02 5.87785989e-02 4.88316305e-02
      2.62807291e-02 5.16820103e-02 5.07519394e-02 1.71793103e-02
      5.06327488e-02 4.55450006e-02 7.68397516e-03 4.52025793e-02
      3.69492806e-02 1.86936799e-02 4.05284390e-02</_>
    <_>
      3.34489718e-02 4.25450616e-02 4.07639518e-02 4.37778682e-02
      2.14310493e-02 4.84254397e-02 4.59501706e-02 1.08315796e-02
      4.72079888e-02 4.46703583e-02 3.43808299e-03 4.47934903e-02
      3.68959792e-02 1.84993502e-02 4.08049412e-02</_>
    <_>
      4.56011109e-02 1.68210808e-02 4.58214395e-02 8.19111615e-02
      7.67803267e-02 3.48188393e-02 9.07104388e-02 7.96911716e-02
      4.41186801e-02 5.45050092e-02 2.07844693e-02 5.10606207e-02
      4.90525290e-02 2.98906900e-02 4.89244387e-02</_>
    <_>
      4.94791493e-02 3.61604989e-02 5.08491099e-02 5.10862395e-02
      3.04010995e-02 5.04450686e-02 5.16828783e-02 1.95001792e-02
      5.00986502e-02 5.03222197e-02 1.87686700e-02 4.72825207e-02
      4.23368290e-02 2.74062399e-02 4.29198109e-02</_>
    <_>
      4.63482887e-02 1.65864993e-02 4.54956219e-02 8.46157297e-02
      8.25632066e-02 2.76452806e-02 8.56081769e-02 6.64611235e-02
      5.50873689e-02 4.47824113e-02 6.85253693e-03 4.48523201e-02
      4.23371606e-02 2.05752701e-02 4.51388583e-02</_>
    <_>
      5.24811484e-02 3.02147400e-02 5.68742305e-02 5.16415201e-02
      2.38276497e-02 5.40420189e-02 5.20552509e-02 1.19027896e-02
      5.28778397e-02 4.73808683e-02 4.06461395e-03 4.75548916e-02
      3.98288593e-02 1.75976809e-02 4.33251783e-02</_>
    <_>
      2.97628809e-02 4.70415801e-02 4.35277782e-02 8.83594230e-02
      9.08168331e-02 2.36966200e-02 9.74480584e-02 9.68995169e-02
      1.10002495e-02 4.25625183e-02 9.07117035e-03 4.19847108e-02
      3.42335701e-02 1.84469000e-02 3.85018513e-02</_>
    <_>
      5.64124286e-02 1.98661406e-02 5.57231195e-02 5.65556511e-02
      2.08900291e-02 5.86550012e-02 6.37468994e-02 1.79404598e-02
      6.33497164e-02 6.06861189e-02 1.14117404e-02 5.97681999e-02
      4.65992503e-02 1.57816503e-02 4.87216897e-02</_>
    <_>
      4.29653712e-02 1.95511393e-02 4.02008109e-02 6.30240813e-02
      2.47486401e-02 6.49675280e-02 4.00732011e-02 1.27833998e-02
      4.06824611e-02 3.70408706e-02 1.01760803e-02 3.62535492e-02
      3.11077703e-02 1.80031192e-02 3.50085907e-02</_>
    <_>
      5.30582517e-02 9.03386436e-03 5.25583103e-02 4.64563295e-02
      2.00973693e-02 4.96362709e-02 5.75973205e-02 2.31784992e-02
      5.47371097e-02 6.44918680e-02 4.25749682e-02 5.03112897e-02
      5.00134714e-02 4.12749611e-02 4.82249111e-02</_>
    <_>
      4.33000103e-02 2.47395094e-02 4.09318805e-02 7.12807626e-02
      4.33293097e-02 6.41354322e-02 4.06251810e-02 1.15889404e-02
      4.13547605e-02 3.76513116e-02 9.48708504e-03 3.69513296e-02
      3.13239917e-02 1.74703691e-02 3.50708514e-02</_>
    <_>
      4.83793207e-02 1.46161001e-02 4.74763289e-02 8.47978517e-02
      8.15283731e-02 3.24662998e-02 4.61722016e-02 1.13466904e-02
      4.73861694e-02 4.46989201e-02 5.89816691e-03 4.46236618e-02
      3.63561399e-02 1.69473104e-02 4.00255807e-02</_>
    <_>
      5.35442382e-02 2.59321593e-02 5.41084595e-02 5.88344783e-02
      2.64959205e-02 5.97228408e-02 6.46528527e-02 2.20333599e-02
      6.28360063e-02 6.04118891e-02 1.42191304e-02 5.90103604e-02
      4.65180501e-02 1.82944406e-02 4.86253910e-02</_>
    <_>
      4.45707999e-02 2.44577806e-02 4.49775308e-02 4.12516110e-02
      1.97264701e-02 4.54612598e-02 4.29518707e-02 1.01498598e-02
      4.39730808e-02 4.06979211e-02 5.58289699e-03 4.07583788e-02
      4.01005708e-02 2.65412405e-02 4.31300700e-02</_>
    <_>
      5.40990606e-02 2.06894707e-02 5.51571399e-02 5.09277992e-02
      2.06864905e-02 5.35659492e-02 5.80162406e-02 1.56648308e-02
      5.80515303e-02 5.72770089e-02 1.44424904e-02 5.57667986e-02
      4.75190394e-02 2.49363706e-02 4.87108603e-02</_>
    <_>
      3.83841693e-02 2.66881697e-02 3.83460782e-02 3.77072282e-02
      1.93390697e-02 4.19216305e-02 4.03192118e-02 1.39384903e-02
      4.05839607e-02 3.68640609e-02 1.07438099e-02 3.56197506e-02
      3.11569609e-02 1.87019594e-02 3.47765386e-02</_>
    <_>
      5.41941002e-02 4.91907187e-02 6.52701631e-02 9.35062021e-02
      8.77903923e-02 4.88799885e-02 1.04800500e-01 9.75639075e-02
      3.91425788e-02 9.57094729e-02 9.16884392e-02 3.75007801e-02
      7.04874471e-02 7.19899386e-02 5.15236482e-02</_>
    <_>
      4.92409095e-02 2.54116803e-02 5.43385483e-02 4.61138114e-02
      2.05458701e-02 5.04812896e-02 5.07009998e-02 1.14784297e-02
      5.19029312e-02 5.34247793e-02 1.32383499e-02 5.21816202e-02
      4.58549596e-02 2.57218406e-02 4.78820689e-02</_>
    <_>
      4.59188707e-02 1.62277799e-02 4.48538400e-02 8.32811892e-02
      7.93052688e-02 3.39944884e-02 5.24070188e-02 2.18115300e-02
      4.98889610e-02 4.81558703e-02 1.17554097e-02 4.72955815e-02
      4.25757505e-02 2.28605196e-02 4.50288393e-02</_>
    <_>
      3.80829908e-02 5.22041209e-02 5.66651486e-02 8.64756331e-02
      8.89661163e-02 3.37568000e-02 9.36121568e-02 9.03799906e-02
      2.52353009e-02 8.46968517e-02 8.29012915e-02 3.07717901e-02
      6.08260594e-02 6.54935092e-02 4.03419398e-02</_>
    <_>
      4.07660007e-02 4.82328497e-02 5.83320484e-02 3.96449305e-02
      2.14566607e-02 4.50262204e-02 4.32805195e-02 1.07051497e-02
      4.45132218e-02 3.97628695e-02 6.48711016e-03 3.95147800e-02
      3.25777307e-02 1.75794195e-02 3.68365012e-02</_>
    <_>
      2.69174408e-02 6.94431737e-02 6.60800785e-02 9.16197374e-02
      9.35114399e-02 3.24513912e-02 7.03312829e-02 4.35726792e-02
      5.72734810e-02 6.33434206e-02 4.09324504e-02 5.06567992e-02
      6.37173727e-02 6.55435473e-02 5.08684218e-02</_>
    <_>
      4.47928496e-02 1.70900300e-02 4.44711298e-02 8.38236883e-02
      8.09173808e-02 2.95046996e-02 9.08652917e-02 8.05212036e-02
      4.27086391e-02 5.03614396e-02 1.63206197e-02 4.83219102e-02
      4.89957891e-02 2.86803003e-02 4.89579886e-02</_>
    <_>
      5.01337200e-02 2.00055297e-02 5.17849699e-02 4.40531410e-02
      2.07130592e-02 4.84420508e-02 4.84580100e-02 1.20788198e-02
      4.94716614e-02 4.69246805e-02 4.41593397e-03 4.69403602e-02
      4.01706994e-02 1.66825093e-02 4.32576910e-02</_>
    <_>
      4.24220115e-02 5.63187189e-02 5.73240817e-02 9.47851017e-02
      8.87572169e-02 4.03739810e-02 1.05052002e-01 9.72047299e-02
      3.99350002e-02 9.44353566e-02 8.78824070e-02 4.39046100e-02
      6.75399899e-02 6.17422983e-02 5.59480302e-02</_>
    <_>
      3.84304896e-02 3.89994085e-02 4.81594503e-02 4.00499590e-02
      1.96644608e-02 4.44548614e-02 4.34289612e-02 1.35030504e-02
      4.40145992e-02 4.06780392e-02 1.22548603e-02 3.89310718e-02
      3.32745612e-02 1.69367995e-02 3.57278213e-02</_>
    <_>
      4.24326211e-02 2.41825301e-02 4.06736508e-02 3.75601389e-02
      1.99224707e-02 4.25141789e-02 3.87729406e-02 1.20104495e-02
      4.00189497e-02 3.61893401e-02 7.51970708e-03 3.55735384e-02
      3.07673905e-02 1.54707003e-02 3.42594795e-02</_>
    <_>
      4.87452783e-02 2.73594297e-02 5.19958399e-02 4.11535800e-02
      2.01007500e-02 4.56035212e-02 4.97519299e-02 1.40964100e-02
      5.05946688e-02 5.11735007e-02 1.25026396e-02 4.98025082e-02
      3.98345999e-02 1.97292604e-02 4.20781896e-02</_>
    <_>
      5.61025999e-02 1.93738900e-02 5.60809597e-02 5.52700497e-02
      2.17719898e-02 5.73519915e-02 6.33996427e-02 1.96985994e-02
      6.23905398e-02 5.96748106e-02 1.34659903e-02 5.83828092e-02
      4.66012992e-02 1.87241305e-02 4.84399311e-02</_>
    <_>
      4.31254283e-02 1.49367601e-02 4.30321284e-02 3.82150896e-02
      2.29547508e-02 4.29628789e-02 4.02498096e-02 1.68008506e-02
      3.94326411e-02 3.71425785e-02 1.62234306e-02 3.35601307e-02
      3.16597410e-02 1.75199900e-02 3.43781486e-02</_>
    <_>
      4.16101217e-02 4.97675911e-02 5.68726398e-02 4.56886999e-02
      2.39279792e-02 4.92341593e-02 3.95980813e-02 1.02664400e-02
      4.07995693e-02 3.55824605e-02 7.07965717e-03 3.53608094e-02
      2.96518095e-02 1.95319597e-02 3.55029888e-02</_>
    <_>
      4.82914895e-02 4.03413586e-02 5.49862906e-02 5.07588908e-02
      2.98789106e-02 5.27726188e-02 5.26679717e-02 1.90006196e-02
      5.25928885e-02 5.00949100e-02 1.40313404e-02 4.82162312e-02
      4.14897390e-02 2.22289898e-02 4.25402783e-02</_>
    <_>
      4.97886389e-02 2.19496507e-02 4.93336394e-02 4.56816591e-02
      2.20950507e-02 4.72772308e-02 4.43458110e-02 8.82531796e-03
      4.48903702e-02 4.04237695e-02 6.30066590e-03 4.08505313e-02
      3.46885212e-02 1.97345503e-02 3.98407690e-02</_>
    <_>
      2.76191197e-02 4.45246510e-02 4.04081494e-02 8.55208412e-02
      8.44307616e-02 3.10506392e-02 9.71655920e-02 9.71714333e-02
      4.59661894e-03 4.16400395e-02 6.70958403e-03 4.12971117e-02
      3.45917903e-02 1.81138404e-02 3.88305411e-02</_>
    <_>
      5.31962514e-02 1.69446897e-02 5.34098707e-02 4.84699495e-02
      2.37043295e-02 5.07752597e-02 5.74656799e-02 2.29237992e-02
      5.47386408e-02 6.82615414e-02 5.02001606e-02 4.85506505e-02
      5.41419089e-02 5.08006699e-02 4.88229804e-02</_>
    <_>
      5.13927303e-02 2.97492202e-02 5.05140200e-02 6.23928383e-02
      5.12656495e-02 5.27322218e-02 9.31196883e-02 9.09293219e-02
      2.79357303e-02 8.58471170e-02 8.54745507e-02 2.29198392e-02
      6.26999736e-02 6.93661720e-02 4.48841415e-02</_>
    <_>
      3.77878100e-02 5.05274683e-02 4.86709587e-02 8.59482065e-02
      7.34714568e-02 5.10166511e-02 9.55877379e-02 7.99091235e-02
      5.27741201e-02 9.07051712e-02 7.85379633e-02 5.01492992e-02
      6.08857796e-02 4.83392887e-02 5.59764393e-02</_>
    <_>
      5.68758287e-02 2.01391093e-02 5.66913486e-02 5.61511107e-02
      2.23757401e-02 5.81372902e-02 6.44541234e-02 2.06268001e-02
      6.32533208e-02 6.06871098e-02 1.40395500e-02 5.92536293e-02
      4.73422818e-02 1.84247103e-02 4.89918888e-02</_>
    <_>
      4.04873788e-02 5.29541895e-02 5.99143282e-02 4.34759483e-02
      2.18003504e-02 4.85804603e-02 4.57279682e-02 1.17613701e-02
      4.68493290e-02 3.62207592e-02 1.01955999e-02 3.52502093e-02
      3.05269398e-02 2.03647297e-02 3.58453803e-02</_>
    <_>
      5.56826405e-02 1.80132501e-02 5.61370999e-02 5.48723787e-02
      2.20621992e-02 5.69097586e-02 6.50771409e-02 2.48689000e-02
      6.21498898e-02 5.95526397e-02 1.77635793e-02 5.72110191e-02
      4.65322696e-02 2.19815206e-02 4.80857193e-02</_>
    <_>
      3.07480507e-02 4.29541282e-02 3.96110006e-02 3.99965793e-02
      2.19009202e-02 4.55528907e-02 4.26191799e-02 1.06681399e-02
      4.38401215e-02 3.88237797e-02 5.62110823e-03 3.87903713e-02
      3.61975618e-02 1.82272997e-02 4.04645018e-02</_>
    <_>
      5.02964295e-02 4.29924391e-02 6.28384128e-02 4.32002097e-02
      2.11642291e-02 4.78517488e-02 4.59703393e-02 1.04891397e-02
      4.71475311e-02 4.27119993e-02 4.24103206e-03 4.29148190e-02
      3.48926783e-02 1.76587291e-02 3.90495099e-02</_>
    <_>
      4.77706417e-02 4.42829095e-02 5.79567514e-02 5.48783690e-02
      3.15935202e-02 5.36366887e-02 4.59338203e-02 1.23400902e-02
      4.60543595e-02 4.11401019e-02 5.93954790e-03 4.14736792e-02
      3.33662592e-02 1.96519606e-02 3.85742784e-02</_>
    <_>
      3.59111987e-02 4.62203287e-02 5.22364303e-02 3.96741182e-02
      2.18800809e-02 4.52651903e-02 4.25877683e-02 1.05717797e-02
      4.38214988e-02 3.84993404e-02 6.42641215e-03 3.84006910e-02
      3.23667601e-02 1.89594794e-02 3.74999717e-02</_>
    <_>
      4.48786616e-02 1.35249104e-02 4.48067412e-02 3.75137292e-02
      2.29787007e-02 4.23469096e-02 4.03260887e-02 1.68190598e-02
      3.95088308e-02 3.74389999e-02 1.56154698e-02 3.41739208e-02
      3.20326984e-02 1.67892296e-02 3.48516107e-02</_>
    <_>
      4.82717790e-02 1.91567093e-02 4.45622206e-02 4.86970693e-02
      2.45396998e-02 5.12219891e-02 5.24301901e-02 1.50124095e-02
      5.25365509e-02 5.34732416e-02 1.49291698e-02 5.17825596e-02
      4.39135693e-02 2.39599403e-02 4.61662300e-02</_>
    <_>
      3.60830799e-02 5.60282990e-02 6.13821596e-02 4.44143489e-02
      2.17782501e-02 4.78344597e-02 4.38010804e-02 8.91154166e-03
      4.46983501e-02 3.96614298e-02 7.49118021e-03 3.97085287e-02
      3.30930203e-02 1.88199393e-02 3.79247703e-02</_>
    <_>
      5.41741885e-02 2.64954101e-02 5.75491711e-02 5.82790412e-02
      3.29504497e-02 5.65280803e-02 6.62361234e-02 3.53188999e-02
      5.80810383e-02 6.22597300e-02 3.26656401e-02 5.40197603e-02
      4.82972004e-02 3.27261388e-02 4.83645387e-02</_>
    <_>
      4.38956097e-02 3.24844494e-02 4.28966582e-02 4.42222990e-02
      2.86740009e-02 4.51510511e-02 4.54522595e-02 9.37767327e-03
      4.61756289e-02 4.20653485e-02 9.77227744e-03 4.14640494e-02
      3.42938304e-02 1.95314605e-02 3.86570990e-02</_>
    <_>
      5.49803786e-02 2.33041104e-02 5.59465513e-02 5.57156503e-02
      3.16876285e-02 5.53029813e-02 5.77297099e-02 2.21214909e-02
      5.56910001e-02 5.87799586e-02 2.44027507e-02 5.39679490e-02
      4.73305583e-02 2.95834094e-02 4.70315591e-02</_>
    <_>
      4.59822789e-02 1.19060902e-02 4.55629304e-02 3.83718796e-02
      2.29817107e-02 4.30849902e-02 4.12741117e-02 1.69319808e-02
      4.05021608e-02 3.86062786e-02 1.57478396e-02 3.53577510e-02
      3.35103497e-02 1.63833406e-02 3.60792689e-02</_>
    <_>
      5.67513816e-02 2.02830900e-02 5.61788194e-02 5.62839583e-02
      2.10114606e-02 5.84507287e-02 6.33277968e-02 1.78304892e-02
      6.30540475e-02 6.03359602e-02 1.09065697e-02 5.94754703e-02
      4.65593114e-02 1.55939702e-02 4.85915504e-02</_>
    <_>
      2.52915900e-02 7.48202875e-02 7.16227815e-02 9.15527269e-02
      9.26687196e-02 3.65624912e-02 6.73699975e-02 4.13352288e-02
      5.60979396e-02 7.11932480e-02 5.22487201e-02 5.06932288e-02
      6.24942482e-02 6.33454770e-02 5.00563793e-02</_>
    <_>
      2.67958809e-02 7.16665909e-02 6.81226477e-02 9.08429995e-02
      9.25502405e-02 3.52985598e-02 6.93707168e-02 4.14755493e-02
      5.84204085e-02 6.58514425e-02 4.39559110e-02 5.08504994e-02
      6.28896281e-02 6.34511411e-02 4.99286391e-02</_>
    <_>
      5.40556498e-02 1.77548099e-02 5.55836894e-02 5.15574105e-02
      2.13614795e-02 5.45199588e-02 6.33765981e-02 2.58843508e-02
      6.00829907e-02 5.87454997e-02 2.28365809e-02 5.46500795e-02
      4.69867513e-02 2.85184402e-02 4.77966405e-02</_>
    <_>
      5.26307598e-02 1.87922008e-02 4.91919592e-02 5.43598607e-02
      2.10952591e-02 5.80674894e-02 6.33148402e-02 1.45279104e-02
      6.41630068e-02 6.12009913e-02 5.87539421e-03 6.09795786e-02
      4.80184294e-02 1.47444904e-02 5.00968806e-02</_>
    <_>
      4.93822508e-02 1.40080797e-02 4.76806611e-02 8.31139833e-02
      7.80242831e-02 3.69584709e-02 4.69865203e-02 1.11404704e-02
      4.81542610e-02 4.39420491e-02 5.15602110e-03 4.39632088e-02
      3.66432592e-02 1.64732896e-02 4.01689783e-02</_>
    <_>
      5.62088192e-02 2.25838907e-02 5.78729212e-02 5.07629886e-02
      2.14931797e-02 5.31567782e-02 8.65749866e-02 7.01158792e-02
      5.09823598e-02 7.74456337e-02 6.88092932e-02 4.70670685e-02
      5.95035888e-02 6.26245067e-02 5.53282686e-02</_>
    <_>
      4.36824895e-02 4.22466882e-02 5.15808016e-02 4.92317416e-02
      2.88106408e-02 5.18451706e-02 5.42030893e-02 2.24290900e-02
      5.28784916e-02 6.22421317e-02 4.15079296e-02 4.76416610e-02
      5.74037991e-02 5.44206798e-02 4.51004617e-02</_>
    <_>
      4.59565818e-02 4.56681512e-02 6.02827705e-02 4.47567403e-02
      2.18044892e-02 4.92826216e-02 5.47242910e-02 1.44685898e-02
      5.52340113e-02 5.11717685e-02 1.41285602e-02 4.97419201e-02
      4.83713001e-02 3.01875006e-02 4.90453504e-02</_>
    <_>
      5.63522205e-02 2.00876407e-02 5.55946417e-02 5.64527512e-02
      2.11233906e-02 5.85551895e-02 6.36779964e-02 1.83332991e-02
      6.32565767e-02 6.06627800e-02 1.17980000e-02 5.96446991e-02
      4.67093699e-02 1.58758909e-02 4.87377010e-02</_>
    <_>
      5.64267710e-02 2.06280500e-02 5.54710291e-02 5.63487597e-02
      2.06807200e-02 5.84030598e-02 6.36506826e-02 1.79809202e-02
      6.32013977e-02 6.07477613e-02 1.20082404e-02 5.97218312e-02
      4.69296090e-02 1.63880307e-02 4.90511917e-02</_>
    <_>
      4.92951311e-02 1.33792302e-02 4.86530811e-02 8.49871263e-02
      8.16263333e-02 3.08714006e-02 4.63207290e-02 1.10377101e-02
      4.75821197e-02 4.37264182e-02 5.99716790e-03 4.35029715e-02
      3.65024805e-02 1.63718108e-02 3.99615504e-02</_>
    <_>
      3.87417898e-02 5.57742193e-02 6.21859804e-02 8.65033716e-02
      9.04244408e-02 3.54885384e-02 9.45000574e-02 9.24881399e-02
      2.13364400e-02 8.54378268e-02 8.52795467e-02 2.71955002e-02
      6.20558783e-02 7.05045164e-02 4.26084399e-02</_>
    <_>
      4.99439389e-02 2.33109798e-02 4.96054105e-02 4.62022312e-02
      2.30262596e-02 4.77504507e-02 4.36507799e-02 9.08247940e-03
      4.43153493e-02 3.96735705e-02 5.90280723e-03 4.00147885e-02
      3.40463296e-02 1.91661697e-02 3.90441492e-02</_>
    <_>
      4.85188290e-02 2.62305792e-02 5.03301099e-02 4.97888103e-02
      2.77324393e-02 4.91603017e-02 5.29522896e-02 2.08424795e-02
      5.01627289e-02 5.03957905e-02 2.04158593e-02 4.75086085e-02
      4.20395210e-02 3.21926400e-02 4.39494401e-02</_>
    <_>
      5.26712611e-02 3.31028588e-02 5.63320406e-02 6.51590824e-02
      3.86355296e-02 6.13648705e-02 7.43986070e-02 4.45770584e-02
      6.18530996e-02 7.11154267e-02 4.59896587e-02 5.54958805e-02
      5.76368906e-02 4.88899797e-02 5.15837818e-02</_>
    <_>
      4.92185690e-02 1.85763799e-02 4.65294905e-02 5.85202612e-02
      5.74067794e-02 3.22710797e-02 4.81474511e-02 1.13072004e-02
      4.94186990e-02 4.39820997e-02 7.85353687e-03 4.35386486e-02
      3.51801105e-02 1.63139198e-02 3.83148715e-02</_>
    <_>
      4.29739505e-02 2.26863194e-02 4.05104011e-02 6.47283122e-02
      2.81936098e-02 6.57265112e-02 4.05033194e-02 1.23096602e-02
      4.12514992e-02 3.74101214e-02 9.71696060e-03 3.65928896e-02
      3.12047992e-02 1.74396299e-02 3.48942317e-02</_>
    <_>
      5.25527112e-02 2.21739504e-02 5.29599003e-02 5.04321009e-02
      2.73704305e-02 5.17090894e-02 6.05982207e-02 2.84990091e-02
      5.56990504e-02 7.01173767e-02 5.28613105e-02 4.84163500e-02
      5.65182604e-02 5.54449186e-02 4.90074083e-02</_>
    <_>
      5.41528799e-02 1.63046997e-02 5.27699701e-02 5.55336513e-02
      2.62066294e-02 5.61861917e-02 6.14779703e-02 2.22187396e-02
      5.93461394e-02 5.57604991e-02 1.40634198e-02 5.43504991e-02
      4.23563495e-02 1.94525495e-02 4.48392406e-02</_>
    <_>
      5.42779416e-02 1.82537697e-02 5.48562594e-02 5.32535985e-02
      2.19492391e-02 5.62266782e-02 5.68845607e-02 1.34309595e-02
      5.76870106e-02 5.77267818e-02 1.45889102e-02 5.61416298e-02
      5.09905182e-02 3.23874317e-02 5.10778017e-02</_>
    <_>
      3.75842303e-02 4.19972911e-02 4.93349098e-02 3.93587500e-02
      1.92191005e-02 4.36941795e-02 4.26195301e-02 1.26447901e-02
      4.32075188e-02 4.00689282e-02 1.15735000e-02 3.86456996e-02
      3.28279883e-02 1.76735595e-02 3.59002501e-02</_>
    <_>
      2.61010900e-02 6.95664808e-02 6.48029894e-02 9.72656831e-02
      9.92148072e-02 3.07570808e-02 7.03898594e-02 5.18937595e-02
      4.91669886e-02 6.50314167e-02 3.65502909e-02 5.52548990e-02
      6.74654096e-02 6.37202635e-02 5.33776283e-02</_>
    <_>
      2.38655105e-01 2.49388203e-01 7.97524303e-02 2.34915599e-01
      2.44762495e-01 7.85788074e-02 2.35959306e-01 2.48791397e-01
      8.38659331e-02 2.40275994e-01 2.58260995e-01 9.91968066e-02
      2.44307503e-01 2.66988307e-01 1.16564602e-01</_>
    <_>
      3.50013487e-02 5.60756885e-02 5.73041514e-02 4.49699797e-02
      2.17119399e-02 4.94199805e-02 4.39460017e-02 1.11476500e-02
      4.51253802e-02 3.92322317e-02 9.13293939e-03 3.87882106e-02
      3.50964293e-02 1.90069098e-02 3.97318900e-02</_>
    <_>
      3.44374292e-02 3.51214185e-02 4.22487818e-02 3.81132290e-02
      2.05389000e-02 4.29205112e-02 4.14113216e-02 1.41916703e-02
      4.16650809e-02 3.92815806e-02 1.29675101e-02 3.72120813e-02
      3.18326987e-02 1.60413105e-02 3.39528508e-02</_>
    <_>
      4.06761803e-02 4.11793590e-02 5.04660606e-02 4.75419499e-02
      2.59008799e-02 5.10399416e-02 5.43223582e-02 2.23226398e-02
      5.28756492e-02 6.75373673e-02 4.83991317e-02 4.86604311e-02
      5.73136397e-02 6.11691102e-02 4.40631397e-02</_>
    <_>
      2.80466992e-02 7.12108612e-02 6.64984435e-02 9.59006175e-02
      9.88390967e-02 3.43889706e-02 6.49109930e-02 3.74371409e-02
      5.62949888e-02 6.51046336e-02 3.95892300e-02 5.28244488e-02
      5.48598394e-02 4.21312302e-02 5.02777696e-02</_>
    <_>
      4.79079708e-02 2.94928998e-02 5.12716882e-02 4.21485603e-02
      2.17117891e-02 4.73827608e-02 4.49290499e-02 1.19564300e-02
      4.59790304e-02 4.25699800e-02 6.04550587e-03 4.23282012e-02
      3.63296606e-02 1.62534397e-02 3.97994183e-02</_>
    <_>
      4.68816906e-02 1.13957999e-02 4.59233709e-02 3.92888412e-02
      2.29338799e-02 4.39034700e-02 4.21284288e-02 1.69987399e-02
      4.14103493e-02 3.97029892e-02 1.45307798e-02 3.70565802e-02
      3.45392711e-02 1.63739696e-02 3.75681296e-02</_>
    <_>
      4.95116003e-02 1.75197497e-02 4.63135801e-02 8.55028629e-02
      8.49721804e-02 2.06301901e-02 8.76828581e-02 7.80002996e-02
      4.04721014e-02 5.35422191e-02 2.93727200e-02 4.63321209e-02
      4.63869013e-02 3.12427003e-02 4.67399992e-02</_>
    <_>
      3.96960787e-02 3.85007784e-02 4.64518182e-02 3.88724208e-02
      1.95447896e-02 4.33253311e-02 3.96422110e-02 9.62593406e-03
      4.03915718e-02 3.56309898e-02 8.61290656e-03 3.51155810e-02
      3.00227106e-02 1.86810307e-02 3.48175988e-02</_>
    <_>
      4.37962487e-02 2.17567105e-02 4.07439210e-02 6.83756769e-02
      3.64301689e-02 6.55304268e-02 4.11446504e-02 1.12317102e-02
      4.19279188e-02 3.80783714e-02 9.17566568e-03 3.76098901e-02
      3.18994001e-02 1.74479708e-02 3.57128382e-02</_>
    <_>
      4.54036705e-02 1.69552192e-02 4.57558483e-02 8.18286613e-02
      7.64512867e-02 3.56068201e-02 8.79024193e-02 7.28124231e-02
      5.04147597e-02 5.45642115e-02 2.12092791e-02 5.09482399e-02
      4.81239185e-02 2.89392602e-02 4.82886210e-02</_>
    <_>
      5.44850305e-02 1.79286003e-02 5.51202111e-02 5.55234887e-02
      2.13386696e-02 5.85785285e-02 6.28907233e-02 1.74272005e-02
      6.32302314e-02 5.95347807e-02 8.50492995e-03 5.89749403e-02
      4.48549017e-02 1.30295604e-02 4.66803014e-02</_>
    <_>
      5.00022098e-02 2.80965809e-02 5.29715791e-02 4.44513895e-02
      1.84660703e-02 4.81338613e-02 5.32439984e-02 1.07551599e-02
      5.43096401e-02 4.52624597e-02 5.96249895e-03 4.50667404e-02
      3.77605818e-02 1.68678593e-02 4.13549095e-02</_>
    <_>
      5.37295491e-02 1.31561998e-02 5.22118397e-02 6.63190484e-02
      4.73949797e-02 5.74899502e-02 7.17815682e-02 4.33323309e-02
      5.94979115e-02 6.17868006e-02 2.94060800e-02 5.51329292e-02
      4.73911688e-02 2.81127207e-02 4.81637307e-02</_>
    <_>
      4.65097018e-02 2.96313893e-02 5.14135808e-02 3.87218893e-02
      2.13790201e-02 4.42228988e-02 3.98160107e-02 1.18757598e-02
      4.06647809e-02 3.64520997e-02 1.09644700e-02 3.50490995e-02
      3.07757407e-02 1.77582297e-02 3.46951298e-02</_>
    <_>
      4.32804488e-02 2.03944203e-02 4.04034406e-02 6.61357716e-02
      3.07529196e-02 6.56362325e-02 3.96732688e-02 1.28253400e-02
      4.02433388e-02 3.67563292e-02 1.05187502e-02 3.60366516e-02
      3.09238303e-02 1.83304399e-02 3.49364318e-02</_>
    <_>
      5.05609289e-02 3.73952612e-02 5.73384315e-02 5.90550713e-02
      3.73310298e-02 5.46902195e-02 6.75104484e-02 3.94067913e-02
      5.69433197e-02 6.50456697e-02 4.03264388e-02 5.23129292e-02
      5.30872308e-02 4.43773717e-02 4.77693714e-02</_>
    <_>
      5.50677292e-02 1.52089400e-02 5.29537387e-02 6.59721866e-02
      3.83371301e-02 6.21677600e-02 7.41958171e-02 4.02571000e-02
      6.40797466e-02 6.74848109e-02 3.19410004e-02 6.03405796e-02
      5.12187891e-02 2.73023602e-02 5.17536402e-02</_>
    <_>
      4.39937189e-02 3.97507809e-02 5.42828701e-02 4.02091406e-02
      2.05115508e-02 4.50254194e-02 4.13742810e-02 1.09774899e-02
      4.24995609e-02 3.78575996e-02 8.24253913e-03 3.72552499e-02
      3.06866504e-02 1.80371404e-02 3.53480205e-02</_>
    <_>
      5.31873889e-02 2.30270308e-02 5.73856197e-02 4.69601192e-02
      2.03477703e-02 5.09406105e-02 5.01914918e-02 1.12095503e-02
      5.13634793e-02 5.06309010e-02 8.24222155e-03 5.02931587e-02
      4.21347693e-02 2.04953607e-02 4.50017117e-02</_>
    <_>
      4.56872210e-02 3.45507897e-02 5.02674207e-02 4.58415411e-02
      2.31677108e-02 4.88096401e-02 4.98762988e-02 1.36599699e-02
      5.01752608e-02 4.80104685e-02 1.14329802e-02 4.71884795e-02
      3.82395498e-02 2.17281803e-02 4.18498889e-02</_>
    <_>
      5.15970103e-02 3.48096788e-02 5.74512109e-02 5.18528111e-02
      2.32758000e-02 5.47253788e-02 5.88001683e-02 1.91981792e-02
      5.79325892e-02 6.13958612e-02 2.35635303e-02 5.73071912e-02
      4.87747192e-02 2.87727900e-02 4.99300584e-02</_>
    <_>
      4.45133597e-02 3.82090807e-02 4.60673384e-02 8.70696381e-02
      8.80186707e-02 2.33630091e-02 9.59519669e-02 9.46162865e-02
      1.59631502e-02 8.70087370e-02 8.85578915e-02 2.30828095e-02
      6.43278882e-02 7.39924535e-02 4.00645509e-02</_>
    <_>
      4.79804799e-02 3.30260918e-02 5.53573817e-02 3.89413983e-02
      1.97179802e-02 4.36314717e-02 4.01213393e-02 1.10093802e-02
      4.09990810e-02 3.71316411e-02 9.74188931e-03 3.63670513e-02
      3.21025588e-02 1.92572009e-02 3.67895216e-02</_>
    <_>
      4.84009013e-02 4.08137813e-02 5.96881993e-02 5.09817600e-02
      2.80574709e-02 5.35080992e-02 4.95752692e-02 1.60283707e-02
      5.00506908e-02 4.44529317e-02 5.55307185e-03 4.43338305e-02
      3.60197797e-02 1.75162703e-02 3.97018790e-02</_>
    <_>
      5.42008206e-02 1.35266501e-02 5.25426082e-02 6.74113333e-02
      4.69982997e-02 5.94688281e-02 7.40777031e-02 4.50891182e-02
      6.10274896e-02 6.41977787e-02 3.11219003e-02 5.69097102e-02
      4.89476994e-02 2.80946791e-02 4.94080298e-02</_>
    <_>
      4.53168117e-02 1.55518204e-02 4.54037115e-02 8.52732733e-02
      8.46160427e-02 2.63854805e-02 5.66125289e-02 3.05684302e-02
      4.95727398e-02 4.55284007e-02 9.02921613e-03 4.52423282e-02
      3.88506986e-02 2.13431306e-02 4.25008982e-02</_>
    <_>
      3.52347903e-02 6.07054196e-02 6.36672825e-02 9.42938626e-02
      9.59978476e-02 1.96690802e-02 1.04627997e-01 1.04570702e-01
      7.31578516e-03 9.38958600e-02 9.69399735e-02 2.70498004e-02
      6.75808191e-02 8.21376964e-02 4.94162515e-02</_>
    <_>
      5.08765616e-02 1.35003803e-02 5.05832210e-02 4.30079699e-02
      2.09503993e-02 4.78008389e-02 4.59291600e-02 1.28534902e-02
      4.67628092e-02 4.33055498e-02 1.02543896e-02 4.21690792e-02
      3.58842388e-02 1.45105999e-02 3.81127894e-02</_>
    <_>
      4.31318395e-02 5.02214991e-02 6.19677790e-02 4.20308113e-02
      2.04438400e-02 4.64183986e-02 4.18718383e-02 1.03599597e-02
      4.28994186e-02 3.79624590e-02 8.33442621e-03 3.76078188e-02
      3.07564307e-02 1.93468891e-02 3.57018895e-02</_>
    <_>
      4.05330695e-02 4.47464511e-02 5.18721789e-02 5.05461991e-02
      2.36671306e-02 5.32871895e-02 5.06611392e-02 1.15878498e-02
      5.16491495e-02 4.31688018e-02 5.24341315e-03 4.33157310e-02
      3.52752283e-02 1.74626391e-02 3.93197387e-02</_>
    <_>
      4.59978506e-02 3.61236893e-02 4.40609194e-02 8.57485309e-02
      8.53184089e-02 2.90288404e-02 9.27613825e-02 8.80915299e-02
      2.98660398e-02 8.23031664e-02 7.59224817e-02 3.55473496e-02
      6.10868409e-02 5.99484183e-02 4.24025804e-02</_>
    <_>
      5.73731512e-02 1.98517907e-02 5.74911088e-02 5.67710698e-02
      2.06494704e-02 5.94102703e-02 6.35513663e-02 1.65934302e-02
      6.38576522e-02 6.07695803e-02 8.48871935e-03 6.02470189e-02
      4.72186394e-02 1.45070404e-02 4.91701402e-02</_>
    <_>
      5.47061712e-02 3.25955600e-02 5.66006713e-02 5.33880107e-02
      2.62330193e-02 5.39337993e-02 5.35777509e-02 1.50863603e-02
      5.32663800e-02 4.83782589e-02 7.79995881e-03 4.82302792e-02
      4.08542193e-02 2.01623794e-02 4.39335890e-02</_>
    <_>
      3.06242201e-02 4.19175215e-02 3.84553000e-02 4.07883301e-02
      2.19277292e-02 4.62010391e-02 4.33942303e-02 1.06433798e-02
      4.46371883e-02 4.26561199e-02 4.36810916e-03 4.26988006e-02
      3.64036486e-02 1.92635600e-02 4.05582599e-02</_>
    <_>
      4.76961993e-02 1.44872405e-02 4.69283909e-02 8.49796981e-02
      8.17227736e-02 3.18833999e-02 4.61416803e-02 1.12270899e-02
      4.73739095e-02 4.44056801e-02 5.92332007e-03 4.42871302e-02
      3.63334306e-02 1.67594906e-02 3.99368405e-02</_>
    <_>
      5.72146587e-02 1.74022596e-02 5.70750795e-02 5.72571605e-02
      2.35245097e-02 5.90327904e-02 6.36044666e-02 1.91328395e-02
      6.29748106e-02 5.82811087e-02 8.23343173e-03 5.78064993e-02
      4.49316502e-02 1.50346402e-02 4.68717590e-02</_>
    <_>
      3.30350995e-02 3.58061902e-02 4.12380509e-02 3.75789702e-02
      2.01263800e-02 4.22013588e-02 4.09732796e-02 1.43618602e-02
      4.11412790e-02 3.88164818e-02 1.33188004e-02 3.66004296e-02
      3.15352492e-02 1.68370195e-02 3.37685607e-02</_>
    <_>
      4.95484993e-02 2.55505908e-02 5.27478307e-02 4.51736003e-02
      2.09471006e-02 4.97888885e-02 4.78434712e-02 1.25839803e-02
      4.88709211e-02 4.43555303e-02 8.85011442e-03 4.35878187e-02
      3.74228209e-02 1.62310507e-02 4.05620411e-02</_>
    <_>
      2.49880403e-02 7.27505013e-02 6.85740933e-02 9.51620936e-02
      9.65605900e-02 2.79718805e-02 9.17745531e-02 8.25775266e-02
      4.02558297e-02 8.28357190e-02 7.29598999e-02 4.74779382e-02
      6.48671016e-02 7.17013925e-02 5.25825098e-02</_>
    <_>
      5.17540388e-02 2.61307806e-02 5.58033995e-02 4.19914983e-02
      2.03940999e-02 4.66816984e-02 4.41805199e-02 1.15306498e-02
      4.52909097e-02 4.22582515e-02 6.60646707e-03 4.20957617e-02
      3.51846814e-02 1.73154306e-02 3.91414687e-02</_>
    <_>
      3.40770301e-03 8.26726928e-02 8.26389864e-02 8.76700729e-02
      9.17017609e-02 2.74470001e-02 9.57449824e-02 9.50191468e-02
      1.26513597e-02 8.56127366e-02 8.77965093e-02 3.06598395e-02
      6.20186105e-02 7.82902017e-02 5.09885699e-02</_>
    <_>
      4.92595918e-02 2.14605704e-02 4.63271588e-02 5.80862202e-02
      5.66613711e-02 3.17396410e-02 4.50937487e-02 1.17714498e-02
      4.61897887e-02 4.17083092e-02 9.06938873e-03 4.08488289e-02
      3.36462110e-02 1.58663895e-02 3.65817584e-02</_>
    <_>
      3.94024402e-02 2.54891906e-02 3.87899391e-02 3.80808301e-02
      1.82484407e-02 4.18291800e-02 4.06063199e-02 1.38780400e-02
      4.09096293e-02 3.71782109e-02 1.05123399e-02 3.61186191e-02
      3.15913595e-02 1.86484903e-02 3.53087410e-02</_>
    <_>
      5.65762892e-02 2.08393000e-02 5.60588911e-02 5.60011193e-02
      2.07674894e-02 5.81789501e-02 6.30379468e-02 1.75559409e-02
      6.27919286e-02 6.01090007e-02 1.08213602e-02 5.92714809e-02
      4.63994518e-02 1.58239305e-02 4.84999306e-02</_>
    <_>
      5.44107892e-02 2.10856795e-02 5.27003482e-02 5.55934384e-02
      2.30911691e-02 5.73872589e-02 6.50351569e-02 2.36083604e-02
      6.30660206e-02 6.12993389e-02 1.67442597e-02 5.90900294e-02
      4.53224592e-02 1.58429202e-02 4.70562205e-02</_>
    <_>
      5.12548499e-02 1.09407501e-02 5.00869006e-02 8.45020711e-02
      8.10253173e-02 3.24153192e-02 4.67902794e-02 1.13936597e-02
      4.80148084e-02 4.27778400e-02 7.90273771e-03 4.22667600e-02
      3.53426188e-02 1.51642896e-02 3.81674990e-02</_>
    <_>
      5.51733300e-02 2.31411997e-02 5.44508398e-02 5.90655096e-02
      2.60113701e-02 6.01272099e-02 6.54231533e-02 2.22533196e-02
      6.36103898e-02 6.14248812e-02 1.47107197e-02 5.98889701e-02
      4.68237400e-02 1.70961898e-02 4.87393104e-02</_>
    <_>
      5.16829304e-02 1.45490495e-02 5.17414398e-02 4.47986014e-02
      2.16559898e-02 4.95086201e-02 5.08003607e-02 1.21034402e-02
      5.20289689e-02 5.27279302e-02 3.30551504e-03 5.27540296e-02
      4.43126708e-02 1.76280700e-02 4.67268415e-02</_>
    <_>
      3.97396497e-02 2.71806903e-02 4.08117585e-02 4.02543098e-02
      1.94309000e-02 4.43238206e-02 4.35270295e-02 9.06682014e-03
      4.44609709e-02 4.44246009e-02 6.60421280e-03 4.44868691e-02
      4.62849289e-02 4.71041799e-02 4.52605113e-02</_>
    <_>
      4.70572896e-02 1.29533401e-02 4.55399193e-02 3.92804109e-02
      2.25084908e-02 4.42483015e-02 4.01836708e-02 1.63194202e-02
      3.95603403e-02 3.76951583e-02 1.52099002e-02 3.46350409e-02
      3.16098295e-02 1.57749392e-02 3.39634791e-02</_>
    <_>
      5.08446097e-02 1.72841102e-02 5.11063300e-02 4.51450385e-02
      2.02586502e-02 4.94790785e-02 4.79690917e-02 1.18964203e-02
      4.89583500e-02 4.50007804e-02 8.71269405e-03 4.42370586e-02
      3.67807113e-02 1.43597703e-02 3.90184708e-02</_>
    <_>
      5.02341799e-02 2.39675101e-02 5.07773198e-02 4.26673293e-02
      2.13382598e-02 4.76606414e-02 4.73663695e-02 1.10535799e-02
      4.86383215e-02 5.06129116e-02 8.34742468e-03 5.02491109e-02
      4.39015515e-02 2.28051804e-02 4.64439504e-02</_>
    <_>
      4.90415096e-02 5.15526496e-02 6.16591014e-02 9.52044725e-02
      9.03385729e-02 4.20576818e-02 1.04424201e-01 9.74261165e-02
      3.77596617e-02 9.44558010e-02 8.94402787e-02 3.92512009e-02
      6.77478164e-02 6.49811924e-02 5.29713295e-02</_>
    <_>
      4.18804511e-02 4.91524413e-02 6.00887798e-02 3.93775292e-02
      2.05849800e-02 4.44028191e-02 4.23633307e-02 1.08362697e-02
      4.35488410e-02 3.86505686e-02 7.37659819e-03 3.82432304e-02
      3.17948498e-02 1.77299306e-02 3.60283293e-02</_>
    <_>
      3.66134197e-03 8.25703666e-02 8.25423226e-02 8.77037719e-02
      9.21395272e-02 2.83912998e-02 9.61761028e-02 9.57678184e-02
      9.57600772e-03 8.59996378e-02 8.89980793e-02 2.95357592e-02
      6.18468188e-02 7.90735632e-02 5.15663102e-02</_>
    <_>
      2.77210902e-02 7.00258464e-02 6.48477301e-02 9.52720568e-02
      9.79726166e-02 3.33842896e-02 6.98260888e-02 4.26613912e-02
      5.78891896e-02 6.57675415e-02 3.94004397e-02 5.38966917e-02
      5.32491691e-02 4.07487117e-02 4.96506207e-02</_>
    <_>
      5.11204489e-02 7.26543181e-03 5.13621010e-02 4.86132391e-02
      1.77877005e-02 5.17556891e-02 5.29276282e-02 1.06952600e-02
      5.37011512e-02 4.94797602e-02 7.61696883e-03 4.91058789e-02
      4.09998111e-02 1.54059399e-02 4.36552018e-02</_>
    <_>
      2.41998397e-02 7.37493187e-02 7.09864795e-02 9.23495367e-02
      9.33522731e-02 3.32057513e-02 6.73808232e-02 4.32497188e-02
      5.36593199e-02 7.19176307e-02 5.48858307e-02 5.02159707e-02
      6.18567504e-02 6.52490407e-02 5.09327203e-02</_>
    <_>
      4.49420400e-02 1.64105799e-02 4.46866006e-02 8.53490010e-02
      8.49223286e-02 2.37182304e-02 8.88930410e-02 7.77013227e-02
      4.41062115e-02 6.08973689e-02 3.02856695e-02 5.37330583e-02
      5.06497584e-02 3.41562293e-02 4.94294688e-02</_>
    <_>
      5.03960215e-02 1.14848400e-02 5.06365187e-02 5.68471402e-02
      3.26503888e-02 5.55701889e-02 4.58191894e-02 9.84309334e-03
      4.67840806e-02 4.24659699e-02 5.62509010e-03 4.25147712e-02
      3.50283496e-02 1.70751791e-02 3.89275104e-02</_>
    <_>
      5.60983904e-02 2.96363607e-02 5.44600189e-02 5.36069088e-02
      2.28621308e-02 5.33135608e-02 5.59309497e-02 1.52166700e-02
      5.47058918e-02 5.20193204e-02 1.22507103e-02 5.17281890e-02
      4.29017283e-02 2.36068796e-02 4.66939509e-02</_>
    <_>
      5.69718592e-02 1.52713796e-02 5.51462919e-02 6.76139370e-02
      3.99379507e-02 6.42585233e-02 7.62784928e-02 4.19350788e-02
      6.55011013e-02 7.00948015e-02 3.43353003e-02 6.20009117e-02
      5.29446900e-02 2.67197695e-02 5.33624887e-02</_>
    <_>
      4.33701091e-02 5.69028892e-02 6.02935292e-02 9.43496525e-02
      9.10523385e-02 3.85636091e-02 1.03952304e-01 9.76898968e-02
      3.57953012e-02 9.36371088e-02 8.90512988e-02 3.80443707e-02
      6.21396303e-02 5.50078191e-02 5.14363497e-02</_>
    <_>
      4.97263707e-02 9.72043164e-03 4.89485487e-02 4.47385907e-02
      2.07574405e-02 4.79695313e-02 6.36197925e-02 3.43788601e-02
      5.53918406e-02 6.54365271e-02 4.57817614e-02 4.92484383e-02
      4.94699590e-02 4.17241193e-02 4.81731407e-02</_>
    <_>
      4.18673195e-02 2.22940892e-02 3.95237096e-02 4.07189988e-02
      2.08659600e-02 4.53079306e-02 4.32970598e-02 1.12929400e-02
      4.47349809e-02 3.93226109e-02 3.90953617e-03 3.92906293e-02
      3.26594003e-02 1.53519697e-02 3.60870399e-02</_>
    <_>
      4.31175604e-02 2.03203894e-02 4.03263718e-02 6.41060770e-02
      2.63369996e-02 6.53291568e-02 4.05269712e-02 1.26949903e-02
      4.11865301e-02 3.78651991e-02 9.55921412e-03 3.71466316e-02
      3.14821303e-02 1.77001208e-02 3.51342782e-02</_>
    <_>
      4.83220182e-02 3.74951288e-02 5.63594103e-02 4.45409603e-02
      2.10421607e-02 4.89337184e-02 4.65186797e-02 1.09842904e-02
      4.77867909e-02 4.32159007e-02 4.87771397e-03 4.31999899e-02
      3.53859402e-02 1.64699592e-02 3.90299112e-02</_>
    <_>
      5.08540608e-02 1.36714904e-02 5.19235693e-02 4.50240709e-02
      2.03765295e-02 4.89097089e-02 4.93867397e-02 1.28303999e-02
      5.00935912e-02 4.64457385e-02 8.51343013e-03 4.58530411e-02
      3.89813408e-02 1.54211102e-02 4.17489186e-02</_>
    <_>
      5.33330105e-02 1.43862600e-02 5.19683212e-02 6.78360835e-02
      4.55821492e-02 5.99436313e-02 7.53126964e-02 4.59651910e-02
      6.15215488e-02 6.51900023e-02 3.23154591e-02 5.76031283e-02
      4.95986193e-02 2.92469393e-02 5.02476208e-02</_>
    <_>
      4.71994989e-02 2.45880503e-02 4.67730314e-02 4.77824509e-02
      2.51055192e-02 4.98089306e-02 5.39184809e-02 2.19291691e-02
      5.15255108e-02 5.73679283e-02 2.99418904e-02 4.98856008e-02
      4.96859998e-02 4.41542007e-02 4.54632416e-02</_>
    <_>
      5.03588989e-02 1.09382803e-02 5.02479300e-02 6.60069510e-02
      4.29086909e-02 5.87365590e-02 4.51839715e-02 1.00435801e-02
      4.61529084e-02 4.15283404e-02 6.68897713e-03 4.14058417e-02
      3.49586606e-02 1.69719905e-02 3.87820303e-02</_>
    <_>
      3.03005707e-02 4.29589301e-02 3.89049388e-02 3.92445996e-02
      2.19356697e-02 4.49092984e-02 4.16700803e-02 1.06630903e-02
      4.28648405e-02 3.81117985e-02 6.55769696e-03 3.79070900e-02
      3.50464582e-02 1.79600902e-02 3.93783115e-02</_>
    <_>
      5.13167419e-02 9.60693602e-03 5.13705313e-02 7.95984566e-02
      6.95955232e-02 4.65498008e-02 4.79400381e-02 1.06102899e-02
      4.90754209e-02 4.46203500e-02 5.38864313e-03 4.46553007e-02
      3.63474712e-02 1.62569303e-02 3.97561900e-02</_>
    <_>
      4.84603904e-02 1.21724298e-02 4.78700288e-02 4.11639288e-02
      2.22615302e-02 4.60488796e-02 4.55556698e-02 1.40539501e-02
      4.61009517e-02 4.43137810e-02 8.78356304e-03 4.35589403e-02
      3.81753705e-02 1.60481706e-02 4.13353518e-02</_>
    <_>
      2.80119609e-02 3.58433984e-02 3.53336893e-02 4.67723310e-02
      2.15980094e-02 5.14438897e-02 5.10016493e-02 1.17172999e-02
      5.21911606e-02 5.63884489e-02 1.50074400e-02 5.47058098e-02
      5.61618395e-02 4.48252708e-02 5.12731411e-02</_>
    <_>
      5.37504219e-02 1.42283104e-02 5.33968806e-02 4.92308512e-02
      2.19624396e-02 5.17054684e-02 6.22355193e-02 2.83822697e-02
      5.73344789e-02 6.06337599e-02 3.28000300e-02 5.22620305e-02
      4.93692309e-02 3.76059487e-02 4.84607592e-02</_>
    <_>
      2.72315294e-02 6.74461275e-02 6.17818981e-02 9.37234312e-02
      9.39897373e-02 3.33797410e-02 7.20468909e-02 4.29321900e-02
      5.97728789e-02 6.90735430e-02 4.36015092e-02 5.49004115e-02
      6.03970811e-02 5.33319712e-02 5.13893291e-02</_>
    <_>
      4.87864204e-02 2.45653503e-02 5.01918904e-02 4.97661717e-02
      2.66206600e-02 4.93326187e-02 5.31345494e-02 2.00348105e-02
      5.05097397e-02 5.09153605e-02 2.04990804e-02 4.82292697e-02
      4.26213183e-02 3.31782512e-02 4.48463894e-02</_>
    <_>
      4.30462100e-02 4.32849899e-02 4.82192114e-02 8.65905136e-02
      8.73135775e-02 2.85363793e-02 9.34733525e-02 8.95078406e-02
      2.71779709e-02 8.32262412e-02 7.87814632e-02 3.37395817e-02
      6.11617602e-02 6.35086969e-02 3.96695808e-02</_>
    <_>
      4.16262895e-02 4.38116714e-02 4.76644784e-02 7.19556436e-02
      6.56690076e-02 4.99355383e-02 6.05178811e-02 3.34802903e-02
      5.21636307e-02 6.92057833e-02 4.77168709e-02 5.02578318e-02
      4.10013683e-02 2.65902299e-02 4.28737812e-02</_>
    <_>
      5.04540093e-02 2.15526707e-02 5.30262105e-02 4.92547415e-02
      2.09800992e-02 5.34646288e-02 5.80959097e-02 1.41473403e-02
      5.88895604e-02 6.00275993e-02 1.78517606e-02 5.76543212e-02
      4.95666713e-02 2.59468593e-02 5.09828515e-02</_>
    <_>
      4.52708006e-02 3.52075808e-02 4.46337387e-02 8.70554671e-02
      8.86046067e-02 3.08550205e-02 4.39397916e-02 8.77140742e-03
      4.48061004e-02 3.97613682e-02 7.95627944e-03 3.96996103e-02
      3.20648402e-02 1.94814708e-02 3.71317491e-02</_>
    <_>
      4.93878014e-02 1.17683802e-02 4.81709391e-02 8.22202563e-02
      7.38514736e-02 4.36137505e-02 4.40628715e-02 1.11250896e-02
      4.47036587e-02 4.02710810e-02 1.07573103e-02 3.92889492e-02
      3.47275510e-02 1.71080399e-02 3.80686000e-02</_>
    <_>
      4.30877209e-02 3.80135998e-02 4.85583283e-02 4.02027294e-02
      1.91535391e-02 4.42792103e-02 4.32687998e-02 9.71039943e-03
      4.43426594e-02 3.97624411e-02 4.75101219e-03 3.99223492e-02
      3.33488099e-02 1.72513705e-02 3.75441797e-02</_>
    <_>
      5.09287491e-02 1.85737498e-02 5.19033112e-02 4.68836389e-02
      2.10431106e-02 5.13818190e-02 5.20766601e-02 1.17611298e-02
      5.33794686e-02 5.62444590e-02 9.87422746e-03 5.55783212e-02
      4.72715497e-02 2.24768501e-02 4.91216891e-02</_>
    <_>
      5.50323613e-02 1.83835309e-02 5.50757498e-02 5.38165309e-02
      2.37971209e-02 5.52413017e-02 5.88144511e-02 1.76818408e-02
      5.79807088e-02 5.44049218e-02 1.05163204e-02 5.37941493e-02
      4.14162204e-02 1.72732305e-02 4.43652086e-02</_>
    <_>
      4.80431914e-02 1.29119800e-02 4.67755683e-02 3.95908207e-02
      2.27219407e-02 4.43274193e-02 4.34757210e-02 1.52684702e-02
      4.35118489e-02 4.23771814e-02 9.89328139e-03 4.13291790e-02
      3.72019187e-02 1.55619597e-02 4.03068513e-02</_>
    <_>
      4.77131009e-02 2.73019597e-02 5.21482006e-02 4.03098501e-02
      2.16942709e-02 4.57383096e-02 4.17577103e-02 1.19272200e-02
      4.26821597e-02 3.84935103e-02 9.28457361e-03 3.76006402e-02
      3.26240808e-02 1.67722106e-02 3.64247598e-02</_>
    <_>
      4.57810499e-02 2.50832904e-02 4.17038798e-02 8.69675502e-02
      8.78464505e-02 2.35706698e-02 8.41745809e-02 6.18849397e-02
      5.80135211e-02 4.23946492e-02 4.59177885e-03 4.26368117e-02
      3.56421992e-02 1.72788203e-02 3.95973213e-02</_>
    <_>
      5.33518493e-02 3.06429993e-02 5.80816008e-02 4.57980111e-02
      2.03196909e-02 4.96256500e-02 4.69175614e-02 1.02639403e-02
      4.80187610e-02 4.41380590e-02 4.96735703e-03 4.42611612e-02
      3.78091112e-02 1.76905692e-02 4.16089594e-02</_>
    <_>
      5.01539186e-02 1.81034300e-02 4.78762984e-02 4.32116799e-02
      2.09976006e-02 4.80213687e-02 4.52733301e-02 1.25883203e-02
      4.61915806e-02 4.63721715e-02 3.83197493e-03 4.63568904e-02
      3.79646905e-02 1.53886899e-02 4.09589410e-02</_>
    <_>
      5.44448607e-02 1.48430998e-02 5.23829795e-02 6.65645674e-02
      4.12693694e-02 6.19266815e-02 7.58846328e-02 4.51691113e-02
      6.28470629e-02 6.90019205e-02 3.66658494e-02 5.94593100e-02
      5.22246696e-02 3.02705206e-02 5.21014705e-02</_>
    <_>
      5.73080108e-02 1.81293804e-02 5.62034808e-02 5.43542393e-02
      2.99088992e-02 5.29404283e-02 6.13413602e-02 2.83128005e-02
      5.61946295e-02 6.12307489e-02 3.25776488e-02 5.27978912e-02
      5.13947196e-02 3.89830284e-02 4.80309017e-02</_>
    <_>
      5.30660897e-02 8.45890585e-03 5.23926094e-02 4.86838706e-02
      2.21649595e-02 5.10424115e-02 6.59973919e-02 3.59002091e-02
      5.71905002e-02 6.01739511e-02 3.43524702e-02 5.09958193e-02
      4.93289791e-02 3.81446406e-02 4.90086712e-02</_>
    <_>
      5.03288992e-02 2.16807704e-02 5.39714508e-02 4.81109582e-02
      2.10524406e-02 5.24444506e-02 5.49633913e-02 1.36670796e-02
      5.57381287e-02 6.04366511e-02 2.51471605e-02 5.57261407e-02
      5.11259101e-02 3.44626009e-02 5.16996086e-02</_>
    <_>
      5.18123507e-02 1.99269503e-02 5.33690900e-02 4.58869189e-02
      2.03211699e-02 5.01758195e-02 4.96530198e-02 1.14052696e-02
      5.08328117e-02 4.64320108e-02 4.47554607e-03 4.63371202e-02
      3.89597490e-02 1.52778504e-02 4.18379493e-02</_>
    <_>
      5.48385382e-02 1.11244004e-02 5.41727990e-02 5.33539318e-02
      2.07693409e-02 5.70429489e-02 5.81182390e-02 1.26964804e-02
      5.93668595e-02 5.68003096e-02 5.30791190e-03 5.66411503e-02
      4.21429984e-02 1.60521697e-02 4.47578616e-02</_>
    <_>
      4.33779396e-02 4.94449288e-02 6.08570389e-02 4.79136482e-02
      2.49430705e-02 5.14537618e-02 4.99825403e-02 1.62800793e-02
      5.01512811e-02 4.53729890e-02 7.58398278e-03 4.50289994e-02
      3.75819504e-02 1.85952000e-02 4.09153290e-02</_>
    <_>
      4.70883511e-02 1.52132800e-02 4.71161194e-02 8.51205066e-02
      8.45960900e-02 2.51438897e-02 5.99695519e-02 2.76121106e-02
      5.53633310e-02 4.96633798e-02 1.12968003e-02 4.88604307e-02
      4.32907604e-02 2.18774900e-02 4.58146706e-02</_>
    <_>
      5.48748188e-02 1.26189301e-02 5.38986884e-02 5.30694909e-02
      2.08059698e-02 5.67842200e-02 5.72822914e-02 1.26193697e-02
      5.85093796e-02 5.45684583e-02 2.17263494e-03 5.45923412e-02
      4.22699600e-02 1.42831104e-02 4.46101315e-02</_>
    <_>
      4.79804091e-02 4.02043089e-02 5.39582595e-02 5.27704097e-02
      3.45490389e-02 5.22691384e-02 5.71100414e-02 2.79883705e-02
      5.33856191e-02 5.79024889e-02 2.98955496e-02 4.98694405e-02
      4.78015393e-02 3.40508893e-02 4.41402309e-02</_>
    <_>
      3.92271802e-02 4.05238718e-02 4.66093309e-02 3.89839895e-02
      2.14776509e-02 4.40789498e-02 3.81068811e-02 1.09597901e-02
      3.90193202e-02 3.43563892e-02 9.72146541e-03 3.32189910e-02
      2.89337803e-02 1.77698396e-02 3.28738093e-02</_>
    <_>
      5.31163588e-02 1.75286606e-02 5.44801392e-02 4.93438095e-02
      2.25151703e-02 5.17315492e-02 6.16395585e-02 2.85247192e-02
      5.66480793e-02 6.02504387e-02 3.34087983e-02 5.12584001e-02
      4.83927615e-02 3.81442495e-02 4.71067205e-02</_>
    <_>
      5.02032712e-02 2.53535993e-02 5.25398999e-02 4.30325903e-02
      2.17163898e-02 4.80883308e-02 4.64755408e-02 1.22232800e-02
      4.75278199e-02 4.37542386e-02 6.06798101e-03 4.34830412e-02
      3.76044996e-02 1.58367399e-02 4.08021808e-02</_>
    <_>
      5.62489405e-02 1.48763396e-02 5.49573787e-02 5.76470494e-02
      2.63294708e-02 5.83676696e-02 6.44428730e-02 2.41265409e-02
      6.17073812e-02 5.99751584e-02 1.86592303e-02 5.74909896e-02
      4.67780009e-02 2.21967902e-02 4.86471206e-02</_>
    <_>
      4.80374806e-02 1.40402401e-02 4.72749695e-02 8.49951580e-02
      8.17332789e-02 3.16442996e-02 4.62318584e-02 1.12106297e-02
      4.74690199e-02 4.43176292e-02 5.98945981e-03 4.41753790e-02
      3.64689492e-02 1.66502893e-02 4.00200412e-02</_>
    <_>
      4.96685412e-03 8.12320337e-02 8.10823888e-02 8.79233778e-02
      9.16509926e-02 2.87906192e-02 9.67424735e-02 9.67706665e-02
      4.66157496e-03 8.67705718e-02 9.06981304e-02 2.66539101e-02
      6.21251017e-02 7.91317075e-02 4.98021990e-02</_>
    <_>
      4.62606400e-02 2.85521299e-02 4.77692299e-02 4.57931906e-02
      2.19783895e-02 4.79597412e-02 4.88132685e-02 1.31989596e-02
      4.85694595e-02 4.96168397e-02 1.70428194e-02 4.77031395e-02
      4.90283109e-02 4.25097086e-02 4.54760715e-02</_>
    <_>
      5.63204810e-02 4.05183285e-02 6.56552613e-02 7.04704374e-02
      5.65133095e-02 5.60938604e-02 7.62091875e-02 5.35369590e-02
      5.74666895e-02 6.58245310e-02 3.77548411e-02 5.44449501e-02
      4.92990911e-02 3.14369686e-02 4.78879996e-02</_>
    <_>
      5.04354313e-02 2.14010905e-02 5.33223003e-02 4.96644489e-02
      2.11673398e-02 5.38271107e-02 5.77400699e-02 1.46902697e-02
      5.83481714e-02 6.36039823e-02 2.67186295e-02 5.83446212e-02
      5.21908812e-02 3.29181589e-02 5.27599007e-02</_>
    <_>
      4.41430286e-02 4.27456908e-02 5.33388183e-02 5.11084311e-02
      3.43694985e-02 4.97990809e-02 5.36661185e-02 2.53258403e-02
      5.03390618e-02 5.24423718e-02 2.66513191e-02 4.58449014e-02
      4.37090807e-02 3.15846689e-02 4.27122712e-02</_>
    <_>
      5.18513098e-02 1.93104595e-02 5.19016609e-02 4.24322300e-02
      2.26255693e-02 4.68251593e-02 4.62610200e-02 1.53015703e-02
      4.64736000e-02 4.37872000e-02 1.16037000e-02 4.23563197e-02
      3.82202603e-02 1.55655099e-02 4.10736315e-02</_>
    <_>
      4.31186818e-02 2.49997806e-02 4.08947207e-02 7.01752976e-02
      4.01709713e-02 6.46776333e-02 4.05622907e-02 1.19602997e-02
      4.13169414e-02 3.75732109e-02 9.61333793e-03 3.67814787e-02
      3.12208403e-02 1.74027607e-02 3.48926485e-02</_>
    <_>
      5.12073413e-02 3.92374396e-02 5.92466109e-02 5.41646592e-02
      2.63325907e-02 5.58491498e-02 6.34388328e-02 2.72306595e-02
      5.96612282e-02 5.29148318e-02 1.65980998e-02 5.08530699e-02
      4.24325615e-02 2.31398307e-02 4.50625792e-02</_>
    <_>
      3.39463390e-02 3.52199003e-02 4.17709611e-02 3.79534699e-02
      2.03434806e-02 4.26626392e-02 4.13207784e-02 1.42901903e-02
      4.15361598e-02 3.91765982e-02 1.31324399e-02 3.70428413e-02
      3.17467786e-02 1.62705500e-02 3.38704996e-02</_>
    <_>
      5.38960993e-02 1.70428492e-02 5.40911518e-02 4.54694182e-02
      2.03125104e-02 4.94870506e-02 4.89077494e-02 1.28985001e-02
      4.97111194e-02 4.83351499e-02 5.74190589e-03 4.82070595e-02
      4.26552109e-02 1.68636609e-02 4.53220494e-02</_>
    <_>
      4.59062308e-02 4.28416096e-02 5.92317283e-02 4.90703583e-02
      2.61512101e-02 5.19669317e-02 4.87304218e-02 1.47249000e-02
      4.92451899e-02 4.41333503e-02 5.04287705e-03 4.41714004e-02
      3.55833508e-02 1.80089604e-02 3.96905094e-02</_>
    <_>
      4.96216603e-02 4.04014811e-02 5.81714995e-02 6.03000298e-02
      3.95033211e-02 5.59879802e-02 6.72500134e-02 3.94748487e-02
      5.74004091e-02 6.58618212e-02 4.13472205e-02 5.22623509e-02
      5.48267812e-02 4.80393507e-02 4.68268618e-02</_>
    <_>
      5.58208190e-02 2.26310305e-02 5.68240806e-02 5.30947410e-02
      2.33335197e-02 5.56338690e-02 5.99208996e-02 1.79087892e-02
      5.98019212e-02 5.93027994e-02 1.57540794e-02 5.73380403e-02
      4.80011106e-02 2.22117193e-02 4.87954095e-02</_>
    <_>
      5.65861315e-02 2.07926892e-02 5.60104586e-02 5.60581610e-02
      2.06916500e-02 5.81924804e-02 6.31121397e-02 1.75396800e-02
      6.28285334e-02 6.01835400e-02 1.09645100e-02 5.93330301e-02
      4.64712717e-02 1.59584694e-02 4.86004911e-02</_>
    <_>
      2.27890294e-02 7.81313181e-02 7.60334432e-02 9.76630375e-02
      1.03058599e-01 3.29788588e-02 1.10557400e-01 1.10431798e-01
      5.27452584e-03 5.84249608e-02 1.29991500e-02 5.71257994e-02
      6.48677722e-02 5.52187189e-02 5.24964593e-02</_>
    <_>
      4.38406914e-02 5.59110604e-02 5.98331206e-02 9.40139070e-02
      9.03799683e-02 3.87833789e-02 1.03724197e-01 9.72878113e-02
      3.61638516e-02 9.34400931e-02 8.88345093e-02 3.85389887e-02
      6.20641485e-02 5.51358908e-02 5.17420582e-02</_>
    <_>
      4.24835086e-02 2.93114595e-02 4.16240096e-02 6.63345233e-02
      3.28055993e-02 6.59032986e-02 3.95457186e-02 9.43438057e-03
      4.00518700e-02 3.62354591e-02 1.03514297e-02 3.56959105e-02
      3.05681098e-02 1.99733004e-02 3.57520394e-02</_>
    <_>
      2.86270492e-02 3.65806818e-02 3.60954516e-02 4.65243310e-02
      2.15813592e-02 5.12115695e-02 5.07257804e-02 1.16571104e-02
      5.19215800e-02 5.50378785e-02 1.31236203e-02 5.37861213e-02
      5.39383516e-02 4.04418111e-02 5.03078215e-02</_>
    <_>
      2.75205802e-02 7.18767196e-02 6.78957477e-02 9.59706381e-02
      9.89747569e-02 3.31765488e-02 7.39443526e-02 4.93081212e-02
      5.79021610e-02 6.39461279e-02 3.89946289e-02 5.19483201e-02
      6.83142617e-02 6.81039169e-02 5.07715605e-02</_>
    <_>
      4.45291288e-02 4.01582606e-02 5.13486601e-02 4.89627495e-02
      3.26408595e-02 4.85130511e-02 5.07478416e-02 2.20649298e-02
      4.86696996e-02 5.01381792e-02 2.45692898e-02 4.44376096e-02
      4.04568091e-02 2.77248006e-02 4.12062109e-02</_>
    <_>
      5.65918013e-02 2.05631107e-02 5.61182089e-02 5.58862984e-02
      2.06046496e-02 5.80724105e-02 6.28068969e-02 1.72357298e-02
      6.26249313e-02 5.99433891e-02 1.04481503e-02 5.91738410e-02
      4.62604687e-02 1.58057008e-02 4.83855084e-02</_>
    <_>
      5.23379892e-02 1.81388501e-02 5.40485494e-02 4.54167500e-02
      2.02696305e-02 4.97313403e-02 4.83513102e-02 1.15668504e-02
      4.95935194e-02 4.67202514e-02 3.41584091e-03 4.68075313e-02
      3.96860093e-02 1.70615595e-02 4.28528599e-02</_>
    <_>
      2.60289107e-02 7.51051828e-02 7.08960071e-02 9.64640528e-02
      1.00282401e-01 3.10350899e-02 1.02681197e-01 9.86671597e-02
      2.92659197e-02 6.79175332e-02 4.76102605e-02 5.04065417e-02
      5.81960492e-02 5.07820696e-02 4.89744209e-02</_>
    <_>
      4.23159301e-02 2.34899092e-02 4.02903408e-02 6.42507225e-02
      2.67569106e-02 6.53278977e-02 3.99427712e-02 1.28464196e-02
      4.05262299e-02 3.73538211e-02 1.01001197e-02 3.64509411e-02
      3.09297293e-02 1.79990903e-02 3.46329212e-02</_>
    <_>
      5.02507016e-02 2.77759396e-02 5.58179207e-02 4.63545583e-02
      2.09585894e-02 5.01246117e-02 4.82555702e-02 1.11221997e-02
      4.94059399e-02 4.77683507e-02 6.94177300e-03 4.76537012e-02
      3.88574488e-02 1.98068693e-02 4.24340889e-02</_>
    <_>
      4.34740707e-02 3.48809585e-02 4.83408608e-02 4.15159613e-02
      2.12267395e-02 4.66182008e-02 4.33756001e-02 1.10620596e-02
      4.43581790e-02 4.12161909e-02 6.22390397e-03 4.10009809e-02
      3.60165201e-02 1.81488506e-02 4.01006900e-02</_>
    <_>
      5.29317483e-02 3.10362205e-02 5.51993512e-02 6.54411167e-02
      3.70548293e-02 6.20191395e-02 7.50454515e-02 4.14174683e-02
      6.44504726e-02 6.81954771e-02 3.50243896e-02 5.94184101e-02
      5.51924892e-02 3.89999188e-02 5.32367416e-02</_>
    <_>
      5.14424704e-02 3.01031396e-02 5.50625101e-02 4.38943096e-02
      2.16223206e-02 4.89289314e-02 4.84766699e-02 1.13772899e-02
      4.97474484e-02 4.66396585e-02 4.31465218e-03 4.68240194e-02
      4.10170406e-02 1.92870591e-02 4.42516804e-02</_>
    <_>
      5.03071100e-02 1.17920600e-02 5.06673604e-02 6.14792891e-02
      3.77615094e-02 5.73065691e-02 4.63977307e-02 9.77497920e-03
      4.73233201e-02 4.31373082e-02 5.84841799e-03 4.31913398e-02
      3.49111706e-02 1.71789806e-02 3.88127416e-02</_>
    <_>
      5.56456186e-02 2.05986891e-02 5.56882396e-02 5.59273399e-02
      2.07915306e-02 5.83986305e-02 6.35658279e-02 1.66875292e-02
      6.37364089e-02 5.94604388e-02 7.33563304e-03 5.90936393e-02
      4.60239016e-02 1.46496398e-02 4.82267700e-02</_>
    <_>
      5.11972792e-02 2.17368007e-02 5.49111590e-02 4.83319014e-02
      2.07473598e-02 5.24890795e-02 5.46350516e-02 1.32008400e-02
      5.55041693e-02 5.90615310e-02 2.18231194e-02 5.54851592e-02
      4.96861711e-02 3.10976300e-02 5.06479107e-02</_>
    <_>
      5.46814799e-02 1.59139391e-02 5.49793094e-02 5.30182384e-02
      2.04145592e-02 5.64534292e-02 5.78388497e-02 1.28161097e-02
      5.89734204e-02 5.39735518e-02 2.44044699e-03 5.40117212e-02
      4.30061482e-02 1.47971297e-02 4.53937910e-02</_>
    <_>
      5.13645001e-02 1.10487202e-02 5.03551885e-02 4.65369485e-02
      2.19819993e-02 4.93702218e-02 6.26174808e-02 3.31559218e-02
      5.51187284e-02 5.80127388e-02 3.27558890e-02 4.92887311e-02
      4.74919491e-02 3.72661911e-02 4.70504202e-02</_>
    <_>
      5.73283099e-02 3.12601216e-02 6.17872290e-02 5.76747097e-02
      3.39149013e-02 5.90595007e-02 6.58166707e-02 3.20182107e-02
      6.20371997e-02 6.16347082e-02 2.25146301e-02 5.73755391e-02
      4.74315584e-02 2.04201806e-02 4.67904992e-02</_>
    <_>
      3.97015810e-02 3.79717089e-02 4.53527495e-02 3.89331989e-02
      1.92833003e-02 4.32753302e-02 3.90900001e-02 9.88085475e-03
      3.95467505e-02 3.58008705e-02 1.05478503e-02 3.48543301e-02
      3.00858207e-02 1.93263497e-02 3.45987603e-02</_>
    <_>
      5.07313386e-02 2.48185694e-02 5.26042990e-02 4.27476391e-02
      1.96945406e-02 4.68546301e-02 4.92486395e-02 1.26934601e-02
      5.01146801e-02 4.18619812e-02 9.22301598e-03 4.09644581e-02
      3.48739699e-02 1.74283907e-02 3.89256403e-02</_>
    <_>
      4.94531207e-02 2.63672695e-02 5.29389605e-02 4.63547483e-02
      1.98511593e-02 5.04096001e-02 4.95410897e-02 1.04163298e-02
      5.03743291e-02 4.62994799e-02 7.95814674e-03 4.58327383e-02
      3.82116511e-02 1.51014300e-02 4.08730991e-02</_>
    <_>
      4.29388992e-02 1.98155306e-02 4.02077399e-02 6.25613630e-02
      2.37368792e-02 6.46514371e-02 4.01856713e-02 1.26878601e-02
      4.08288911e-02 3.71434800e-02 1.00326799e-02 3.63685600e-02
      3.11586205e-02 1.79022606e-02 3.50395702e-02</_>
    <_>
      4.90921699e-02 1.26970001e-02 4.74541895e-02 8.31147134e-02
      7.63813183e-02 3.94009911e-02 4.39863205e-02 1.18608000e-02
      4.47963290e-02 4.01944108e-02 1.09157404e-02 3.90609205e-02
      3.47273201e-02 1.70298703e-02 3.79781500e-02</_>
    <_>
      5.52648716e-02 1.79625899e-02 5.31143807e-02 5.33140711e-02
      2.13381592e-02 5.73394708e-02 6.06031008e-02 1.43529903e-02
      6.16600998e-02 5.92086390e-02 5.44354692e-03 5.90026304e-02
      4.60464694e-02 1.46867996e-02 4.81925383e-02</_>
    <_>
      5.18455207e-02 2.41069999e-02 5.21362983e-02 4.67569791e-02
      2.17970498e-02 5.02710305e-02 4.81844693e-02 1.08943097e-02
      4.92622703e-02 4.48619016e-02 4.18404303e-03 4.50235195e-02
      3.88171189e-02 1.73368193e-02 4.23450209e-02</_>
    <_>
      5.08776791e-02 3.47739011e-02 5.73828109e-02 4.35508788e-02
      2.03549303e-02 4.78414297e-02 4.47926410e-02 1.07641704e-02
      4.59401011e-02 4.18163687e-02 6.79817284e-03 4.16231416e-02
      3.49456109e-02 1.77192800e-02 3.91069986e-02</_>
    <_>
      5.63722812e-02 2.27216892e-02 5.71691394e-02 5.39618917e-02
      2.32883394e-02 5.63102812e-02 6.11145794e-02 1.83997098e-02
      6.08012788e-02 5.99033497e-02 1.54893901e-02 5.80344796e-02
      4.81548794e-02 2.13677995e-02 4.91291210e-02</_>
    <_>
      5.07467985e-02 1.59523804e-02 5.21558709e-02 4.36403006e-02
      2.07960904e-02 4.77441996e-02 4.77605201e-02 1.29787801e-02
      4.83413711e-02 4.48777787e-02 8.85543786e-03 4.42165211e-02
      3.79302017e-02 1.56315006e-02 4.08510491e-02</_>
    <_>
      4.82598990e-02 1.96274407e-02 4.41016816e-02 5.09110689e-02
      2.07667500e-02 5.46484590e-02 5.97589910e-02 1.39171602e-02
      6.05077483e-02 5.62005192e-02 4.42610309e-03 5.61653301e-02
      4.36396115e-02 1.60020404e-02 4.63827290e-02</_>
    <_>
      5.17669618e-02 1.01149203e-02 5.08138984e-02 4.71237414e-02
      2.20446996e-02 4.98389006e-02 6.40368536e-02 3.46915089e-02
      5.57575114e-02 5.81842512e-02 3.25613208e-02 4.96560708e-02
      4.78168093e-02 3.70495692e-02 4.75777797e-02</_>
    <_>
      4.21718694e-02 4.74612713e-02 5.65497503e-02 5.66629097e-02
      2.80922409e-02 5.77697605e-02 5.53648695e-02 1.42811099e-02
      5.58222607e-02 4.81500216e-02 4.04887600e-03 4.82768789e-02
      3.68606485e-02 1.69566199e-02 4.05692905e-02</_>
    <_>
      4.74634506e-02 3.61278690e-02 5.45220412e-02 3.98848616e-02
      2.18724404e-02 4.53371704e-02 4.28067110e-02 1.28552299e-02
      4.35400717e-02 4.03917395e-02 9.45659168e-03 3.94386686e-02
      3.42192985e-02 1.46953398e-02 3.70960906e-02</_>
    <_>
      4.36403193e-02 3.15616615e-02 4.24746796e-02 4.03367318e-02
      2.17816308e-02 4.58383188e-02 4.28182296e-02 9.75861866e-03
      4.38326485e-02 4.00475897e-02 8.94032232e-03 3.97397988e-02
      3.33520807e-02 1.97860505e-02 3.81964818e-02</_>
    <_>
      5.44893108e-02 1.73827205e-02 5.21039702e-02 6.10719211e-02
      3.08607500e-02 6.00502193e-02 6.65848330e-02 2.64826193e-02
      6.29271865e-02 6.15656413e-02 2.02208906e-02 5.86709306e-02
      4.72480617e-02 2.16828305e-02 4.90460582e-02</_>
    <_>
      4.41548489e-02 3.60616706e-02 4.72275689e-02 4.38236482e-02
      2.38129999e-02 4.86304611e-02 4.93105911e-02 1.70433298e-02
      4.96764705e-02 6.93902969e-02 5.03297597e-02 4.91539799e-02
      6.04299791e-02 5.93509413e-02 4.36602384e-02</_>
    <_>
      5.15707396e-02 1.16442600e-02 5.06880209e-02 4.65998910e-02
      2.27249898e-02 4.98264804e-02 6.10720590e-02 3.08651701e-02
      5.52309901e-02 6.56955391e-02 4.52830493e-02 4.92421798e-02
      5.04539385e-02 4.24584895e-02 4.71004397e-02</_>
    <_>
      5.36425300e-02 1.68260001e-02 5.47146387e-02 4.95009497e-02
      2.36522909e-02 5.16780503e-02 6.07418716e-02 2.74384208e-02
      5.62446415e-02 6.15099594e-02 3.48986015e-02 5.17622791e-02
      4.90772910e-02 3.85031812e-02 4.75430414e-02</_>
    <_>
      2.98407506e-02 3.76989208e-02 3.74162495e-02 4.54237796e-02
      2.12048702e-02 5.00742793e-02 4.95238416e-02 1.12420097e-02
      5.07112183e-02 5.11080995e-02 9.39505454e-03 5.06041609e-02
      4.93393987e-02 3.28396410e-02 4.81541716e-02</_>
    <_>
      5.42309806e-02 3.31816301e-02 5.86453304e-02 6.08122796e-02
      3.33675817e-02 5.95655702e-02 6.96516037e-02 3.70095596e-02
      6.14834316e-02 6.92870170e-02 4.27157804e-02 5.56809790e-02
      5.80757000e-02 5.13650104e-02 5.01725301e-02</_>
    <_>
      4.37219813e-02 3.49545218e-02 4.98394594e-02 3.91170718e-02
      1.86048094e-02 4.32889387e-02 4.10962403e-02 1.16800899e-02
      4.16797698e-02 3.79434191e-02 9.17194504e-03 3.72107401e-02
      3.26066203e-02 1.86260492e-02 3.73586901e-02</_>
    <_>
      4.79456186e-02 4.04859707e-02 5.53625003e-02 5.07462285e-02
      3.38008888e-02 5.06552905e-02 5.41780889e-02 2.49382704e-02
      5.16267195e-02 5.36342300e-02 2.62815803e-02 4.71812710e-02
      4.34061997e-02 2.92928591e-02 4.24822383e-02</_>
    <_>
      5.00947908e-02 1.25939101e-02 4.96417284e-02 8.17245021e-02
      7.45759308e-02 4.33460288e-02 4.60488610e-02 9.88511834e-03
      4.69953604e-02 4.35936898e-02 6.39499212e-03 4.35602106e-02
      3.58528607e-02 1.67116709e-02 3.94903906e-02</_>
    <_>
      3.54574397e-02 4.34965789e-02 4.45681512e-02 4.25195396e-02
      2.25243997e-02 4.73111011e-02 4.67993990e-02 1.31680602e-02
      4.76052798e-02 8.41453224e-02 8.69127363e-02 2.84882393e-02
      6.09699190e-02 6.95318580e-02 4.31196205e-02</_>
    <_>
      3.38861197e-02 4.03603688e-02 4.38765995e-02 3.83297093e-02
      2.04275604e-02 4.32629101e-02 4.11882997e-02 1.31509304e-02
      4.17518318e-02 3.87096591e-02 1.18840402e-02 3.70115787e-02
      3.15893106e-02 1.72005203e-02 3.43588814e-02</_>
    <_>
      2.53144801e-02 5.07244281e-02 4.51869890e-02 8.83645266e-02
      9.00805667e-02 2.61973701e-02 9.77420211e-02 9.57830474e-02
      1.99990999e-02 4.06620093e-02 1.05193900e-02 3.99168506e-02
      3.27000394e-02 2.02038102e-02 3.74576412e-02</_>
    <_>
      4.59821187e-02 3.60184498e-02 4.39056382e-02 8.57511684e-02
      8.53343233e-02 2.93649193e-02 9.27962065e-02 8.83882418e-02
      2.91687008e-02 8.23560581e-02 7.64786303e-02 3.40405703e-02
      6.14068992e-02 6.17691986e-02 4.08118889e-02</_>
    <_>
      5.31475097e-02 9.64862946e-03 5.24397902e-02 4.76124883e-02
      2.20733806e-02 4.99882698e-02 5.77936694e-02 2.59856693e-02
      5.34850508e-02 6.63120225e-02 4.67300899e-02 4.93580289e-02
      5.08952886e-02 4.38245498e-02 4.82303314e-02</_>
    <_>
      4.66646291e-02 4.66088094e-02 6.12305216e-02 4.35382612e-02
      2.20551807e-02 4.84750904e-02 5.34321107e-02 1.38395298e-02
      5.40695190e-02 5.21695688e-02 1.41183697e-02 5.07277697e-02
      4.67787683e-02 2.82567199e-02 4.72491495e-02</_>
    <_>
      5.47742695e-02 1.11196702e-02 5.41883409e-02 5.33430092e-02
      2.07514092e-02 5.69547005e-02 5.81576601e-02 1.27893900e-02
      5.93750589e-02 5.78653403e-02 7.65160890e-03 5.74736595e-02
      4.32189703e-02 1.77767798e-02 4.57829610e-02</_>
    <_>
      4.20373715e-02 5.28150089e-02 6.21160418e-02 4.74101305e-02
      2.53870301e-02 5.07433191e-02 5.04109189e-02 1.74135491e-02
      5.01225106e-02 4.51651886e-02 8.68618395e-03 4.46634404e-02
      3.76257710e-02 1.90952606e-02 4.08978015e-02</_>
    <_>
      4.96961288e-02 2.20988095e-02 5.26692905e-02 4.81206216e-02
      2.08090208e-02 5.23763485e-02 5.68104982e-02 1.35377599e-02
      5.77223413e-02 5.89153096e-02 1.63358804e-02 5.69342189e-02
      4.88538295e-02 2.66623907e-02 5.03284112e-02</_>
    <_>
      5.36114313e-02 1.51428096e-02 5.35781495e-02 4.97303605e-02
      2.24941298e-02 5.21598309e-02 6.22155108e-02 2.81902701e-02
      5.75893894e-02 5.93144894e-02 2.90506799e-02 5.26241399e-02
      4.78687882e-02 3.39166895e-02 4.74564917e-02</_>
    <_>
      3.45277004e-02 5.34023307e-02 5.23448214e-02 8.70003626e-02
      8.89409930e-02 2.85805296e-02 9.42253023e-02 9.08538401e-02
      2.54999809e-02 8.28406364e-02 7.71778375e-02 3.66380513e-02
      6.01424687e-02 6.05067611e-02 4.54687215e-02</_>
    <_>
      4.81186099e-02 5.64701706e-02 6.40875176e-02 9.24377814e-02
      8.48988071e-02 4.28594798e-02 1.01436801e-01 9.03970301e-02
      4.60271314e-02 9.25085023e-02 8.63250270e-02 4.58938703e-02
      6.83027878e-02 6.91138431e-02 5.28391302e-02</_>
    <_>
      5.33766188e-02 1.70804393e-02 5.33928908e-02 4.49355207e-02
      2.16561705e-02 4.92683016e-02 4.83677797e-02 1.40315397e-02
      4.90670502e-02 4.72726785e-02 7.64134480e-03 4.68104593e-02
      4.20962982e-02 1.55059500e-02 4.46699187e-02</_>
    <_>
      5.64182997e-02 3.32177803e-02 6.23763502e-02 5.78612909e-02
      3.15663889e-02 5.93951084e-02 6.57380894e-02 2.94585191e-02
      6.26047328e-02 6.37926534e-02 2.80304197e-02 5.73773906e-02
      4.78229187e-02 2.40118708e-02 4.72162701e-02</_>
    <_>
      3.50507908e-02 4.09621000e-02 4.54839692e-02 3.80612500e-02
      1.99838392e-02 4.27524112e-02 4.17380109e-02 1.35487802e-02
      4.22141999e-02 3.91044803e-02 1.26464702e-02 3.71467397e-02
      3.12833190e-02 1.64651293e-02 3.34659405e-02</_>
    <_>
      4.29830588e-02 2.30697896e-02 4.05624993e-02 6.55162707e-02
      2.96131894e-02 6.58030733e-02 4.04958390e-02 1.22932196e-02
      4.12522294e-02 3.74120288e-02 9.70865879e-03 3.65910083e-02
      3.11839599e-02 1.74038894e-02 3.48522589e-02</_>
    <_>
      4.62548286e-02 1.16616199e-02 4.57673110e-02 3.87339815e-02
      2.29736399e-02 4.34025414e-02 4.17218991e-02 1.69723704e-02
      4.09762114e-02 3.91129293e-02 1.56448297e-02 3.59448791e-02
      3.42912190e-02 1.66325495e-02 3.70065086e-02</_>
    <_>
      3.56041491e-02 4.11748812e-02 4.72022891e-02 3.81391793e-02
      1.98688991e-02 4.28540818e-02 4.09989394e-02 1.30104301e-02
      4.15663794e-02 3.81484404e-02 1.17458999e-02 3.64904217e-02
      3.15163285e-02 1.77967492e-02 3.46148089e-02</_>
    <_>
      5.35793789e-02 1.75086893e-02 5.49495295e-02 4.90986183e-02
      2.36007292e-02 5.12456112e-02 6.15107603e-02 2.95528006e-02
      5.59350513e-02 6.13131784e-02 3.55736203e-02 5.11444993e-02
      4.88609299e-02 3.93044911e-02 4.73316610e-02</_>
    <_>
      4.88369390e-02 5.60968183e-02 6.47753775e-02 9.23392475e-02
      8.38198066e-02 4.57349196e-02 1.01473898e-01 8.90589729e-02
      4.86504994e-02 9.24336910e-02 8.45668986e-02 4.73994389e-02
      6.83588833e-02 6.73567504e-02 5.37586212e-02</_>
    <_>
      3.85136604e-02 3.44657712e-02 4.03380916e-02 8.75518024e-02
      9.01454464e-02 2.50206701e-02 4.64273617e-02 1.06604397e-02
      4.74925190e-02 4.05993685e-02 6.54618582e-03 4.05370519e-02
      3.42755318e-02 1.80501994e-02 3.86163294e-02</_>
    <_>
      4.27022800e-02 3.88983488e-02 5.02282605e-02 4.19115014e-02
      2.45045908e-02 4.70990390e-02 4.54787202e-02 1.42078605e-02
      4.71168682e-02 4.22249511e-02 4.29050997e-03 4.20646518e-02
      3.41906101e-02 1.60648003e-02 3.71672511e-02</_>
    <_>
      4.55180407e-02 1.67357791e-02 4.54025492e-02 8.22879970e-02
      7.76061490e-02 3.37733217e-02 8.96271765e-02 7.77508020e-02
      4.51352410e-02 5.28103597e-02 1.79339293e-02 5.02927005e-02
      4.92377616e-02 2.96072196e-02 4.91401404e-02</_>
    <_>
      4.07647192e-02 5.03992811e-02 5.83879016e-02 6.13692701e-02
      3.46850194e-02 5.99041916e-02 5.98288104e-02 2.08039898e-02
      5.85630201e-02 5.22069708e-02 9.96985193e-03 5.15885688e-02
      3.99131998e-02 1.82254892e-02 4.32695001e-02</_>
    <_>
      3.98386195e-02 3.88871990e-02 4.58718687e-02 3.84316295e-02
      2.02937406e-02 4.32655402e-02 3.89553905e-02 1.06832301e-02
      3.97854708e-02 3.57551910e-02 9.27593280e-03 3.48906107e-02
      2.99469400e-02 1.78172700e-02 3.39270197e-02</_>
    <_>
      5.64176999e-02 2.03834195e-02 5.56100309e-02 5.61311282e-02
      2.03754995e-02 5.81350401e-02 6.32847473e-02 1.74721107e-02
      6.28750175e-02 6.03606589e-02 1.15046203e-02 5.94577193e-02
      4.65995297e-02 1.64430197e-02 4.88498881e-02</_>
    <_>
      4.93009612e-02 4.26041707e-02 6.08495399e-02 4.94709387e-02
      2.33086292e-02 5.24993800e-02 4.77511100e-02 1.31135900e-02
      4.83011007e-02 4.08129990e-02 4.99983178e-03 4.10661511e-02
      3.43018100e-02 1.94400102e-02 3.91571112e-02</_>
    <_>
      2.98921708e-02 3.64749804e-02 3.65483500e-02 3.88792418e-02
      1.74274705e-02 4.26041596e-02 4.27026488e-02 1.04308799e-02
      4.33375984e-02 3.94355804e-02 7.88617227e-03 3.92028503e-02
      6.30013868e-02 7.42971227e-02 4.87751104e-02</_>
    <_>
      5.72067685e-02 2.05742903e-02 5.77562600e-02 5.77097610e-02
      2.09066495e-02 6.04127198e-02 6.51844591e-02 1.64687596e-02
      6.56345263e-02 6.10907897e-02 6.03030017e-03 6.08372204e-02
      4.78842594e-02 1.38545996e-02 4.98351194e-02</_>
    <_>
      5.33021502e-02 3.15479301e-02 5.83258308e-02 5.30448295e-02
      2.99638808e-02 5.55310510e-02 4.96092811e-02 1.51635604e-02
      5.09716310e-02 4.58235405e-02 2.62800511e-03 4.57881391e-02
      3.70676592e-02 1.49557497e-02 3.98393795e-02</_>
    <_>
      4.35317606e-02 2.40325108e-02 4.09241505e-02 7.14094937e-02
      4.39841896e-02 6.40822425e-02 4.07906994e-02 1.12514701e-02
      4.15336005e-02 3.78167704e-02 9.30775143e-03 3.72265205e-02
      3.15251499e-02 1.74795594e-02 3.53227817e-02</_>
    <_>
      5.66358902e-02 2.05710903e-02 5.61737791e-02 5.58945090e-02
      2.06659306e-02 5.81009090e-02 6.27898872e-02 1.72638092e-02
      6.26302287e-02 5.99461198e-02 1.04042403e-02 5.91756701e-02
      4.62638885e-02 1.57225393e-02 4.83566895e-02</_>
    <_>
      5.50420694e-02 2.09199805e-02 5.63493818e-02 5.28172590e-02
      2.17970200e-02 5.55981882e-02 6.01294301e-02 1.65456496e-02
      6.02489300e-02 5.83367608e-02 1.23450505e-02 5.72058298e-02
      4.63833213e-02 1.93220600e-02 4.82538901e-02</_>
    <_>
      5.19940406e-02 2.80715991e-02 5.45201190e-02 4.49304692e-02
      2.15736609e-02 4.98107299e-02 4.94369306e-02 1.20218303e-02
      5.06361499e-02 4.56265211e-02 6.94951508e-03 4.52455990e-02
      3.78226601e-02 1.64866894e-02 4.10852209e-02</_>
    <_>
      2.56642308e-02 7.23057687e-02 6.76147267e-02 9.47610363e-02
      9.59475711e-02 2.90902406e-02 9.72951204e-02 9.04748812e-02
      3.58767807e-02 6.92453682e-02 4.45796587e-02 5.48254587e-02
      5.99196702e-02 5.44519201e-02 5.13683707e-02</_>
    <_>
      4.67560291e-02 2.85133496e-02 4.87638488e-02 4.64329496e-02
      2.44623795e-02 4.77349609e-02 4.96378615e-02 1.66111104e-02
      4.84902412e-02 4.91837896e-02 1.83545593e-02 4.67355810e-02
      4.51875217e-02 3.69677283e-02 4.40588295e-02</_>
    <_>
      5.57423197e-02 1.32597899e-02 5.41426800e-02 6.71893135e-02
      3.99656482e-02 6.37017488e-02 7.63114318e-02 4.34633903e-02
      6.47075474e-02 6.96034506e-02 3.47175412e-02 6.11735210e-02
      5.31764887e-02 2.87250709e-02 5.34888506e-02</_>
    <_>
      5.54285608e-02 1.42478496e-02 5.35958894e-02 6.86649531e-02
      4.43036593e-02 6.22250699e-02 7.73341730e-02 4.72176895e-02
      6.29430413e-02 7.00437278e-02 3.82925607e-02 5.98617196e-02
      5.30739091e-02 3.15953419e-02 5.31358607e-02</_>
    <_>
      5.46333008e-02 2.22299006e-02 5.58924004e-02 4.94793504e-02
      2.15974301e-02 5.19436896e-02 8.53819773e-02 7.33202472e-02
      4.37649190e-02 7.70806670e-02 7.23252669e-02 4.30153385e-02
      5.74432798e-02 6.85365424e-02 5.62545285e-02</_>
    <_>
      4.29431498e-02 1.92470606e-02 3.89185213e-02 5.04888408e-02
      3.26809511e-02 4.87582907e-02 5.34817018e-02 2.00677700e-02
      5.19366115e-02 4.76466194e-02 1.16200596e-02 4.66731787e-02
      3.75640690e-02 2.12686006e-02 4.07387204e-02</_>
    <_>
      4.17537093e-02 2.48361509e-02 4.01541889e-02 6.49683923e-02
      2.73182504e-02 6.58144727e-02 3.99232209e-02 1.31779704e-02
      4.04053517e-02 3.72959003e-02 1.01575200e-02 3.63204218e-02
      3.08319498e-02 1.80312693e-02 3.44578698e-02</_>
    <_>
      5.67817986e-02 1.99282505e-02 5.65114096e-02 5.70674203e-02
      2.09345594e-02 5.96907400e-02 6.43434972e-02 1.75841693e-02
      6.44149035e-02 6.14967085e-02 1.03055499e-02 6.07029907e-02
      4.77557406e-02 1.48666399e-02 4.96870093e-02</_>
    <_>
      5.67505807e-02 1.81306992e-02 5.61962910e-02 5.63992187e-02
      2.22845692e-02 5.83777018e-02 6.32841215e-02 1.87992901e-02
      6.27890527e-02 6.00339584e-02 1.14027504e-02 5.90626188e-02
      4.55485694e-02 1.46773001e-02 4.73663881e-02</_>
    <_>
      4.52090688e-02 1.68584306e-02 4.51239906e-02 8.29121470e-02
      7.90262669e-02 3.19081806e-02 9.06526223e-02 8.01283866e-02
      4.29250188e-02 5.15321717e-02 1.71038602e-02 4.92540114e-02
      4.91430387e-02 2.97104195e-02 4.89282906e-02</_>
    <_>
      4.90346402e-02 3.43100801e-02 5.49779795e-02 4.33201492e-02
      1.99342109e-02 4.75009196e-02 4.54372987e-02 1.03759198e-02
      4.65135388e-02 4.24838699e-02 5.82004478e-03 4.25081402e-02
      3.63116413e-02 1.82364509e-02 4.05413397e-02</_>
    <_>
      4.60183211e-02 3.36264111e-02 5.11271693e-02 4.01553884e-02
      1.90838706e-02 4.44575697e-02 4.19065207e-02 1.13793202e-02
      4.26471494e-02 3.89215909e-02 8.44501331e-03 3.83738205e-02
      3.35102193e-02 1.85535196e-02 3.82345282e-02</_>
    <_>
      4.96979915e-02 2.92406306e-02 5.25664203e-02 4.96319681e-02
      2.67325304e-02 5.11838906e-02 4.13974896e-02 1.01531697e-02
      4.26242203e-02 3.72040682e-02 7.34360609e-03 3.68960202e-02
      3.12174093e-02 1.86093207e-02 3.58823612e-02</_>
    <_>
      3.90145890e-02 2.54498795e-02 3.84190194e-02 3.74529213e-02
      1.95897706e-02 4.19572294e-02 3.99798490e-02 1.24684200e-02
      4.06748205e-02 3.63093689e-02 9.24577564e-03 3.54599990e-02
      3.10925003e-02 1.87448394e-02 3.53834890e-02</_>
    <_>
      4.93048392e-02 2.30400991e-02 5.12930900e-02 4.48477492e-02
      2.06194203e-02 4.93482202e-02 4.77089286e-02 1.25405900e-02
      4.86867912e-02 4.44920808e-02 8.99425335e-03 4.37482782e-02
      3.75606082e-02 1.60916001e-02 4.06342484e-02</_>
    <_>
      2.14257296e-02 7.89412484e-02 7.76397735e-02 9.61024389e-02
      9.99210030e-02 3.24601792e-02 1.08724900e-01 1.08106501e-01
      1.15829101e-02 6.93274736e-02 4.27740403e-02 5.59772104e-02
      6.34339228e-02 5.91468886e-02 5.25822192e-02</_>
    <_>
      4.78282012e-02 5.73820882e-02 6.43178970e-02 9.29386020e-02
      8.60810131e-02 4.19420712e-02 1.01926297e-01 9.16704163e-02
      4.45704684e-02 9.29530710e-02 8.74553472e-02 4.49585319e-02
      6.89164922e-02 7.00758025e-02 5.18818982e-02</_>
    <_>
      4.69258502e-02 3.02361902e-02 5.12763411e-02 3.93553190e-02
      2.18634102e-02 4.49054986e-02 4.14994806e-02 1.24891596e-02
      4.22663912e-02 3.84369716e-02 1.00731198e-02 3.73174883e-02
      3.28337699e-02 1.76308993e-02 3.66843306e-02</_>
    <_>
      5.41624911e-02 1.47089204e-02 5.21307997e-02 6.60025626e-02
      4.05605808e-02 6.16310202e-02 7.53084868e-02 4.44388203e-02
      6.26896173e-02 6.84490129e-02 3.58999409e-02 5.92516586e-02
      5.18294312e-02 2.99294107e-02 5.17663509e-02</_>
    <_>
      2.90275700e-02 3.69004086e-02 3.66313010e-02 4.64936607e-02
      2.14486606e-02 5.11218198e-02 5.06380610e-02 1.16484202e-02
      5.18318787e-02 5.44612594e-02 1.25111304e-02 5.33405989e-02
      5.31127602e-02 3.90707217e-02 4.99351509e-02</_>
    <_>
      5.55718988e-02 2.14666706e-02 5.69960289e-02 5.35243899e-02
      2.33999491e-02 5.60175404e-02 5.36381900e-02 1.20774005e-02
      5.48199601e-02 4.89745103e-02 2.68155406e-03 4.89979312e-02
      3.91091891e-02 1.47088701e-02 4.17665802e-02</_>
    <_>
      4.00365405e-02 5.08262701e-02 5.75078391e-02 6.10553995e-02
      3.41247506e-02 5.99019416e-02 6.30371496e-02 2.39225402e-02
      6.08644895e-02 5.46743497e-02 1.26953200e-02 5.35121001e-02
      4.15866002e-02 1.89042706e-02 4.45754193e-02</_>
    <_>
      4.69270609e-02 1.53941400e-02 4.69925106e-02 8.51388127e-02
      8.46295729e-02 2.50151809e-02 6.58473000e-02 3.48029807e-02
      5.79092689e-02 5.13915084e-02 1.32878199e-02 5.01288585e-02
      4.44752611e-02 2.30400208e-02 4.66250814e-02</_>
    <_>
      5.02760410e-02 1.48483803e-02 4.83262502e-02 5.10406010e-02
      2.44028401e-02 5.15721217e-02 5.45998290e-02 1.61916204e-02
      5.35824709e-02 4.90490682e-02 1.05661703e-02 4.87607196e-02
      3.83295007e-02 2.09918600e-02 4.24334817e-02</_>
    <_>
      4.35449518e-02 4.52050082e-02 5.75368591e-02 5.13586290e-02
      2.87829395e-02 5.19384183e-02 4.47386317e-02 1.16030797e-02
      4.52196300e-02 4.05783094e-02 5.46898786e-03 4.09403704e-02
      3.26682404e-02 1.92529503e-02 3.79178897e-02</_>
    <_>
      5.44999503e-02 2.50296891e-02 5.73239289e-02 5.03541306e-02
      2.29492504e-02 5.28201684e-02 8.59118477e-02 7.27252811e-02
      4.57487702e-02 7.73856491e-02 7.07591474e-02 4.33976091e-02
      5.81077896e-02 6.44688234e-02 5.47859482e-02</_>
    <_>
      4.10790406e-02 2.70739403e-02 3.95120084e-02 3.71448211e-02
      1.92659106e-02 4.17745188e-02 3.81984301e-02 1.00725498e-02
      3.93837914e-02 3.51928696e-02 6.58924319e-03 3.50784510e-02
      2.98742093e-02 1.78611800e-02 3.47115099e-02</_>
    <_>
      3.87759209e-02 2.60843392e-02 3.83926705e-02 3.75601612e-02
      2.01512892e-02 4.23290804e-02 3.99670191e-02 1.25632696e-02
      4.06343006e-02 3.63522917e-02 9.26021021e-03 3.54977995e-02
      3.13270502e-02 1.89167503e-02 3.56144384e-02</_>
    <_>
      4.78057787e-02 3.55767906e-02 5.58861718e-02 3.91568914e-02
      1.98679902e-02 4.39084210e-02 4.03938107e-02 1.14716003e-02
      4.13513593e-02 3.79341505e-02 9.46770795e-03 3.73070501e-02
      3.22437696e-02 1.94891598e-02 3.72210406e-02</_>
    <_>
      5.17077893e-02 1.30008496e-02 5.00572510e-02 5.30999787e-02
      2.61267498e-02 5.39395399e-02 5.86642995e-02 2.17395294e-02
      5.65067604e-02 5.44288605e-02 1.71009097e-02 5.22552691e-02
      4.21897508e-02 2.25028507e-02 4.46424000e-02</_>
    <_>
      2.70394795e-02 6.86978325e-02 6.46542385e-02 9.62279215e-02
      9.89503488e-02 2.84855403e-02 8.01509097e-02 6.36156127e-02
      5.00495918e-02 6.14173599e-02 3.19072790e-02 5.38017489e-02
      6.88250735e-02 6.99444637e-02 5.08482791e-02</_>
    <_>
      5.04504405e-02 1.10011101e-02 5.04168682e-02 6.29246831e-02
      3.87200490e-02 5.83236516e-02 4.52368297e-02 9.98507440e-03
      4.62064110e-02 4.16256003e-02 6.54782122e-03 4.15368788e-02
      3.48859690e-02 1.70455407e-02 3.87593210e-02</_>
    <_>
      4.31359485e-02 1.99875608e-02 4.03084792e-02 6.53753579e-02
      2.91969609e-02 6.55848309e-02 3.97524796e-02 1.28731597e-02
      4.03171889e-02 3.67832407e-02 1.04674501e-02 3.60296182e-02
      3.09291501e-02 1.82176493e-02 3.48895006e-02</_>
    <_>
      5.76038808e-02 1.56297609e-02 5.60101308e-02 6.55109733e-02
      3.45194712e-02 6.45676926e-02 7.46079385e-02 3.70689891e-02
      6.67133182e-02 6.90928325e-02 3.01465299e-02 6.27630800e-02
      5.19683696e-02 2.28852201e-02 5.25530986e-02</_>
    <_>
      4.19687591e-02 2.95883697e-02 4.04500216e-02 3.55828293e-02
      1.71499606e-02 3.94999385e-02 3.76445204e-02 1.09222401e-02
      3.88738289e-02 3.44234817e-02 8.37178528e-03 3.36863399e-02
      2.96772793e-02 1.70900207e-02 3.38027701e-02</_>
    <_>
      5.50065599e-02 3.17788087e-02 5.82175404e-02 5.50594218e-02
      3.12956683e-02 5.70172817e-02 5.97997904e-02 2.42966991e-02
      5.89444600e-02 5.85763492e-02 2.07990501e-02 5.47596216e-02
      4.76075597e-02 2.40959898e-02 4.61566411e-02</_>
    <_>
      3.68084498e-02 5.18929996e-02 4.80324216e-02 9.10227299e-02
      8.20907876e-02 4.57332991e-02 1.00524798e-01 8.85560811e-02
      4.76723090e-02 9.52081010e-02 8.78570303e-02 4.39834706e-02
      6.44996092e-02 5.68248406e-02 5.47821298e-02</_>
    <_>
      4.88607697e-02 4.47996706e-02 6.15019202e-02 5.08489087e-02
      2.43902300e-02 5.33175990e-02 6.19766600e-02 2.77850404e-02
      5.76964915e-02 6.24304302e-02 2.82688700e-02 5.65996803e-02
      4.77040298e-02 2.97818501e-02 4.90592793e-02</_>
    <_>
      5.05812690e-02 2.01161094e-02 4.92070094e-02 4.41136807e-02
      2.16131508e-02 4.91028614e-02 4.63735685e-02 1.25283999e-02
      4.73532416e-02 4.67117615e-02 3.65693192e-03 4.67082411e-02
      3.78442183e-02 1.52901299e-02 4.07943502e-02</_>
    <_>
      5.17322794e-02 1.43967504e-02 5.17357588e-02 4.47257906e-02
      2.17244904e-02 4.94593903e-02 5.06672412e-02 1.21519100e-02
      5.18832989e-02 5.26275188e-02 3.04735103e-03 5.26645482e-02
      4.40820083e-02 1.73257403e-02 4.65300493e-02</_>
    <_>
      5.21844402e-02 9.20758676e-03 5.13667203e-02 4.77126092e-02
      2.20111199e-02 5.01299500e-02 6.52616322e-02 3.59305404e-02
      5.62756583e-02 5.92169203e-02 3.39481607e-02 5.01377098e-02
      4.86308001e-02 3.80532406e-02 4.83263098e-02</_>
    <_>
      5.65314889e-02 2.01449301e-02 5.55813499e-02 5.70143908e-02
      2.17291005e-02 5.90870306e-02 6.41656816e-02 1.90274697e-02
      6.36344999e-02 6.10908307e-02 1.24274399e-02 5.99348508e-02
      4.69072498e-02 1.57040805e-02 4.87958714e-02</_>
    <_>
      5.27246818e-02 5.20626418e-02 6.52602166e-02 9.20927078e-02
      8.62914026e-02 5.08277602e-02 1.03891201e-01 9.63097513e-02
      4.07431796e-02 9.54885036e-02 9.09888297e-02 3.65667604e-02
      6.99744523e-02 7.00790733e-02 4.92264181e-02</_>
    <_>
      5.31519689e-02 9.10868496e-03 5.26470393e-02 4.66247313e-02
      2.01954301e-02 4.97645289e-02 5.76087199e-02 2.31857300e-02
      5.47248907e-02 6.46708086e-02 4.29296307e-02 5.02901487e-02
      5.01289889e-02 4.15400192e-02 4.83122095e-02</_>
    <_>
      5.05744815e-02 5.41032702e-02 6.49257600e-02 8.92101526e-02
      8.08618367e-02 5.40626086e-02 1.01316601e-01 9.19828415e-02
      4.44893092e-02 9.37555432e-02 8.78774375e-02 3.87279391e-02
      6.78903610e-02 6.52645007e-02 4.97536995e-02</_>
    <_>
      5.45797683e-02 1.20425001e-02 5.35519011e-02 4.99435812e-02
      1.99651700e-02 5.25614917e-02 5.14786988e-02 1.04937004e-02
      5.24665415e-02 4.86936904e-02 3.63344606e-03 4.87927906e-02
      3.90953384e-02 1.56925004e-02 4.21271399e-02</_>
    <_>
      4.56841886e-02 1.68588609e-02 4.58377115e-02 8.27656165e-02
      7.76983127e-02 3.73830311e-02 5.69178686e-02 2.57083792e-02
      5.31428903e-02 4.91199717e-02 1.31548196e-02 4.79165688e-02
      4.38909791e-02 2.38728803e-02 4.58841808e-02</_>
    <_>
      5.04041798e-02 1.23305405e-02 4.98769693e-02 8.29369873e-02
      7.76677802e-02 3.92362289e-02 4.65453602e-02 1.00208400e-02
      4.75683808e-02 4.38922904e-02 6.10338291e-03 4.38920893e-02
      3.60571593e-02 1.65338404e-02 3.96235697e-02</_>
    <_>
