<?xml version="1.0"?>
<opencv_storage>
<opencv_ml_svm>
  <format>3</format>
  <svmType>C_SVC</svmType>
  <kernel>
    <type>INTER</type>
    <gamma>1.</gamma></kernel>
  <C>20.</C>
  <term_criteria><epsilon>1.1920928955078125e-07</epsilon>
    <iterations>1000</iterations></term_criteria>
  <var_count>15</var_count>
  <class_count>4</class_count>
  <class_labels type_id="opencv-matrix">
    <rows>4</rows>
    <cols>1</cols>
    <dt>i</dt>
    <data>
      0 1 2 3</data></class_labels>
  <sv_total>777</sv_total>
  <support_vectors>
    <_>
      4.37749512e-02 3.07477694e-02 4.23166789e-02 3.95885408e-02
      2.18206793e-02 4.51714210e-02 4.25162688e-02 9.72099323e-03
      4.34927084e-02 3.97110991e-02 9.08653438e-03 3.93848494e-02
      3.32323685e-02 1.98231507e-02 3.81290987e-02</_>
    <_>
      5.48380688e-02 1.28291398e-02 5.38079888e-02 5.28644696e-02
      2.07415503e-02 5.65566607e-02 5.69596514e-02 1.25860199e-02
      5.81802204e-02 5.42983711e-02 2.09563295e-03 5.43270111e-02
      4.23812903e-02 1.41970003e-02 4.46890295e-02</_>
    <_>
      3.52347903e-02 6.07054196e-02 6.36672825e-02 9.42938626e-02
      9.59978476e-02 1.96690802e-02 1.04627997e-01 1.04570702e-01
      7.31578516e-03 9.38958600e-02 9.69399735e-02 2.70498004e-02
      6.75808191e-02 8.21376964e-02 4.94162515e-02</_>
    <_>
      4.17604595e-02 3.55412513e-02 5.08030318e-02 4.16719094e-02
      1.88122094e-02 4.55390885e-02 4.41502593e-02 1.35485698e-02
      4.47621010e-02 3.98737118e-02 1.20503800e-02 3.81409600e-02
      3.10635492e-02 1.59786809e-02 3.29368897e-02</_>
    <_>
      4.06425409e-02 2.35863291e-02 3.91448103e-02 3.69465686e-02
      1.77061092e-02 4.06983010e-02 4.04070616e-02 1.21783400e-02
      4.12037298e-02 3.69710103e-02 9.26933438e-03 3.62420492e-02
      3.12986486e-02 1.89636108e-02 3.59752700e-02</_>
    <_>
      5.60524017e-02 1.69272199e-02 5.56931198e-02 5.64322807e-02
      2.23072208e-02 5.91897406e-02 6.13628812e-02 1.56126600e-02
      6.18745387e-02 5.60247712e-02 3.51589709e-03 5.59899509e-02
      4.38102894e-02 1.38136400e-02 4.58901711e-02</_>
    <_>
      5.34419492e-02 2.00330503e-02 5.44761494e-02 5.00368290e-02
      2.04192307e-02 5.28212003e-02 5.70241213e-02 1.50867198e-02
      5.72006404e-02 5.62783293e-02 1.34629300e-02 5.49824089e-02
      4.66974303e-02 2.43080705e-02 4.81191389e-02</_>
    <_>
      3.08472198e-02 3.63290496e-02 3.75693515e-02 4.03389893e-02
      1.77379791e-02 4.40352410e-02 4.53525186e-02 9.03152023e-03
      4.61911112e-02 4.27347384e-02 4.53380123e-03 4.29689810e-02
      3.90846916e-02 3.79548185e-02 4.24810797e-02</_>
    <_>
      5.21018915e-02 2.25226004e-02 5.24011888e-02 4.41131704e-02
      2.16605496e-02 4.90323193e-02 4.88713905e-02 1.22181596e-02
      5.00143915e-02 4.52924483e-02 7.69724092e-03 4.48688604e-02
      3.75166796e-02 1.73137002e-02 4.11367491e-02</_>
    <_>
      5.04816808e-02 2.69974601e-02 4.78863902e-02 6.05336092e-02
      4.62017395e-02 5.36665097e-02 9.07922536e-02 8.49778727e-02
      3.66661400e-02 8.43123272e-02 8.12082589e-02 3.12950611e-02
      6.13991395e-02 6.30688369e-02 4.77300398e-02</_>
    <_>
      4.31254283e-02 1.49367601e-02 4.30321284e-02 3.82150896e-02
      2.29547508e-02 4.29628789e-02 4.02498096e-02 1.68008506e-02
      3.94326411e-02 3.71425785e-02 1.62234306e-02 3.35601307e-02
      3.16597410e-02 1.75199900e-02 3.43781486e-02</_>
    <_>
      3.96960787e-02 3.85007784e-02 4.64518182e-02 3.88724208e-02
      1.95447896e-02 4.33253311e-02 3.96422110e-02 9.62593406e-03
      4.03915718e-02 3.56309898e-02 8.61290656e-03 3.51155810e-02
      3.00227106e-02 1.86810307e-02 3.48175988e-02</_>
    <_>
      5.48686199e-02 1.30456900e-02 5.38092218e-02 5.28244600e-02
      2.06851494e-02 5.64567782e-02 5.68132401e-02 1.26218097e-02
      5.80131896e-02 5.40687218e-02 2.09388393e-03 5.41009009e-02
      4.23916392e-02 1.41514502e-02 4.46858183e-02</_>
    <_>
      4.15260307e-02 6.56162500e-02 6.71815872e-02 9.89819169e-02
      9.93831679e-02 3.19065899e-02 1.09183498e-01 1.07303098e-01
      2.07820199e-02 9.94895995e-02 1.01586603e-01 2.88005006e-02
      7.37559721e-02 8.62819627e-02 4.81258817e-02</_>
    <_>
      2.28947997e-02 7.53154680e-02 7.26971775e-02 9.78632420e-02
      1.02494299e-01 3.04726306e-02 1.09784901e-01 1.09634303e-01
      5.78154391e-03 5.63941002e-02 7.74440402e-03 5.61898388e-02
      6.83587566e-02 6.11229315e-02 5.38660809e-02</_>
    <_>
      4.21874598e-02 2.01518908e-02 3.96600515e-02 4.11194190e-02
      1.91933196e-02 4.51431014e-02 4.36577089e-02 9.94667877e-03
      4.47662994e-02 3.95742394e-02 5.77446399e-03 3.95116210e-02
      3.30095999e-02 1.65416095e-02 3.68747897e-02</_>
    <_>
      4.30232100e-02 3.62031497e-02 4.41522785e-02 6.14523403e-02
      4.40512598e-02 5.48489392e-02 4.73205708e-02 2.03790106e-02
      4.48087603e-02 4.25680801e-02 7.94894155e-03 4.26254012e-02
      3.63863595e-02 2.00322494e-02 4.07395810e-02</_>
    <_>
      4.96978983e-02 5.62734194e-02 6.72640130e-02 9.85853523e-02
      9.94888991e-02 2.85239294e-02 1.09274000e-01 1.09009102e-01
      1.17818601e-02 9.94780064e-02 1.02007799e-01 2.49511395e-02
      7.40710869e-02 8.52155983e-02 4.30496410e-02</_>
    <_>
      4.96656299e-02 5.63570596e-02 6.72895536e-02 9.85888615e-02
      9.94148627e-02 2.86612809e-02 1.09271601e-01 1.08983703e-01
      1.20394100e-02 9.94926170e-02 1.02007300e-01 2.49916706e-02
      7.40950629e-02 8.51988271e-02 4.30110618e-02</_>
    <_>
      4.89776991e-02 5.85835986e-02 6.23594895e-02 1.05140701e-01
      1.06405199e-01 2.40353700e-02 1.16389103e-01 1.16579399e-01
      9.22115054e-03 1.06734201e-01 1.09694302e-01 2.54616700e-02
      8.13547596e-02 9.25378874e-02 4.41069715e-02</_>
    <_>
      5.33740893e-02 1.97450891e-02 5.36847897e-02 4.56908792e-02
      2.17112005e-02 5.01827300e-02 4.94650602e-02 1.37140201e-02
      5.02979383e-02 4.76746708e-02 8.07018206e-03 4.70590517e-02
      4.12139110e-02 1.45837199e-02 4.37134691e-02</_>
    <_>
      4.06683311e-02 2.64639091e-02 3.98792811e-02 3.60033214e-02
      2.05913298e-02 4.14743088e-02 3.72283608e-02 1.28691997e-02
      3.87089215e-02 3.45513783e-02 7.76048377e-03 3.37577611e-02
      2.95064896e-02 1.53840203e-02 3.29359807e-02</_>
    <_>
      5.14637418e-02 2.07830705e-02 5.07946983e-02 4.72742394e-02
      2.06157807e-02 5.09935506e-02 4.98821996e-02 1.10048503e-02
      5.10277301e-02 4.70589995e-02 4.33207816e-03 4.71815392e-02
      3.98416109e-02 1.68632008e-02 4.32476103e-02</_>
    <_>
      4.89053912e-02 5.75216301e-02 6.78120032e-02 9.83450785e-02
      9.84152928e-02 3.02826203e-02 1.09125704e-01 1.08471602e-01
      1.54756596e-02 9.92044434e-02 1.01223797e-01 2.69322302e-02
      7.41107166e-02 8.46829191e-02 4.35951203e-02</_>
    <_>
      4.94020209e-02 5.69383688e-02 6.80776387e-02 9.79763418e-02
      9.79459137e-02 3.05835996e-02 1.08727597e-01 1.07967198e-01
      1.58819593e-02 9.88399535e-02 1.00719497e-01 2.68920604e-02
      7.37609193e-02 8.42437372e-02 4.36559208e-02</_>
    <_>
      4.73102704e-02 6.14726804e-02 7.21939430e-02 9.63802934e-02
      9.68626067e-02 3.34771499e-02 1.07368000e-01 1.06933199e-01
      1.40658598e-02 9.74986330e-02 9.98719409e-02 2.61780694e-02
      7.24133328e-02 8.29944536e-02 4.21879701e-02</_>
    <_>
      4.13685292e-02 4.71404009e-02 5.53763807e-02 5.44484295e-02
      2.61877291e-02 5.62146306e-02 5.35616688e-02 1.28969997e-02
      5.43192998e-02 4.65305708e-02 3.72937694e-03 4.66756001e-02
      3.60484794e-02 1.69348102e-02 3.98207009e-02</_>
    <_>
      5.17670885e-02 2.08736993e-02 5.10390401e-02 4.43905890e-02
      2.02971697e-02 4.87919413e-02 4.72379588e-02 1.24376304e-02
      4.82600406e-02 4.67167385e-02 4.69550723e-03 4.65938784e-02
      3.84295508e-02 1.49805099e-02 4.12453599e-02</_>
    <_>
      4.92298007e-02 2.38276403e-02 4.84781712e-02 5.08504100e-02
      2.25562602e-02 4.98041585e-02 5.16906790e-02 1.25966500e-02
      5.04686013e-02 5.10773100e-02 1.84885301e-02 5.03471009e-02
      4.21922989e-02 3.06495596e-02 4.74893190e-02</_>
    <_>
      5.35868891e-02 2.04177797e-02 5.46935014e-02 5.03226705e-02
      2.07175501e-02 5.31024784e-02 5.72301894e-02 1.53708896e-02
      5.73797785e-02 5.65296486e-02 1.36758899e-02 5.51705100e-02
      4.68153395e-02 2.41623409e-02 4.81695682e-02</_>
    <_>
      4.17623296e-02 5.25519513e-02 6.19406700e-02 4.70279902e-02
      2.51336992e-02 5.05557209e-02 4.98294085e-02 1.69754401e-02
      4.97101285e-02 4.50049900e-02 8.39437824e-03 4.45426516e-02
      3.73277105e-02 1.89207606e-02 4.06494811e-02</_>
    <_>
      5.09287491e-02 1.85737498e-02 5.19033112e-02 4.68836389e-02
      2.10431106e-02 5.13818190e-02 5.20766601e-02 1.17611298e-02
      5.33794686e-02 5.62444590e-02 9.87422746e-03 5.55783212e-02
      4.72715497e-02 2.24768501e-02 4.91216891e-02</_>
    <_>
      5.41941002e-02 4.91907187e-02 6.52701631e-02 9.35062021e-02
      8.77903923e-02 4.88799885e-02 1.04800500e-01 9.75639075e-02
      3.91425788e-02 9.57094729e-02 9.16884392e-02 3.75007801e-02
      7.04874471e-02 7.19899386e-02 5.15236482e-02</_>
    <_>
      5.72399795e-02 1.71530694e-02 5.60078807e-02 5.85751198e-02
      2.07332894e-02 6.11691810e-02 6.72437176e-02 1.90222897e-02
      6.70061931e-02 6.44139200e-02 1.16578704e-02 6.34108335e-02
      4.92329486e-02 1.42885698e-02 5.10224812e-02</_>
    <_>
      4.97738793e-02 3.62364203e-02 5.63811287e-02 4.88058999e-02
      3.11843194e-02 5.34234792e-02 4.80545983e-02 1.84552409e-02
      5.01040816e-02 4.62421887e-02 1.02970405e-02 4.51029800e-02
      3.58652882e-02 1.46891503e-02 3.74239907e-02</_>
    <_>
      5.48837408e-02 1.18218902e-02 5.40994406e-02 5.33195883e-02
      2.08643302e-02 5.70818782e-02 5.78432605e-02 1.26283104e-02
      5.91008998e-02 5.53554110e-02 2.75697093e-03 5.53529300e-02
      4.14674990e-02 1.46712596e-02 4.39650603e-02</_>
    <_>
      5.35629205e-02 1.98996607e-02 5.44780008e-02 5.00514507e-02
      2.02643406e-02 5.27956001e-02 5.71636707e-02 1.50662502e-02
      5.73270693e-02 5.63132912e-02 1.33881299e-02 5.50383106e-02
      4.68582697e-02 2.44925804e-02 4.82321605e-02</_>
    <_>
      5.54164015e-02 1.84221603e-02 5.65721095e-02 5.27249016e-02
      2.28547994e-02 5.53553291e-02 6.09610900e-02 2.01865509e-02
      5.99003807e-02 5.51180206e-02 1.08733000e-02 5.42837903e-02
      4.36597504e-02 1.91109292e-02 4.60745692e-02</_>
    <_>
      4.18087989e-02 2.20883694e-02 3.89472507e-02 3.74784395e-02
      1.97616201e-02 4.21674103e-02 3.83197516e-02 1.21972598e-02
      3.98516208e-02 3.37350108e-02 8.09175242e-03 3.28442790e-02
      2.75475308e-02 1.38528198e-02 3.05123404e-02</_>
    <_>
      2.80020293e-02 7.04301223e-02 6.55296296e-02 9.55355465e-02
      9.85508412e-02 3.39056589e-02 6.76439404e-02 4.04292010e-02
      5.71708791e-02 6.50899634e-02 3.97496410e-02 5.28296605e-02
      5.29263206e-02 4.05236594e-02 4.94340695e-02</_>
    <_>
      5.15970103e-02 3.48096788e-02 5.74512109e-02 5.18528111e-02
      2.32758000e-02 5.47253788e-02 5.88001683e-02 1.91981792e-02
      5.79325892e-02 6.13958612e-02 2.35635303e-02 5.73071912e-02
      4.87747192e-02 2.87727900e-02 4.99300584e-02</_>
    <_>
      5.49791493e-02 2.13917103e-02 5.68918884e-02 4.78676893e-02
      1.96365397e-02 5.15589416e-02 5.10582812e-02 1.09166903e-02
      5.22120818e-02 4.99046296e-02 4.50119982e-03 4.99746501e-02
      4.37508188e-02 2.05242503e-02 4.62643206e-02</_>
    <_>
      3.97841297e-02 4.19593900e-02 5.01191989e-02 3.95548604e-02
      2.05917396e-02 4.45680097e-02 4.13440913e-02 1.01108598e-02
      4.21077199e-02 3.79119888e-02 8.30366928e-03 3.73048484e-02
      3.15086097e-02 1.74459703e-02 3.57975885e-02</_>
    <_>
      2.49707494e-02 7.03243464e-02 7.23413527e-02 8.40446427e-02
      8.54738876e-02 3.83072086e-02 8.92994329e-02 8.26440975e-02
      3.57583687e-02 8.07141066e-02 7.47300535e-02 4.07668613e-02
      6.05277307e-02 6.45711273e-02 5.04854508e-02</_>
    <_>
      2.49431394e-02 7.26551935e-02 7.01408386e-02 8.51975307e-02
      8.05545375e-02 4.96701486e-02 8.37627798e-02 6.58933073e-02
      5.36941215e-02 7.62104765e-02 5.67601509e-02 5.33825308e-02
      5.74926697e-02 5.09666018e-02 5.25052510e-02</_>
    <_>
      5.19008003e-02 3.24698314e-02 5.28079718e-02 6.94167465e-02
      6.34426922e-02 4.81622294e-02 9.42779630e-02 9.35645774e-02
      2.09185295e-02 8.66120234e-02 8.73737335e-02 1.63478907e-02
      6.39216378e-02 7.42471963e-02 4.22372483e-02</_>
    <_>
      4.96961288e-02 2.20988095e-02 5.26692905e-02 4.81206216e-02
      2.08090208e-02 5.23763485e-02 5.68104982e-02 1.35377599e-02
      5.77223413e-02 5.89153096e-02 1.63358804e-02 5.69342189e-02
      4.88538295e-02 2.66623907e-02 5.03284112e-02</_>
    <_>
      3.97396497e-02 2.71806903e-02 4.08117585e-02 4.02543098e-02
      1.94309000e-02 4.43238206e-02 4.35270295e-02 9.06682014e-03
      4.44609709e-02 4.44246009e-02 6.60421280e-03 4.44868691e-02
      4.62849289e-02 4.71041799e-02 4.52605113e-02</_>
    <_>
      5.04836291e-02 2.11194009e-02 5.31385913e-02 4.96632494e-02
      2.11598091e-02 5.38519807e-02 5.81217892e-02 1.47088198e-02
      5.87452687e-02 6.37338087e-02 2.61476096e-02 5.87101094e-02
      5.22902496e-02 3.21797505e-02 5.29272594e-02</_>
    <_>
      4.54833694e-02 1.43796001e-02 4.36534099e-02 3.92377600e-02
      1.56148300e-02 4.14703302e-02 4.22336198e-02 1.43536199e-02
      4.10700999e-02 3.96440513e-02 1.48991700e-02 3.74446996e-02
      3.50741595e-02 1.95067301e-02 3.88665684e-02</_>
    <_>
      4.19444703e-02 2.16891598e-02 3.96819711e-02 4.14015800e-02
      1.95424408e-02 4.53232005e-02 4.39653099e-02 9.79284942e-03
      4.50279899e-02 4.02568392e-02 5.06917387e-03 4.03776504e-02
      3.34581695e-02 1.72083396e-02 3.76225598e-02</_>
    <_>
      3.54541391e-02 4.38035503e-02 4.42119390e-02 4.22766805e-02
      2.24849302e-02 4.70299385e-02 4.66354713e-02 1.33543704e-02
      4.73215096e-02 8.46325234e-02 8.78416821e-02 2.83735208e-02
      6.15856014e-02 7.05592185e-02 4.31152508e-02</_>
    <_>
      5.29259294e-02 1.94023903e-02 5.56191206e-02 4.96209599e-02
      2.23108493e-02 5.30990213e-02 6.20142408e-02 2.50456203e-02
      5.89377396e-02 6.60257265e-02 3.98577787e-02 5.43085001e-02
      5.21427691e-02 3.96043696e-02 5.17057292e-02</_>
    <_>
      5.16913794e-02 4.34868895e-02 6.29382730e-02 6.09432906e-02
      3.90078314e-02 5.98216206e-02 6.63561225e-02 3.58819589e-02
      6.04221188e-02 6.63121268e-02 3.68996896e-02 5.51925488e-02
      5.27279302e-02 3.51276807e-02 4.74060103e-02</_>
    <_>
      5.35854511e-02 1.97706502e-02 5.49226888e-02 5.17327487e-02
      2.45694406e-02 5.45723699e-02 5.35999909e-02 1.39786396e-02
      5.47355898e-02 4.79527116e-02 1.73428596e-03 4.79810499e-02
      3.75873484e-02 1.46313701e-02 4.02627997e-02</_>
    <_>
      4.15003188e-02 4.86544110e-02 5.91739491e-02 4.59575802e-02
      2.30289008e-02 4.91369590e-02 4.79428805e-02 1.43687399e-02
      4.79326993e-02 4.34980616e-02 7.87368510e-03 4.34362404e-02
      3.57831605e-02 1.98732298e-02 4.01580185e-02</_>
    <_>
      5.12952209e-02 1.54050002e-02 5.12637906e-02 4.69746999e-02
      2.13404391e-02 5.15688695e-02 5.20305708e-02 1.18818404e-02
      5.33243194e-02 5.60042001e-02 8.46532546e-03 5.55335507e-02
      4.78638895e-02 2.25632805e-02 4.96322289e-02</_>
    <_>
      5.35021909e-02 2.12281197e-02 5.48609011e-02 5.03207408e-02
      2.10882500e-02 5.31531088e-02 5.71598299e-02 1.56769902e-02
      5.73070608e-02 5.67148812e-02 1.43311797e-02 5.51787317e-02
      4.70017195e-02 2.45932098e-02 4.81586009e-02</_>
    <_>
      4.88716997e-02 2.61805598e-02 4.69883196e-02 5.18357717e-02
      2.76377592e-02 5.33117317e-02 4.35862206e-02 9.03762877e-03
      4.43100706e-02 3.95453908e-02 9.41472873e-03 3.90421785e-02
      3.31505314e-02 1.87505893e-02 3.73592898e-02</_>
    <_>
      5.13927303e-02 2.97492202e-02 5.05140200e-02 6.23928383e-02
      5.12656495e-02 5.27322218e-02 9.31196883e-02 9.09293219e-02
      2.79357303e-02 8.58471170e-02 8.54745507e-02 2.29198392e-02
      6.26999736e-02 6.93661720e-02 4.48841415e-02</_>
    <_>
      5.18455207e-02 2.41069999e-02 5.21362983e-02 4.67569791e-02
      2.17970498e-02 5.02710305e-02 4.81844693e-02 1.08943097e-02
      4.92622703e-02 4.48619016e-02 4.18404303e-03 4.50235195e-02
      3.88171189e-02 1.73368193e-02 4.23450209e-02</_>
    <_>
      5.32117784e-02 2.06794105e-02 5.53524606e-02 4.53735702e-02
      2.10857391e-02 5.00298291e-02 4.83068489e-02 1.15610696e-02
      4.95487601e-02 4.62374613e-02 3.70749296e-03 4.62621190e-02
      3.86945307e-02 1.62660591e-02 4.18872796e-02</_>
    <_>
      3.76550704e-02 3.99233215e-02 4.56816405e-02 4.44387309e-02
      2.41614897e-02 4.71769497e-02 4.79839891e-02 1.47898505e-02
      4.78346385e-02 4.65172715e-02 1.75461397e-02 4.41037193e-02
      4.15786691e-02 2.70591900e-02 4.36397195e-02</_>
    <_>
      5.57259507e-02 1.59226898e-02 5.49763590e-02 5.54025508e-02
      2.19848994e-02 5.83095700e-02 5.97191490e-02 1.47381304e-02
      6.04195110e-02 5.46459891e-02 2.70467508e-03 5.46504185e-02
      4.35681306e-02 1.36869503e-02 4.56182882e-02</_>
    <_>
      4.30828705e-02 1.50923096e-02 4.32371199e-02 3.79043482e-02
      2.29608603e-02 4.26918082e-02 4.01816592e-02 1.67798493e-02
      3.93665396e-02 3.70802395e-02 1.61860008e-02 3.35116982e-02
      3.16179805e-02 1.75996292e-02 3.44157293e-02</_>
    <_>
      5.33310510e-02 1.27318902e-02 5.34786507e-02 4.81754504e-02
      2.14711204e-02 5.18005006e-02 6.08806610e-02 2.64036395e-02
      5.74670807e-02 6.23818412e-02 3.47600207e-02 5.26802614e-02
      4.86220606e-02 3.54056917e-02 4.76238690e-02</_>
    <_>
      4.36602496e-02 2.61160601e-02 4.25402001e-02 4.38067988e-02
      2.24431492e-02 4.69796397e-02 4.62974012e-02 1.24853002e-02
      4.66562808e-02 4.48932089e-02 1.01839900e-02 4.44160998e-02
      3.66206802e-02 2.14728806e-02 4.07252498e-02</_>
    <_>
      3.90640087e-02 4.79003191e-02 5.19696102e-02 5.51449992e-02
      2.76145209e-02 5.64856082e-02 5.72236888e-02 1.71021596e-02
      5.69952503e-02 5.07669710e-02 8.02571699e-03 5.04604988e-02
      4.01950292e-02 1.80801302e-02 4.34086882e-02</_>
    <_>
      2.55736094e-02 4.85503711e-02 4.29931805e-02 8.84083509e-02
      9.02153328e-02 2.35951804e-02 9.76925194e-02 9.54379216e-02
      2.15208400e-02 4.18671519e-02 9.57214925e-03 4.13228013e-02
      3.38267982e-02 1.96529701e-02 3.84064913e-02</_>
    <_>
      3.99043411e-02 5.02023585e-02 5.63891605e-02 5.94525710e-02
      3.20133306e-02 5.91763481e-02 6.20820299e-02 2.22141501e-02
      6.04806691e-02 5.37589118e-02 1.11075900e-02 5.29176816e-02
      4.10735682e-02 1.83676407e-02 4.41395082e-02</_>
    <_>
      5.49154282e-02 3.35473008e-02 5.87055385e-02 5.63107394e-02
      3.88754383e-02 5.76441512e-02 5.50171286e-02 2.48151105e-02
      5.54544702e-02 5.38897403e-02 1.77772492e-02 5.10265194e-02
      4.24951389e-02 1.86077394e-02 4.13194597e-02</_>
    <_>
      5.30326590e-02 2.39097308e-02 5.40950596e-02 4.45618592e-02
      2.16205306e-02 4.94491607e-02 4.84520309e-02 1.27237998e-02
      4.94731292e-02 4.59288396e-02 8.64309911e-03 4.53631096e-02
      3.85414585e-02 1.67818908e-02 4.17899005e-02</_>
    <_>
      2.75830701e-02 6.96286634e-02 6.46043196e-02 9.52708870e-02
      9.81159285e-02 3.34192812e-02 6.81388080e-02 4.08299789e-02
      5.71472496e-02 6.51841387e-02 3.93433608e-02 5.33878915e-02
      5.21316603e-02 3.96587290e-02 4.94949110e-02</_>
    <_>
      4.81332801e-02 4.60303091e-02 6.18468486e-02 5.08667491e-02
      2.46835891e-02 5.32394201e-02 6.31184801e-02 3.09568401e-02
      5.73354401e-02 6.23304993e-02 2.99446508e-02 5.57565391e-02
      4.82465699e-02 3.13154794e-02 4.93099913e-02</_>
    <_>
      3.34489718e-02 4.25450616e-02 4.07639518e-02 4.37778682e-02
      2.14310493e-02 4.84254397e-02 4.59501706e-02 1.08315796e-02
      4.72079888e-02 4.46703583e-02 3.43808299e-03 4.47934903e-02
      3.68959792e-02 1.84993502e-02 4.08049412e-02</_>
    <_>
      4.10152115e-02 3.95398885e-02 4.98973690e-02 3.79652604e-02
      1.92513894e-02 4.24779691e-02 4.03637104e-02 1.23407003e-02
      4.09549288e-02 3.73970196e-02 1.06676500e-02 3.62075083e-02
      3.22269090e-02 1.90236494e-02 3.68941501e-02</_>
    <_>
      5.46997599e-02 1.62885301e-02 5.42628095e-02 5.13353311e-02
      2.22467203e-02 5.40849008e-02 5.26455790e-02 1.21773500e-02
      5.37317805e-02 4.98029888e-02 3.06288502e-03 4.98551987e-02
      4.06753793e-02 1.57805607e-02 4.33766916e-02</_>
    <_>
      4.56872210e-02 3.45507897e-02 5.02674207e-02 4.58415411e-02
      2.31677108e-02 4.88096401e-02 4.98762988e-02 1.36599699e-02
      5.01752608e-02 4.80104685e-02 1.14329802e-02 4.71884795e-02
      3.82395498e-02 2.17281803e-02 4.18498889e-02</_>
    <_>
      5.41997291e-02 1.82051808e-02 5.43343909e-02 4.91713285e-02
      2.07968205e-02 5.33881187e-02 5.39330319e-02 1.21608004e-02
      5.52388094e-02 5.31837009e-02 2.05807202e-03 5.32198697e-02
      4.63043004e-02 1.77771002e-02 4.83333394e-02</_>
    <_>
      5.40064313e-02 1.83938704e-02 5.41622788e-02 4.89269085e-02
      2.07299292e-02 5.31359613e-02 5.35845086e-02 1.21515701e-02
      5.48833013e-02 5.30054606e-02 2.11879401e-03 5.30442894e-02
      4.65663895e-02 1.82668306e-02 4.85665016e-02</_>
    <_>
      4.94929105e-02 4.34119403e-02 6.11435696e-02 5.12465909e-02
      2.44601499e-02 5.36816791e-02 6.15799911e-02 2.65587904e-02
      5.78492396e-02 6.30876124e-02 2.85418797e-02 5.71438707e-02
      4.81557585e-02 2.98004504e-02 4.93776798e-02</_>
    <_>
      5.33320718e-02 2.41795592e-02 5.56242988e-02 4.52938415e-02
      2.01715101e-02 4.93741296e-02 4.96340692e-02 1.28777698e-02
      5.06689809e-02 4.66295108e-02 7.51180807e-03 4.61295992e-02
      4.00239900e-02 1.48994597e-02 4.27068695e-02</_>
    <_>
      4.55378592e-02 1.67526994e-02 4.54254299e-02 8.22141394e-02
      7.74488226e-02 3.39451209e-02 8.99038166e-02 7.83727020e-02
      4.45830300e-02 5.31726182e-02 1.83870196e-02 5.05170301e-02
      4.93526384e-02 2.97652297e-02 4.92145196e-02</_>
    <_>
      5.51341400e-02 1.73377302e-02 5.58755286e-02 4.89720590e-02
      1.96667593e-02 5.27212918e-02 5.34473509e-02 1.15868496e-02
      5.46886697e-02 5.23637310e-02 4.01970884e-03 5.23876287e-02
      4.55394909e-02 1.95501000e-02 4.77207191e-02</_>
    <_>
      3.59270200e-02 4.16868404e-02 4.79492098e-02 4.15240414e-02
      2.17444394e-02 4.68690991e-02 4.35312986e-02 1.07115302e-02
      4.47691791e-02 3.80675010e-02 5.64500503e-03 3.81717794e-02
      3.32904309e-02 2.02230792e-02 3.85864601e-02</_>
    <_>
      3.89340408e-02 2.61011906e-02 3.86072211e-02 3.77841815e-02
      1.90232098e-02 4.18468304e-02 4.03831303e-02 1.39587196e-02
      4.06454206e-02 3.69916894e-02 1.07322596e-02 3.57716903e-02
      3.12424302e-02 1.85892694e-02 3.48497406e-02</_>
    <_>
      2.42892504e-02 7.62271434e-02 7.34793097e-02 9.66096073e-02
      9.98555422e-02 3.09545007e-02 1.08663097e-01 1.08252302e-01
      1.00858202e-02 5.88975102e-02 1.85762793e-02 5.61642796e-02
      6.00175411e-02 4.97297682e-02 5.14579602e-02</_>
    <_>
      5.34446202e-02 2.12431997e-02 5.48472404e-02 5.03454283e-02
      2.11842991e-02 5.31743988e-02 5.71409203e-02 1.57100298e-02
      5.72845787e-02 5.67562394e-02 1.45680001e-02 5.51642701e-02
      4.70694192e-02 2.48844605e-02 4.81778719e-02</_>
    <_>
      5.11204489e-02 7.26543181e-03 5.13621010e-02 4.86132391e-02
      1.77877005e-02 5.17556891e-02 5.29276282e-02 1.06952600e-02
      5.37011512e-02 4.94797602e-02 7.61696883e-03 4.91058789e-02
      4.09998111e-02 1.54059399e-02 4.36552018e-02</_>
    <_>
      5.14301285e-02 1.70780402e-02 5.15267700e-02 5.14643416e-02
      1.94029994e-02 5.15279807e-02 5.39485291e-02 1.01447497e-02
      5.32890111e-02 5.19036800e-02 1.49176903e-02 5.23944497e-02
      4.28907201e-02 2.82071196e-02 4.92977202e-02</_>
    <_>
      4.40027192e-02 4.57533486e-02 5.87785989e-02 4.88316305e-02
      2.62807291e-02 5.16820103e-02 5.07519394e-02 1.71793103e-02
      5.06327488e-02 4.55450006e-02 7.68397516e-03 4.52025793e-02
      3.69492806e-02 1.86936799e-02 4.05284390e-02</_>
    <_>
      3.52726690e-02 4.14448418e-02 4.34499085e-02 4.24366184e-02
      2.12359503e-02 4.64764386e-02 4.70157005e-02 1.23882303e-02
      4.74255905e-02 8.27377886e-02 8.44936967e-02 3.07296608e-02
      5.95187210e-02 6.80249929e-02 4.42507602e-02</_>
    <_>
      4.70158309e-02 4.55100313e-02 6.11324683e-02 4.86675501e-02
      2.27379501e-02 5.18568084e-02 6.06438294e-02 2.26093493e-02
      5.85721917e-02 5.94578795e-02 2.53191106e-02 5.45751192e-02
      4.80167083e-02 3.08499504e-02 4.89654504e-02</_>
    <_>
      4.90124188e-02 4.08205986e-02 5.82322404e-02 5.90248890e-02
      3.95843089e-02 5.62725514e-02 6.54449090e-02 3.82578894e-02
      5.70956990e-02 6.17408417e-02 3.25813107e-02 5.26171401e-02
      5.41963913e-02 4.63179611e-02 4.44318987e-02</_>
    <_>
      5.10245711e-02 1.70572791e-02 4.86298688e-02 4.11056690e-02
      2.18540505e-02 4.63551506e-02 4.11084816e-02 1.44000500e-02
      4.12729308e-02 3.81858200e-02 1.36312302e-02 3.58249806e-02
      3.16817388e-02 1.53134102e-02 3.39036398e-02</_>
    <_>
      4.97923195e-02 1.40730003e-02 5.00727892e-02 4.64854799e-02
      1.59158092e-02 4.84802909e-02 5.44019602e-02 1.21247303e-02
      5.37241809e-02 5.50930090e-02 2.14458592e-02 5.30727692e-02
      4.49467413e-02 3.27991582e-02 4.97218706e-02</_>
    <_>
      2.68706493e-02 3.74768898e-02 3.60634811e-02 4.03490216e-02
      1.68370791e-02 4.36884016e-02 4.49745208e-02 9.85355116e-03
      4.55275290e-02 4.06932496e-02 7.59206200e-03 4.06240784e-02
      3.45566012e-02 2.23636795e-02 3.94433700e-02</_>
    <_>
      4.93657589e-02 1.23275695e-02 4.82655801e-02 4.88376990e-02
      2.40805708e-02 5.13730384e-02 5.19043617e-02 1.43258199e-02
      5.22347391e-02 4.87536900e-02 8.34863912e-03 4.84185293e-02
      3.91241089e-02 1.96198709e-02 4.24935706e-02</_>
    <_>
      4.97808605e-02 2.00672708e-02 4.92687412e-02 4.49609607e-02
      2.12612692e-02 4.67131510e-02 4.60979603e-02 9.73042566e-03
      4.63971384e-02 4.20011990e-02 6.66532200e-03 4.25232500e-02
      3.57982814e-02 2.05718093e-02 4.09593508e-02</_>
    <_>
      4.96539399e-02 2.25706492e-02 5.28483205e-02 4.87352386e-02
      2.09015701e-02 5.28898910e-02 5.79695590e-02 1.48712704e-02
      5.85340895e-02 6.17555901e-02 2.20548995e-02 5.81353083e-02
      5.04179895e-02 2.98920702e-02 5.13847992e-02</_>
    <_>
      5.09207398e-02 2.45638601e-02 5.25379889e-02 4.62009385e-02
      2.12635901e-02 4.96415682e-02 4.75779511e-02 1.01009104e-02
      4.85962518e-02 4.40134704e-02 5.19979419e-03 4.41787988e-02
      3.79428193e-02 1.78907495e-02 4.18689884e-02</_>
    <_>
      5.37468195e-02 2.85998005e-02 5.76837584e-02 4.68600504e-02
      2.07795706e-02 5.09612188e-02 4.93500009e-02 1.13102002e-02
      5.06278388e-02 4.74298112e-02 3.93346511e-03 4.75390591e-02
      4.05419394e-02 1.93790495e-02 4.37071510e-02</_>
    <_>
      3.98844108e-02 3.97226401e-02 4.71940897e-02 3.82567905e-02
      2.09808908e-02 4.34360392e-02 3.92807201e-02 1.09222298e-02
      4.04536910e-02 3.53270993e-02 7.50401895e-03 3.47378999e-02
      2.96194907e-02 1.69183891e-02 3.36612202e-02</_>
    <_>
      4.83942702e-02 1.84107199e-02 4.48227115e-02 5.11584803e-02
      2.15160903e-02 5.53640798e-02 6.03720993e-02 1.45353302e-02
      6.14452995e-02 5.70818298e-02 3.37421196e-03 5.70259504e-02
      4.39520702e-02 1.46234799e-02 4.62975614e-02</_>
    <_>
      4.21892107e-02 3.61511000e-02 4.73793708e-02 4.35765795e-02
      2.35466603e-02 4.64996882e-02 4.54596505e-02 1.14664100e-02
      4.58876118e-02 4.01170813e-02 7.23299291e-03 4.04163003e-02
      3.55244614e-02 2.10794099e-02 4.03904915e-02</_>
    <_>
      4.91544195e-02 2.75023095e-02 5.23560382e-02 4.22957800e-02
      2.02250499e-02 4.63301614e-02 4.37954813e-02 1.09856604e-02
      4.51207682e-02 4.38584797e-02 4.18519182e-03 4.39055786e-02
      3.50810811e-02 1.65565498e-02 3.84007096e-02</_>
    <_>
      4.87410612e-02 1.43864304e-02 4.84431908e-02 4.20835800e-02
      2.20194198e-02 4.70218584e-02 4.62771393e-02 1.36295101e-02
      4.69777510e-02 4.49637398e-02 8.26334115e-03 4.43281904e-02
      3.84028293e-02 1.59012508e-02 4.15122807e-02</_>
    <_>
      4.06557918e-02 2.50504799e-02 3.94217297e-02 3.62945683e-02
      1.87441893e-02 4.08426300e-02 3.76293212e-02 1.14032496e-02
      3.84740010e-02 3.49745713e-02 9.00680386e-03 3.41933817e-02
      2.99758296e-02 1.75217297e-02 3.42392884e-02</_>
    <_>
      4.14805785e-02 2.77004000e-02 4.03342582e-02 3.54525000e-02
      1.65834893e-02 3.90567705e-02 3.81779186e-02 1.07642002e-02
      3.91344018e-02 3.52620184e-02 9.08739306e-03 3.45515087e-02
      3.03996895e-02 1.79781895e-02 3.47710997e-02</_>
    <_>
      4.19563800e-02 4.29067202e-02 5.44085912e-02 3.95793393e-02
      1.94208492e-02 4.40609492e-02 3.98611315e-02 1.07051497e-02
      4.03795093e-02 3.63880582e-02 1.07664503e-02 3.52743790e-02
      2.99148299e-02 1.89089607e-02 3.44056785e-02</_>
    <_>
      5.57233803e-02 1.62719507e-02 5.55182695e-02 5.70250787e-02
      2.54389904e-02 5.87851591e-02 6.32612929e-02 2.11620405e-02
      6.20482899e-02 5.77932596e-02 1.15597602e-02 5.68170995e-02
      4.41579707e-02 1.70100108e-02 4.64600399e-02</_>
    <_>
      3.51890586e-02 4.39176597e-02 4.35792282e-02 4.18372191e-02
      2.26566307e-02 4.66313809e-02 4.67822105e-02 1.43836997e-02
      4.72010113e-02 8.47565308e-02 8.81978720e-02 2.84096505e-02
      6.19615503e-02 7.08223209e-02 4.27847616e-02</_>
    <_>
      4.25630994e-02 3.85078788e-02 4.84665819e-02 3.97659615e-02
      1.94501597e-02 4.40580510e-02 4.27464917e-02 9.98589769e-03
      4.38964292e-02 3.91862392e-02 4.82465792e-03 3.92645784e-02
      3.28103602e-02 1.68528091e-02 3.68816704e-02</_>
    <_>
      5.38351312e-02 2.00578999e-02 5.48564009e-02 5.04513197e-02
      2.04353798e-02 5.32431789e-02 5.75263985e-02 1.51934298e-02
      5.77221811e-02 5.66888303e-02 1.33831501e-02 5.54010086e-02
      4.70718816e-02 2.42366605e-02 4.84272204e-02</_>
    <_>
      4.24361005e-02 2.23092791e-02 4.00683805e-02 3.78661789e-02
      1.68627594e-02 4.12572697e-02 4.14210409e-02 1.13120303e-02
      4.20534387e-02 3.84873413e-02 1.05596101e-02 3.77876088e-02
      3.20071504e-02 1.92505699e-02 3.68914604e-02</_>
    <_>
      4.21089008e-02 2.64184307e-02 4.13433202e-02 4.14065607e-02
      2.31280606e-02 4.58886512e-02 4.38265689e-02 1.28603196e-02
      4.49982211e-02 4.15692888e-02 5.71097899e-03 4.14345004e-02
      3.41175012e-02 1.78869292e-02 3.76940593e-02</_>
    <_>
      4.99588512e-02 1.61674209e-02 5.00298701e-02 4.07122709e-02
      2.24270504e-02 4.55332808e-02 4.50969711e-02 1.40543096e-02
      4.56166305e-02 4.45307307e-02 6.93162903e-03 4.40985300e-02
      3.89125682e-02 1.59487501e-02 4.19541597e-02</_>
    <_>
      4.97677885e-02 5.19750714e-02 6.03686310e-02 9.90434885e-02
      9.83098596e-02 3.86078991e-02 1.09337702e-01 1.05875798e-01
      2.82494202e-02 9.94150564e-02 9.79375169e-02 2.97262408e-02
      7.34554306e-02 7.84934014e-02 4.72180992e-02</_>
    <_>
      5.05744815e-02 5.41032702e-02 6.49257600e-02 8.92101526e-02
      8.08618367e-02 5.40626086e-02 1.01316601e-01 9.19828415e-02
      4.44893092e-02 9.37555432e-02 8.78774375e-02 3.87279391e-02
      6.78903610e-02 6.52645007e-02 4.97536995e-02</_>
    <_>
      3.91806588e-02 3.87225598e-02 4.91706394e-02 3.77762802e-02
      1.90259703e-02 4.22969796e-02 3.93169299e-02 1.04252696e-02
      3.98792699e-02 3.63369286e-02 9.77103878e-03 3.57511602e-02
      3.12237609e-02 1.96826309e-02 3.65192182e-02</_>
    <_>
      4.04502600e-02 3.85785103e-02 4.93120514e-02 3.85111384e-02
      1.88130606e-02 4.28548791e-02 4.01715189e-02 1.05496598e-02
      4.05853391e-02 3.69618014e-02 1.08648697e-02 3.57620418e-02
      3.05327792e-02 1.77728999e-02 3.46229486e-02</_>
    <_>
      5.22016883e-02 2.05113105e-02 5.22687882e-02 4.65698913e-02
      2.32251901e-02 4.95460890e-02 4.96905111e-02 1.33628603e-02
      5.02447411e-02 4.56321314e-02 4.78006294e-03 4.57163304e-02
      3.87375690e-02 1.84214208e-02 4.21828516e-02</_>
    <_>
      2.64150891e-02 6.71642870e-02 6.17645793e-02 9.36000869e-02
      9.27435234e-02 3.01977303e-02 9.86481532e-02 9.32004228e-02
      3.23418006e-02 9.02366787e-02 8.82058665e-02 3.72570790e-02
      6.72370866e-02 7.90278986e-02 4.94382791e-02</_>
    <_>
      2.68245097e-02 7.10636377e-02 6.61089197e-02 9.37425122e-02
      9.37770233e-02 3.08175199e-02 9.45379734e-02 8.70765522e-02
      3.69971097e-02 8.60855207e-02 8.09004977e-02 3.98213901e-02
      6.51536584e-02 7.25480989e-02 4.64922488e-02</_>
    <_>
      2.85727996e-02 6.96124509e-02 6.44314811e-02 9.14431289e-02
      8.95816907e-02 4.20337506e-02 7.78487027e-02 5.12521416e-02
      6.15055710e-02 7.65856132e-02 5.63478693e-02 5.34904301e-02
      6.36312515e-02 6.00296296e-02 5.07128388e-02</_>
    <_>
      4.29954007e-02 3.67660001e-02 4.83569205e-02 4.03854810e-02
      1.85296107e-02 4.42495309e-02 4.35648896e-02 9.19868611e-03
      4.45254408e-02 4.01799083e-02 5.34688402e-03 4.03961390e-02
      3.36313583e-02 1.78864300e-02 3.80916595e-02</_>
    <_>
      4.26996909e-02 3.52423489e-02 4.24550399e-02 4.00547795e-02
      2.30653398e-02 4.44787182e-02 4.09254394e-02 1.18499696e-02
      4.20541503e-02 3.68562713e-02 4.16151620e-03 3.70413400e-02
      3.07288393e-02 1.78403407e-02 3.51733193e-02</_>
    <_>
      5.20961918e-02 1.91493202e-02 5.17140105e-02 4.43139896e-02
      2.16524396e-02 4.92059886e-02 4.94135208e-02 1.20768500e-02
      5.05334586e-02 4.60508689e-02 7.18022091e-03 4.57296297e-02
      3.81907187e-02 1.68614592e-02 4.16826904e-02</_>
    <_>
      5.48372008e-02 1.79076008e-02 5.55744506e-02 5.66592291e-02
      2.10150406e-02 5.94025292e-02 6.43272400e-02 1.80828702e-02
      6.41938075e-02 6.08067587e-02 1.02827400e-02 6.00520000e-02
      4.56990600e-02 1.38376402e-02 4.77215014e-02</_>
    <_>
      4.59062308e-02 4.28416096e-02 5.92317283e-02 4.90703583e-02
      2.61512101e-02 5.19669317e-02 4.87304218e-02 1.47249000e-02
      4.92451899e-02 4.41333503e-02 5.04287705e-03 4.41714004e-02
      3.55833508e-02 1.80089604e-02 3.96905094e-02</_>
    <_>
      2.69174408e-02 6.94431737e-02 6.60800785e-02 9.16197374e-02
      9.35114399e-02 3.24513912e-02 7.03312829e-02 4.35726792e-02
      5.72734810e-02 6.33434206e-02 4.09324504e-02 5.06567992e-02
      6.37173727e-02 6.55435473e-02 5.08684218e-02</_>
    <_>
      2.76906099e-02 7.11537004e-02 6.71720207e-02 9.66977403e-02
      9.98055413e-02 3.15007009e-02 7.53228366e-02 5.28880991e-02
      5.60416095e-02 6.31109774e-02 3.70809399e-02 5.23200184e-02
      6.92049563e-02 6.97191805e-02 5.06602488e-02</_>
    <_>
      4.56494018e-02 3.27027217e-02 4.55541611e-02 4.44454886e-02
      2.16993000e-02 4.78323288e-02 4.33674008e-02 8.82318243e-03
      4.41397913e-02 3.95262800e-02 1.18720196e-02 3.84184197e-02
      3.41975093e-02 2.02598199e-02 3.78101990e-02</_>
    <_>
      2.59863194e-02 6.98067769e-02 6.53818399e-02 9.71005633e-02
      9.94349122e-02 2.78407708e-02 8.32770169e-02 6.93877563e-02
      4.69972789e-02 6.12893999e-02 2.96149794e-02 5.47947399e-02
      6.99593425e-02 7.09722713e-02 5.12024015e-02</_>
    <_>
      4.17310894e-02 4.74805087e-02 5.61514907e-02 5.58422804e-02
      2.72626504e-02 5.72298206e-02 5.48792705e-02 1.38628604e-02
      5.54337502e-02 4.78499494e-02 3.82849597e-03 4.79838289e-02
      3.66411395e-02 1.68959796e-02 4.03486490e-02</_>
    <_>
      3.17403190e-02 3.25505994e-02 3.82676013e-02 4.75397408e-02
      2.14527994e-02 5.21492809e-02 5.17561994e-02 1.16489502e-02
      5.30492291e-02 5.63682914e-02 1.35523602e-02 5.50435595e-02
      5.97287007e-02 5.28616905e-02 5.42659201e-02</_>
    <_>
      2.60242596e-02 7.07435310e-02 6.62830696e-02 9.72120464e-02
      9.97607708e-02 3.09266895e-02 6.41440228e-02 4.11970690e-02
      5.18598817e-02 6.56523928e-02 3.74364518e-02 5.50549813e-02
      6.46399781e-02 5.89583702e-02 5.24636991e-02</_>
    <_>
      5.14839403e-02 1.81591492e-02 5.10982499e-02 4.42286097e-02
      2.05998700e-02 4.86677811e-02 5.01151383e-02 1.08073195e-02
      5.10531589e-02 4.70129885e-02 5.76749584e-03 4.69674282e-02
      3.92217897e-02 1.68385394e-02 4.26510610e-02</_>
    <_>
      4.17869799e-02 3.88426110e-02 4.82686907e-02 3.98156494e-02
      2.09231600e-02 4.45875898e-02 4.22594398e-02 1.06653403e-02
      4.35704812e-02 3.86263803e-02 4.73940000e-03 3.86161506e-02
      3.24688293e-02 1.63878296e-02 3.63368690e-02</_>
    <_>
      5.35067394e-02 2.36905105e-02 5.77427000e-02 4.55536284e-02
      2.02037003e-02 4.95694093e-02 4.76263613e-02 1.06874797e-02
      4.88105901e-02 4.66637090e-02 4.39585513e-03 4.68045697e-02
      3.83042209e-02 1.81276705e-02 4.19468805e-02</_>
    <_>
      4.93016392e-02 2.42088903e-02 4.54648584e-02 5.83359897e-02
      3.98811698e-02 5.43760695e-02 8.14351365e-02 6.56455308e-02
      5.09722792e-02 7.72069767e-02 6.46788403e-02 4.58478108e-02
      5.59055284e-02 4.76793014e-02 5.06010987e-02</_>
    <_>
      4.00868207e-02 3.91769707e-02 4.62143086e-02 3.83934714e-02
      2.05435995e-02 4.33215685e-02 3.92423794e-02 1.08531704e-02
      4.02245708e-02 3.60486396e-02 8.53555370e-03 3.53161208e-02
      3.01868096e-02 1.72080807e-02 3.40067185e-02</_>
    <_>
      3.86516415e-02 3.88835408e-02 4.86499704e-02 3.57816890e-02
      1.80967897e-02 3.97939794e-02 3.82951014e-02 1.32737597e-02
      3.84441987e-02 3.56437787e-02 1.27123902e-02 3.35769393e-02
      3.01431809e-02 1.93456300e-02 3.39556597e-02</_>
    <_>
      4.95055318e-02 5.69945909e-02 6.82469830e-02 9.79582369e-02
      9.79355723e-02 3.07948608e-02 1.08700298e-01 1.07913502e-01
      1.59454700e-02 9.88126472e-02 1.00636102e-01 2.68536899e-02
      7.37413317e-02 8.41228887e-02 4.35519591e-02</_>
    <_>
      3.46613005e-02 4.03039418e-02 4.78790700e-02 3.95137891e-02
      1.79509092e-02 4.33917493e-02 4.20075692e-02 1.07217003e-02
      4.24927101e-02 3.72251384e-02 1.14179701e-02 3.59805301e-02
      3.01088803e-02 1.91065706e-02 3.37503105e-02</_>
    <_>
      5.86450808e-02 1.73298605e-02 5.78299612e-02 6.08531684e-02
      2.25451794e-02 6.30378574e-02 6.95477873e-02 2.23711394e-02
      6.83534965e-02 6.59312382e-02 1.54813398e-02 6.41910285e-02
      5.03520817e-02 1.47553701e-02 5.19340597e-02</_>
    <_>
      3.81956697e-02 4.19848189e-02 4.70744297e-02 4.48204391e-02
      2.62686107e-02 4.80552688e-02 4.82886210e-02 1.67976804e-02
      4.83103506e-02 4.69807498e-02 1.79185905e-02 4.39710207e-02
      4.19730395e-02 2.62351409e-02 4.28129211e-02</_>
    <_>
      5.32264411e-02 2.02917494e-02 5.55291511e-02 4.46680412e-02
      2.03572009e-02 4.87310402e-02 4.63665389e-02 1.07719898e-02
      4.75985892e-02 4.53660488e-02 4.38843016e-03 4.55396883e-02
      3.79699282e-02 1.94786303e-02 4.17617708e-02</_>
    <_>
      4.61103916e-02 3.53179201e-02 5.16260788e-02 4.17718105e-02
      2.00608000e-02 4.62100506e-02 4.24035117e-02 9.81508289e-03
      4.32262383e-02 3.92573699e-02 8.16297438e-03 3.88643183e-02
      3.24309506e-02 1.77152902e-02 3.67276818e-02</_>
    <_>
      5.83364703e-02 1.84293706e-02 5.57453893e-02 5.56455106e-02
      1.83801204e-02 5.82463406e-02 6.26694337e-02 1.29759703e-02
      6.29922077e-02 6.10890687e-02 8.31509102e-03 6.08326904e-02
      4.81145084e-02 1.79914292e-02 5.09047285e-02</_>
    <_>
      5.31800389e-02 1.97720099e-02 5.60603701e-02 4.96780500e-02
      2.24054493e-02 5.30709215e-02 6.10616095e-02 2.38047503e-02
      5.84754311e-02 6.45066425e-02 3.68041284e-02 5.44161312e-02
      5.12539484e-02 3.73700000e-02 5.11534289e-02</_>
    <_>
      4.09871005e-02 2.32101809e-02 3.93673889e-02 3.68427187e-02
      1.89536996e-02 4.14265692e-02 3.81680690e-02 1.11860102e-02
      3.90936807e-02 3.56305912e-02 8.34556110e-03 3.50267105e-02
      3.01047098e-02 1.68689396e-02 3.42041589e-02</_>
    <_>
      2.28307005e-02 7.15774000e-02 6.85789585e-02 8.86306167e-02
      8.86376500e-02 3.27285193e-02 9.01053473e-02 8.17225873e-02
      3.81804295e-02 6.42263368e-02 4.21997607e-02 5.15897013e-02
      5.37817292e-02 5.16441017e-02 5.04442304e-02</_>
    <_>
      4.04232107e-02 3.93021591e-02 4.67520915e-02 3.85080203e-02
      2.07107402e-02 4.34402190e-02 3.99999395e-02 1.07823098e-02
      4.11358289e-02 3.66998389e-02 7.32977688e-03 3.62322591e-02
      3.07817496e-02 1.66738704e-02 3.45622301e-02</_>
    <_>
      5.05032912e-02 1.10551696e-02 5.07815592e-02 4.65167388e-02
      1.51158702e-02 4.87472601e-02 5.49138784e-02 1.08140502e-02
      5.45816794e-02 5.56033589e-02 2.07280498e-02 5.38136400e-02
      4.49741706e-02 3.19991596e-02 5.00804409e-02</_>
    <_>
      3.96985486e-02 4.24919985e-02 4.89530489e-02 4.18150499e-02
      2.25575007e-02 4.62893695e-02 4.01058495e-02 1.01618199e-02
      4.12842482e-02 3.46881188e-02 7.39410706e-03 3.42431590e-02
      2.97198799e-02 1.72620304e-02 3.40744704e-02</_>
    <_>
      4.69258502e-02 3.02361902e-02 5.12763411e-02 3.93553190e-02
      2.18634102e-02 4.49054986e-02 4.14994806e-02 1.24891596e-02
      4.22663912e-02 3.84369716e-02 1.00731198e-02 3.73174883e-02
      3.28337699e-02 1.76308993e-02 3.66843306e-02</_>
    <_>
      4.90981489e-02 2.67699193e-02 5.17587997e-02 4.16896306e-02
      2.06145998e-02 4.62573618e-02 5.24812713e-02 1.67199895e-02
      5.28991595e-02 5.42642698e-02 1.68184303e-02 5.17358296e-02
      4.17575091e-02 2.15567406e-02 4.32677604e-02</_>
    <_>
      5.53083196e-02 1.36217698e-02 5.44950105e-02 5.23812287e-02
      2.10255794e-02 5.44853397e-02 5.52308485e-02 1.21640898e-02
      5.58190010e-02 5.17976508e-02 4.59008384e-03 5.18833697e-02
      4.03348990e-02 1.60179995e-02 4.33688015e-02</_>
    <_>
      5.64238392e-02 1.48019297e-02 5.55304587e-02 5.35022207e-02
      1.96472704e-02 5.63484803e-02 5.81632890e-02 1.21563096e-02
      5.91202788e-02 5.57176694e-02 2.90843192e-03 5.57489507e-02
      4.44293506e-02 1.52702397e-02 4.69703116e-02</_>
    <_>
      5.23602404e-02 1.63096692e-02 5.22784516e-02 4.33181599e-02
      2.21531894e-02 4.78891283e-02 4.70025800e-02 1.41543197e-02
      4.75981608e-02 4.52805795e-02 9.42574535e-03 4.45288308e-02
      3.96542400e-02 1.54143898e-02 4.25409116e-02</_>
    <_>
      5.04487306e-02 2.13647597e-02 5.29234484e-02 4.87530418e-02
      2.09391993e-02 5.30184992e-02 5.74990101e-02 1.36535903e-02
      5.84113002e-02 5.87629713e-02 1.55150797e-02 5.69818616e-02
      4.87602614e-02 2.47530509e-02 5.03637493e-02</_>
    <_>
      4.39003408e-02 2.96751894e-02 4.77212407e-02 4.10477407e-02
      1.97444502e-02 4.54416908e-02 4.25864682e-02 1.09192599e-02
      4.37048189e-02 4.04060185e-02 6.22714590e-03 4.04339097e-02
      3.39845605e-02 1.85743198e-02 3.86989117e-02</_>
    <_>
      4.88610491e-02 2.63396595e-02 5.07872403e-02 4.19283211e-02
      2.10392196e-02 4.64210697e-02 5.39852902e-02 1.92527808e-02
      5.37191406e-02 5.54626398e-02 2.00905893e-02 5.18626310e-02
      4.25996818e-02 2.37599108e-02 4.34697308e-02</_>
    <_>
      4.75283004e-02 5.63008599e-02 6.41705096e-02 8.53635073e-02
      7.12368563e-02 5.81942387e-02 9.74906832e-02 8.29784572e-02
      5.26686609e-02 9.17332470e-02 8.23648125e-02 4.56736498e-02
      6.49819225e-02 5.87891713e-02 5.36043309e-02</_>
    <_>
      5.26846088e-02 1.10726999e-02 5.15210107e-02 5.38575016e-02
      2.58292500e-02 5.55572100e-02 5.91863692e-02 2.04448793e-02
      5.78719005e-02 5.50711118e-02 1.50133297e-02 5.33853397e-02
      4.29468192e-02 2.08484009e-02 4.54847813e-02</_>
    <_>
      4.48110290e-02 4.81361710e-02 5.89227304e-02 5.29976413e-02
      2.99579799e-02 5.26636317e-02 4.77323383e-02 1.48557201e-02
      4.72483411e-02 4.31185700e-02 7.71463104e-03 4.31953706e-02
      3.51949595e-02 2.00347695e-02 4.00020890e-02</_>
    <_>
      4.07784805e-02 5.10543212e-02 5.39638996e-02 8.49490687e-02
      7.21775219e-02 5.35015091e-02 9.37482715e-02 7.78297409e-02
      5.30955307e-02 8.62745494e-02 7.28022233e-02 5.05025312e-02
      5.57225496e-02 4.15419191e-02 5.35420813e-02</_>
    <_>
      4.40883897e-02 2.51093600e-02 4.53829095e-02 4.15048003e-02
      1.98701508e-02 4.58310209e-02 4.35857885e-02 1.03411600e-02
      4.46972400e-02 4.17631008e-02 5.17369900e-03 4.19455096e-02
      3.54631990e-02 2.39230897e-02 4.01227698e-02</_>
    <_>
      4.02816199e-02 3.40260118e-02 4.51908708e-02 4.63336110e-02
      2.10620891e-02 5.08952588e-02 4.98168282e-02 1.14192199e-02
      5.11050299e-02 4.42155004e-02 4.35311301e-03 4.43603285e-02
      4.23476882e-02 2.37049591e-02 4.47285101e-02</_>
    <_>
      5.63232191e-02 1.70067307e-02 5.40199801e-02 5.64925410e-02
      1.90241002e-02 5.90616390e-02 6.32139370e-02 1.44911800e-02
      6.38070703e-02 6.18770309e-02 7.52827711e-03 6.15098514e-02
      4.81461994e-02 1.51455496e-02 5.02967089e-02</_>
    <_>
      5.32610118e-02 1.39778098e-02 5.15682586e-02 6.88413829e-02
      4.89834696e-02 5.97770810e-02 7.61153772e-02 4.87026311e-02
      6.06824197e-02 6.58285916e-02 3.40082198e-02 5.71874790e-02
      4.97991890e-02 2.93302499e-02 4.97951806e-02</_>
    <_>
      5.07332198e-02 2.67096795e-02 5.61774895e-02 4.87125702e-02
      2.12194193e-02 5.24310507e-02 5.41585498e-02 1.36932498e-02
      5.48224300e-02 5.78596815e-02 2.04866100e-02 5.46417609e-02
      4.77766693e-02 2.88516507e-02 4.90782596e-02</_>
    <_>
      5.52087314e-02 1.52465301e-02 5.56627288e-02 5.14690205e-02
      2.24640705e-02 5.42646907e-02 6.34517372e-02 2.70853192e-02
      5.96890412e-02 5.99012710e-02 2.60702092e-02 5.45860082e-02
      4.83756289e-02 3.12101692e-02 4.85454313e-02</_>
    <_>
      4.87452783e-02 2.73594297e-02 5.19958399e-02 4.11535800e-02
      2.01007500e-02 4.56035212e-02 4.97519299e-02 1.40964100e-02
      5.05946688e-02 5.11735007e-02 1.25026396e-02 4.98025082e-02
      3.98345999e-02 1.97292604e-02 4.20781896e-02</_>
    <_>
      2.64304392e-02 3.89860198e-02 3.65980007e-02 3.88744697e-02
      1.96970794e-02 4.35547307e-02 4.20832112e-02 1.12247998e-02
      4.29402888e-02 3.94126698e-02 8.74930155e-03 3.90183292e-02
      3.16361710e-02 1.86585095e-02 3.67050208e-02</_>
    <_>
      3.97726297e-02 4.10769582e-02 4.85734306e-02 4.25521806e-02
      2.12865192e-02 4.63476107e-02 4.11241986e-02 8.87297373e-03
      4.20033485e-02 3.55544388e-02 7.95110222e-03 3.53605784e-02
      3.04623395e-02 1.86420400e-02 3.54759805e-02</_>
    <_>
      2.51714196e-02 7.40055293e-02 6.99270368e-02 9.62611288e-02
      9.85993594e-02 2.47821901e-02 9.68887284e-02 9.19910073e-02
      3.04375608e-02 8.15058127e-02 7.04731494e-02 4.73729298e-02
      6.39577135e-02 6.24751300e-02 4.91566695e-02</_>
    <_>
      5.46587817e-02 2.56709401e-02 5.76106682e-02 4.66118492e-02
      1.96158402e-02 5.05710095e-02 4.97823805e-02 1.14815496e-02
      5.08494191e-02 4.74132709e-02 5.49915899e-03 4.73403893e-02
      4.11618911e-02 1.63528994e-02 4.41067703e-02</_>
    <_>
      4.10862416e-02 2.57726293e-02 3.97837311e-02 3.58759910e-02
      1.80152208e-02 4.01046202e-02 3.77524793e-02 1.12280399e-02
      3.86487618e-02 3.50104608e-02 8.84036906e-03 3.42790708e-02
      3.01256105e-02 1.75617896e-02 3.43927592e-02</_>
    <_>
      4.53246795e-02 1.63523108e-02 4.51515689e-02 8.52646530e-02
      8.47946182e-02 2.40893196e-02 8.61189663e-02 7.13104233e-02
      4.94182594e-02 6.01494089e-02 2.70513408e-02 5.44132590e-02
      5.00991307e-02 3.18301208e-02 4.95268516e-02</_>
    <_>
      4.94339094e-02 2.32977401e-02 5.23986705e-02 4.71212491e-02
      1.94329508e-02 5.09393699e-02 5.08954898e-02 1.00308098e-02
      5.17530702e-02 4.75836918e-02 7.08002597e-03 4.73164506e-02
      3.94241810e-02 1.51072396e-02 4.21616212e-02</_>
    <_>
      4.15057801e-02 3.92241105e-02 4.83906195e-02 3.91840898e-02
      2.00639497e-02 4.38904911e-02 4.18362208e-02 1.06530702e-02
      4.31060791e-02 3.81956398e-02 5.57465106e-03 3.80305983e-02
      3.19431908e-02 1.62272099e-02 3.57215889e-02</_>
    <_>
      5.04504405e-02 1.10011101e-02 5.04168682e-02 6.29246831e-02
      3.87200490e-02 5.83236516e-02 4.52368297e-02 9.98507440e-03
      4.62064110e-02 4.16256003e-02 6.54782122e-03 4.15368788e-02
      3.48859690e-02 1.70455407e-02 3.87593210e-02</_>
    <_>
      4.78465408e-02 1.93479992e-02 4.39270884e-02 5.10578789e-02
      2.73869596e-02 5.24708591e-02 5.63387796e-02 2.12198794e-02
      5.45518398e-02 5.41097410e-02 1.70080103e-02 5.18640094e-02
      4.38951403e-02 2.38409005e-02 4.61532101e-02</_>
    <_>
      4.97339703e-02 1.38505902e-02 4.83431704e-02 4.99583483e-02
      2.37206295e-02 5.14372885e-02 5.32424599e-02 1.45333903e-02
      5.29568605e-02 4.88160588e-02 9.16477200e-03 4.86121401e-02
      3.87495793e-02 2.04075705e-02 4.26492617e-02</_>
    <_>
      4.94806804e-02 1.41461501e-02 4.82529514e-02 4.94695790e-02
      2.32021995e-02 5.08973002e-02 5.25667891e-02 1.38611896e-02
      5.23012318e-02 4.86256182e-02 9.54622403e-03 4.84559983e-02
      3.88086587e-02 2.10772492e-02 4.28918488e-02</_>
    <_>
      4.24719304e-02 1.69589408e-02 3.99331599e-02 3.97724696e-02
      1.97159797e-02 4.43723612e-02 4.22191583e-02 1.24725597e-02
      4.36206684e-02 3.73170301e-02 8.15750938e-03 3.64650488e-02
      3.08662206e-02 1.33649502e-02 3.32571790e-02</_>
    <_>
      4.13927808e-02 2.71156505e-02 4.11679894e-02 4.00821418e-02
      1.90119203e-02 4.42724898e-02 4.26709987e-02 1.02841901e-02
      4.35668603e-02 4.04983610e-02 6.03304105e-03 4.03966308e-02
      5.04182689e-02 3.97147909e-02 4.81880605e-02</_>
    <_>
      5.48748188e-02 1.26189301e-02 5.38986884e-02 5.30694909e-02
      2.08059698e-02 5.67842200e-02 5.72822914e-02 1.26193697e-02
      5.85093796e-02 5.45684583e-02 2.17263494e-03 5.45923412e-02
      4.22699600e-02 1.42831104e-02 4.46101315e-02</_>
    <_>
      4.26331013e-02 3.99788618e-02 5.25861010e-02 3.85815389e-02
      1.92950908e-02 4.31212112e-02 4.07185704e-02 1.08586997e-02
      4.13020812e-02 3.74022909e-02 1.00932503e-02 3.65477614e-02
      3.15796696e-02 1.95095707e-02 3.63240689e-02</_>
    <_>
      4.97754589e-02 1.93358194e-02 4.80483510e-02 4.40591387e-02
      2.11129505e-02 4.85919006e-02 4.86830696e-02 1.12539101e-02
      4.98414189e-02 5.27598187e-02 1.17242197e-02 5.18210307e-02
      4.51432802e-02 2.45927405e-02 4.72751111e-02</_>
    <_>
      5.42304106e-02 2.22896002e-02 5.57336099e-02 5.12277186e-02
      2.17941906e-02 5.37081212e-02 5.77668883e-02 1.60943903e-02
      5.77053912e-02 5.78808002e-02 1.65618900e-02 5.58291785e-02
      4.79020812e-02 2.60477606e-02 4.87381518e-02</_>
    <_>
      5.36325201e-02 2.75150891e-02 5.64422384e-02 4.61997017e-02
      1.94958393e-02 4.98153307e-02 5.08846603e-02 1.14931297e-02
      5.17901704e-02 5.20690009e-02 8.26340169e-03 5.16923815e-02
      4.24944907e-02 1.86699498e-02 4.51791696e-02</_>
    <_>
      4.03836295e-02 3.83095704e-02 4.94867302e-02 3.66731808e-02
      1.81124397e-02 4.06990498e-02 3.88794504e-02 1.30998101e-02
      3.91898006e-02 3.59619781e-02 1.18599897e-02 3.42338309e-02
      3.11302692e-02 1.91959199e-02 3.56362201e-02</_>
    <_>
      4.10655588e-02 3.15568112e-02 3.98278385e-02 3.72301005e-02
      1.87728293e-02 4.15480509e-02 3.83074693e-02 9.93380789e-03
      3.94883193e-02 3.41045894e-02 7.87090790e-03 3.36186588e-02
      2.97059398e-02 1.76367592e-02 3.43115814e-02</_>
    <_>
      5.07870317e-02 1.95624493e-02 5.01150601e-02 4.73992415e-02
      2.07218006e-02 5.14048710e-02 5.08515798e-02 1.18000396e-02
      5.21625206e-02 4.81602699e-02 3.64478398e-03 4.82234508e-02
      4.00055684e-02 1.60181299e-02 4.30932194e-02</_>
    <_>
      4.85935695e-02 5.58132604e-02 6.49000332e-02 8.67334306e-02
      7.62237832e-02 5.61940297e-02 9.90692601e-02 8.79880786e-02
      4.76276986e-02 9.24763530e-02 8.55932683e-02 4.04476188e-02
      6.58056810e-02 6.18149117e-02 5.02865389e-02</_>
    <_>
      4.89764698e-02 3.21211815e-02 5.37197590e-02 4.87430282e-02
      2.79346704e-02 5.28519116e-02 5.15223891e-02 1.77138802e-02
      5.25916889e-02 5.04032001e-02 1.31895803e-02 4.86815311e-02
      3.97026315e-02 1.93404201e-02 4.12613004e-02</_>
    <_>
      4.41860296e-02 4.43160385e-02 5.85960411e-02 4.83946912e-02
      2.57902406e-02 5.13140596e-02 4.92939986e-02 1.56126097e-02
      4.94995788e-02 4.45235409e-02 6.33406686e-03 4.44375612e-02
      3.59300710e-02 1.84853803e-02 3.99748795e-02</_>
    <_>
      4.83572707e-02 1.83976293e-02 4.49329093e-02 4.78625707e-02
      2.33226307e-02 5.08108698e-02 5.15381917e-02 1.39410496e-02
      5.19086309e-02 5.32744788e-02 1.42670004e-02 5.17531298e-02
      4.39016595e-02 2.40132008e-02 4.61674109e-02</_>
    <_>
      3.93016003e-02 2.67893896e-02 3.89127992e-02 3.90136689e-02
      1.94524191e-02 4.31660004e-02 4.05366495e-02 1.41224097e-02
      4.07550298e-02 3.75930183e-02 1.14024701e-02 3.63028608e-02
      3.15125883e-02 1.87736508e-02 3.49962115e-02</_>
    <_>
      3.68726104e-02 5.29304817e-02 5.23248017e-02 9.34144333e-02
      8.83687735e-02 3.52658182e-02 1.03676699e-01 9.73833501e-02
      3.63197289e-02 9.26600173e-02 8.69321674e-02 4.30031009e-02
      6.36320189e-02 5.57308719e-02 5.77875711e-02</_>
    <_>
      3.73936296e-02 2.74909493e-02 3.78293507e-02 3.77931409e-02
      1.97391901e-02 4.22285795e-02 4.00835499e-02 1.37807503e-02
      4.03845310e-02 3.64410095e-02 1.05464403e-02 3.52304801e-02
      3.09743807e-02 1.91758201e-02 3.48306298e-02</_>
    <_>
      5.21916412e-02 2.78071593e-02 5.29073514e-02 5.08093387e-02
      2.33398806e-02 5.36358282e-02 5.82961999e-02 1.91890895e-02
      5.74207492e-02 5.77267595e-02 1.90601200e-02 5.50251901e-02
      4.63104211e-02 2.55764592e-02 4.80027497e-02</_>
    <_>
      4.25758883e-02 2.13864502e-02 4.00238186e-02 4.10147496e-02
      2.08921600e-02 4.57059592e-02 4.33874801e-02 1.16415601e-02
      4.49215695e-02 3.91268097e-02 4.33842186e-03 3.89861912e-02
      3.27393003e-02 1.46497898e-02 3.58556099e-02</_>
    <_>
      4.73052189e-02 4.57062908e-02 6.13920800e-02 4.98344414e-02
      2.35238504e-02 5.26549593e-02 6.26723170e-02 2.64686998e-02
      5.90906218e-02 6.19224310e-02 2.91593391e-02 5.55649400e-02
      4.83804084e-02 3.13236490e-02 4.91905399e-02</_>
    <_>
      2.62800194e-02 4.75320406e-02 4.21464592e-02 8.83934721e-02
      9.01333392e-02 2.29046196e-02 9.76421684e-02 9.56878364e-02
      2.00864691e-02 4.25550193e-02 8.98815598e-03 4.21219394e-02
      3.44131216e-02 1.93479601e-02 3.89567986e-02</_>
    <_>
      4.97886389e-02 2.19496507e-02 4.93336394e-02 4.56816591e-02
      2.20950507e-02 4.72772308e-02 4.43458110e-02 8.82531796e-03
      4.48903702e-02 4.04237695e-02 6.30066590e-03 4.08505313e-02
      3.46885212e-02 1.97345503e-02 3.98407690e-02</_>
    <_>
      5.03900610e-02 1.77003108e-02 4.90006283e-02 5.44402003e-02
      1.98899396e-02 5.78960888e-02 6.19071200e-02 1.39244404e-02
      6.27909377e-02 6.00218996e-02 6.00736402e-03 5.98182306e-02
      4.58151698e-02 1.50207402e-02 4.81538214e-02</_>
    <_>
      4.22963202e-02 5.60138300e-02 5.87184317e-02 8.15023035e-02
      6.64836615e-02 5.75261191e-02 9.14092436e-02 7.43473172e-02
      5.48646897e-02 8.60654488e-02 7.23146573e-02 4.98187803e-02
      5.72358109e-02 4.62258011e-02 5.18069118e-02</_>
    <_>
      4.50996086e-02 1.72555801e-02 4.57325317e-02 8.18170533e-02
      7.58996606e-02 3.81531715e-02 6.43820167e-02 3.66593003e-02
      5.52027412e-02 5.11538386e-02 1.71563700e-02 4.88209203e-02
      4.56059985e-02 2.60548405e-02 4.68230508e-02</_>
    <_>
      3.93986218e-02 3.99144106e-02 4.62952890e-02 3.89171094e-02
      2.10154802e-02 4.38914113e-02 3.83691117e-02 1.08017903e-02
      3.91956083e-02 3.47883813e-02 9.82440077e-03 3.36920694e-02
      2.92642806e-02 1.80207491e-02 3.32742892e-02</_>
    <_>
      4.56084982e-02 2.41461508e-02 4.64110300e-02 4.18416187e-02
      2.00502593e-02 4.59819399e-02 4.27446701e-02 1.00366501e-02
      4.38114814e-02 4.04956117e-02 5.59384609e-03 4.05885093e-02
      3.62663306e-02 2.22004000e-02 4.06456292e-02</_>
    <_>
      4.23219092e-02 1.28075304e-02 4.04311605e-02 4.23205011e-02
      2.00452302e-02 4.64745387e-02 4.00101095e-02 1.01664905e-02
      4.01646309e-02 3.70557792e-02 1.20767802e-02 3.55683118e-02
      3.30159701e-02 1.50875803e-02 3.53995189e-02</_>
    <_>
      5.57703190e-02 1.64633598e-02 5.55552691e-02 5.55694290e-02
      2.16492005e-02 5.85363507e-02 6.06001802e-02 1.47597399e-02
      6.13112412e-02 5.55878989e-02 3.09072691e-03 5.55828400e-02
      4.33262289e-02 1.40576297e-02 4.55192402e-02</_>
    <_>
      4.23970409e-02 3.41658182e-02 4.78041507e-02 3.81103307e-02
      1.92059502e-02 4.26512398e-02 3.94220799e-02 1.12749804e-02
      4.00752611e-02 3.67172994e-02 9.81336646e-03 3.58079001e-02
      2.96197496e-02 1.77499391e-02 3.37762497e-02</_>
    <_>
      2.67958809e-02 7.16665909e-02 6.81226477e-02 9.08429995e-02
      9.25502405e-02 3.52985598e-02 6.93707168e-02 4.14755493e-02
      5.84204085e-02 6.58514425e-02 4.39559110e-02 5.08504994e-02
      6.28896281e-02 6.34511411e-02 4.99286391e-02</_>
    <_>
      5.48358001e-02 1.66202802e-02 5.43395989e-02 5.13115004e-02
      2.27312092e-02 5.43082617e-02 5.24154790e-02 1.25457402e-02
      5.36784083e-02 4.95319590e-02 2.14524101e-03 4.95671891e-02
      4.07174602e-02 1.51218204e-02 4.31980304e-02</_>
    <_>
      5.51351011e-02 1.25864698e-02 5.42504601e-02 5.17635606e-02
      2.04476602e-02 5.40664196e-02 5.38303293e-02 1.11474004e-02
      5.46487309e-02 5.07540293e-02 3.71743296e-03 5.08830585e-02
      3.99780795e-02 1.58691406e-02 4.30099107e-02</_>
    <_>
      3.87759209e-02 2.60843392e-02 3.83926705e-02 3.75601612e-02
      2.01512892e-02 4.23290804e-02 3.99670191e-02 1.25632696e-02
      4.06343006e-02 3.63522917e-02 9.26021021e-03 3.54977995e-02
      3.13270502e-02 1.89167503e-02 3.56144384e-02</_>
    <_>
      4.35157903e-02 1.50481304e-02 4.39397395e-02 3.74696292e-02
      2.29710806e-02 4.23128493e-02 4.00334485e-02 1.67707205e-02
      3.92075293e-02 3.68696712e-02 1.60112698e-02 3.33723612e-02
      3.12056597e-02 1.71152093e-02 3.40528712e-02</_>
    <_>
      5.02659008e-02 1.67615097e-02 5.00451103e-02 4.38322201e-02
      2.05734000e-02 4.66903597e-02 4.88098487e-02 1.27206203e-02
      4.88499999e-02 4.49283086e-02 7.28762383e-03 4.51194793e-02
      3.69070508e-02 2.05581393e-02 4.14424688e-02</_>
    <_>
      4.23527695e-02 2.41055992e-02 4.07882705e-02 3.74979004e-02
      1.98575202e-02 4.24311198e-02 3.87705304e-02 1.22937104e-02
      3.99773084e-02 3.62169407e-02 7.84227718e-03 3.55168208e-02
      3.08002997e-02 1.54374000e-02 3.41960788e-02</_>
    <_>
      3.84888388e-02 2.66914908e-02 3.83338295e-02 3.76490690e-02
      2.04541702e-02 4.25770991e-02 3.99887599e-02 1.26798199e-02
      4.06236202e-02 3.64187099e-02 9.28698108e-03 3.55567187e-02
      3.14929001e-02 1.91094000e-02 3.58063392e-02</_>
    <_>
      5.02016209e-02 3.06143705e-02 5.65076396e-02 4.01402600e-02
      2.00470798e-02 4.48488183e-02 4.14482318e-02 1.12595204e-02
      4.24732305e-02 3.84174809e-02 9.05604474e-03 3.77569087e-02
      3.25807482e-02 1.84712000e-02 3.69336307e-02</_>
    <_>
      5.33776991e-02 1.70892794e-02 5.42500503e-02 5.01993299e-02
      2.22690105e-02 5.29261492e-02 6.10892288e-02 2.44054999e-02
      5.83353303e-02 5.54528385e-02 1.74890291e-02 5.30556887e-02
      4.40627001e-02 2.41337493e-02 4.57878299e-02</_>
    <_>
      5.31284809e-02 1.41148996e-02 5.14942892e-02 6.89781308e-02
      4.87151705e-02 5.99374101e-02 7.64030218e-02 4.88504916e-02
      6.08867891e-02 6.60086125e-02 3.41397114e-02 5.73366210e-02
      4.99789007e-02 2.94962600e-02 4.99701612e-02</_>
    <_>
      3.92438099e-02 4.11586389e-02 4.71494384e-02 3.91106717e-02
      2.12230701e-02 4.38785404e-02 3.91323790e-02 9.93719511e-03
      4.02844809e-02 3.47799994e-02 6.34138519e-03 3.45856808e-02
      2.93741692e-02 1.76323298e-02 3.41118015e-02</_>
    <_>
      3.90145890e-02 2.54498795e-02 3.84190194e-02 3.74529213e-02
      1.95897706e-02 4.19572294e-02 3.99798490e-02 1.24684200e-02
      4.06748205e-02 3.63093689e-02 9.24577564e-03 3.54599990e-02
      3.10925003e-02 1.87448394e-02 3.53834890e-02</_>
    <_>
      5.31097502e-02 2.29615793e-02 5.70173115e-02 4.87790108e-02
      2.09662598e-02 5.26067019e-02 5.35748117e-02 1.26879001e-02
      5.45606688e-02 5.75343482e-02 1.83608495e-02 5.49917482e-02
      4.81636003e-02 2.77784504e-02 4.96219993e-02</_>
    <_>
      5.07467911e-02 1.03061097e-02 4.96909991e-02 4.58844416e-02
      2.17134096e-02 4.89058197e-02 6.22464791e-02 3.20692882e-02
      5.54043390e-02 6.75003827e-02 4.92125712e-02 4.87907082e-02
      5.10818996e-02 4.44851294e-02 4.82471995e-02</_>
    <_>
      4.41758707e-02 3.49470899e-02 5.02863489e-02 3.81906591e-02
      1.90646909e-02 4.25462201e-02 3.97013500e-02 1.30752400e-02
      4.01445515e-02 3.68920900e-02 1.15253897e-02 3.54201496e-02
      3.16472910e-02 1.90376192e-02 3.60967107e-02</_>
    <_>
      4.96614091e-02 4.15694192e-02 6.01762198e-02 5.10998704e-02
      2.41480004e-02 5.36901616e-02 5.11027388e-02 1.57618709e-02
      5.09452596e-02 4.23368104e-02 5.74700115e-03 4.24878784e-02
      3.51326801e-02 1.97984502e-02 3.97719815e-02</_>
    <_>
      5.33921905e-02 2.07185503e-02 5.46455905e-02 5.00480682e-02
      2.08910406e-02 5.29322103e-02 5.69314286e-02 1.54500604e-02
      5.71304299e-02 5.64301796e-02 1.39415301e-02 5.49844392e-02
      4.67699096e-02 2.43723392e-02 4.80113514e-02</_>
    <_>
      5.35359792e-02 1.50180599e-02 5.42816110e-02 4.98276912e-02
      1.98482703e-02 5.36284409e-02 5.42423688e-02 1.18629998e-02
      5.55133782e-02 5.05349897e-02 3.39382910e-03 5.05320095e-02
      4.15009111e-02 1.48150399e-02 4.40570787e-02</_>
    <_>
      5.49112298e-02 1.20194303e-02 5.40969707e-02 5.33313192e-02
      2.08639205e-02 5.70851304e-02 5.77737615e-02 1.26332296e-02
      5.90252392e-02 5.51508889e-02 2.49853008e-03 5.51588684e-02
      4.16493714e-02 1.45286601e-02 4.40988392e-02</_>
    <_>
      3.67705189e-02 3.92241590e-02 4.72331196e-02 3.65177393e-02
      1.73428506e-02 4.03599516e-02 3.86288390e-02 1.18578495e-02
      3.89579497e-02 3.54742110e-02 1.08541297e-02 3.42155918e-02
      3.00252605e-02 1.89490505e-02 3.46475318e-02</_>
    <_>
      5.41195311e-02 2.17613503e-02 5.73006906e-02 4.59840782e-02
      2.05542799e-02 4.99166399e-02 4.81888689e-02 1.09769702e-02
      4.94068488e-02 4.82085906e-02 6.32270984e-03 4.81559709e-02
      3.99062708e-02 1.98551696e-02 4.32563014e-02</_>
    <_>
      4.43401784e-02 3.62047702e-02 5.10014109e-02 4.07094508e-02
      1.98747907e-02 4.52578999e-02 4.24239710e-02 1.02109099e-02
      4.32482883e-02 3.93137112e-02 8.63028225e-03 3.87734696e-02
      3.27419899e-02 1.75849292e-02 3.71135809e-02</_>
    <_>
      5.51588386e-02 1.87884793e-02 5.55841215e-02 5.43196797e-02
      2.42562201e-02 5.58351390e-02 5.93316406e-02 1.81109402e-02
      5.84840514e-02 5.47913685e-02 1.05329501e-02 5.41466102e-02
      4.18479592e-02 1.71421003e-02 4.47128490e-02</_>
    <_>
      4.81902212e-02 1.06376102e-02 4.74359207e-02 4.01950292e-02
      2.24914607e-02 4.50401604e-02 4.47443388e-02 1.43884402e-02
      4.51447591e-02 4.34871092e-02 9.10516456e-03 4.26193997e-02
      3.77193987e-02 1.63140893e-02 4.09800112e-02</_>
    <_>
      5.32479100e-02 1.73690096e-02 5.42941689e-02 5.02233990e-02
      2.21250094e-02 5.29550910e-02 5.99309802e-02 2.20043492e-02
      5.80539592e-02 5.40555492e-02 1.38010997e-02 5.26377596e-02
      4.26366404e-02 2.14194804e-02 4.50147912e-02</_>
    <_>
      2.42145192e-02 7.47050866e-02 7.22486377e-02 9.41769108e-02
      9.65756923e-02 3.00194696e-02 1.01888202e-01 9.96292531e-02
      2.15349495e-02 5.98061010e-02 3.02108191e-02 5.25530912e-02
      5.76394796e-02 5.06212786e-02 5.00745885e-02</_>
    <_>
      3.23292203e-02 4.21383418e-02 3.96771692e-02 4.28221598e-02
      2.18445193e-02 4.78895903e-02 4.50042114e-02 1.07443500e-02
      4.62641306e-02 4.37837988e-02 3.66233895e-03 4.38924097e-02
      3.66184302e-02 1.90368891e-02 4.06778194e-02</_>
    <_>
      5.05020097e-02 1.99730191e-02 5.19768484e-02 4.21072617e-02
      2.19793096e-02 4.70796786e-02 4.64780405e-02 1.31772701e-02
      4.73058112e-02 4.46159989e-02 7.19001703e-03 4.41485904e-02
      3.84034291e-02 1.56867094e-02 4.14733291e-02</_>
    <_>
      4.86474000e-02 2.16032397e-02 4.55780812e-02 5.20497113e-02
      2.72920001e-02 5.36172315e-02 4.45583314e-02 9.14303493e-03
      4.54047509e-02 4.11164016e-02 7.64339278e-03 4.08937410e-02
      3.47184092e-02 1.76016092e-02 3.85529585e-02</_>
    <_>
      5.00968210e-02 2.49586999e-02 4.93432693e-02 5.50314784e-02
      2.03755107e-02 5.67814894e-02 6.27752692e-02 1.79878399e-02
      6.15499690e-02 6.01103604e-02 1.55696701e-02 5.87081313e-02
      4.65547591e-02 2.00892705e-02 4.94822003e-02</_>
    <_>
      4.95881587e-02 3.14923190e-02 5.62670007e-02 3.97115201e-02
      1.99951995e-02 4.44414094e-02 4.09467705e-02 1.12477597e-02
      4.19508703e-02 3.79390083e-02 9.28387884e-03 3.72273996e-02
      3.23807597e-02 1.86787397e-02 3.68170515e-02</_>
    <_>
      5.13002984e-02 2.71424409e-02 5.27418591e-02 5.22414297e-02
      2.73080692e-02 5.35115898e-02 5.34059405e-02 1.63697097e-02
      5.31339496e-02 5.24923094e-02 1.47543000e-02 5.08167297e-02
      4.36165109e-02 2.47436203e-02 4.54538018e-02</_>
    <_>
      3.89860310e-02 4.94133011e-02 5.11869304e-02 8.98474976e-02
      8.06916803e-02 4.70954105e-02 9.57374498e-02 8.13136697e-02
      5.07741496e-02 8.84523988e-02 7.74691030e-02 4.93655987e-02
      5.81296496e-02 4.59365211e-02 5.58265299e-02</_>
    <_>
      4.34064604e-02 1.58233102e-02 4.25139107e-02 4.60581891e-02
      2.13694591e-02 4.94587384e-02 4.21952307e-02 9.37968306e-03
      4.27231900e-02 3.98593098e-02 1.02028297e-02 3.91884893e-02
      3.57539915e-02 1.62494294e-02 3.88350897e-02</_>
    <_>
      5.32095209e-02 1.77976899e-02 5.43143488e-02 5.07058501e-02
      2.21540704e-02 5.32365814e-02 5.80811314e-02 1.80946700e-02
      5.73760085e-02 5.24047986e-02 9.26799979e-03 5.19213416e-02
      4.10116687e-02 1.87452305e-02 4.40312289e-02</_>
    <_>
      5.21022789e-02 2.26934701e-02 5.50391115e-02 4.62421812e-02
      2.17813402e-02 5.00440896e-02 8.20066929e-02 6.70634732e-02
      4.74566594e-02 7.26462305e-02 6.33911788e-02 4.44569401e-02
      5.52696697e-02 5.82864918e-02 5.18991090e-02</_>
    <_>
      4.21563387e-02 5.46065308e-02 5.76671995e-02 8.22957829e-02
      6.71821386e-02 5.69662191e-02 9.17300135e-02 7.45649934e-02
      5.47518805e-02 8.51789787e-02 7.06462935e-02 5.09277284e-02
      5.60423806e-02 4.40339893e-02 5.23493700e-02</_>
    <_>
      4.38038493e-03 8.20935220e-02 8.20555314e-02 8.75041634e-02
      9.07571465e-02 2.61155404e-02 9.49096605e-02 9.32864472e-02
      1.82883404e-02 8.48469734e-02 8.44811723e-02 3.39885913e-02
      6.24797605e-02 7.60570988e-02 4.96782288e-02</_>
    <_>
      3.82815711e-02 3.83466706e-02 4.75991294e-02 4.00439911e-02
      1.96517799e-02 4.44338098e-02 4.34574895e-02 1.36155700e-02
      4.40123007e-02 4.06960696e-02 1.23400902e-02 3.89045104e-02
      3.33188996e-02 1.68988202e-02 3.57255712e-02</_>
    <_>
      4.27353717e-02 4.29150909e-02 5.01790196e-02 4.44438197e-02
      2.51106508e-02 4.75329496e-02 4.34044786e-02 1.17575796e-02
      4.43586111e-02 3.89707014e-02 4.91658412e-03 3.90849598e-02
      3.29153799e-02 1.83537304e-02 3.70492712e-02</_>
    <_>
      5.35656102e-02 1.30479103e-02 5.21052703e-02 6.60515428e-02
      4.73283418e-02 5.71368411e-02 7.13757500e-02 4.30348888e-02
      5.91784082e-02 6.11987188e-02 2.90455800e-02 5.46963587e-02
      4.69935685e-02 2.81596407e-02 4.79015112e-02</_>
    <_>
      4.26821113e-02 1.75878592e-02 4.00052182e-02 4.00666296e-02
      1.99842807e-02 4.47269306e-02 4.24559116e-02 1.22922203e-02
      4.39364612e-02 3.75928394e-02 7.32396077e-03 3.69209014e-02
      3.13215405e-02 1.34465601e-02 3.38319317e-02</_>
    <_>
      4.25591990e-02 1.96235403e-02 3.99201103e-02 4.06076610e-02
      2.06860397e-02 4.54242192e-02 4.30227108e-02 1.20253600e-02
      4.46170606e-02 3.84748913e-02 5.48638217e-03 3.81392501e-02
      3.22633982e-02 1.40105002e-02 3.50944512e-02</_>
    <_>
      5.35924584e-02 1.67905800e-02 5.36434315e-02 4.50876504e-02
      2.10088193e-02 4.92429808e-02 4.84965704e-02 1.37426900e-02
      4.92651016e-02 4.76328395e-02 7.02761021e-03 4.73047085e-02
      4.23610099e-02 1.60338599e-02 4.49851789e-02</_>
    <_>
      4.09183688e-02 1.48222204e-02 3.88091207e-02 3.84235084e-02
      1.77309308e-02 4.22806814e-02 4.10476699e-02 1.24510396e-02
      4.17018086e-02 3.61643285e-02 1.16295703e-02 3.44964489e-02
      2.90030092e-02 1.49678597e-02 3.14996988e-02</_>
    <_>
      1.50842397e-02 8.11365396e-02 8.02814364e-02 9.49976370e-02
      9.95541289e-02 2.98821796e-02 1.05160497e-01 1.05308399e-01
      6.41271379e-03 9.29638669e-02 9.92260128e-02 3.48890200e-02
      6.16717190e-02 8.94578472e-02 6.55359328e-02</_>
    <_>
      4.16873395e-02 5.27014397e-02 5.56956083e-02 8.47286284e-02
      7.14459568e-02 5.49466386e-02 9.35223401e-02 7.75518790e-02
      5.34285605e-02 8.56501535e-02 7.14038089e-02 5.06512113e-02
      5.49937300e-02 4.11980897e-02 5.22443205e-02</_>
    <_>
      4.13417108e-02 4.96010892e-02 5.81771806e-02 6.04763515e-02
      3.32986191e-02 5.96132614e-02 5.84377311e-02 1.88419893e-02
      5.77436090e-02 5.05000018e-02 7.68508995e-03 5.02528809e-02
      3.87172289e-02 1.76713392e-02 4.22741883e-02</_>
    <_>
      5.35506494e-02 2.35800296e-02 5.77500015e-02 4.84261103e-02
      2.09351704e-02 5.22075891e-02 5.24842292e-02 1.22667504e-02
      5.35304211e-02 5.57128601e-02 1.57750808e-02 5.38587384e-02
      4.60534617e-02 2.50942297e-02 4.80330996e-02</_>
    <_>
      4.94398400e-02 2.52473708e-02 5.40111586e-02 4.97166701e-02
      2.12454908e-02 5.35132587e-02 6.11258186e-02 2.02538092e-02
      6.00496791e-02 6.37358427e-02 3.12233195e-02 5.64256199e-02
      5.19416407e-02 3.65003012e-02 5.19285984e-02</_>
    <_>
      4.95191813e-02 2.84904409e-02 5.27257100e-02 5.00128791e-02
      2.68975291e-02 5.14891706e-02 5.31020090e-02 1.86890606e-02
      5.19953817e-02 5.12651317e-02 1.69713795e-02 4.90252487e-02
      4.35760096e-02 2.98109204e-02 4.45710905e-02</_>
    <_>
      5.16406707e-02 2.31836494e-02 5.19059896e-02 4.66996394e-02
      2.14433298e-02 5.03879189e-02 4.84408103e-02 1.08722597e-02
      4.95744087e-02 4.52430882e-02 4.38070484e-03 4.53736894e-02
      3.89523692e-02 1.70991197e-02 4.24635112e-02</_>
    <_>
      5.47804907e-02 1.67744607e-02 5.48853502e-02 5.27490303e-02
      2.27698609e-02 5.48505597e-02 5.60009889e-02 1.41268997e-02
      5.62983193e-02 5.22978790e-02 6.55216677e-03 5.21847792e-02
      4.08023186e-02 1.65400393e-02 4.38005701e-02</_>
    <_>
      4.32425514e-02 1.47722699e-02 4.28755693e-02 3.83774601e-02
      2.29429808e-02 4.31090109e-02 4.02647816e-02 1.68064702e-02
      3.94466892e-02 3.71884294e-02 1.61965806e-02 3.36228982e-02
      3.17168310e-02 1.75248496e-02 3.44367810e-02</_>
    <_>
      5.52824289e-02 1.55080296e-02 5.47274090e-02 5.14079705e-02
      2.16128603e-02 5.43392412e-02 5.24492487e-02 1.11545501e-02
      5.35684004e-02 4.92047817e-02 3.43674398e-03 4.92669716e-02
      4.06772010e-02 1.58090908e-02 4.36167903e-02</_>
    <_>
      4.91000004e-02 1.84725709e-02 4.96466309e-02 4.34397794e-02
      2.10829601e-02 4.81349491e-02 4.70610186e-02 1.30779697e-02
      4.79399897e-02 4.49049696e-02 8.41148756e-03 4.42634486e-02
      3.81306112e-02 1.59742795e-02 4.12404798e-02</_>
    <_>
      2.12478302e-02 7.10698068e-02 6.78196102e-02 8.49857926e-02
      8.25730935e-02 3.90383713e-02 8.62217918e-02 7.27725029e-02
      4.65830304e-02 6.71385005e-02 4.51387689e-02 5.34815192e-02
      5.39510399e-02 5.12794405e-02 5.21371290e-02</_>
    <_>
      5.45794815e-02 1.16144205e-02 5.33707701e-02 6.66166618e-02
      4.60790992e-02 5.94100393e-02 7.26693720e-02 4.27329689e-02
      6.11648299e-02 6.29064888e-02 2.85477806e-02 5.67229316e-02
      4.83231507e-02 2.67241094e-02 4.93362211e-02</_>
    <_>
      3.85988988e-02 2.64194999e-02 3.79232317e-02 3.80270407e-02
      1.94475595e-02 4.27003019e-02 3.84960994e-02 1.19821802e-02
      3.84197198e-02 3.51802818e-02 1.28572499e-02 3.30432206e-02
      3.03461701e-02 1.50245801e-02 3.26174013e-02</_>
    <_>
      5.55718988e-02 2.14666706e-02 5.69960289e-02 5.35243899e-02
      2.33999491e-02 5.60175404e-02 5.36381900e-02 1.20774005e-02
      5.48199601e-02 4.89745103e-02 2.68155406e-03 4.89979312e-02
      3.91091891e-02 1.47088701e-02 4.17665802e-02</_>
    <_>
      5.21086603e-02 3.01762894e-02 5.54563999e-02 5.03478013e-02
      2.20231991e-02 5.39546087e-02 5.64986691e-02 1.53652197e-02
      5.68224303e-02 5.83942682e-02 1.80973709e-02 5.59960604e-02
      4.78510000e-02 2.68007796e-02 4.93960194e-02</_>
    <_>
      4.89530489e-02 2.19966900e-02 4.48629186e-02 8.60383064e-02
      8.57299864e-02 1.99494306e-02 9.50856805e-02 9.27498266e-02
      2.09466405e-02 4.85614389e-02 2.15868708e-02 4.48193103e-02
      4.31116782e-02 2.61983108e-02 4.52947803e-02</_>
    <_>
      4.44313809e-02 1.65257491e-02 4.37102616e-02 8.58564526e-02
      8.62033069e-02 2.42618397e-02 8.90184268e-02 8.44311789e-02
      2.82486100e-02 5.52454591e-02 2.89406609e-02 4.83499803e-02
      5.57620600e-02 4.74124886e-02 5.13347909e-02</_>
    <_>
      5.51086888e-02 1.90948397e-02 5.63429818e-02 4.83083688e-02
      1.95513908e-02 5.20181693e-02 5.21071702e-02 1.12180403e-02
      5.33007011e-02 5.11561818e-02 4.46627894e-03 5.11882305e-02
      4.50525805e-02 2.05881801e-02 4.73013297e-02</_>
    <_>
      5.14156818e-02 3.82877998e-02 5.87219410e-02 5.39938211e-02
      2.62264106e-02 5.57218604e-02 6.30476028e-02 2.67535392e-02
      5.94622791e-02 5.37366085e-02 1.73618402e-02 5.14612012e-02
      4.29872014e-02 2.35039294e-02 4.54546399e-02</_>
    <_>
      2.38655694e-02 6.72724620e-02 6.67547137e-02 8.00095871e-02
      8.14796612e-02 3.29546295e-02 8.67542475e-02 8.28882530e-02
      2.57023107e-02 6.67778030e-02 4.84560393e-02 4.81643304e-02
      4.99191396e-02 3.71216387e-02 4.85308617e-02</_>
    <_>
      3.69699709e-02 3.84987704e-02 4.65804785e-02 3.53717394e-02
      1.80449095e-02 3.93657796e-02 3.79139297e-02 1.37595702e-02
      3.80743407e-02 3.52996290e-02 1.28671499e-02 3.31612304e-02
      3.01328506e-02 1.91989299e-02 3.42244618e-02</_>
    <_>
      4.43155318e-02 1.67870205e-02 4.32251096e-02 8.60405192e-02
      8.65853801e-02 2.39972491e-02 9.37088132e-02 9.02003273e-02
      2.54052896e-02 5.98463714e-02 3.48474681e-02 5.00961691e-02
      5.70315681e-02 4.95219491e-02 5.15741408e-02</_>
    <_>
      4.45133597e-02 3.82090807e-02 4.60673384e-02 8.70696381e-02
      8.80186707e-02 2.33630091e-02 9.59519669e-02 9.46162865e-02
      1.59631502e-02 8.70087370e-02 8.85578915e-02 2.30828095e-02
      6.43278882e-02 7.39924535e-02 4.00645509e-02</_>
    <_>
      5.21838106e-02 1.64657496e-02 5.19722290e-02 4.38092500e-02
      2.23315693e-02 4.82242294e-02 4.80571799e-02 1.46373902e-02
      4.85748611e-02 4.61121388e-02 9.44557600e-03 4.52279411e-02
      4.00850102e-02 1.50780501e-02 4.28253189e-02</_>
    <_>
      5.47111891e-02 3.24519388e-02 5.87585010e-02 5.53286411e-02
      3.24308686e-02 5.71909398e-02 6.09409995e-02 2.62295902e-02
      5.95315397e-02 5.98153509e-02 2.37730592e-02 5.48892505e-02
      4.71493416e-02 2.31113899e-02 4.59529795e-02</_>
    <_>
      4.21616808e-02 4.77439612e-02 5.68590909e-02 5.73219806e-02
      2.88585294e-02 5.81574999e-02 5.58385514e-02 1.48568004e-02
      5.61667196e-02 4.84501012e-02 4.38549696e-03 4.85569984e-02
      3.70989703e-02 1.70418192e-02 4.08091098e-02</_>
    <_>
      4.29431498e-02 1.92470606e-02 3.89185213e-02 5.04888408e-02
      3.26809511e-02 4.87582907e-02 5.34817018e-02 2.00677700e-02
      5.19366115e-02 4.76466194e-02 1.16200596e-02 4.66731787e-02
      3.75640690e-02 2.12686006e-02 4.07387204e-02</_>
    <_>
      4.35430510e-03 8.16435218e-02 8.15313086e-02 8.79755616e-02
      9.18098465e-02 2.92837694e-02 9.69322920e-02 9.69142765e-02
      5.03721600e-03 8.68671909e-02 9.06692892e-02 2.63271201e-02
      6.22328185e-02 7.91894197e-02 4.97952700e-02</_>
    <_>
      4.75358404e-02 2.81066503e-02 4.41662110e-02 4.26329002e-02
      2.17533503e-02 4.78505418e-02 4.53178883e-02 1.33661097e-02
      4.60403897e-02 3.62128913e-02 1.28540304e-02 3.41021307e-02
      3.06679197e-02 2.02481505e-02 3.49811688e-02</_>
    <_>
      5.46840504e-02 1.62380692e-02 5.22203818e-02 5.24271317e-02
      1.87122598e-02 5.55725098e-02 5.79839796e-02 1.18249701e-02
      5.90557195e-02 5.78179099e-02 3.62885697e-03 5.78351617e-02
      4.59045209e-02 1.54423798e-02 4.84072603e-02</_>
    <_>
      5.55021092e-02 1.63323507e-02 5.31609505e-02 5.49180396e-02
      1.87011492e-02 5.77332303e-02 6.10952117e-02 1.30607896e-02
      6.19692504e-02 6.02700897e-02 5.46974503e-03 6.01251312e-02
      4.72482592e-02 1.51403304e-02 4.95364890e-02</_>
    <_>
      4.19778889e-03 8.19182694e-02 8.18471164e-02 8.79555270e-02
      9.22235325e-02 2.93281097e-02 9.69590992e-02 9.69838426e-02
      3.21047008e-03 8.68035629e-02 9.06561837e-02 2.68122796e-02
      6.20662197e-02 7.95480013e-02 5.05991988e-02</_>
    <_>
      5.35480306e-02 2.72180792e-02 5.63264601e-02 5.06622382e-02
      2.23829392e-02 5.36087789e-02 5.18740900e-02 1.12557197e-02
      5.28308004e-02 4.94463295e-02 5.78982709e-03 4.94422689e-02
      4.37918492e-02 2.24003494e-02 4.62026298e-02</_>
    <_>
      3.88295986e-02 3.75499316e-02 4.75681908e-02 3.69718708e-02
      1.73429605e-02 4.07803692e-02 3.90329212e-02 1.18218400e-02
      3.93458009e-02 3.58896106e-02 1.05776601e-02 3.47566418e-02
      3.06377597e-02 1.89407691e-02 3.54339294e-02</_>
    <_>
      4.82598990e-02 1.96274407e-02 4.41016816e-02 5.09110689e-02
      2.07667500e-02 5.46484590e-02 5.97589910e-02 1.39171602e-02
      6.05077483e-02 5.62005192e-02 4.42610309e-03 5.61653301e-02
      4.36396115e-02 1.60020404e-02 4.63827290e-02</_>
    <_>
      4.19847295e-02 3.85304987e-02 4.81919609e-02 3.93978097e-02
      1.93377305e-02 4.37321998e-02 4.22906987e-02 9.89747513e-03
      4.34138104e-02 3.87110896e-02 5.41571621e-03 3.87206487e-02
      3.23658809e-02 1.69322491e-02 3.64889018e-02</_>
    <_>
      4.18371707e-02 2.70227101e-02 3.97147089e-02 3.55120488e-02
      1.68248992e-02 3.92942205e-02 3.77228782e-02 1.00573702e-02
      3.86833511e-02 3.48114893e-02 8.04466102e-03 3.44525799e-02
      2.99878195e-02 1.80404596e-02 3.47480588e-02</_>
    <_>
      5.54339699e-02 1.51825696e-02 5.48687689e-02 4.91233803e-02
      1.89800505e-02 5.19419312e-02 5.65093011e-02 1.45921698e-02
      5.67078292e-02 5.32605983e-02 7.26633100e-03 5.30337505e-02
      4.07670587e-02 1.59619395e-02 4.34948802e-02</_>
    <_>
      2.76191197e-02 4.45246510e-02 4.04081494e-02 8.55208412e-02
      8.44307616e-02 3.10506392e-02 9.71655920e-02 9.71714333e-02
      4.59661894e-03 4.16400395e-02 6.70958403e-03 4.12971117e-02
      3.45917903e-02 1.81138404e-02 3.88305411e-02</_>
    <_>
      4.20729406e-02 2.41808891e-02 4.05832790e-02 3.71948183e-02
      1.99721493e-02 4.22176607e-02 3.84627916e-02 1.24899196e-02
      3.97230089e-02 3.59203406e-02 7.81386811e-03 3.51961888e-02
      3.05094495e-02 1.52773401e-02 3.38520892e-02</_>
    <_>
      4.24659811e-02 2.41622608e-02 4.09551300e-02 3.77825797e-02
      1.99267194e-02 4.27150913e-02 3.89601812e-02 1.23088900e-02
      4.01683599e-02 3.64022404e-02 7.88343046e-03 3.56948711e-02
      3.10026892e-02 1.54760303e-02 3.43916304e-02</_>
    <_>
      4.09643203e-02 2.27990393e-02 3.93186882e-02 3.66206989e-02
      1.88125502e-02 4.11617495e-02 3.78612205e-02 1.15875704e-02
      3.86673510e-02 3.53721008e-02 9.04803444e-03 3.45691405e-02
      2.98414696e-02 1.68334208e-02 3.38555612e-02</_>
    <_>
      4.24063802e-02 5.00256605e-02 5.99667095e-02 4.92940806e-02
      2.70660706e-02 5.08576818e-02 4.78146598e-02 1.48914801e-02
      4.76284996e-02 4.28813510e-02 6.93257013e-03 4.29267883e-02
      3.50040905e-02 1.93103496e-02 3.95915695e-02</_>
    <_>
      4.51921001e-02 1.71835907e-02 4.58382405e-02 8.18150118e-02
      7.59435892e-02 3.78048494e-02 6.67305663e-02 4.00215797e-02
      5.56095615e-02 5.16275801e-02 1.80168208e-02 4.90282103e-02
      4.59050089e-02 2.65932493e-02 4.69567887e-02</_>
    <_>
      4.33779396e-02 4.94449288e-02 6.08570389e-02 4.79136482e-02
      2.49430705e-02 5.14537618e-02 4.99825403e-02 1.62800793e-02
      5.01512811e-02 4.53729890e-02 7.58398278e-03 4.50289994e-02
      3.75819504e-02 1.85952000e-02 4.09153290e-02</_>
    <_>
      4.16715592e-02 3.03892195e-02 4.04109806e-02 3.81709412e-02
      2.06751507e-02 4.30295914e-02 3.90856713e-02 1.02019804e-02
      4.03945409e-02 3.56033407e-02 5.11050923e-03 3.56931016e-02
      3.01596094e-02 1.75871104e-02 3.49119902e-02</_>
    <_>
      4.85299788e-02 4.03722897e-02 5.74229211e-02 5.71027994e-02
      3.27280387e-02 5.56435585e-02 6.08770289e-02 2.87302006e-02
      5.60300685e-02 6.44114316e-02 3.65117900e-02 5.40159717e-02
      5.28443605e-02 4.15331684e-02 4.80646603e-02</_>
    <_>
      4.18488793e-02 4.08714488e-02 5.03587499e-02 4.11543399e-02
      2.12841202e-02 4.61990498e-02 4.28521894e-02 1.03348996e-02
      4.38682996e-02 3.96662988e-02 6.75383396e-03 3.93654108e-02
      3.35153490e-02 1.73943602e-02 3.77595499e-02</_>
    <_>
      5.40151298e-02 2.47883294e-02 5.66075407e-02 5.03204092e-02
      2.34238897e-02 5.28040193e-02 8.63989964e-02 7.60443136e-02
      4.10562009e-02 7.81243518e-02 7.46868700e-02 4.06603515e-02
      5.75395599e-02 6.71513826e-02 5.42474911e-02</_>
    <_>
      3.85853499e-02 4.16716300e-02 4.68540601e-02 4.46050912e-02
      2.58804597e-02 4.78188992e-02 4.81749587e-02 1.64718404e-02
      4.82000709e-02 4.67883088e-02 1.81442499e-02 4.37308997e-02
      4.24364284e-02 2.70211492e-02 4.30762991e-02</_>
    <_>
      3.84268910e-02 3.23080905e-02 4.23538312e-02 4.67859507e-02
      2.06430499e-02 5.11330590e-02 5.17006293e-02 1.16564101e-02
      5.29983006e-02 4.98240292e-02 7.67575903e-03 4.95579205e-02
      5.21181598e-02 3.77634689e-02 4.98802587e-02</_>
    <_>
      4.39252593e-02 3.71835791e-02 4.86397110e-02 4.11942117e-02
      2.01982502e-02 4.51100096e-02 4.43687402e-02 1.07327905e-02
      4.53924201e-02 4.11188602e-02 4.51957202e-03 4.12972309e-02
      3.40806693e-02 1.78870801e-02 3.81429903e-02</_>
    <_>
      5.17797582e-02 1.41508002e-02 5.17249107e-02 4.79055196e-02
      2.09517106e-02 5.22866882e-02 5.29522598e-02 1.18695498e-02
      5.42610399e-02 5.48561290e-02 7.43422192e-03 5.45224994e-02
      4.66850288e-02 2.16304194e-02 4.86738086e-02</_>
    <_>
      4.49541882e-02 4.27127108e-02 5.21842912e-02 4.25545685e-02
      2.18799692e-02 4.77690585e-02 4.77254912e-02 1.22485999e-02
      4.88205887e-02 3.56641486e-02 1.10533303e-02 3.42295505e-02
      3.00298296e-02 2.04698797e-02 3.51877511e-02</_>
    <_>
      5.34963198e-02 2.86440104e-02 5.68686686e-02 5.00778109e-02
      2.24202294e-02 5.30603603e-02 5.06351218e-02 1.08358702e-02
      5.16353995e-02 4.79065403e-02 4.52165911e-03 4.80442792e-02
      4.18765582e-02 1.99763104e-02 4.48059104e-02</_>
    <_>
      5.76758683e-02 1.87733304e-02 5.69128506e-02 5.95072992e-02
      2.20720600e-02 6.18632399e-02 6.85783699e-02 2.17460804e-02
      6.75064921e-02 6.51140213e-02 1.43296998e-02 6.36046827e-02
      4.94271703e-02 1.43475104e-02 5.11833094e-02</_>
    <_>
      4.21718694e-02 4.74612713e-02 5.65497503e-02 5.66629097e-02
      2.80922409e-02 5.77697605e-02 5.53648695e-02 1.42811099e-02
      5.58222607e-02 4.81500216e-02 4.04887600e-03 4.82768789e-02
      3.68606485e-02 1.69566199e-02 4.05692905e-02</_>
    <_>
      4.88465317e-02 2.55136508e-02 4.93756682e-02 4.73218784e-02
      2.42385995e-02 4.81070504e-02 4.06658985e-02 7.82054011e-03
      4.13740203e-02 3.63673605e-02 7.74355093e-03 3.65971811e-02
      3.04932594e-02 2.03505307e-02 3.64983007e-02</_>
    <_>
      5.19042388e-02 2.76278295e-02 5.21113612e-02 5.59905991e-02
      2.27657408e-02 5.71866184e-02 6.49531186e-02 2.30954401e-02
      6.21654317e-02 6.25407621e-02 2.19713897e-02 5.92675582e-02
      4.91216108e-02 2.43422892e-02 5.08755408e-02</_>
    <_>
      5.21739498e-02 3.14342715e-02 5.49233891e-02 5.54803088e-02
      2.58147791e-02 5.71094193e-02 6.50785267e-02 2.64553800e-02
      6.17413893e-02 6.33124784e-02 2.58077309e-02 5.82230389e-02
      4.99936007e-02 2.68518291e-02 5.00061288e-02</_>
    <_>
      5.26038408e-02 3.02697308e-02 5.48977405e-02 5.57645485e-02
      2.45218202e-02 5.62321395e-02 6.53941184e-02 2.63877306e-02
      6.11987300e-02 6.38191998e-02 2.81793196e-02 5.83239906e-02
      5.06634302e-02 3.09379809e-02 5.12977988e-02</_>
    <_>
      4.80595902e-02 1.89211499e-02 4.79184613e-02 4.72691394e-02
      2.08262801e-02 4.83299382e-02 5.13702109e-02 1.46869896e-02
      5.00431098e-02 5.18116988e-02 2.08962504e-02 4.96704094e-02
      4.71010804e-02 4.23920900e-02 4.74204198e-02</_>
    <_>
      4.61119302e-02 4.33097705e-02 5.49728200e-02 4.95722406e-02
      2.87658703e-02 5.25350012e-02 4.97269183e-02 1.61151495e-02
      5.06608188e-02 4.51257005e-02 7.22745480e-03 4.46319990e-02
      3.80054712e-02 1.81024391e-02 4.02891412e-02</_>
    <_>
      3.54574397e-02 4.34965789e-02 4.45681512e-02 4.25195396e-02
      2.25243997e-02 4.73111011e-02 4.67993990e-02 1.31680602e-02
      4.76052798e-02 8.41453224e-02 8.69127363e-02 2.84882393e-02
      6.09699190e-02 6.95318580e-02 4.31196205e-02</_>
    <_>
      3.68089117e-02 4.54464704e-02 4.63426188e-02 5.03781885e-02
      2.34046709e-02 5.31138703e-02 5.26298806e-02 1.28772696e-02
      5.33255711e-02 4.81667295e-02 4.68412414e-03 4.82469089e-02
      3.80596183e-02 1.72428694e-02 4.15996797e-02</_>
    <_>
      4.08857390e-02 4.36877497e-02 5.08729406e-02 4.37047891e-02
      2.41794791e-02 4.80514802e-02 4.21918817e-02 1.11498199e-02
      4.36313599e-02 3.62947807e-02 4.69976990e-03 3.62128802e-02
      3.11502498e-02 1.62557196e-02 3.51275094e-02</_>
    <_>
      3.73806097e-02 2.77001895e-02 3.78580801e-02 3.76359485e-02
      1.98682901e-02 4.21243012e-02 4.01645713e-02 1.38484901e-02
      4.04486507e-02 3.65954600e-02 1.06959902e-02 3.53417099e-02
      3.09891608e-02 1.90038402e-02 3.47102992e-02</_>
    <_>
      5.04540093e-02 2.15526707e-02 5.30262105e-02 4.92547415e-02
      2.09800992e-02 5.34646288e-02 5.80959097e-02 1.41473403e-02
      5.88895604e-02 6.00275993e-02 1.78517606e-02 5.76543212e-02
      4.95666713e-02 2.59468593e-02 5.09828515e-02</_>
    <_>
      2.86853891e-02 3.50282006e-02 3.64928506e-02 4.71338518e-02
      2.15492100e-02 5.17739914e-02 5.13271317e-02 1.16561297e-02
      5.25623299e-02 5.77775091e-02 1.59715004e-02 5.58705516e-02
      5.89428283e-02 5.16205616e-02 5.30289598e-02</_>
    <_>
      5.34055308e-02 3.04606203e-02 5.53058907e-02 4.97903898e-02
      2.53645591e-02 5.20597994e-02 4.99272794e-02 1.32181803e-02
      5.06784394e-02 4.56936210e-02 4.49327705e-03 4.57307994e-02
      3.96016091e-02 1.81047097e-02 4.23877090e-02</_>
    <_>
      5.58032095e-02 2.32717507e-02 5.74476682e-02 5.07240891e-02
      2.22342908e-02 5.31515889e-02 8.75748768e-02 7.73960501e-02
      4.10193503e-02 7.82592297e-02 7.55438134e-02 4.16861400e-02
      5.74735403e-02 7.24552497e-02 5.81333004e-02</_>
    <_>
      4.84603904e-02 1.21724298e-02 4.78700288e-02 4.11639288e-02
      2.22615302e-02 4.60488796e-02 4.55556698e-02 1.40539501e-02
      4.61009517e-02 4.43137810e-02 8.78356304e-03 4.35589403e-02
      3.81753705e-02 1.60481706e-02 4.13353518e-02</_>
    <_>
      5.63291088e-02 2.85910703e-02 5.38846590e-02 5.36795817e-02
      2.18243096e-02 5.32439798e-02 5.67782484e-02 1.52930804e-02
      5.53631000e-02 5.32288812e-02 1.33928200e-02 5.29086888e-02
      4.35889103e-02 2.44419705e-02 4.75763790e-02</_>
    <_>
      5.24015017e-02 9.96564981e-03 5.19199297e-02 4.54912484e-02
      2.08091494e-02 4.78151701e-02 5.70725389e-02 2.53270995e-02
      5.27746417e-02 5.53731509e-02 2.92004198e-02 4.86848503e-02
      4.50227000e-02 3.60571705e-02 4.58264798e-02</_>
    <_>
      4.17294689e-02 3.92261595e-02 4.85356711e-02 3.93170007e-02
      2.00487599e-02 4.39895317e-02 4.20580991e-02 1.06142899e-02
      4.33337912e-02 3.84301394e-02 5.30983089e-03 3.83123197e-02
      3.21488082e-02 1.62222795e-02 3.59345414e-02</_>
    <_>
      5.36844209e-02 1.99438203e-02 5.46356402e-02 5.02087697e-02
      2.03680191e-02 5.29893190e-02 5.72905689e-02 1.51319401e-02
      5.74816205e-02 5.64499311e-02 1.33299697e-02 5.51748015e-02
      4.69157510e-02 2.43024100e-02 4.82738316e-02</_>
    <_>
      5.10855988e-02 8.65335111e-03 5.14308512e-02 4.89024706e-02
      1.79545302e-02 5.20942807e-02 5.32849990e-02 1.05445599e-02
      5.41264303e-02 4.98187803e-02 7.01450277e-03 4.95325103e-02
      4.12932709e-02 1.51661402e-02 4.39305194e-02</_>
    <_>
      5.07851094e-02 3.90301384e-02 5.93018010e-02 5.20049818e-02
      2.40608100e-02 5.45526706e-02 5.95876314e-02 2.18517594e-02
      5.77465296e-02 6.26843497e-02 2.60939691e-02 5.76968789e-02
      4.85766493e-02 2.90840399e-02 4.97554503e-02</_>
    <_>
      4.28484492e-02 4.38988097e-02 5.24757318e-02 4.63547818e-02
      2.60704998e-02 4.99561094e-02 4.52694483e-02 1.27084702e-02
      4.65862006e-02 3.94163504e-02 2.87516601e-03 3.95044908e-02
      3.36447284e-02 1.66132096e-02 3.72003689e-02</_>
    <_>
      4.19199616e-02 1.67007707e-02 3.93479988e-02 4.00633290e-02
      1.84891392e-02 4.41090986e-02 4.25520912e-02 1.06869601e-02
      4.35752906e-02 3.79942507e-02 8.01304076e-03 3.74187008e-02
      3.17477994e-02 1.58063900e-02 3.51311788e-02</_>
    <_>
      5.05389795e-02 3.99696901e-02 5.96912391e-02 5.19043207e-02
      2.41458509e-02 5.44211604e-02 5.98063506e-02 2.25455705e-02
      5.76956794e-02 6.28622994e-02 2.65651997e-02 5.77014610e-02
      4.84837815e-02 2.91378591e-02 4.96878512e-02</_>
    <_>
      4.43268716e-02 1.69114508e-02 4.31549288e-02 8.60441327e-02
      8.65581110e-02 2.38786303e-02 9.38121602e-02 9.02160406e-02
      2.57429108e-02 6.16842397e-02 3.69358994e-02 5.08909598e-02
      5.68863600e-02 4.90670986e-02 5.13444208e-02</_>
    <_>
      4.37013917e-02 1.47416797e-02 4.40145694e-02 3.73842195e-02
      2.29706205e-02 4.22395281e-02 4.00597118e-02 1.67727508e-02
      3.92354988e-02 3.69217098e-02 1.59100499e-02 3.34783718e-02
      3.14535089e-02 1.73327699e-02 3.43995392e-02</_>
    <_>
      4.94588800e-02 1.82686504e-02 4.72643301e-02 5.88330887e-02
      5.86305894e-02 3.21351103e-02 5.13763987e-02 1.13233598e-02
      5.25536910e-02 4.61923294e-02 5.79840085e-03 4.60954309e-02
      3.67086492e-02 1.62173808e-02 3.99818383e-02</_>
    <_>
      3.20484899e-02 6.02604002e-02 6.20050617e-02 8.73848721e-02
      8.99993628e-02 2.53041498e-02 9.63238403e-02 9.55632925e-02
      1.21011697e-02 8.63657966e-02 8.83444324e-02 2.69902293e-02
      6.32372126e-02 7.50127435e-02 4.43689190e-02</_>
    <_>
      4.28195409e-02 2.08439697e-02 4.02413383e-02 6.25372306e-02
      2.36715600e-02 6.46362528e-02 4.03463095e-02 1.25340698e-02
      4.10419889e-02 3.72481905e-02 9.81570967e-03 3.64808105e-02
      3.11742499e-02 1.77514404e-02 3.50138806e-02</_>
    <_>
      4.23520692e-02 3.36102992e-02 4.17784192e-02 3.96343209e-02
      2.22428907e-02 4.43969406e-02 4.04030904e-02 1.11958198e-02
      4.16984707e-02 3.65323797e-02 3.85229802e-03 3.67291607e-02
      3.06485705e-02 1.74986497e-02 3.51821817e-02</_>
    <_>
      4.21810187e-02 3.59934196e-02 4.76040989e-02 4.16274406e-02
      2.03364491e-02 4.63179983e-02 4.35172915e-02 1.04521504e-02
      4.43494096e-02 4.08809297e-02 6.55725598e-03 4.06537205e-02
      3.65468897e-02 1.93840303e-02 4.07867208e-02</_>
    <_>
      4.58938293e-02 1.85927209e-02 4.22650911e-02 5.28987907e-02
      2.74353996e-02 5.39524294e-02 5.67772910e-02 1.73461903e-02
      5.64208217e-02 5.23577891e-02 9.20645986e-03 5.18325008e-02
      4.17684205e-02 1.88030191e-02 4.46715504e-02</_>
    <_>
      4.26124893e-02 1.80660002e-02 3.98267508e-02 4.01005000e-02
      2.00804695e-02 4.47719917e-02 4.24387604e-02 1.20508904e-02
      4.39388715e-02 3.76509912e-02 6.71279896e-03 3.71071696e-02
      3.15177813e-02 1.37031497e-02 3.41923200e-02</_>
    <_>
      5.40551096e-02 1.96934696e-02 5.55996411e-02 5.07735386e-02
      2.04150509e-02 5.40001094e-02 5.79568110e-02 1.47157703e-02
      5.85448183e-02 5.69313914e-02 1.15942396e-02 5.59558384e-02
      4.72561792e-02 2.29364801e-02 4.87910993e-02</_>
    <_>
      5.66089898e-02 2.49339808e-02 5.88139296e-02 5.28211184e-02
      2.38374509e-02 5.47583289e-02 8.72934237e-02 7.42489770e-02
      4.59148400e-02 7.96437263e-02 7.37065971e-02 4.42195311e-02
      5.97590804e-02 6.49272874e-02 5.46697788e-02</_>
    <_>
      3.96224298e-02 5.25533818e-02 5.82427308e-02 4.34499197e-02
      2.33222209e-02 4.76653613e-02 3.81076410e-02 9.91952606e-03
      3.93227898e-02 3.65728885e-02 6.90559577e-03 3.63625400e-02
      2.89819092e-02 2.01576501e-02 3.52874286e-02</_>
    <_>
      4.39587384e-02 3.75978798e-02 4.87507209e-02 4.06951383e-02
      1.93817094e-02 4.46078591e-02 4.37806211e-02 9.90107376e-03
      4.48120907e-02 4.04213816e-02 4.37260512e-03 4.06542793e-02
      3.38626616e-02 1.76144093e-02 3.80610898e-02</_>
    <_>
      2.73465402e-02 4.70627695e-02 4.21098694e-02 8.83548781e-02
      9.03254375e-02 2.20458303e-02 9.76518989e-02 9.58527774e-02
      1.91415902e-02 4.29269299e-02 9.01379064e-03 4.24700789e-02
      3.46014611e-02 1.88681800e-02 3.89842317e-02</_>
    <_>
      4.29603197e-02 3.44047807e-02 4.30299900e-02 4.15657796e-02
      2.20418107e-02 4.67972793e-02 4.48693484e-02 9.17272083e-03
      4.56215590e-02 4.15518396e-02 9.65288281e-03 4.09999117e-02
      3.39648202e-02 1.96492095e-02 3.84440608e-02</_>
    <_>
      4.98396307e-02 4.11002114e-02 5.98945990e-02 5.18978499e-02
      2.44700797e-02 5.43216988e-02 5.36805689e-02 1.76758803e-02
      5.29974289e-02 4.35996912e-02 6.26571802e-03 4.36645709e-02
      3.59481201e-02 1.99003797e-02 4.03676182e-02</_>
    <_>
      5.47912084e-02 1.14964796e-02 5.43325394e-02 5.34330904e-02
      2.08043698e-02 5.69228493e-02 5.81786186e-02 1.29568102e-02
      5.93413301e-02 5.83725907e-02 9.55778360e-03 5.77327497e-02
      4.46588993e-02 2.00753603e-02 4.70152386e-02</_>
    <_>
      4.70102318e-02 2.93793101e-02 5.21497913e-02 4.36333902e-02
      1.94237996e-02 4.73148413e-02 4.74539213e-02 1.45823304e-02
      4.79538403e-02 4.26173396e-02 1.35740899e-02 4.04474288e-02
      3.57161984e-02 1.68070793e-02 3.93308513e-02</_>
    <_>
      4.22284007e-02 2.33290009e-02 4.00667191e-02 3.73324901e-02
      1.81788709e-02 4.12886217e-02 4.11359817e-02 1.14694303e-02
      4.18366082e-02 3.81630994e-02 1.04894703e-02 3.74780595e-02
      3.19349207e-02 1.93621293e-02 3.68288904e-02</_>
    <_>
      5.35076894e-02 2.19062604e-02 5.45474216e-02 4.52453010e-02
      2.19326299e-02 4.97459807e-02 4.86441292e-02 1.41153596e-02
      4.93352488e-02 4.58953604e-02 1.05183600e-02 4.48361710e-02
      3.90662104e-02 1.54830404e-02 4.17779610e-02</_>
    <_>
      5.86450100e-02 1.93611309e-02 5.60249686e-02 5.62172309e-02
      1.68763399e-02 5.79733513e-02 6.32003397e-02 1.29224900e-02
      6.30546212e-02 6.13307804e-02 1.02801202e-02 6.10311814e-02
      4.83320504e-02 1.97606105e-02 5.15402704e-02</_>
    <_>
      4.34291102e-02 2.78967209e-02 4.14562188e-02 3.84456217e-02
      2.14345008e-02 4.38559800e-02 4.15346101e-02 9.77660064e-03
      4.23551090e-02 3.88583392e-02 9.55053419e-03 3.84578705e-02
      3.26242298e-02 1.99680105e-02 3.77673283e-02</_>
    <_>
      5.10089099e-02 1.58492196e-02 5.08918911e-02 4.39526998e-02
      2.06464604e-02 4.70757112e-02 5.11043705e-02 1.55416802e-02
      5.05420119e-02 4.68834713e-02 1.00285402e-02 4.65705991e-02
      3.78939994e-02 2.16981806e-02 4.20639105e-02</_>
    <_>
      5.31187989e-02 2.51974296e-02 5.48032001e-02 4.51901890e-02
      2.15692706e-02 5.00233211e-02 4.94539104e-02 1.24469399e-02
      5.05722687e-02 4.63885702e-02 7.61259114e-03 4.59450707e-02
      3.87018509e-02 1.62133295e-02 4.18134108e-02</_>
    <_>
      3.80858295e-02 4.93284799e-02 4.99365814e-02 9.35665295e-02
      8.75575468e-02 4.03172486e-02 1.01382099e-01 9.11854878e-02
      4.43153195e-02 9.21364129e-02 8.49808082e-02 4.58069891e-02
      6.13949187e-02 5.32420389e-02 5.64521402e-02</_>
    <_>
      4.67141308e-02 3.10965795e-02 5.25925010e-02 4.43759710e-02
      1.97881199e-02 4.83310185e-02 4.84913513e-02 1.37298899e-02
      4.92744483e-02 4.34201993e-02 1.23416996e-02 4.16793302e-02
      3.55195515e-02 1.69363692e-02 3.85346189e-02</_>
    <_>
      4.78643402e-02 4.60074097e-02 6.17251396e-02 5.09320982e-02
      2.47696303e-02 5.32742999e-02 6.37808591e-02 3.12160607e-02
      5.78952990e-02 6.31662607e-02 3.15785296e-02 5.58522716e-02
      4.92256284e-02 3.25314403e-02 4.98236008e-02</_>
    <_>
      5.44833392e-02 8.03384278e-03 5.42501807e-02 4.77746911e-02
      2.02313792e-02 5.13429195e-02 5.90702109e-02 2.27338504e-02
      5.67851216e-02 6.47067428e-02 4.03169990e-02 5.20550907e-02
      5.03891297e-02 3.91263291e-02 4.91290204e-02</_>
    <_>
      4.73507792e-02 2.79543605e-02 5.18196411e-02 3.97250988e-02
      2.17014309e-02 4.52382602e-02 4.10224497e-02 1.19582396e-02
      4.19057608e-02 3.76614593e-02 1.01146400e-02 3.65325697e-02
      3.18282917e-02 1.70183908e-02 3.56186219e-02</_>
    <_>
      4.23129499e-02 3.69043387e-02 5.03729396e-02 3.75643000e-02
      1.97445396e-02 4.24309410e-02 3.86515483e-02 1.10368300e-02
      3.94489318e-02 3.53656895e-02 1.00589599e-02 3.43391895e-02
      2.98105404e-02 1.95573494e-02 3.48459706e-02</_>
    <_>
      4.11634594e-02 3.79636884e-02 4.55215201e-02 4.17822003e-02
      2.40801107e-02 4.52477410e-02 4.40033190e-02 1.39971804e-02
      4.42758203e-02 4.06376086e-02 1.05669899e-02 3.99613194e-02
      3.45423706e-02 2.30752304e-02 3.82686891e-02</_>
    <_>
      5.02583086e-02 1.95936207e-02 5.11975214e-02 4.54087891e-02
      2.00040694e-02 4.96166311e-02 4.83060889e-02 1.12961102e-02
      4.91729304e-02 4.53200899e-02 8.78212415e-03 4.46095616e-02
      3.71085592e-02 1.47436801e-02 3.94863896e-02</_>
    <_>
      4.07647192e-02 5.03992811e-02 5.83879016e-02 6.13692701e-02
      3.46850194e-02 5.99041916e-02 5.98288104e-02 2.08039898e-02
      5.85630201e-02 5.22069708e-02 9.96985193e-03 5.15885688e-02
      3.99131998e-02 1.82254892e-02 4.32695001e-02</_>
    <_>
      5.36625609e-02 1.79800596e-02 5.52710891e-02 5.07449694e-02
      2.17091404e-02 5.36122285e-02 6.29025400e-02 2.70713903e-02
      5.89691810e-02 5.87334111e-02 2.56596599e-02 5.34931011e-02
      4.71077114e-02 3.12841013e-02 4.74041291e-02</_>
    <_>
      4.55295108e-02 1.33935800e-02 4.39982712e-02 3.86347510e-02
      1.68239698e-02 4.09823507e-02 4.21015397e-02 1.46890301e-02
      4.07890081e-02 3.96195501e-02 1.50557002e-02 3.73569690e-02
      3.52719910e-02 1.86646301e-02 3.88907492e-02</_>
    <_>
      4.80414815e-02 3.66590805e-02 5.09338304e-02 4.92988601e-02
      2.59281192e-02 5.12471311e-02 4.20855395e-02 1.15962401e-02
      4.31027189e-02 3.43628600e-02 9.42430831e-03 3.35008204e-02
      2.93499902e-02 1.90411508e-02 3.44672501e-02</_>
    <_>
