<?xml version="1.0"?>
<opencv_storage>
<opencv_ml_svm>
  <format>3</format>
  <svmType>C_SVC</svmType>
  <kernel>
    <type>RBF</type>
    <gamma>1.</gamma></kernel>
  <C>1.</C>
  <term_criteria><epsilon>1.1920928955078125e-07</epsilon>
    <iterations>1000</iterations></term_criteria>
  <var_count>15</var_count>
  <class_count>3</class_count>
  <class_labels type_id="opencv-matrix">
    <rows>3</rows>
    <cols>1</cols>
    <dt>i</dt>
    <data>
      0 1 2</data></class_labels>
  <sv_total>1116</sv_total>
  <support_vectors>
    <_>
      5.41941002e-02 4.91907187e-02 6.52701631e-02 9.35062021e-02
      8.77903923e-02 4.88799885e-02 1.04800500e-01 9.75639075e-02
      3.91425788e-02 9.57094729e-02 9.16884392e-02 3.75007801e-02
      7.04874471e-02 7.19899386e-02 5.15236482e-02</_>
    <_>
      5.27246818e-02 5.20626418e-02 6.52602166e-02 9.20927078e-02
      8.62914026e-02 5.08277602e-02 1.03891201e-01 9.63097513e-02
      4.07431796e-02 9.54885036e-02 9.09888297e-02 3.65667604e-02
      6.99744523e-02 7.00790733e-02 4.92264181e-02</_>
    <_>
      5.19510098e-02 5.26100695e-02 6.49961829e-02 9.11584869e-02
      8.47288221e-02 5.15552610e-02 1.02974102e-01 9.48643610e-02
      4.19087112e-02 9.48622674e-02 8.99495631e-02 3.72243412e-02
      6.92927316e-02 6.85819834e-02 4.93252613e-02</_>
    <_>
      5.05744815e-02 5.41032702e-02 6.49257600e-02 8.92101526e-02
      8.08618367e-02 5.40626086e-02 1.01316601e-01 9.19828415e-02
      4.44893092e-02 9.37555432e-02 8.78774375e-02 3.87279391e-02
      6.78903610e-02 6.52645007e-02 4.97536995e-02</_>
    <_>
      4.85935695e-02 5.58132604e-02 6.49000332e-02 8.67334306e-02
      7.62237832e-02 5.61940297e-02 9.90692601e-02 8.79880786e-02
      4.76276986e-02 9.24763530e-02 8.55932683e-02 4.04476188e-02
      6.58056810e-02 6.18149117e-02 5.02865389e-02</_>
    <_>
      4.85935695e-02 5.58132604e-02 6.49000332e-02 8.67334306e-02
      7.62237832e-02 5.61940297e-02 9.90692601e-02 8.79880786e-02
      4.76276986e-02 9.24763530e-02 8.55932683e-02 4.04476188e-02
      6.58056810e-02 6.18149117e-02 5.02865389e-02</_>
    <_>
      4.75283004e-02 5.63008599e-02 6.41705096e-02 8.53635073e-02
      7.12368563e-02 5.81942387e-02 9.74906832e-02 8.29784572e-02
      5.26686609e-02 9.17332470e-02 8.23648125e-02 4.56736498e-02
      6.49819225e-02 5.87891713e-02 5.36043309e-02</_>
    <_>
      4.38426696e-02 5.85265495e-02 6.25798032e-02 8.26952979e-02
      7.02582672e-02 5.68900704e-02 9.45982933e-02 8.08411092e-02
      5.15144393e-02 8.97452682e-02 8.02402422e-02 4.38938104e-02
      6.20147809e-02 5.54162711e-02 5.02618998e-02</_>
    <_>
      4.33351882e-02 5.75871915e-02 6.17400296e-02 8.22096393e-02
      6.85980916e-02 5.73863685e-02 9.34797972e-02 7.84653872e-02
      5.28621487e-02 8.87147784e-02 7.79508725e-02 4.60316390e-02
      6.06785305e-02 5.26470691e-02 5.13635390e-02</_>
    <_>
      4.25199009e-02 5.70881590e-02 5.99812418e-02 8.14946294e-02
      6.73051775e-02 5.73997907e-02 9.19294581e-02 7.58625120e-02
      5.39116785e-02 8.72386768e-02 7.49739185e-02 4.78423014e-02
      5.86514287e-02 4.92311195e-02 5.11906408e-02</_>
    <_>
      4.22963202e-02 5.60138300e-02 5.87184317e-02 8.15023035e-02
      6.64836615e-02 5.75261191e-02 9.14092436e-02 7.43473172e-02
      5.48646897e-02 8.60654488e-02 7.23146573e-02 4.98187803e-02
      5.72358109e-02 4.62258011e-02 5.18069118e-02</_>
    <_>
      4.21563387e-02 5.46065308e-02 5.76671995e-02 8.22957829e-02
      6.71821386e-02 5.69662191e-02 9.17300135e-02 7.45649934e-02
      5.47518805e-02 8.51789787e-02 7.06462935e-02 5.09277284e-02
      5.60423806e-02 4.40339893e-02 5.23493700e-02</_>
    <_>
      4.29335907e-02 5.35044484e-02 5.75404316e-02 8.45549405e-02
      6.94909096e-02 5.71070910e-02 9.32843164e-02 7.59271830e-02
      5.53407818e-02 8.56266469e-02 7.01283589e-02 5.23789413e-02
      5.61172701e-02 4.20788303e-02 5.34323417e-02</_>
    <_>
      4.16873395e-02 5.27014397e-02 5.56956083e-02 8.47286284e-02
      7.14459568e-02 5.49466386e-02 9.35223401e-02 7.75518790e-02
      5.34285605e-02 8.56501535e-02 7.14038089e-02 5.06512113e-02
      5.49937300e-02 4.11980897e-02 5.22443205e-02</_>
    <_>
      4.07784805e-02 5.10543212e-02 5.39638996e-02 8.49490687e-02
      7.21775219e-02 5.35015091e-02 9.37482715e-02 7.78297409e-02
      5.30955307e-02 8.62745494e-02 7.28022233e-02 5.05025312e-02
      5.57225496e-02 4.15419191e-02 5.35420813e-02</_>
    <_>
      4.00515907e-02 5.02136014e-02 5.29829599e-02 8.55897516e-02
      7.34511316e-02 5.20089604e-02 9.38698277e-02 7.80484527e-02
      5.27557507e-02 8.64989236e-02 7.34615773e-02 5.05940691e-02
      5.63871004e-02 4.23570797e-02 5.45753017e-02</_>
    <_>
      3.89860310e-02 4.94133011e-02 5.11869304e-02 8.98474976e-02
      8.06916803e-02 4.70954105e-02 9.57374498e-02 8.13136697e-02
      5.07741496e-02 8.84523988e-02 7.74691030e-02 4.93655987e-02
      5.81296496e-02 4.59365211e-02 5.58265299e-02</_>
    <_>
      3.80858295e-02 4.93284799e-02 4.99365814e-02 9.35665295e-02
      8.75575468e-02 4.03172486e-02 1.01382099e-01 9.11854878e-02
      4.43153195e-02 9.21364129e-02 8.49808082e-02 4.58069891e-02
      6.13949187e-02 5.32420389e-02 5.64521402e-02</_>
    <_>
      2.61458103e-02 7.03105330e-02 6.57716468e-02 9.32730809e-02
      9.42258313e-02 3.22950892e-02 8.63225982e-02 7.37076327e-02
      4.61172089e-02 7.38155395e-02 5.84985316e-02 4.86152805e-02
      5.88110797e-02 5.77526093e-02 4.78722714e-02</_>
    <_>
      2.66564507e-02 7.04543591e-02 6.56313524e-02 9.49195325e-02
      9.62601379e-02 3.23486589e-02 8.00073370e-02 6.40384331e-02
      4.98726703e-02 7.10843801e-02 5.23039103e-02 5.08278012e-02
      5.76782487e-02 5.21225818e-02 4.93207015e-02</_>
    <_>
      2.70578004e-02 7.08059892e-02 6.58930168e-02 9.62335020e-02
      9.80996564e-02 3.17682996e-02 7.54995272e-02 5.76307401e-02
      5.12089506e-02 6.98161274e-02 4.92629185e-02 5.16584404e-02
      5.70405014e-02 4.91601788e-02 4.97703888e-02</_>
    <_>
      2.78674308e-02 7.12705478e-02 6.63713664e-02 9.69632864e-02
      9.94732827e-02 3.17602605e-02 6.97632506e-02 4.94273603e-02
      5.22487983e-02 6.70141131e-02 4.43448201e-02 5.18985391e-02
      5.60988188e-02 4.56749089e-02 5.01321889e-02</_>
    <_>
      2.81091500e-02 7.10363016e-02 6.61308989e-02 9.76897031e-02
      1.00412697e-01 3.17088701e-02 6.64537027e-02 4.29947488e-02
      5.37374802e-02 6.56203404e-02 4.09140289e-02 5.27079403e-02
      5.63205816e-02 4.42931689e-02 5.10954484e-02</_>
    <_>
      2.72937007e-02 6.89338818e-02 6.50121272e-02 9.59179178e-02
      9.87934023e-02 2.97531206e-02 6.15409985e-02 3.57622802e-02
      5.25334589e-02 6.27476498e-02 3.85676101e-02 5.13853617e-02
      5.36945909e-02 4.35396992e-02 5.04135601e-02</_>
    <_>
      2.80466992e-02 7.12108612e-02 6.64984435e-02 9.59006175e-02
      9.88390967e-02 3.43889706e-02 6.49109930e-02 3.74371409e-02
      5.62949888e-02 6.51046336e-02 3.95892300e-02 5.28244488e-02
      5.48598394e-02 4.21312302e-02 5.02777696e-02</_>
    <_>
      2.80942507e-02 7.08718374e-02 6.60046116e-02 9.56813470e-02
      9.87197831e-02 3.43249999e-02 6.72628880e-02 3.97414304e-02
      5.74031584e-02 6.52282164e-02 3.98337096e-02 5.28396294e-02
      5.36444299e-02 4.10010889e-02 4.96501997e-02</_>
    <_>
      2.80020293e-02 7.04301223e-02 6.55296296e-02 9.55355465e-02
      9.85508412e-02 3.39056589e-02 6.76439404e-02 4.04292010e-02
      5.71708791e-02 6.50899634e-02 3.97496410e-02 5.28296605e-02
      5.29263206e-02 4.05236594e-02 4.94340695e-02</_>
    <_>
      2.75830701e-02 6.96286634e-02 6.46043196e-02 9.52708870e-02
      9.81159285e-02 3.34192812e-02 6.81388080e-02 4.08299789e-02
      5.71472496e-02 6.51841387e-02 3.93433608e-02 5.33878915e-02
      5.21316603e-02 3.96587290e-02 4.94949110e-02</_>
    <_>
      2.77210902e-02 7.00258464e-02 6.48477301e-02 9.52720568e-02
      9.79726166e-02 3.33842896e-02 6.98260888e-02 4.26613912e-02
      5.78891896e-02 6.57675415e-02 3.94004397e-02 5.38966917e-02
      5.32491691e-02 4.07487117e-02 4.96506207e-02</_>
    <_>
      2.69360095e-02 6.82589114e-02 6.34654090e-02 9.36709419e-02
      9.60215032e-02 3.11501194e-02 6.98270574e-02 4.29288484e-02
      5.70344292e-02 6.42447025e-02 3.86629589e-02 5.30098788e-02
      5.25532290e-02 4.24619988e-02 4.94082607e-02</_>
    <_>
      2.79196203e-02 7.00735673e-02 6.46968037e-02 9.48300734e-02
      9.71316993e-02 3.34152989e-02 7.38632977e-02 4.68724892e-02
      5.95962107e-02 6.65102527e-02 3.96201201e-02 5.44743389e-02
      5.53593114e-02 4.38163206e-02 4.97650690e-02</_>
    <_>
      2.76222192e-02 6.90246820e-02 6.36698306e-02 9.41732377e-02
      9.61015001e-02 3.29036005e-02 7.52511770e-02 4.89379801e-02
      5.93819693e-02 6.61995783e-02 3.91257517e-02 5.45524284e-02
      5.54075204e-02 4.48389202e-02 4.97631095e-02</_>
    <_>
      2.74207704e-02 6.89832270e-02 6.36720806e-02 9.39518586e-02
      9.57901031e-02 3.29985395e-02 7.58567378e-02 5.02284691e-02
      5.90471886e-02 6.61581308e-02 3.89181599e-02 5.45878597e-02
      5.54245487e-02 4.49792892e-02 4.96191308e-02</_>
    <_>
      2.70184595e-02 6.88409507e-02 6.34664670e-02 9.39876065e-02
      9.55561101e-02 3.31883393e-02 7.57319033e-02 4.95217107e-02
      5.95650785e-02 6.67509064e-02 3.92007194e-02 5.49559593e-02
      5.67233190e-02 4.69374806e-02 4.97780293e-02</_>
    <_>
      2.76333801e-02 6.89634234e-02 6.31920323e-02 9.48861912e-02
      9.61999968e-02 3.31112705e-02 7.35897496e-02 4.59072404e-02
      5.99768907e-02 6.76089823e-02 4.07532789e-02 5.47861494e-02
      5.90109192e-02 5.03340885e-02 5.00197113e-02</_>
    <_>
      2.72315294e-02 6.74461275e-02 6.17818981e-02 9.37234312e-02
      9.39897373e-02 3.33797410e-02 7.20468909e-02 4.29321900e-02
      5.97728789e-02 6.90735430e-02 4.36015092e-02 5.49004115e-02
      6.03970811e-02 5.33319712e-02 5.13893291e-02</_>
    <_>
      2.72183400e-02 7.02909008e-02 6.51836395e-02 9.13884863e-02
      9.10273567e-02 3.90817188e-02 7.32510984e-02 4.47375812e-02
      6.11049496e-02 6.99322075e-02 4.49456982e-02 5.43652512e-02
      6.09675311e-02 5.32819293e-02 5.03200404e-02</_>
    <_>
      2.85727996e-02 6.96124509e-02 6.44314811e-02 9.14431289e-02
      8.95816907e-02 4.20337506e-02 7.78487027e-02 5.12521416e-02
      6.15055710e-02 7.65856132e-02 5.63478693e-02 5.34904301e-02
      6.36312515e-02 6.00296296e-02 5.07128388e-02</_>
    <_>
      2.98955403e-02 6.89468011e-02 6.34324476e-02 9.20472965e-02
      8.94065872e-02 4.33236286e-02 8.26141909e-02 5.92475496e-02
      6.00995794e-02 8.16424266e-02 6.55147731e-02 5.12569398e-02
      6.57558367e-02 6.51453733e-02 5.06984182e-02</_>
    <_>
      4.90415096e-02 5.15526496e-02 6.16591014e-02 9.52044725e-02
      9.03385729e-02 4.20576818e-02 1.04424201e-01 9.74261165e-02
      3.77596617e-02 9.44558010e-02 8.94402787e-02 3.92512009e-02
      6.77478164e-02 6.49811924e-02 5.29713295e-02</_>
    <_>
      4.38406914e-02 5.59110604e-02 5.98331206e-02 9.40139070e-02
      9.03799683e-02 3.87833789e-02 1.03724197e-01 9.72878113e-02
      3.61638516e-02 9.34400931e-02 8.88345093e-02 3.85389887e-02
      6.20641485e-02 5.51358908e-02 5.17420582e-02</_>
    <_>
      4.43612300e-02 5.49580902e-02 5.96174113e-02 9.37365666e-02
      8.97875130e-02 3.93413417e-02 1.03697099e-01 9.71565694e-02
      3.64077911e-02 9.34432894e-02 8.88551027e-02 3.87924798e-02
      6.21553883e-02 5.51174805e-02 5.22635207e-02</_>
    <_>
      4.43612300e-02 5.49580902e-02 5.96174113e-02 9.37365666e-02
      8.97875130e-02 3.93413417e-02 1.03697099e-01 9.71565694e-02
      3.64077911e-02 9.34432894e-02 8.88551027e-02 3.87924798e-02
      6.21553883e-02 5.51174805e-02 5.22635207e-02</_>
    <_>
      4.45710309e-02 5.46364002e-02 5.92186414e-02 9.37041864e-02
      8.97672400e-02 3.95088382e-02 1.03830099e-01 9.73591432e-02
      3.63021195e-02 9.35128033e-02 8.87624770e-02 3.87355089e-02
      6.18217699e-02 5.41549101e-02 5.18189594e-02</_>
    <_>
      4.61021699e-02 5.35922498e-02 5.97577617e-02 9.39591005e-02
      8.89058411e-02 4.15726118e-02 1.03832699e-01 9.61875767e-02
      3.93183902e-02 9.36218575e-02 8.75761583e-02 4.14925888e-02
      6.23207800e-02 5.24483398e-02 5.35948202e-02</_>
    <_>
      4.45691608e-02 5.34928702e-02 5.84875606e-02 9.32167172e-02
      8.84714127e-02 4.06208187e-02 1.02507599e-01 9.47718769e-02
      3.93370204e-02 9.25003290e-02 8.64201188e-02 4.10738997e-02
      6.02552295e-02 5.01227602e-02 5.24081588e-02</_>
    <_>
      4.41731513e-02 5.26149198e-02 5.80350608e-02 9.22989771e-02
      8.63882005e-02 4.26483713e-02 1.00973599e-01 9.15028825e-02
      4.30141203e-02 9.12705064e-02 8.32307786e-02 4.40925397e-02
      5.90101592e-02 4.59288992e-02 5.36124408e-02</_>
    <_>
      4.36090305e-02 5.18004410e-02 5.61697297e-02 9.23347324e-02
      8.58022869e-02 4.37411405e-02 1.00680001e-01 9.02056396e-02
      4.50506918e-02 9.13814530e-02 8.25937614e-02 4.53460515e-02
      5.91287985e-02 4.55195904e-02 5.40347584e-02</_>
    <_>
      4.29233685e-02 5.14021218e-02 5.55234514e-02 9.20033604e-02
      8.50761831e-02 4.45052609e-02 1.00070998e-01 8.88432115e-02
      4.64250408e-02 9.10597816e-02 8.16663504e-02 4.61347103e-02
      5.94567508e-02 4.54270318e-02 5.45014888e-02</_>
    <_>
      4.11513299e-02 5.02287596e-02 5.26192486e-02 9.28178728e-02
      8.58160183e-02 4.29711603e-02 1.00824803e-01 8.96838084e-02
      4.61248308e-02 9.23414081e-02 8.40007216e-02 4.60455418e-02
      6.05384298e-02 4.86199707e-02 5.57477996e-02</_>
    <_>
      3.95089015e-02 5.25954701e-02 5.27868308e-02 9.51692984e-02
      8.99964795e-02 4.00807299e-02 1.05043799e-01 9.71196815e-02
      4.00303900e-02 9.52306464e-02 8.93369392e-02 4.18180786e-02
      6.47455230e-02 5.70807606e-02 5.42998798e-02</_>
    <_>
      2.41998397e-02 7.37493187e-02 7.09864795e-02 9.23495367e-02
      9.33522731e-02 3.32057513e-02 6.73808232e-02 4.32497188e-02
      5.36593199e-02 7.19176307e-02 5.48858307e-02 5.02159707e-02
      6.18567504e-02 6.52490407e-02 5.09327203e-02</_>
    <_>
      2.52915900e-02 7.48202875e-02 7.16227815e-02 9.15527269e-02
      9.26687196e-02 3.65624912e-02 6.73699975e-02 4.13352288e-02
      5.60979396e-02 7.11932480e-02 5.22487201e-02 5.06932288e-02
      6.24942482e-02 6.33454770e-02 5.00563793e-02</_>
    <_>
      2.55342703e-02 7.39516765e-02 7.07652494e-02 9.04719308e-02
      9.15862322e-02 3.63295488e-02 6.67097121e-02 4.01190110e-02
      5.61067611e-02 6.98413402e-02 5.06718904e-02 5.04179299e-02
      6.18255213e-02 6.27900809e-02 4.98940796e-02</_>
    <_>
      2.62848195e-02 7.23961666e-02 6.90664873e-02 9.02020186e-02
      9.16572064e-02 3.55700813e-02 6.70114234e-02 3.93599793e-02
      5.70428111e-02 6.72557130e-02 4.70324382e-02 5.02160788e-02
      6.15840293e-02 6.24776818e-02 4.96547818e-02</_>
    <_>
      2.67958809e-02 7.16665909e-02 6.81226477e-02 9.08429995e-02
      9.25502405e-02 3.52985598e-02 6.93707168e-02 4.14755493e-02
      5.84204085e-02 6.58514425e-02 4.39559110e-02 5.08504994e-02
      6.28896281e-02 6.34511411e-02 4.99286391e-02</_>
    <_>
      2.69174408e-02 6.94431737e-02 6.60800785e-02 9.16197374e-02
      9.35114399e-02 3.24513912e-02 7.03312829e-02 4.35726792e-02
      5.72734810e-02 6.33434206e-02 4.09324504e-02 5.06567992e-02
      6.37173727e-02 6.55435473e-02 5.08684218e-02</_>
    <_>
      2.75205802e-02 7.18767196e-02 6.78957477e-02 9.59706381e-02
      9.89747569e-02 3.31765488e-02 7.39443526e-02 4.93081212e-02
      5.79021610e-02 6.39461279e-02 3.89946289e-02 5.19483201e-02
      6.83142617e-02 6.81039169e-02 5.07715605e-02</_>
    <_>
      2.76906099e-02 7.11537004e-02 6.71720207e-02 9.66977403e-02
      9.98055413e-02 3.15007009e-02 7.53228366e-02 5.28880991e-02
      5.60416095e-02 6.31109774e-02 3.70809399e-02 5.23200184e-02
      6.92049563e-02 6.97191805e-02 5.06602488e-02</_>
    <_>
      2.75738295e-02 7.07565323e-02 6.67623729e-02 9.66625437e-02
      9.97738466e-02 3.08075901e-02 7.73824304e-02 5.78043200e-02
      5.35466298e-02 6.26187772e-02 3.54669392e-02 5.27528189e-02
      6.91381171e-02 6.96792677e-02 5.03231995e-02</_>
    <_>
      2.78121997e-02 7.06681386e-02 6.65129721e-02 9.70468596e-02
      1.00198902e-01 3.04103605e-02 7.93091208e-02 6.12267591e-02
      5.23835607e-02 6.23723194e-02 3.42865996e-02 5.31271696e-02
      6.93816766e-02 6.97429627e-02 5.00534587e-02</_>
    <_>
      2.78449692e-02 7.06963837e-02 6.64333329e-02 9.72216576e-02
      1.00373797e-01 3.03741004e-02 7.99463019e-02 6.23325892e-02
      5.20208590e-02 6.24393895e-02 3.37243304e-02 5.34893684e-02
      6.96387067e-02 6.98169470e-02 5.00057004e-02</_>
    <_>
      2.70394795e-02 6.86978325e-02 6.46542385e-02 9.62279215e-02
      9.89503488e-02 2.84855403e-02 8.01509097e-02 6.36156127e-02
      5.00495918e-02 6.14173599e-02 3.19072790e-02 5.38017489e-02
      6.88250735e-02 6.99444637e-02 5.08482791e-02</_>
    <_>
      2.82333903e-02 7.14619532e-02 6.65884688e-02 9.82668996e-02
      1.01271398e-01 3.08515392e-02 8.34725574e-02 6.77337572e-02
      5.07509187e-02 6.35680333e-02 3.21213417e-02 5.54897115e-02
      7.15397000e-02 7.09441379e-02 5.02565987e-02</_>
    <_>
      2.79994495e-02 7.16027766e-02 6.66225702e-02 9.84085575e-02
      1.01237103e-01 3.07892393e-02 8.32028612e-02 6.76740184e-02
      5.03010303e-02 6.40852228e-02 3.16322893e-02 5.63398488e-02
      7.20873624e-02 7.16127604e-02 5.05492911e-02</_>
    <_>
      2.75005400e-02 7.18514174e-02 6.69370964e-02 9.81433615e-02
      1.00928597e-01 3.09532899e-02 8.26622993e-02 6.74675405e-02
      4.96839099e-02 6.41368777e-02 3.10485698e-02 5.66736385e-02
      7.20312074e-02 7.16878921e-02 5.04994206e-02</_>
    <_>
      2.70056892e-02 7.23924786e-02 6.76341578e-02 9.82429013e-02
      1.01060800e-01 3.05940509e-02 8.36000666e-02 6.93818107e-02
      4.84446697e-02 6.30617365e-02 3.01618297e-02 5.59057705e-02
      7.17117712e-02 7.11938664e-02 5.02501614e-02</_>
    <_>
      2.70056892e-02 7.23924786e-02 6.76341578e-02 9.82429013e-02
      1.01060800e-01 3.05940509e-02 8.36000666e-02 6.93818107e-02
      4.84446697e-02 6.30617365e-02 3.01618297e-02 5.59057705e-02
      7.17117712e-02 7.11938664e-02 5.02501614e-02</_>
    <_>
      2.59863194e-02 6.98067769e-02 6.53818399e-02 9.71005633e-02
      9.94349122e-02 2.78407708e-02 8.32770169e-02 6.93877563e-02
      4.69972789e-02 6.12893999e-02 2.96149794e-02 5.47947399e-02
      6.99593425e-02 7.09722713e-02 5.12024015e-02</_>
    <_>
      2.63397805e-02 7.15787634e-02 6.68524802e-02 9.80896577e-02
      1.00573398e-01 2.99325995e-02 8.58937502e-02 7.18058273e-02
      4.84762304e-02 6.28233328e-02 3.04346494e-02 5.56786992e-02
      7.10224509e-02 7.01562390e-02 5.11261299e-02</_>
    <_>
      2.58965492e-02 7.09288716e-02 6.62690327e-02 9.76499766e-02
      9.98276770e-02 3.00797895e-02 8.61752033e-02 7.18121529e-02
      4.87759486e-02 6.29881397e-02 3.17461714e-02 5.53221591e-02
      7.05568567e-02 6.93923235e-02 5.17821908e-02</_>
    <_>
      2.59180106e-02 7.10184723e-02 6.63502812e-02 9.74306837e-02
      9.94987264e-02 3.09426095e-02 8.55396315e-02 7.08319992e-02
      4.92068417e-02 6.36667684e-02 3.38261016e-02 5.49036413e-02
      7.01184273e-02 6.82931021e-02 5.18187694e-02</_>
    <_>
      2.56754905e-02 7.08413869e-02 6.62628263e-02 9.70110893e-02
      9.91111398e-02 3.15020308e-02 8.27493668e-02 6.71573132e-02
      4.98206690e-02 6.44055530e-02 3.47821899e-02 5.52050918e-02
      6.91987872e-02 6.64946586e-02 5.22124507e-02</_>
    <_>
      2.56673992e-02 7.05907568e-02 6.60283267e-02 9.68950763e-02
      9.90320295e-02 3.15033607e-02 7.90195093e-02 6.26007169e-02
      4.98473905e-02 6.45190626e-02 3.52693386e-02 5.51030487e-02
      6.85254931e-02 6.53856769e-02 5.24320304e-02</_>
    <_>
      2.61010900e-02 6.95664808e-02 6.48029894e-02 9.72656831e-02
      9.92148072e-02 3.07570808e-02 7.03898594e-02 5.18937595e-02
      4.91669886e-02 6.50314167e-02 3.65502909e-02 5.52548990e-02
      6.74654096e-02 6.37202635e-02 5.33776283e-02</_>
    <_>
      2.59961504e-02 7.02070966e-02 6.55828193e-02 9.71609429e-02
      9.94092375e-02 3.14797014e-02 6.65216669e-02 4.57083806e-02
      5.05927205e-02 6.50986433e-02 3.63359489e-02 5.52386418e-02
      6.58770874e-02 6.06763810e-02 5.29983304e-02</_>
    <_>
      2.60242596e-02 7.07435310e-02 6.62830696e-02 9.72120464e-02
      9.97607708e-02 3.09266895e-02 6.41440228e-02 4.11970690e-02
      5.18598817e-02 6.56523928e-02 3.74364518e-02 5.50549813e-02
      6.46399781e-02 5.89583702e-02 5.24636991e-02</_>
    <_>
      2.61151008e-02 7.10355416e-02 6.67350069e-02 9.74431634e-02
      1.00118302e-01 3.01452205e-02 6.18514903e-02 3.74093093e-02
      5.21843992e-02 6.70231134e-02 4.03757989e-02 5.46769612e-02
      6.33630976e-02 5.77647910e-02 5.18506803e-02</_>
    <_>
      2.55434699e-02 7.06450194e-02 6.67650774e-02 9.69765782e-02
      9.95483622e-02 2.82841008e-02 5.94451614e-02 3.21792699e-02
      5.27356118e-02 6.62365034e-02 4.04397286e-02 5.38938195e-02
      6.19510897e-02 5.82910404e-02 5.14313206e-02</_>
    <_>
      2.54412591e-02 7.10706189e-02 6.72975183e-02 9.70146433e-02
      9.95623991e-02 2.80256309e-02 5.92562705e-02 3.05488706e-02
      5.36364689e-02 6.62142709e-02 4.05945405e-02 5.37117310e-02
      6.19391315e-02 5.87857701e-02 5.12314700e-02</_>
    <_>
      2.52641197e-02 7.10397810e-02 6.67167827e-02 9.76479873e-02
      9.93422195e-02 2.91308109e-02 6.28992319e-02 3.07587106e-02
      5.71853295e-02 7.04033226e-02 4.45684195e-02 5.62735498e-02
      6.42221794e-02 6.10981509e-02 5.34096695e-02</_>
    <_>
      2.41139494e-02 7.05717430e-02 6.68069720e-02 9.48648974e-02
      9.65038165e-02 2.83879992e-02 5.91006503e-02 2.91254800e-02
      5.34512997e-02 6.88994899e-02 4.63669486e-02 5.35266511e-02
      5.99942803e-02 5.95288910e-02 5.13787493e-02</_>
    <_>
      2.13895198e-02 7.11040720e-02 6.78755417e-02 9.20373127e-02
      9.29053873e-02 3.20590697e-02 5.97186014e-02 2.86680106e-02
      5.43553494e-02 6.96062073e-02 4.66910005e-02 5.44518791e-02
      5.75740598e-02 5.59457801e-02 5.18633202e-02</_>
    <_>
      2.25376207e-02 7.39769563e-02 7.05433935e-02 9.27351192e-02
      9.27961171e-02 3.72487307e-02 6.87089637e-02 4.01500091e-02
      5.82789294e-02 7.35154897e-02 5.04176505e-02 5.56631610e-02
      5.92598990e-02 5.58600686e-02 5.19186594e-02</_>
    <_>
      2.33429708e-02 7.31183365e-02 6.96590915e-02 9.23474208e-02
      9.10658315e-02 3.91381383e-02 7.40089118e-02 4.81898412e-02
      5.82142696e-02 7.68045634e-02 5.70694394e-02 5.44981398e-02
      6.10526018e-02 5.99300601e-02 5.32310717e-02</_>
    <_>
      2.45890897e-02 7.10207373e-02 6.71202391e-02 9.23619494e-02
      9.06054899e-02 3.87129188e-02 7.84179121e-02 5.79682998e-02
      5.39765693e-02 7.95039982e-02 6.36364296e-02 5.22266105e-02
      6.20873794e-02 6.34277835e-02 5.38864993e-02</_>
    <_>
      4.77846712e-02 5.74320816e-02 6.44047633e-02 9.37962234e-02
      8.82124901e-02 4.00262512e-02 1.02550298e-01 9.37905386e-02
      4.15020809e-02 9.35535878e-02 8.95404667e-02 4.33954708e-02
      7.02126771e-02 7.34018087e-02 5.02946191e-02</_>
    <_>
      4.76931818e-02 5.73590100e-02 6.42372370e-02 9.35440883e-02
      8.76756534e-02 4.03425582e-02 1.02258697e-01 9.31377113e-02
      4.22474593e-02 9.33431834e-02 8.90696570e-02 4.37677614e-02
      6.99105710e-02 7.27961510e-02 5.06907813e-02</_>
    <_>
      4.77737188e-02 5.74667603e-02 6.43025935e-02 9.32749808e-02
      8.69156793e-02 4.11564596e-02 1.02046497e-01 9.23212469e-02
      4.34971116e-02 9.31660533e-02 8.82972926e-02 4.43673283e-02
      6.94983974e-02 7.15434775e-02 5.12530394e-02</_>
    <_>
      4.84748594e-02 5.75593486e-02 6.58290237e-02 9.27793384e-02
      8.56422633e-02 4.31708209e-02 1.01673298e-01 9.09365937e-02
      4.54755388e-02 9.27236527e-02 8.67103785e-02 4.55605909e-02
      6.91228434e-02 6.96412325e-02 5.20208403e-02</_>
    <_>
      4.78282012e-02 5.73820882e-02 6.43178970e-02 9.29386020e-02
      8.60810131e-02 4.19420712e-02 1.01926297e-01 9.16704163e-02
      4.45704684e-02 9.29530710e-02 8.74553472e-02 4.49585319e-02
      6.89164922e-02 7.00758025e-02 5.18818982e-02</_>
    <_>
      4.80054989e-02 5.70401214e-02 6.43582568e-02 9.26729068e-02
      8.54667798e-02 4.24687490e-02 1.01723701e-01 9.10836309e-02
      4.53010909e-02 9.27347466e-02 8.68413374e-02 4.54261005e-02
      6.85690865e-02 6.93845972e-02 5.23460582e-02</_>
    <_>
      4.81186099e-02 5.64701706e-02 6.40875176e-02 9.24377814e-02
      8.48988071e-02 4.28594798e-02 1.01436801e-01 9.03970301e-02
      4.60271314e-02 9.25085023e-02 8.63250270e-02 4.58938703e-02
      6.83027878e-02 6.91138431e-02 5.28391302e-02</_>
    <_>
      4.79913093e-02 5.61204813e-02 6.36743605e-02 9.23163667e-02
      8.46524835e-02 4.30200994e-02 1.01284400e-01 9.00501534e-02
      4.63686213e-02 9.23998505e-02 8.60875770e-02 4.60362099e-02
      6.82175010e-02 6.92561716e-02 5.29961698e-02</_>
    <_>
      4.71723415e-02 5.56103215e-02 6.26615211e-02 9.18052569e-02
      8.42145830e-02 4.27651890e-02 1.00802898e-01 8.96374881e-02
      4.61186990e-02 9.19058025e-02 8.56621489e-02 4.57558483e-02
      6.76552132e-02 6.90120533e-02 5.28117716e-02</_>
    <_>
      4.88369390e-02 5.60968183e-02 6.47753775e-02 9.23392475e-02
      8.38198066e-02 4.57349196e-02 1.01473898e-01 8.90589729e-02
      4.86504994e-02 9.24336910e-02 8.45668986e-02 4.73994389e-02
      6.83588833e-02 6.73567504e-02 5.37586212e-02</_>
    <_>
      4.62925583e-02 5.46025708e-02 6.08071610e-02 9.15183201e-02
      8.41770694e-02 4.27672714e-02 1.00757003e-01 9.00250971e-02
      4.52503115e-02 9.15110335e-02 8.50810781e-02 4.52225208e-02
      6.69849217e-02 6.78027272e-02 5.26277199e-02</_>
    <_>
      4.57747392e-02 5.43239191e-02 5.95902912e-02 9.19310302e-02
      8.46980587e-02 4.25399207e-02 1.01255998e-01 9.08446908e-02
      4.47323695e-02 9.17018577e-02 8.50928128e-02 4.53189090e-02
      6.69494793e-02 6.69595674e-02 5.32153584e-02</_>
    <_>
      4.49317284e-02 5.43266200e-02 5.90132289e-02 9.18727964e-02
      8.43307078e-02 4.32854407e-02 1.01374798e-01 9.08488035e-02
      4.49932888e-02 9.15084928e-02 8.41371268e-02 4.60514389e-02
      6.67153224e-02 6.50396273e-02 5.43275997e-02</_>
    <_>
      4.32033911e-02 5.39194010e-02 5.65239117e-02 9.26967636e-02
      8.55757669e-02 4.12380695e-02 1.02493301e-01 9.32834968e-02
      4.26931791e-02 9.23453271e-02 8.58649537e-02 4.56884988e-02
      6.66998923e-02 6.46287799e-02 5.59464283e-02</_>
    <_>
      4.24220115e-02 5.63187189e-02 5.73240817e-02 9.47851017e-02
      8.87572169e-02 4.03739810e-02 1.05052002e-01 9.72047299e-02
      3.99350002e-02 9.44353566e-02 8.78824070e-02 4.39046100e-02
      6.75399899e-02 6.17422983e-02 5.59480302e-02</_>
    <_>
      3.96052897e-02 5.27330115e-02 5.29847890e-02 9.37091783e-02
      8.80298167e-02 3.64884101e-02 1.03987299e-01 9.72562432e-02
      3.77213694e-02 9.31553468e-02 8.79512578e-02 4.39076498e-02
      6.53764904e-02 6.08059391e-02 5.77502511e-02</_>
    <_>
      3.68726104e-02 5.29304817e-02 5.23248017e-02 9.34144333e-02
      8.83687735e-02 3.52658182e-02 1.03676699e-01 9.73833501e-02
      3.63197289e-02 9.26600173e-02 8.69321674e-02 4.30031009e-02
      6.36320189e-02 5.57308719e-02 5.77875711e-02</_>
    <_>
      2.48508193e-02 7.27776587e-02 6.94145337e-02 9.60488766e-02
      9.95543227e-02 2.82552000e-02 8.38658884e-02 7.39279836e-02
      4.09230515e-02 6.82835132e-02 5.17214015e-02 4.84179109e-02
      6.30142987e-02 6.24714307e-02 5.08033112e-02</_>
    <_>
      2.63906792e-02 7.50531703e-02 7.08296970e-02 9.72678736e-02
      1.01146400e-01 3.07189208e-02 1.01840504e-01 9.70138833e-02
      3.20599414e-02 6.78348914e-02 4.83793095e-02 4.97469492e-02
      6.09013215e-02 5.47028184e-02 4.96881194e-02</_>
    <_>
      2.60289107e-02 7.51051828e-02 7.08960071e-02 9.64640528e-02
      1.00282401e-01 3.10350899e-02 1.02681197e-01 9.86671597e-02
      2.92659197e-02 6.79175332e-02 4.76102605e-02 5.04065417e-02
      5.81960492e-02 5.07820696e-02 4.89744209e-02</_>
    <_>
      2.57153492e-02 7.46457800e-02 7.04041272e-02 9.55619365e-02
      9.92334634e-02 3.11694797e-02 1.02390498e-01 9.87135917e-02
      2.78612208e-02 6.82734028e-02 4.72157113e-02 5.11794500e-02
      5.60730994e-02 4.79675904e-02 4.85365093e-02</_>
    <_>
      2.57153492e-02 7.46457800e-02 7.04041272e-02 9.55619365e-02
      9.92334634e-02 3.11694797e-02 1.02390498e-01 9.87135917e-02
      2.78612208e-02 6.82734028e-02 4.72157113e-02 5.11794500e-02
      5.60730994e-02 4.79675904e-02 4.85365093e-02</_>
    <_>
      2.47704796e-02 7.21848831e-02 6.80721775e-02 9.40379426e-02
      9.68991965e-02 2.83598099e-02 1.02709301e-01 1.00377597e-01
      2.17624307e-02 6.92002699e-02 4.83717509e-02 5.22442795e-02
      5.37058190e-02 4.67184186e-02 4.90547605e-02</_>
    <_>
      2.53473595e-02 7.37331584e-02 6.93075135e-02 9.50109810e-02
      9.78762880e-02 3.02094407e-02 1.04200497e-01 1.01734497e-01
      2.25524995e-02 7.17145726e-02 4.93280403e-02 5.41129708e-02
      5.57479598e-02 4.65051197e-02 4.98699993e-02</_>
    <_>
      2.56667603e-02 7.34227970e-02 6.88456595e-02 9.49337631e-02
      9.74964499e-02 2.96039302e-02 1.04236901e-01 1.01963900e-01
      2.16542594e-02 7.26236030e-02 5.06011918e-02 5.42604402e-02
      5.61863706e-02 4.74880002e-02 4.99279797e-02</_>
    <_>
      2.56565604e-02 7.27309734e-02 6.81103691e-02 9.44225192e-02
      9.66280475e-02 2.86978595e-02 1.03151798e-01 1.00725003e-01
      2.22872701e-02 7.26120174e-02 5.11054695e-02 5.39594516e-02
      5.66491894e-02 4.92247306e-02 4.99656610e-02</_>
    <_>
      2.58377399e-02 7.22910613e-02 6.75603524e-02 9.41708609e-02
      9.60311890e-02 2.83447597e-02 1.02771401e-01 9.99737829e-02
      2.38784906e-02 7.17969835e-02 5.01178391e-02 5.38154393e-02
      5.71684204e-02 5.08031882e-02 5.00683412e-02</_>
    <_>
      2.59310398e-02 7.25309476e-02 6.77558035e-02 9.40098464e-02
      9.56933796e-02 2.90284101e-02 1.01824000e-01 9.82194766e-02
      2.68576406e-02 7.10860267e-02 4.87159602e-02 5.38992397e-02
      5.76211289e-02 5.14419414e-02 5.00660203e-02</_>
    <_>
      2.54086796e-02 7.12723583e-02 6.66113868e-02 9.32699367e-02
      9.45945308e-02 2.83337608e-02 9.92468968e-02 9.46651325e-02
      2.98147406e-02 6.98807091e-02 4.74055000e-02 5.38074411e-02
      5.71825691e-02 5.20760790e-02 5.05057909e-02</_>
    <_>
      2.57299691e-02 7.22912326e-02 6.75692707e-02 9.42390785e-02
      9.55360532e-02 2.90223993e-02 9.92291719e-02 9.38830301e-02
      3.21409591e-02 7.02236593e-02 4.67564911e-02 5.44773303e-02
      5.86299710e-02 5.29154614e-02 5.08739017e-02</_>
    <_>
      2.56642308e-02 7.23057687e-02 6.76147267e-02 9.47610363e-02
      9.59475711e-02 2.90902406e-02 9.72951204e-02 9.04748812e-02
      3.58767807e-02 6.92453682e-02 4.45796587e-02 5.48254587e-02
      5.99196702e-02 5.44519201e-02 5.13683707e-02</_>
    <_>
      2.54950691e-02 7.21930265e-02 6.75809532e-02 9.52792987e-02
      9.65668932e-02 2.89359894e-02 9.58846733e-02 8.78785104e-02
      3.86494510e-02 6.77307919e-02 4.21961211e-02 5.45636788e-02
      6.06064685e-02 5.53736910e-02 5.13700396e-02</_>
    <_>
      2.49510501e-02 7.22703114e-02 6.79358914e-02 9.54155326e-02
      9.70564634e-02 2.84113493e-02 1.00758597e-01 9.42507237e-02
      3.60507295e-02 6.56853989e-02 3.92025597e-02 5.40449806e-02
      6.06271513e-02 5.57082184e-02 5.11749014e-02</_>
    <_>
      2.46920399e-02 7.23913908e-02 6.80560619e-02 9.69922915e-02
      9.84384269e-02 2.82506496e-02 1.04211897e-01 9.74728763e-02
      3.74046601e-02 6.68738708e-02 3.77931111e-02 5.63841686e-02
      6.16716184e-02 5.53858206e-02 5.27835004e-02</_>
    <_>
      2.23104302e-02 7.88557976e-02 7.72584602e-02 9.69505534e-02
      1.02117203e-01 3.26022804e-02 1.10004596e-01 1.10003099e-01
      5.83079818e-04 6.02549911e-02 2.20466908e-02 5.64260408e-02
      6.25738874e-02 5.37232198e-02 5.18497899e-02</_>
    <_>
      2.25335993e-02 7.66165331e-02 7.48470873e-02 9.70662236e-02
      1.01816200e-01 3.08496095e-02 1.10103101e-01 1.10043302e-01
      4.53234278e-03 5.84897399e-02 1.69437006e-02 5.65129891e-02
      6.27816021e-02 5.45882396e-02 5.27340807e-02</_>
    <_>
      2.27890294e-02 7.81313181e-02 7.60334432e-02 9.76630375e-02
      1.03058599e-01 3.29788588e-02 1.10557400e-01 1.10431798e-01
      5.27452584e-03 5.84249608e-02 1.29991500e-02 5.71257994e-02
      6.48677722e-02 5.52187189e-02 5.24964593e-02</_>
    <_>
      2.28812806e-02 7.76561424e-02 7.52996728e-02 9.80217531e-02
      1.03385299e-01 3.29065397e-02 1.10654399e-01 1.10496499e-01
      5.93212387e-03 5.81617206e-02 1.04481997e-02 5.73700406e-02
      6.62893429e-02 5.60689792e-02 5.33730201e-02</_>
    <_>
      2.29110308e-02 7.71727264e-02 7.47372583e-02 9.81127173e-02
      1.03362903e-01 3.25459391e-02 1.10625602e-01 1.10448100e-01
      6.27044402e-03 5.78588285e-02 9.47797764e-03 5.72622195e-02
      6.66767582e-02 5.64339496e-02 5.37608303e-02</_>
    <_>
      2.31525097e-02 7.70711601e-02 7.44486898e-02 9.84253213e-02
      1.03643604e-01 3.24900188e-02 1.10741198e-01 1.10551603e-01
      6.52794400e-03 5.74648790e-02 8.16148333e-03 5.70438094e-02
      6.78991228e-02 5.78930192e-02 5.39269410e-02</_>
    <_>
      2.33472399e-02 7.70840868e-02 7.42990077e-02 9.86478031e-02
      1.03811398e-01 3.23669612e-02 1.10772401e-01 1.10614002e-01
      6.07654592e-03 5.73036298e-02 7.67656416e-03 5.69276996e-02
      6.89345226e-02 5.95736802e-02 5.38341887e-02</_>
    <_>
      2.28947997e-02 7.53154680e-02 7.26971775e-02 9.78632420e-02
      1.02494299e-01 3.04726306e-02 1.09784901e-01 1.09634303e-01
      5.78154391e-03 5.63941002e-02 7.74440402e-03 5.61898388e-02
      6.83587566e-02 6.11229315e-02 5.38660809e-02</_>
    <_>
      2.33922396e-02 7.72404522e-02 7.41497129e-02 9.89595130e-02
      1.03897899e-01 3.19177508e-02 1.10523999e-01 1.10501602e-01
      2.99159694e-03 5.84216602e-02 8.46514013e-03 5.79162315e-02
      7.06275627e-02 6.24003485e-02 5.40719703e-02</_>
    <_>
      2.32044104e-02 7.71376118e-02 7.40241334e-02 9.87405777e-02
      1.03499897e-01 3.15422416e-02 1.10082902e-01 1.10090204e-01
      1.65583403e-03 5.89541607e-02 9.08257999e-03 5.83625808e-02
      7.07304329e-02 6.29407465e-02 5.41180894e-02</_>
    <_>
      2.31535509e-02 7.71732926e-02 7.40698278e-02 9.86125395e-02
      1.03308298e-01 3.14234495e-02 1.09863497e-01 1.09874703e-01
      1.57146796e-03 5.89995198e-02 9.42235999e-03 5.83512709e-02
      7.04103932e-02 6.27292767e-02 5.39525189e-02</_>
    <_>
      2.30896194e-02 7.72047192e-02 7.40708932e-02 9.85100269e-02
      1.03053302e-01 3.12601216e-02 1.09583899e-01 1.09583803e-01
      2.47135595e-03 5.94459698e-02 1.03283999e-02 5.86535297e-02
      6.96169287e-02 6.15112297e-02 5.39995097e-02</_>
    <_>
      2.30267607e-02 7.73362517e-02 7.42195100e-02 9.83654931e-02
      1.02816999e-01 3.13380510e-02 1.09334402e-01 1.09306999e-01
      3.83165199e-03 5.97970001e-02 1.11299502e-02 5.88548891e-02
      6.90158084e-02 6.06627092e-02 5.38306311e-02</_>
    <_>
      2.28505600e-02 7.52240866e-02 7.23391175e-02 9.75597128e-02
      1.01422198e-01 2.89769098e-02 1.08768500e-01 1.08748697e-01
      2.09937594e-03 5.86673394e-02 1.17273200e-02 5.78280203e-02
      6.68505728e-02 6.00155108e-02 5.36479391e-02</_>
    <_>
      2.23644301e-02 7.69030526e-02 7.40008503e-02 9.77015272e-02
      1.01817399e-01 3.08030192e-02 1.09007902e-01 1.08962201e-01
      4.06817393e-03 5.98989092e-02 1.13254497e-02 5.89683205e-02
      6.69651628e-02 5.74901104e-02 5.40435500e-02</_>
    <_>
      2.26150397e-02 7.68739730e-02 7.40127116e-02 9.76795405e-02
      1.01720102e-01 3.05792093e-02 1.09316997e-01 1.09300397e-01
      3.09264497e-03 5.95186986e-02 1.15496796e-02 5.85396588e-02
      6.58816025e-02 5.61205409e-02 5.36147282e-02</_>
    <_>
      2.27326602e-02 7.70813003e-02 7.41889700e-02 9.77130085e-02
      1.01764001e-01 3.08764596e-02 1.09486200e-01 1.09478399e-01
      3.21487710e-03 5.98528609e-02 1.17280697e-02 5.88133112e-02
      6.55996799e-02 5.53173311e-02 5.35066091e-02</_>
    <_>
      2.29536500e-02 7.68868700e-02 7.39955083e-02 9.76144597e-02
      1.01551197e-01 3.07347495e-02 1.09543301e-01 1.09533899e-01
      3.26508493e-03 5.94853610e-02 1.19396197e-02 5.84063306e-02
      6.47970736e-02 5.43650202e-02 5.32350317e-02</_>
    <_>
      2.32163593e-02 7.48923197e-02 7.20692277e-02 9.71614420e-02
      1.00571603e-01 2.86326893e-02 1.09264903e-01 1.09247200e-01
      2.00003502e-03 5.82675487e-02 1.25935404e-02 5.72737306e-02
      6.32764101e-02 5.43498099e-02 5.32105006e-02</_>
    <_>
      2.36601103e-02 7.70245567e-02 7.39280879e-02 9.78964120e-02
      1.01625003e-01 3.10845003e-02 1.09865099e-01 1.09783903e-01
      5.60587691e-03 5.94734512e-02 1.37023404e-02 5.80058694e-02
      6.39340803e-02 5.25700711e-02 5.30641116e-02</_>
    <_>
      2.39989907e-02 7.65981227e-02 7.35992268e-02 9.75186527e-02
      1.01019397e-01 3.09191607e-02 1.09459698e-01 1.09270804e-01
      7.50542386e-03 5.92304803e-02 1.57745108e-02 5.72822690e-02
      6.18213601e-02 5.06366789e-02 5.23800403e-02</_>
    <_>
      2.42892504e-02 7.62271434e-02 7.34793097e-02 9.66096073e-02
      9.98555422e-02 3.09545007e-02 1.08663097e-01 1.08252302e-01
      1.00858202e-02 5.88975102e-02 1.85762793e-02 5.61642796e-02
      6.00175411e-02 4.97297682e-02 5.14579602e-02</_>
    <_>
      2.40397807e-02 7.55256265e-02 7.28137717e-02 9.61105675e-02
      9.89987627e-02 3.05415299e-02 1.08081996e-01 1.07437298e-01
      1.19547304e-02 5.92083596e-02 2.08368693e-02 5.58504909e-02
      5.96308112e-02 5.00187203e-02 5.16918600e-02</_>
    <_>
      2.42145192e-02 7.47050866e-02 7.22486377e-02 9.41769108e-02
      9.65756923e-02 3.00194696e-02 1.01888202e-01 9.96292531e-02
      2.15349495e-02 5.98061010e-02 3.02108191e-02 5.25530912e-02
      5.76394796e-02 5.06212786e-02 5.00745885e-02</_>
    <_>
      2.31318492e-02 7.41669983e-02 7.10405409e-02 9.36743394e-02
      9.45373476e-02 3.35068703e-02 9.75303873e-02 9.12904292e-02
      3.47953513e-02 6.67677224e-02 3.95373106e-02 5.52291609e-02
      5.94394095e-02 5.18825687e-02 5.25449216e-02</_>
    <_>
      2.28307005e-02 7.15774000e-02 6.85789585e-02 8.86306167e-02
      8.86376500e-02 3.27285193e-02 9.01053473e-02 8.17225873e-02
      3.81804295e-02 6.42263368e-02 4.21997607e-02 5.15897013e-02
      5.37817292e-02 5.16441017e-02 5.04442304e-02</_>
    <_>
      2.12478302e-02 7.10698068e-02 6.78196102e-02 8.49857926e-02
      8.25730935e-02 3.90383713e-02 8.62217918e-02 7.27725029e-02
      4.65830304e-02 6.71385005e-02 4.51387689e-02 5.34815192e-02
      5.39510399e-02 5.12794405e-02 5.21371290e-02</_>
    <_>
      2.38748100e-02 7.44263530e-02 7.12935328e-02 8.60349014e-02
      8.28125104e-02 4.71004583e-02 8.50633383e-02 6.83244094e-02
      5.25434501e-02 7.29564503e-02 5.15557192e-02 5.37269711e-02
      5.71039207e-02 5.13457693e-02 5.15178293e-02</_>
    <_>
      2.49431394e-02 7.26551935e-02 7.01408386e-02 8.51975307e-02
      8.05545375e-02 4.96701486e-02 8.37627798e-02 6.58933073e-02
      5.36941215e-02 7.62104765e-02 5.67601509e-02 5.33825308e-02
      5.74926697e-02 5.09666018e-02 5.25052510e-02</_>
    <_>
      3.27831991e-02 6.97467178e-02 6.71293885e-02 9.06260312e-02
      8.58360305e-02 4.99025285e-02 9.67668295e-02 8.45201537e-02
      4.84250784e-02 8.88603330e-02 7.68281966e-02 4.89061214e-02
      6.56362399e-02 6.09635115e-02 5.30284010e-02</_>
    <_>
      3.63467112e-02 5.97235300e-02 5.92087284e-02 9.15773511e-02
      8.59858096e-02 4.59795892e-02 9.99917537e-02 8.95628035e-02
      4.47281003e-02 9.28896964e-02 8.72714221e-02 4.26718891e-02
      6.51676431e-02 6.53214976e-02 5.36998883e-02</_>
    <_>
      5.38469702e-02 5.32602891e-02 6.52680025e-02 9.50976312e-02
      8.92289430e-02 4.86768000e-02 1.06417499e-01 9.86087620e-02
      4.09972295e-02 9.71492976e-02 9.37390327e-02 3.83830592e-02
      7.22004399e-02 7.79894814e-02 5.27405106e-02</_>
    <_>
      5.37518486e-02 5.18617816e-02 6.60682470e-02 9.35003832e-02
      8.67699087e-02 4.90552709e-02 1.04300901e-01 9.54818502e-02
      4.26475294e-02 9.47790816e-02 9.05343667e-02 4.09326702e-02
      7.07989410e-02 7.72947371e-02 5.41049987e-02</_>
    <_>
      5.30360900e-02 5.36100194e-02 6.50757477e-02 9.47735682e-02
      8.87985080e-02 4.78591882e-02 1.05340503e-01 9.68942791e-02
      4.19965610e-02 9.59039778e-02 9.18139517e-02 4.06254418e-02
      7.22390637e-02 7.93598071e-02 5.31857312e-02</_>
    <_>
      5.30360900e-02 5.36100194e-02 6.50757477e-02 9.47735682e-02
      8.87985080e-02 4.78591882e-02 1.05340503e-01 9.68942791e-02
      4.19965610e-02 9.59039778e-02 9.18139517e-02 4.06254418e-02
      7.22390637e-02 7.93598071e-02 5.31857312e-02</_>
    <_>
      5.28937206e-02 5.36095910e-02 6.50631264e-02 9.45755169e-02
      8.84262696e-02 4.79154214e-02 1.04998603e-01 9.63113606e-02
      4.24279906e-02 9.55559611e-02 9.13768336e-02 4.11111303e-02
      7.22143874e-02 7.99896494e-02 5.31971902e-02</_>
    <_>
      5.14545813e-02 5.39053492e-02 6.37427717e-02 9.43031609e-02
      8.83367434e-02 4.71698716e-02 1.04444899e-01 9.56783295e-02
      4.23650593e-02 9.51778665e-02 9.09989625e-02 4.15050611e-02
      7.18986988e-02 7.96254873e-02 5.31842299e-02</_>
    <_>
      5.02335690e-02 5.49319312e-02 6.33076504e-02 9.43074673e-02
      8.84554684e-02 4.69786897e-02 1.04280896e-01 9.54174921e-02
      4.25095707e-02 9.51864868e-02 9.09726173e-02 4.14504893e-02
      7.18346164e-02 7.93168172e-02 5.28708883e-02</_>
    <_>
      4.95136194e-02 5.49402684e-02 6.33532703e-02 9.39710736e-02
      8.73629227e-02 4.76465113e-02 1.03775501e-01 9.41366926e-02
      4.39406708e-02 9.47521627e-02 9.00889337e-02 4.27953303e-02
      7.13813826e-02 7.85010308e-02 5.36741093e-02</_>
    <_>
      4.73411791e-02 5.53112887e-02 6.02069981e-02 9.42741111e-02
      8.84350166e-02 4.54834104e-02 1.04160301e-01 9.54252034e-02
      4.18466590e-02 9.54970568e-02 9.20105204e-02 4.07015085e-02
      7.18522072e-02 7.94999078e-02 5.19396216e-02</_>
    <_>
      4.79129590e-02 5.48454709e-02 6.12149797e-02 9.40390974e-02
      8.74368101e-02 4.68036085e-02 1.03941597e-01 9.45516601e-02
      4.32444401e-02 9.51353535e-02 9.10459682e-02 4.19457294e-02
      7.15193972e-02 7.84636065e-02 5.27586304e-02</_>
    <_>
      4.64212894e-02 5.55237904e-02 5.97937107e-02 9.39213410e-02
      8.80861878e-02 4.51667607e-02 1.03991203e-01 9.55471620e-02
      4.10961099e-02 9.52978134e-02 9.20361578e-02 4.01275307e-02
      7.15207607e-02 7.93068632e-02 5.17872311e-02</_>
    <_>
      4.57629710e-02 5.58292605e-02 5.98081909e-02 9.34400931e-02
      8.74098167e-02 4.56215590e-02 1.03646897e-01 9.51809809e-02
      4.10790816e-02 9.49589983e-02 9.15582776e-02 4.00036909e-02
      7.11812228e-02 7.91182294e-02 5.18849604e-02</_>
    <_>
      4.53456417e-02 5.59523888e-02 5.95497899e-02 9.32518467e-02
      8.72210935e-02 4.55248393e-02 1.03570797e-01 9.52859372e-02
      4.06334884e-02 9.48902592e-02 9.15884972e-02 3.97232808e-02
      7.10828826e-02 7.92417005e-02 5.19265197e-02</_>
    <_>
      4.47416604e-02 5.61653897e-02 5.94242997e-02 9.29039717e-02
      8.65701884e-02 4.59349416e-02 1.03421599e-01 9.51966271e-02
      4.04593684e-02 9.46900770e-02 9.11647528e-02 3.97750214e-02
      7.08544478e-02 7.89880678e-02 5.23062795e-02</_>
    <_>
      4.51788493e-02 5.65234199e-02 6.01272099e-02 9.31503102e-02
      8.56838226e-02 4.78214584e-02 1.03766203e-01 9.48277265e-02
      4.21951711e-02 9.49222371e-02 9.00906995e-02 4.16289382e-02
      7.13990629e-02 7.83132315e-02 5.34302294e-02</_>
    <_>
      4.31116112e-02 5.74707985e-02 5.85806407e-02 9.25673321e-02
      8.58400464e-02 4.60667908e-02 1.03251398e-01 9.51290429e-02
      4.02575210e-02 9.43225175e-02 8.92394111e-02 4.04485390e-02
      7.13153183e-02 7.78057426e-02 5.22068590e-02</_>
    <_>
      4.16017883e-02 5.66420108e-02 5.72821796e-02 9.11320299e-02
      8.34788904e-02 4.71685603e-02 1.01947904e-01 9.30071473e-02
      4.19685915e-02 9.29887071e-02 8.63876119e-02 4.17938717e-02
      7.08922595e-02 7.49586970e-02 5.25591411e-02</_>
    <_>
      4.03249785e-02 5.62623218e-02 5.61774112e-02 8.91718864e-02
      8.04281533e-02 4.91195507e-02 1.00134097e-01 8.98710117e-02
      4.46993187e-02 9.12333578e-02 8.24145228e-02 4.37616408e-02
      6.91252574e-02 6.75429925e-02 5.23495711e-02</_>
    <_>
      3.99844013e-02 5.60571514e-02 5.57805784e-02 8.81091282e-02
      7.85640404e-02 5.05801514e-02 9.90856290e-02 8.77648070e-02
      4.67812903e-02 9.02377069e-02 7.98982233e-02 4.54460196e-02
      6.77355826e-02 6.28147200e-02 5.25497906e-02</_>
    <_>
      3.94378304e-02 5.43775298e-02 5.40224798e-02 8.57866183e-02
      7.43180737e-02 5.24781607e-02 9.71282125e-02 8.36294293e-02
      5.03202416e-02 8.80384371e-02 7.51313716e-02 4.86555099e-02
      6.47035092e-02 5.51085211e-02 5.36495708e-02</_>
    <_>
      3.87513489e-02 5.21230809e-02 5.24123907e-02 8.44386667e-02
      7.11106434e-02 5.39726801e-02 9.51994210e-02 7.90654570e-02
      5.39244488e-02 8.72759372e-02 7.21972734e-02 5.16936406e-02
      6.19477704e-02 4.80651595e-02 5.53151518e-02</_>
    <_>
      3.77878100e-02 5.05274683e-02 4.86709587e-02 8.59482065e-02
      7.34714568e-02 5.10166511e-02 9.55877379e-02 7.99091235e-02
      5.27741201e-02 9.07051712e-02 7.85379633e-02 5.01492992e-02
      6.08857796e-02 4.83392887e-02 5.59764393e-02</_>
    <_>
      3.68084498e-02 5.18929996e-02 4.80324216e-02 9.10227299e-02
      8.20907876e-02 4.57332991e-02 1.00524798e-01 8.85560811e-02
      4.76723090e-02 9.52081010e-02 8.78570303e-02 4.39834706e-02
      6.44996092e-02 5.68248406e-02 5.47821298e-02</_>
    <_>
      4.20521684e-02 6.07293881e-02 6.32805228e-02 9.24517363e-02
      8.46160129e-02 4.95508797e-02 1.03206500e-01 9.39711928e-02
      4.30863611e-02 9.41616595e-02 8.76608863e-02 4.21507508e-02
      7.11388886e-02 7.55656883e-02 5.33771887e-02</_>
    <_>
      4.17428203e-02 6.19501807e-02 6.40412569e-02 9.16522071e-02
      8.37951601e-02 5.11525683e-02 1.02612600e-01 9.29052085e-02
      4.45916206e-02 9.35218334e-02 8.57621431e-02 4.24203910e-02
      7.09924996e-02 7.26530775e-02 5.19857705e-02</_>
    <_>
      4.17293496e-02 6.11065403e-02 6.32234812e-02 9.00339484e-02
      8.02772492e-02 5.41158617e-02 1.00501500e-01 8.81377012e-02
      4.98080403e-02 9.15561020e-02 8.05222467e-02 4.66070399e-02
      6.89755231e-02 6.39868230e-02 5.32307215e-02</_>
    <_>
      4.08514999e-02 5.88340610e-02 6.04037493e-02 8.93052295e-02
      7.85111934e-02 5.43675683e-02 9.95227173e-02 8.56682137e-02
      5.19349203e-02 9.09291133e-02 7.84265399e-02 4.88809310e-02
      6.63375705e-02 5.69172204e-02 5.49040809e-02</_>
    <_>
      3.95492092e-02 5.69789186e-02 5.73627688e-02 9.03679132e-02
      8.01354870e-02 5.22749797e-02 1.00582100e-01 8.71916711e-02
      5.08885495e-02 9.27084163e-02 8.15443173e-02 4.79241684e-02
      6.64168224e-02 5.66851310e-02 5.59275113e-02</_>
    <_>
      3.78087386e-02 5.68171702e-02 5.49002886e-02 9.35670435e-02
      8.62952396e-02 4.63197306e-02 1.03498198e-01 9.32363719e-02
      4.52068895e-02 9.43195000e-02 8.59660730e-02 4.43511605e-02
      6.80418983e-02 6.33526966e-02 5.43635786e-02</_>
    <_>
      4.15260307e-02 6.56162500e-02 6.71815872e-02 9.89819169e-02
      9.93831679e-02 3.19065899e-02 1.09183498e-01 1.07303098e-01
      2.07820199e-02 9.94895995e-02 1.01586603e-01 2.88005006e-02
      7.37559721e-02 8.62819627e-02 4.81258817e-02</_>
    <_>
      2.38655105e-01 2.49388203e-01 7.97524303e-02 2.34915599e-01
      2.44762495e-01 7.85788074e-02 2.35959306e-01 2.48791397e-01
      8.38659331e-02 2.40275994e-01 2.58260995e-01 9.91968066e-02
      2.44307503e-01 2.66988307e-01 1.16564602e-01</_>
    <_>
      5.29317483e-02 3.10362205e-02 5.51993512e-02 6.54411167e-02
      3.70548293e-02 6.20191395e-02 7.50454515e-02 4.14174683e-02
      6.44504726e-02 6.81954771e-02 3.50243896e-02 5.94184101e-02
      5.51924892e-02 3.89999188e-02 5.32367416e-02</_>
    <_>
      5.28349094e-02 3.12692598e-02 5.53708486e-02 6.54804036e-02
      3.76137793e-02 6.18564300e-02 7.54273534e-02 4.30788584e-02
      6.38137236e-02 6.93096071e-02 3.85323912e-02 5.86406216e-02
      5.59344813e-02 4.20209095e-02 5.31555116e-02</_>
    <_>
      5.29942401e-02 3.15163694e-02 5.61387800e-02 6.54630363e-02
      3.76133993e-02 6.22245483e-02 7.55470768e-02 4.36830707e-02
      6.37187213e-02 7.02071115e-02 4.08570096e-02 5.81063218e-02
      5.65606207e-02 4.39517088e-02 5.30906990e-02</_>
    <_>
      5.27246185e-02 3.19397300e-02 5.56100011e-02 6.52982965e-02
      3.82564291e-02 6.15105815e-02 7.54927397e-02 4.47146706e-02
      6.28574863e-02 7.05442429e-02 4.28956896e-02 5.71394116e-02
      5.68660609e-02 4.58514802e-02 5.25939092e-02</_>
    <_>
      5.27146310e-02 3.23675387e-02 5.58074713e-02 6.53976426e-02
      3.88079397e-02 6.15245886e-02 7.51354471e-02 4.50998992e-02
      6.23059683e-02 7.08781332e-02 4.45370711e-02 5.62489703e-02
      5.74479811e-02 4.78151292e-02 5.20583615e-02</_>
    <_>
      5.26712611e-02 3.31028588e-02 5.63320406e-02 6.51590824e-02
      3.86355296e-02 6.13648705e-02 7.43986070e-02 4.45770584e-02
      6.18530996e-02 7.11154267e-02 4.59896587e-02 5.54958805e-02
      5.76368906e-02 4.88899797e-02 5.15837818e-02</_>
    <_>
      5.26524596e-02 3.34769301e-02 5.68428710e-02 6.44722581e-02
      3.77280712e-02 6.11980818e-02 7.31843710e-02 4.30835895e-02
      6.15630895e-02 7.11230934e-02 4.66371700e-02 5.50122783e-02
      5.76972514e-02 4.96202111e-02 5.11154085e-02</_>
    <_>
      5.28993011e-02 3.31109688e-02 5.74251190e-02 6.32159784e-02
      3.56875807e-02 6.08269200e-02 7.15418309e-02 4.02340293e-02
      6.15454391e-02 7.00457990e-02 4.46468517e-02 5.52445091e-02
      5.73726483e-02 4.94830199e-02 5.08883111e-02</_>
    <_>
      5.35968989e-02 3.31583992e-02 5.81283495e-02 6.20141104e-02
      3.43936309e-02 6.01923391e-02 7.05095083e-02 3.85349989e-02
      6.14566803e-02 6.96723014e-02 4.37165797e-02 5.54649197e-02
      5.76430596e-02 5.03431708e-02 5.05269282e-02</_>
    <_>
      5.42309806e-02 3.31816301e-02 5.86453304e-02 6.08122796e-02
      3.33675817e-02 5.95655702e-02 6.96516037e-02 3.70095596e-02
      6.14834316e-02 6.92870170e-02 4.27157804e-02 5.56809790e-02
      5.80757000e-02 5.13650104e-02 5.01725301e-02</_>
    <_>
      5.05845100e-02 3.37627083e-02 5.06195314e-02 5.02028503e-02
      2.84106806e-02 5.30838296e-02 5.11688516e-02 1.82850193e-02
      5.12558892e-02 4.98706996e-02 1.41910296e-02 4.79367711e-02
      4.35336195e-02 2.52381507e-02 4.33586016e-02</_>
    <_>
      4.85787913e-02 3.20146792e-02 4.77534011e-02 4.78236601e-02
      2.62733009e-02 5.10672405e-02 4.83064801e-02 1.55157400e-02
      4.88604195e-02 4.62519787e-02 9.88088921e-03 4.53866385e-02
      3.99711691e-02 2.22043898e-02 4.17798795e-02</_>
    <_>
      4.55795787e-02 2.99426895e-02 4.33144011e-02 4.38766293e-02
      2.36343201e-02 4.78865206e-02 4.37668003e-02 1.24657899e-02
      4.50197905e-02 4.06725891e-02 3.65298893e-03 4.06878293e-02
      3.51114608e-02 1.83033906e-02 3.86272296e-02</_>
    <_>
      4.39422093e-02 2.74001695e-02 4.10904810e-02 4.08730991e-02
      2.14047991e-02 4.50654700e-02 4.06244695e-02 1.08912196e-02
      4.20290418e-02 3.69568989e-02 3.29472497e-03 3.69938314e-02
      3.17969099e-02 1.70297101e-02 3.60016488e-02</_>
    <_>
      4.08964194e-02 2.15466898e-02 3.90999690e-02 3.81706506e-02
      1.85138807e-02 4.23676409e-02 3.87487300e-02 1.09159397e-02
      3.96554284e-02 3.51523384e-02 9.30671021e-03 3.42744403e-02
      2.94949207e-02 1.77276209e-02 3.37541215e-02</_>
    <_>
      4.20266502e-02 2.29066405e-02 3.90759595e-02 3.77161503e-02
      1.97089203e-02 4.22674008e-02 3.82388197e-02 1.17192604e-02
      3.97376902e-02 3.38634700e-02 7.49582890e-03 3.31590287e-02
      2.80079395e-02 1.47123104e-02 3.13942693e-02</_>
    <_>
      4.18087989e-02 2.20883694e-02 3.89472507e-02 3.74784395e-02
      1.97616201e-02 4.21674103e-02 3.83197516e-02 1.21972598e-02
      3.98516208e-02 3.37350108e-02 8.09175242e-03 3.28442790e-02
      2.75475308e-02 1.38528198e-02 3.05123404e-02</_>
    <_>
      4.16959599e-02 2.05041002e-02 3.90463993e-02 3.75947095e-02
      1.98124591e-02 4.24123108e-02 3.90192904e-02 1.29673500e-02
      4.05583605e-02 3.40921991e-02 9.04337224e-03 3.29179391e-02
      2.73534991e-02 1.26113100e-02 2.96703801e-02</_>
    <_>
      4.16667499e-02 1.88249294e-02 3.90787981e-02 3.79871987e-02
      1.92332994e-02 4.25509289e-02 3.98945808e-02 1.29148597e-02
      4.12409715e-02 3.48022208e-02 9.70004033e-03 3.34937312e-02
      2.78755203e-02 1.30369999e-02 3.01761609e-02</_>
    <_>
      4.20389287e-02 1.78281292e-02 3.95734012e-02 3.86903882e-02
      1.93173401e-02 4.32341695e-02 4.08919416e-02 1.31914001e-02
      4.22578007e-02 3.57470810e-02 9.78773367e-03 3.44303511e-02
      2.87654605e-02 1.28410403e-02 3.08755096e-02</_>
    <_>
      4.09183688e-02 1.48222204e-02 3.88091207e-02 3.84235084e-02
      1.77309308e-02 4.22806814e-02 4.10476699e-02 1.24510396e-02
      4.17018086e-02 3.61643285e-02 1.16295703e-02 3.44964489e-02
      2.90030092e-02 1.49678597e-02 3.14996988e-02</_>
    <_>
      4.24693115e-02 1.67034399e-02 4.00828198e-02 3.96067202e-02
      1.94685794e-02 4.41293195e-02 4.20798585e-02 1.28498096e-02
      4.33959886e-02 3.70440297e-02 9.23104212e-03 3.59239988e-02
      3.02750394e-02 1.30316103e-02 3.24215591e-02</_>
    <_>
      4.25223112e-02 1.68252997e-02 4.00972702e-02 3.97045091e-02
      1.96387302e-02 4.42884006e-02 4.21736613e-02 1.28033999e-02
      4.35441807e-02 3.71666998e-02 8.85747373e-03 3.61364596e-02
      3.05215996e-02 1.30344797e-02 3.27033587e-02</_>
    <_>
      4.24719304e-02 1.69589408e-02 3.99331599e-02 3.97724696e-02
      1.97159797e-02 4.43723612e-02 4.22191583e-02 1.24725597e-02
      4.36206684e-02 3.73170301e-02 8.15750938e-03 3.64650488e-02
      3.08662206e-02 1.33649502e-02 3.32571790e-02</_>
    <_>
      4.26821113e-02 1.75878592e-02 4.00052182e-02 4.00666296e-02
      1.99842807e-02 4.47269306e-02 4.24559116e-02 1.22922203e-02
      4.39364612e-02 3.75928394e-02 7.32396077e-03 3.69209014e-02
      3.13215405e-02 1.34465601e-02 3.38319317e-02</_>
    <_>
      4.26124893e-02 1.80660002e-02 3.98267508e-02 4.01005000e-02
      2.00804695e-02 4.47719917e-02 4.24387604e-02 1.20508904e-02
      4.39388715e-02 3.76509912e-02 6.71279896e-03 3.71071696e-02
      3.15177813e-02 1.37031497e-02 3.41923200e-02</_>
    <_>
      4.19199616e-02 1.67007707e-02 3.93479988e-02 4.00633290e-02
      1.84891392e-02 4.41090986e-02 4.25520912e-02 1.06869601e-02
      4.35752906e-02 3.79942507e-02 8.01304076e-03 3.74187008e-02
      3.17477994e-02 1.58063900e-02 3.51311788e-02</_>
    <_>
      4.25116010e-02 1.89177003e-02 3.97694893e-02 4.03184108e-02
      2.04255097e-02 4.50832918e-02 4.26841713e-02 1.20022800e-02
      4.42442112e-02 3.80330496e-02 5.96188288e-03 3.76218297e-02
      3.18877399e-02 1.39346197e-02 3.46878618e-02</_>
    <_>
      4.25591990e-02 1.96235403e-02 3.99201103e-02 4.06076610e-02
      2.06860397e-02 4.54242192e-02 4.30227108e-02 1.20253600e-02
      4.46170606e-02 3.84748913e-02 5.48638217e-03 3.81392501e-02
      3.22633982e-02 1.40105002e-02 3.50944512e-02</_>
    <_>
      4.24621701e-02 2.03120094e-02 3.98388989e-02 4.06666808e-02
      2.08304003e-02 4.54859398e-02 4.30884100e-02 1.19417198e-02
      4.46901806e-02 3.86365801e-02 4.96713817e-03 3.83823887e-02
      3.23813893e-02 1.41637297e-02 3.52999493e-02</_>
    <_>
      4.26044688e-02 2.07965504e-02 4.00223583e-02 4.09631915e-02
      2.08054408e-02 4.56888415e-02 4.33527902e-02 1.17328297e-02
      4.49043289e-02 3.90120894e-02 4.67324117e-03 3.88193317e-02
      3.27050798e-02 1.44673102e-02 3.57365198e-02</_>
    <_>
      4.25758883e-02 2.13864502e-02 4.00238186e-02 4.10147496e-02
      2.08921600e-02 4.57059592e-02 4.33874801e-02 1.16415601e-02
      4.49215695e-02 3.91268097e-02 4.33842186e-03 3.89861912e-02
      3.27393003e-02 1.46497898e-02 3.58556099e-02</_>
    <_>
      4.21874598e-02 2.01518908e-02 3.96600515e-02 4.11194190e-02
      1.91933196e-02 4.51431014e-02 4.36577089e-02 9.94667877e-03
      4.47662994e-02 3.95742394e-02 5.77446399e-03 3.95116210e-02
      3.30095999e-02 1.65416095e-02 3.68747897e-02</_>
    <_>
      4.20666486e-02 2.19413508e-02 3.96722592e-02 4.08818088e-02
      2.06979793e-02 4.54178415e-02 4.34282199e-02 1.11817401e-02
      4.48401608e-02 3.94117497e-02 4.14128089e-03 3.93657386e-02
      3.27955000e-02 1.54017098e-02 3.62291001e-02</_>
    <_>
      4.18673195e-02 2.22940892e-02 3.95237096e-02 4.07189988e-02
      2.08659600e-02 4.53079306e-02 4.32970598e-02 1.12929400e-02
      4.47349809e-02 3.93226109e-02 3.90953617e-03 3.92906293e-02
      3.26594003e-02 1.53519697e-02 3.60870399e-02</_>
    <_>
      4.17390689e-02 2.23571807e-02 3.94660495e-02 4.06991392e-02
      2.08191499e-02 4.52628210e-02 4.33077700e-02 1.12171797e-02
      4.47245203e-02 3.93660516e-02 3.94584611e-03 3.93442810e-02
      3.26553397e-02 1.54922297e-02 3.61432284e-02</_>
    <_>
      4.16455306e-02 2.27982104e-02 3.94874401e-02 4.08186018e-02
      2.09909808e-02 4.53611985e-02 4.34010103e-02 1.12623898e-02
      4.48052399e-02 3.95478308e-02 3.66166001e-03 3.95641588e-02
      3.27674709e-02 1.56537499e-02 3.63137089e-02</_>
    <_>
      4.19444703e-02 2.16891598e-02 3.96819711e-02 4.14015800e-02
      1.95424408e-02 4.53232005e-02 4.39653099e-02 9.79284942e-03
      4.50279899e-02 4.02568392e-02 5.06917387e-03 4.03776504e-02
      3.34581695e-02 1.72083396e-02 3.76225598e-02</_>
    <_>
      4.15142812e-02 2.27978192e-02 3.95365208e-02 4.08101305e-02
      2.05507800e-02 4.51516584e-02 4.31707501e-02 1.06867598e-02
      4.44429889e-02 3.96823399e-02 4.12232708e-03 3.97714488e-02
      3.29816714e-02 1.65338907e-02 3.68918888e-02</_>
    <_>
      4.12613004e-02 2.33205296e-02 3.95771712e-02 4.06661890e-02
      2.08511800e-02 4.51140590e-02 4.29073796e-02 1.08497897e-02
      4.42090183e-02 3.97142097e-02 3.83233489e-03 3.98419499e-02
      3.30380984e-02 1.66812707e-02 3.69959213e-02</_>
    <_>
      4.15610112e-02 2.41965801e-02 3.99929918e-02 4.08573896e-02
      2.13553198e-02 4.53623608e-02 4.30387296e-02 1.12432996e-02
      4.43723910e-02 3.99517789e-02 3.38505302e-03 4.00881618e-02
      3.32684293e-02 1.66058391e-02 3.71198803e-02</_>
    <_>
      4.19148393e-02 2.54137497e-02 4.11073603e-02 4.11090106e-02
      2.24709492e-02 4.59053591e-02 4.33617905e-02 1.22110099e-02
      4.48124409e-02 4.06108908e-02 3.08785401e-03 4.06885184e-02
      3.36746611e-02 1.64203998e-02 3.72480191e-02</_>
    <_>
      4.21089008e-02 2.64184307e-02 4.13433202e-02 4.14065607e-02
      2.31280606e-02 4.58886512e-02 4.38265689e-02 1.28603196e-02
      4.49982211e-02 4.15692888e-02 5.71097899e-03 4.14345004e-02
      3.41175012e-02 1.78869292e-02 3.76940593e-02</_>
    <_>
      4.36602496e-02 2.61160601e-02 4.25402001e-02 4.38067988e-02
      2.24431492e-02 4.69796397e-02 4.62974012e-02 1.24853002e-02
      4.66562808e-02 4.48932089e-02 1.01839900e-02 4.44160998e-02
      3.66206802e-02 2.14728806e-02 4.07252498e-02</_>
    <_>
      4.25078794e-02 2.86583807e-02 4.24068011e-02 4.32584397e-02
      2.56833900e-02 4.67151105e-02 4.55359407e-02 1.59173105e-02
      4.57035415e-02 4.54664305e-02 1.44781303e-02 4.35004719e-02
      3.64422388e-02 2.28722505e-02 3.90427783e-02</_>
    <_>
      4.23506200e-02 2.94823702e-02 4.34817895e-02 4.37320210e-02
      2.71343105e-02 4.70410995e-02 4.61088791e-02 1.76507793e-02
      4.59506214e-02 4.74905893e-02 1.88020095e-02 4.39967513e-02
      3.86512317e-02 2.66261194e-02 3.95046212e-02</_>
    <_>
      4.25478183e-02 2.89217494e-02 4.44152504e-02 4.47563492e-02
      2.74963602e-02 4.77863103e-02 4.75374907e-02 1.86798796e-02
      4.70116213e-02 4.94050011e-02 2.17124894e-02 4.48662303e-02
      4.12115492e-02 3.07846293e-02 4.04496603e-02</_>
    <_>
      5.76157793e-02 1.54617196e-02 5.60667105e-02 6.51572198e-02
      3.35424803e-02 6.43517375e-02 7.42502213e-02 3.62026803e-02
      6.66964427e-02 6.88042566e-02 2.94528306e-02 6.28112704e-02
      5.17543107e-02 2.26593092e-02 5.25277704e-02</_>
    <_>
      5.76038808e-02 1.56297609e-02 5.60101308e-02 6.55109733e-02
      3.45194712e-02 6.45676926e-02 7.46079385e-02 3.70689891e-02
      6.67133182e-02 6.90928325e-02 3.01465299e-02 6.27630800e-02
      5.19683696e-02 2.28852201e-02 5.25530986e-02</_>
    <_>
      5.75712398e-02 1.55173196e-02 5.59466109e-02 6.56599924e-02
      3.47640105e-02 6.45741895e-02 7.47539327e-02 3.73470113e-02
      6.66720569e-02 6.92074075e-02 3.04797199e-02 6.27669618e-02
      5.20640500e-02 2.31795199e-02 5.26689999e-02</_>
    <_>
      5.85214905e-02 1.40544297e-02 5.72666004e-02 6.68075681e-02
      3.47299613e-02 6.60699010e-02 7.56924376e-02 3.68759893e-02
      6.80093318e-02 7.01504126e-02 2.98272409e-02 6.41240329e-02
      5.32526113e-02 2.26676408e-02 5.41379116e-02</_>
    <_>
      5.75256608e-02 1.51294898e-02 5.58398701e-02 6.65807799e-02
      3.62995602e-02 6.46667033e-02 7.55537972e-02 3.88825200e-02
      6.64737597e-02 6.98062330e-02 3.20966505e-02 6.28331378e-02
      5.26407883e-02 2.47342493e-02 5.33500202e-02</_>
    <_>
      5.74512295e-02 1.51534500e-02 5.57246692e-02 6.68899268e-02
      3.71156894e-02 6.45776987e-02 7.58049116e-02 3.96602117e-02
      6.62532374e-02 6.99576735e-02 3.27884518e-02 6.27041981e-02
      5.27868606e-02 2.54046805e-02 5.34948707e-02</_>
    <_>
      5.72404191e-02 1.52611397e-02 5.54564111e-02 6.70668036e-02
      3.79980505e-02 6.43526167e-02 7.59206414e-02 4.04460207e-02
      6.58962429e-02 6.99664131e-02 3.34272012e-02 6.24081790e-02
      5.27779087e-02 2.59856600e-02 5.34363985e-02</_>
    <_>
      5.71513511e-02 1.51532600e-02 5.53827696e-02 6.74071088e-02
      3.90239991e-02 6.43867701e-02 7.61459768e-02 4.11980003e-02
      6.57560974e-02 7.00610802e-02 3.38306203e-02 6.22683503e-02
      5.29153012e-02 2.63218991e-02 5.34977615e-02</_>
    <_>
      5.69718592e-02 1.52713796e-02 5.51462919e-02 6.76139370e-02
      3.99379507e-02 6.42585233e-02 7.62784928e-02 4.19350788e-02
      6.55011013e-02 7.00948015e-02 3.43353003e-02 6.20009117e-02
      5.29446900e-02 2.67197695e-02 5.33624887e-02</_>
    <_>
      5.75584583e-02 1.35923000e-02 5.61123900e-02 6.86176270e-02
      4.08236906e-02 6.52420074e-02 7.68612772e-02 4.19924408e-02
      6.62840083e-02 7.05411136e-02 3.36654112e-02 6.27978966e-02
      5.37783690e-02 2.65043899e-02 5.44049889e-02</_>
    <_>
      5.60373105e-02 1.43594304e-02 5.42049184e-02 6.85676709e-02
      4.39125896e-02 6.31200671e-02 7.66657814e-02 4.50226404e-02
      6.39983490e-02 6.96425065e-02 3.55910696e-02 6.07381612e-02
      5.27599305e-02 2.84701996e-02 5.28390706e-02</_>
    <_>
      5.54143414e-02 1.41872596e-02 5.35693392e-02 6.88377991e-02
      4.60086800e-02 6.20463900e-02 7.66708702e-02 4.66428101e-02
      6.28758669e-02 6.89356327e-02 3.58457603e-02 5.97519986e-02
      5.22106700e-02 2.91728098e-02 5.21254912e-02</_>
    <_>
      5.50495610e-02 1.41234696e-02 5.32122701e-02 6.90033063e-02
      4.74288985e-02 6.10526912e-02 7.65215084e-02 4.74973209e-02
      6.20123819e-02 6.81445971e-02 3.56169194e-02 5.89977615e-02
      5.16344309e-02 2.96244100e-02 5.15775196e-02</_>
    <_>
      5.48902117e-02 1.39608402e-02 5.31017706e-02 6.88852072e-02
      4.76738811e-02 6.05564713e-02 7.62297586e-02 4.74436097e-02
      6.16420992e-02 6.75992668e-02 3.51864286e-02 5.86582497e-02
      5.12443595e-02 2.96911206e-02 5.13319485e-02</_>
    <_>
      5.46959490e-02 1.38001097e-02 5.29529490e-02 6.86291605e-02
      4.82681915e-02 5.98071404e-02 7.55841210e-02 4.72291708e-02
      6.10801615e-02 6.64483532e-02 3.40922102e-02 5.79205789e-02
      5.04562818e-02 2.94272304e-02 5.06154411e-02</_>
    <_>
      5.51422797e-02 1.19429799e-02 5.38497604e-02 6.79722801e-02
      4.72672991e-02 6.02598600e-02 7.45146498e-02 4.49872985e-02
      6.17402196e-02 6.52064532e-02 3.09292506e-02 5.80921695e-02
      4.98964712e-02 2.74907704e-02 5.05781211e-02</_>
    <_>
      5.40398583e-02 1.33123295e-02 5.24557903e-02 6.72169700e-02
      4.79318090e-02 5.81491999e-02 7.32640773e-02 4.50347103e-02
      5.99560812e-02 6.34006485e-02 3.10520101e-02 5.61186709e-02
      4.84187901e-02 2.86269393e-02 4.90228608e-02</_>
    <_>
      5.37736416e-02 1.31938700e-02 5.22312298e-02 6.65530264e-02
      4.76168692e-02 5.76322600e-02 7.21902326e-02 4.38833982e-02
      5.95796183e-02 6.22078814e-02 2.98906192e-02 5.53551987e-02
      4.76430990e-02 2.82522999e-02 4.83473688e-02</_>
    <_>
      5.37295491e-02 1.31561998e-02 5.22118397e-02 6.63190484e-02
      4.73949797e-02 5.74899502e-02 7.17815682e-02 4.33323309e-02
      5.94979115e-02 6.17868006e-02 2.94060800e-02 5.51329292e-02
      4.73911688e-02 2.81127207e-02 4.81637307e-02</_>
    <_>
      5.35656102e-02 1.30479103e-02 5.21052703e-02 6.60515428e-02
      4.73283418e-02 5.71368411e-02 7.13757500e-02 4.30348888e-02
      5.91784082e-02 6.11987188e-02 2.90455800e-02 5.46963587e-02
      4.69935685e-02 2.81596407e-02 4.79015112e-02</_>
    <_>
      5.39749898e-02 1.28165400e-02 5.25677204e-02 6.63596988e-02
      4.68369685e-02 5.78215607e-02 7.19536915e-02 4.30090986e-02
      5.98379709e-02 6.18954599e-02 2.91233491e-02 5.54658994e-02
      4.75450307e-02 2.80261692e-02 4.85545509e-02</_>
    <_>
      5.45794815e-02 1.16144205e-02 5.33707701e-02 6.66166618e-02
      4.60790992e-02 5.94100393e-02 7.26693720e-02 4.27329689e-02
      6.11648299e-02 6.29064888e-02 2.85477806e-02 5.67229316e-02
      4.83231507e-02 2.67241094e-02 4.93362211e-02</_>
    <_>
      5.43284416e-02 1.32297799e-02 5.27684093e-02 6.71350434e-02
      4.67745103e-02 5.88929802e-02 7.34306797e-02 4.43034396e-02
      6.06600791e-02 6.35588691e-02 3.06162294e-02 5.65559790e-02
      4.86031398e-02 2.82814708e-02 4.93397117e-02</_>
    <_>
      5.43220900e-02 1.32697197e-02 5.27299084e-02 6.71501085e-02
      4.66981418e-02 5.92324398e-02 7.35911429e-02 4.43898812e-02
      6.09005094e-02 6.38070032e-02 3.06847598e-02 5.67322709e-02
      4.87534292e-02 2.80586705e-02 4.93567698e-02</_>
    <_>
      5.43376617e-02 1.34730302e-02 5.27001917e-02 6.72873631e-02
      4.67232391e-02 5.93718290e-02 7.38297701e-02 4.46062796e-02
      6.10244684e-02 6.40404224e-02 3.08985692e-02 5.68856597e-02
      4.89085689e-02 2.81509291e-02 4.94615100e-02</_>
    <_>
      5.42008206e-02 1.35266501e-02 5.25426082e-02 6.74113333e-02
      4.69982997e-02 5.94688281e-02 7.40777031e-02 4.50891182e-02
      6.10274896e-02 6.41977787e-02 3.11219003e-02 5.69097102e-02
      4.89476994e-02 2.80946791e-02 4.94080298e-02</_>
    <_>
      5.47300391e-02 1.21441605e-02 5.34067899e-02 6.75178394e-02
      4.62026298e-02 6.04956597e-02 7.42698982e-02 4.42215689e-02
      6.19971193e-02 6.45674169e-02 2.99788602e-02 5.78730106e-02
      4.93737310e-02 2.70197205e-02 5.02009615e-02</_>
    <_>
      5.39612584e-02 1.36723798e-02 5.22720106e-02 6.80728778e-02
      4.79825698e-02 5.96172884e-02 7.49713480e-02 4.66391183e-02
      6.09265007e-02 6.49383292e-02 3.23260091e-02 5.71092702e-02
      4.93054017e-02 2.85333693e-02 4.96162288e-02</_>
    <_>
      5.36997207e-02 1.37701603e-02 5.19966893e-02 6.85783699e-02
      4.87353094e-02 5.98161891e-02 7.56489933e-02 4.78508994e-02
      6.08531088e-02 6.54970929e-02 3.32425386e-02 5.72104491e-02
      4.96312007e-02 2.88709793e-02 4.97220606e-02</_>
    <_>
      5.32610118e-02 1.39778098e-02 5.15682586e-02 6.88413829e-02
      4.89834696e-02 5.97770810e-02 7.61153772e-02 4.87026311e-02
      6.06824197e-02 6.58285916e-02 3.40082198e-02 5.71874790e-02
      4.97991890e-02 2.93302499e-02 4.97951806e-02</_>
    <_>
      5.31284809e-02 1.41148996e-02 5.14942892e-02 6.89781308e-02
      4.87151705e-02 5.99374101e-02 7.64030218e-02 4.88504916e-02
      6.08867891e-02 6.60086125e-02 3.41397114e-02 5.73366210e-02
      4.99789007e-02 2.94962600e-02 4.99701612e-02</_>
    <_>
      5.30630685e-02 1.42905703e-02 5.14798388e-02 6.87213317e-02
      4.79717404e-02 5.99697903e-02 7.62497783e-02 4.83608693e-02
      6.10652193e-02 6.57589585e-02 3.37156095e-02 5.73052801e-02
      4.98834103e-02 2.94889491e-02 4.99358103e-02</_>
    <_>
      5.35229109e-02 1.25124399e-02 5.23858704e-02 6.82058036e-02
      4.62151505e-02 6.09444492e-02 7.57095963e-02 4.63189296e-02
      6.21104687e-02 6.54948726e-02 3.15612182e-02 5.81283309e-02
      4.99113388e-02 2.78885607e-02 5.05543910e-02</_>
    <_>
      5.30818105e-02 1.44021297e-02 5.16547598e-02 6.80422783e-02
      4.64149788e-02 5.97864091e-02 7.55593330e-02 4.68653291e-02
      6.12161495e-02 6.51920363e-02 3.27587798e-02 5.73067106e-02
      4.95535582e-02 2.94106696e-02 4.99922186e-02</_>
    <_>
      5.33330105e-02 1.43862600e-02 5.19683212e-02 6.78360835e-02
      4.55821492e-02 5.99436313e-02 7.53126964e-02 4.59651910e-02
      6.15215488e-02 6.51900023e-02 3.23154591e-02 5.76031283e-02
      4.95986193e-02 2.92469393e-02 5.02476208e-02</_>
    <_>
      5.37228808e-02 1.42597798e-02 5.23214415e-02 6.77406117e-02
      4.50385287e-02 6.02952205e-02 7.52289295e-02 4.53449190e-02
      6.19252212e-02 6.54610619e-02 3.21963392e-02 5.79485409e-02
      4.98544499e-02 2.90413592e-02 5.04921712e-02</_>
    <_>
      5.43826707e-02 1.39206396e-02 5.29212505e-02 6.78436235e-02
      4.45526801e-02 6.09767102e-02 7.54646733e-02 4.49918509e-02
      6.25746474e-02 6.61502630e-02 3.23870108e-02 5.85631207e-02
      5.05072512e-02 2.88643595e-02 5.10142483e-02</_>
    <_>
      5.48202693e-02 1.39297396e-02 5.31705618e-02 6.80698231e-02
      4.45700213e-02 6.15566112e-02 7.59884194e-02 4.56059910e-02
      6.28286675e-02 6.74690083e-02 3.40545811e-02 5.91011494e-02
      5.13611399e-02 2.93017905e-02 5.15181310e-02</_>
    <_>
      5.51078282e-02 1.24577796e-02 5.37417904e-02 6.77968115e-02
      4.36624996e-02 6.23739101e-02 7.57868364e-02 4.46595103e-02
      6.34383410e-02 6.77256286e-02 3.33616696e-02 5.96909411e-02
      5.15652709e-02 2.82435603e-02 5.19831702e-02</_>
    <_>
      5.51126599e-02 1.41068297e-02 5.33390492e-02 6.83047622e-02
      4.45538498e-02 6.17995001e-02 7.65803605e-02 4.64918017e-02
      6.27657771e-02 6.87933266e-02 3.63417007e-02 5.94087690e-02
      5.21584414e-02 3.04456204e-02 5.21694496e-02</_>
    <_>
      5.53136803e-02 1.42329000e-02 5.34876511e-02 6.85496479e-02
      4.45164815e-02 6.20662197e-02 7.70466477e-02 4.69991192e-02
      6.28689006e-02 6.95519000e-02 3.75047103e-02 5.96654490e-02
      5.26951104e-02 3.10542304e-02 5.26702218e-02</_>
    <_>
      5.54285608e-02 1.42478496e-02 5.35958894e-02 6.86649531e-02
      4.43036593e-02 6.22250699e-02 7.73341730e-02 4.72176895e-02
      6.29430413e-02 7.00437278e-02 3.82925607e-02 5.98617196e-02
      5.30739091e-02 3.15953419e-02 5.31358607e-02</_>
    <_>
      5.54693490e-02 1.44017199e-02 5.35890497e-02 6.87322468e-02
      4.41931598e-02 6.23441711e-02 7.75507987e-02 4.74218316e-02
      6.30014315e-02 7.03871474e-02 3.88458595e-02 5.99730015e-02
      5.33329509e-02 3.19327489e-02 5.33916205e-02</_>
    <_>
      5.55407107e-02 1.45943500e-02 5.35921305e-02 6.87199906e-02
      4.41672802e-02 6.25622794e-02 7.76477978e-02 4.75072712e-02
      6.31167069e-02 7.06040636e-02 3.90888788e-02 6.00264892e-02
      5.34836389e-02 3.18633914e-02 5.34176007e-02</_>
    <_>
      5.59260808e-02 1.33057702e-02 5.43248095e-02 6.85441121e-02
      4.32399698e-02 6.35909364e-02 7.74266571e-02 4.62496206e-02
      6.40314370e-02 7.05346316e-02 3.75680588e-02 6.07021116e-02
      5.36210798e-02 3.03048994e-02 5.37956506e-02</_>
    <_>
      5.53570203e-02 1.48588298e-02 5.33264689e-02 6.83076903e-02
      4.36903387e-02 6.25943094e-02 7.74332732e-02 4.72725295e-02
      6.31258190e-02 7.04807118e-02 3.88969183e-02 5.99124394e-02
      5.33444807e-02 3.14889513e-02 5.31273112e-02</_>
    <_>
      5.51460609e-02 1.48802605e-02 5.31038493e-02 6.79402575e-02
      4.32651192e-02 6.25194535e-02 7.71509930e-02 4.69437316e-02
      6.30718470e-02 7.02281594e-02 3.85290794e-02 5.98024093e-02
      5.31180501e-02 3.11427992e-02 5.28848208e-02</_>
    <_>
      5.48514202e-02 1.48325404e-02 5.28095402e-02 6.74754083e-02
      4.26305011e-02 6.22812100e-02 7.67342895e-02 4.64199297e-02
      6.29234016e-02 6.98274225e-02 3.80202606e-02 5.96612096e-02
      5.27846515e-02 3.08823306e-02 5.26501201e-02</_>
    <_>
      5.46913184e-02 1.49347400e-02 5.26128896e-02 6.70952499e-02
      4.20423187e-02 6.21274598e-02 7.63924494e-02 4.59114015e-02
      6.28957525e-02 6.94949031e-02 3.74708511e-02 5.95823601e-02
      5.25536686e-02 3.06375995e-02 5.23992106e-02</_>
    <_>
      5.44448607e-02 1.48430998e-02 5.23829795e-02 6.65645674e-02
      4.12693694e-02 6.19266815e-02 7.58846328e-02 4.51691113e-02
      6.28470629e-02 6.90019205e-02 3.66658494e-02 5.94593100e-02
      5.22246696e-02 3.02705206e-02 5.21014705e-02</_>
    <_>
      5.57423197e-02 1.32597899e-02 5.41426800e-02 6.71893135e-02
      3.99656482e-02 6.37017488e-02 7.63114318e-02 4.34633903e-02
      6.47075474e-02 6.96034506e-02 3.47175412e-02 6.11735210e-02
      5.31764887e-02 2.87250709e-02 5.34888506e-02</_>
    <_>
      5.41624911e-02 1.47089204e-02 5.21307997e-02 6.60025626e-02
      4.05605808e-02 6.16310202e-02 7.53084868e-02 4.44388203e-02
      6.26896173e-02 6.84490129e-02 3.58999409e-02 5.92516586e-02
      5.18294312e-02 2.99294107e-02 5.17663509e-02</_>
    <_>
      5.40869199e-02 1.48246000e-02 5.20256609e-02 6.56538680e-02
      3.99555489e-02 6.16452806e-02 7.47514069e-02 4.34184186e-02
      6.28842637e-02 6.78324774e-02 3.45737301e-02 5.91864400e-02
      5.14002517e-02 2.89248992e-02 5.12700193e-02</_>
    <_>
      5.43994904e-02 1.46256201e-02 5.24053797e-02 6.57928735e-02
      3.95888388e-02 6.20811582e-02 7.46597573e-02 4.26477082e-02
      6.33737072e-02 6.77585825e-02 3.36459912e-02 5.95699698e-02
      5.14184199e-02 2.81342994e-02 5.13927899e-02</_>
    <_>
      5.46899103e-02 1.45891597e-02 5.27232587e-02 6.59834072e-02
      3.92976888e-02 6.23269901e-02 7.46458471e-02 4.20807004e-02
      6.36978894e-02 6.77711368e-02 3.31190117e-02 5.98919913e-02
      5.14779501e-02 2.78070103e-02 5.15918806e-02</_>
    <_>
      5.48539087e-02 1.44945597e-02 5.29265702e-02 6.59405366e-02
      3.87525596e-02 6.23623282e-02 7.44793937e-02 4.13625687e-02
      6.38648719e-02 6.77106380e-02 3.26782912e-02 6.01235107e-02
      5.14440201e-02 2.76426300e-02 5.17692007e-02</_>
    <_>
      5.58029488e-02 1.28555996e-02 5.43044582e-02 6.63528666e-02
      3.77323814e-02 6.38979897e-02 7.46778324e-02 3.96106616e-02
      6.54471889e-02 6.80840537e-02 3.05720605e-02 6.14660494e-02
      5.20597808e-02 2.56998204e-02 5.27166501e-02</_>
    <_>
      5.50677292e-02 1.52089400e-02 5.29537387e-02 6.59721866e-02
      3.83371301e-02 6.21677600e-02 7.41958171e-02 4.02571000e-02
      6.40797466e-02 6.74848109e-02 3.19410004e-02 6.03405796e-02
      5.12187891e-02 2.73023602e-02 5.17536402e-02</_>
    <_>
      5.53136691e-02 1.52742900e-02 5.31643592e-02 6.59340173e-02
      3.78678292e-02 6.24516010e-02 7.38575384e-02 3.89703102e-02
      6.45336136e-02 6.73085302e-02 3.07603106e-02 6.06921986e-02
      5.10984100e-02 2.62900405e-02 5.17909713e-02</_>
    <_>
      5.53302690e-02 1.52103500e-02 5.32055311e-02 6.57096803e-02
      3.71001214e-02 6.24858104e-02 7.33684823e-02 3.75239588e-02
      6.47596270e-02 6.70027137e-02 2.96236500e-02 6.09405190e-02
      5.08638695e-02 2.55025905e-02 5.18793389e-02</_>
    <_>
      5.50812818e-02 1.54233500e-02 5.29314317e-02 6.50616884e-02
      3.62705812e-02 6.21925183e-02 7.23819807e-02 3.57323699e-02
      6.46961629e-02 6.62266389e-02 2.81326007e-02 6.07354492e-02
      5.03457412e-02 2.47628503e-02 5.15357405e-02</_>
    <_>
      5.53611703e-02 1.53512200e-02 5.34408092e-02 6.44886866e-02
      3.50964591e-02 6.28529936e-02 7.13696033e-02 3.29265185e-02
      6.54983073e-02 6.55040964e-02 2.49728691e-02 6.10227399e-02
      5.01375608e-02 2.25365404e-02 5.13021499e-02</_>
    <_>
      5.47601096e-02 1.64732095e-02 5.24304882e-02 6.35900572e-02
      3.45551819e-02 6.14955202e-02 7.02620074e-02 3.21953893e-02
      6.43802136e-02 6.44389987e-02 2.49175504e-02 6.00171611e-02
      4.92036305e-02 2.33385507e-02 5.04872501e-02</_>
    <_>
      5.44426106e-02 1.67162195e-02 5.20998091e-02 6.21989109e-02
      3.25444005e-02 6.07089698e-02 6.81746677e-02 2.89117806e-02
      6.36257678e-02 6.27639368e-02 2.21905503e-02 5.92594296e-02
      4.80763912e-02 2.24012192e-02 4.96840999e-02</_>
    <_>
      5.44893108e-02 1.73827205e-02 5.21039702e-02 6.10719211e-02
      3.08607500e-02 6.00502193e-02 6.65848330e-02 2.64826193e-02
      6.29271865e-02 6.15656413e-02 2.02208906e-02 5.86709306e-02
      4.72480617e-02 2.16828305e-02 4.90460582e-02</_>
    <_>
      5.48442602e-02 1.76737197e-02 5.26657887e-02 6.03197515e-02
      2.92179603e-02 5.99305704e-02 6.56873435e-02 2.44737398e-02
      6.28050789e-02 6.10636994e-02 1.84412599e-02 5.86764999e-02
      4.69102189e-02 2.06343401e-02 4.88457903e-02</_>
    <_>
      4.62398902e-02 1.94652192e-02 4.19925898e-02 5.03401309e-02
      2.28166208e-02 5.42061701e-02 5.74867204e-02 1.50925796e-02
      5.84112592e-02 5.40339909e-02 3.97166889e-03 5.39452583e-02
      4.22285795e-02 1.52059896e-02 4.47606407e-02</_>
    <_>
      4.61249501e-02 2.05150694e-02 4.13423106e-02 5.21069393e-02
      2.53627691e-02 5.41811995e-02 5.67848682e-02 1.68562699e-02
      5.68515994e-02 5.30760810e-02 8.00721254e-03 5.26216812e-02
      4.17613499e-02 1.73415598e-02 4.43582088e-02</_>
    <_>
      4.58938293e-02 1.85927209e-02 4.22650911e-02 5.28987907e-02
      2.74353996e-02 5.39524294e-02 5.67772910e-02 1.73461903e-02
      5.64208217e-02 5.23577891e-02 9.20645986e-03 5.18325008e-02
      4.17684205e-02 1.88030191e-02 4.46715504e-02</_>
    <_>
      4.45373505e-02 1.92796793e-02 4.02747802e-02 5.14375418e-02
      2.90365908e-02 5.27491495e-02 5.51512502e-02 1.89089701e-02
      5.48550896e-02 5.06396890e-02 9.59826540e-03 4.98514697e-02
      4.00693305e-02 1.79650299e-02 4.24044803e-02</_>
    <_>
      4.29431498e-02 1.92470606e-02 3.89185213e-02 5.04888408e-02
      3.26809511e-02 4.87582907e-02 5.34817018e-02 2.00677700e-02
      5.19366115e-02 4.76466194e-02 1.16200596e-02 4.66731787e-02
      3.75640690e-02 2.12686006e-02 4.07387204e-02</_>
    <_>
      3.86673100e-02 1.70989800e-02 3.67015414e-02 4.71684001e-02
      2.86010504e-02 4.43448685e-02 5.06355204e-02 1.55614000e-02
      4.91424613e-02 4.82378900e-02 1.14617404e-02 4.83498089e-02
      3.69468108e-02 2.36619897e-02 4.28843908e-02</_>
    <_>
      4.20508683e-02 2.10378803e-02 3.77520993e-02 4.85240296e-02
      2.80589908e-02 4.46606092e-02 5.05185984e-02 1.51154902e-02
      4.85848300e-02 5.21274507e-02 1.64280292e-02 5.19417897e-02
      4.00398001e-02 2.77490206e-02 4.69090417e-02</_>
    <_>
      4.35127690e-02 3.37422490e-02 4.26009782e-02 5.06719388e-02
      3.43969800e-02 4.58833985e-02 5.30376509e-02 2.35132594e-02
      4.89689112e-02 5.19498102e-02 2.26788502e-02 4.82893698e-02
      4.09372784e-02 3.25604007e-02 4.35835011e-02</_>
    <_>
      4.20621485e-02 3.95425297e-02 4.53047901e-02 5.12949005e-02
      3.60463597e-02 4.70478684e-02 5.36014885e-02 2.60214899e-02
      4.90419902e-02 5.15131690e-02 2.60381494e-02 4.58437093e-02
      4.17348407e-02 3.54061909e-02 4.20629308e-02</_>
    <_>
      3.96124311e-02 4.25191708e-02 4.62258309e-02 5.08360192e-02
      3.52064893e-02 4.81345206e-02 5.35851605e-02 2.63021309e-02
      4.92103100e-02 5.14689609e-02 2.70462297e-02 4.50995602e-02
      4.22480293e-02 3.59725393e-02 4.18306887e-02</_>
    <_>
      4.00196910e-02 4.35005799e-02 4.83216606e-02 5.10724895e-02
      3.52008902e-02 4.84300293e-02 5.37620001e-02 2.63401102e-02
      4.93784696e-02 5.15498891e-02 2.73004305e-02 4.50734906e-02
      4.26099896e-02 3.60794812e-02 4.20739315e-02</_>
    <_>
      4.16887812e-02 4.58620489e-02 5.20605817e-02 5.02729788e-02
      3.59998196e-02 4.78776507e-02 5.39440699e-02 2.66741700e-02
      4.98332717e-02 5.16224615e-02 2.76814606e-02 4.46282215e-02
      4.39484492e-02 3.62986214e-02 4.19334210e-02</_>
    <_>
      4.29884195e-02 4.59070392e-02 5.33856004e-02 4.91589606e-02
      3.61171998e-02 4.65980098e-02 5.34370206e-02 2.56084502e-02
      4.98353206e-02 5.04134782e-02 2.61152498e-02 4.40946296e-02
      4.44553718e-02 3.53162810e-02 4.23529707e-02</_>
    <_>
      4.45136987e-02 4.53498513e-02 5.40676713e-02 5.02895899e-02
      3.71893682e-02 4.68662195e-02 5.33427000e-02 2.45475005e-02
      5.01907505e-02 4.96680699e-02 2.40143593e-02 4.43381183e-02
      4.47393619e-02 3.35974991e-02 4.30149287e-02</_>
    <_>
      4.17170711e-02 4.15511504e-02 5.12202010e-02 4.56567407e-02
      3.16011496e-02 4.46962304e-02 4.90131490e-02 1.93420798e-02
      4.72843200e-02 4.46714498e-02 1.83065496e-02 4.19595093e-02
      3.98465395e-02 2.92851105e-02 4.15942110e-02</_>
    <_>
      4.41611893e-02 4.06555496e-02 5.15635908e-02 4.73945215e-02
      2.92431694e-02 4.79899794e-02 4.97084409e-02 1.78764593e-02
      4.86030094e-02 4.48754095e-02 1.52583197e-02 4.31492217e-02
      4.01934013e-02 2.63215899e-02 4.25394289e-02</_>
    <_>
      4.41611893e-02 4.06555496e-02 5.15635908e-02 4.73945215e-02
      2.92431694e-02 4.79899794e-02 4.97084409e-02 1.78764593e-02
      4.86030094e-02 4.48754095e-02 1.52583197e-02 4.31492217e-02
      4.01934013e-02 2.63215899e-02 4.25394289e-02</_>
    <_>
      4.31804284e-02 3.84695902e-02 4.92629707e-02 4.51800302e-02
      2.59348806e-02 4.71417196e-02 4.70858291e-02 1.44108403e-02
      4.68426198e-02 4.18006405e-02 1.08623197e-02 4.13464904e-02
      3.72840203e-02 2.31149904e-02 4.11929004e-02</_>
    <_>
      4.21892107e-02 3.61511000e-02 4.73793708e-02 4.35765795e-02
      2.35466603e-02 4.64996882e-02 4.54596505e-02 1.14664100e-02
      4.58876118e-02 4.01170813e-02 7.23299291e-03 4.04163003e-02
      3.55244614e-02 2.10794099e-02 4.03904915e-02</_>
    <_>
      4.06128503e-02 3.33792791e-02 4.32768688e-02 3.97368595e-02
      2.07432508e-02 4.39929813e-02 4.12212014e-02 9.50984657e-03
      4.22773995e-02 3.62158604e-02 5.96590806e-03 3.63607891e-02
      3.16862687e-02 1.86308697e-02 3.67560312e-02</_>
    <_>
      4.14421111e-02 3.25294696e-02 4.16730195e-02 3.87911908e-02
      1.94534007e-02 4.29795906e-02 4.01123017e-02 9.32089798e-03
      4.11806293e-02 3.53423506e-02 6.67352695e-03 3.52502316e-02
      3.09962891e-02 1.82378609e-02 3.59131992e-02</_>
    <_>
      4.10636514e-02 3.18235494e-02 4.01428305e-02 3.75963300e-02
      1.89613309e-02 4.18924987e-02 3.87332402e-02 9.74181015e-03
      3.98941711e-02 3.43350917e-02 7.47828884e-03 3.39650400e-02
      2.99797300e-02 1.77738406e-02 3.46838795e-02</_>
    <_>
      4.10655588e-02 3.15568112e-02 3.98278385e-02 3.72301005e-02
      1.87728293e-02 4.15480509e-02 3.83074693e-02 9.93380789e-03
      3.94883193e-02 3.41045894e-02 7.87090790e-03 3.36186588e-02
      2.97059398e-02 1.76367592e-02 3.43115814e-02</_>
    <_>
      4.16083597e-02 3.12773697e-02 4.01150882e-02 3.66881005e-02
      1.85398106e-02 4.10189703e-02 3.78050283e-02 1.03353597e-02
      3.90424989e-02 3.38970311e-02 8.16654693e-03 3.32490318e-02
      2.93686893e-02 1.71312299e-02 3.36829312e-02</_>
    <_>
      4.17233109e-02 3.08001507e-02 4.01282795e-02 3.60222086e-02
      1.80189796e-02 4.02463712e-02 3.73800583e-02 1.05378497e-02
      3.86168696e-02 3.37377898e-02 8.46330356e-03 3.29854712e-02
      2.90504005e-02 1.70247108e-02 3.32604088e-02</_>
    <_>
      4.14359309e-02 2.90347897e-02 4.05362584e-02 3.61831710e-02
      1.71555895e-02 4.00155708e-02 3.79818194e-02 1.09959198e-02
      3.89466286e-02 3.47296000e-02 1.01839900e-02 3.35717611e-02
      2.98049003e-02 1.77313294e-02 3.37834582e-02</_>
    <_>
      4.21471782e-02 2.97704302e-02 4.03788388e-02 3.59476209e-02
      1.68506391e-02 3.96971814e-02 3.76807004e-02 1.04591204e-02
      3.88061814e-02 3.43092084e-02 8.69102590e-03 3.35594416e-02
      2.95069795e-02 1.73433200e-02 3.37568596e-02</_>
    <_>
      4.20697406e-02 2.96516903e-02 4.03921083e-02 3.57043482e-02
      1.69951208e-02 3.95415686e-02 3.76324095e-02 1.07250903e-02
      3.88312601e-02 3.43456902e-02 8.37946590e-03 3.36246192e-02
      2.95700897e-02 1.71606205e-02 3.37503515e-02</_>
    <_>
      4.19687591e-02 2.95883697e-02 4.04500216e-02 3.55828293e-02
      1.71499606e-02 3.94999385e-02 3.76445204e-02 1.09222401e-02
      3.88738289e-02 3.44234817e-02 8.37178528e-03 3.36863399e-02
      2.96772793e-02 1.70900207e-02 3.38027701e-02</_>
    <_>
      4.18109000e-02 2.95793395e-02 4.03706618e-02 3.52702588e-02
      1.73198096e-02 3.92920189e-02 3.75606790e-02 1.10259103e-02
      3.88381183e-02 3.44196185e-02 8.11770745e-03 3.37474793e-02
      2.97027193e-02 1.70095395e-02 3.38438898e-02</_>
    <_>
      4.18008417e-02 2.93463897e-02 4.03345600e-02 3.51350382e-02
      1.72718503e-02 3.91458794e-02 3.76230702e-02 1.09784901e-02
      3.88940200e-02 3.45257707e-02 7.92459957e-03 3.39258313e-02
      2.98025105e-02 1.70437209e-02 3.39995585e-02</_>
    <_>
      4.14805785e-02 2.77004000e-02 4.03342582e-02 3.54525000e-02
      1.65834893e-02 3.90567705e-02 3.81779186e-02 1.07642002e-02
      3.91344018e-02 3.52620184e-02 9.08739306e-03 3.45515087e-02
      3.03996895e-02 1.79781895e-02 3.47710997e-02</_>
    <_>
      4.16169614e-02 2.85349693e-02 3.98202389e-02 3.48126516e-02
      1.66602693e-02 3.85874510e-02 3.75009291e-02 1.03364298e-02
      3.86422612e-02 3.44780311e-02 7.68443802e-03 3.40870209e-02
      2.97329407e-02 1.76472291e-02 3.43440212e-02</_>
    <_>
      4.13083509e-02 2.78043095e-02 3.94230597e-02 3.46438810e-02
      1.64136197e-02 3.83271389e-02 3.72987688e-02 1.00181000e-02
      3.83151695e-02 3.43481712e-02 8.03782325e-03 3.39841507e-02
      2.95007508e-02 1.80482194e-02 3.43181193e-02</_>
    <_>
      4.14853804e-02 2.75512896e-02 3.95121090e-02 3.49036716e-02
      1.65691506e-02 3.86316516e-02 3.74342017e-02 1.00086099e-02
      3.84339988e-02 3.44983116e-02 8.02254956e-03 3.41412686e-02
      2.96477191e-02 1.80279706e-02 3.44398208e-02</_>
    <_>
      4.18371707e-02 2.70227101e-02 3.97147089e-02 3.55120488e-02
      1.68248992e-02 3.92942205e-02 3.77228782e-02 1.00573702e-02
      3.86833511e-02 3.48114893e-02 8.04466102e-03 3.44525799e-02
      2.99878195e-02 1.80404596e-02 3.47480588e-02</_>
    <_>
      4.17646505e-02 2.69717593e-02 3.96693200e-02 3.56480293e-02
      1.72469001e-02 3.96008417e-02 3.76305282e-02 1.01601100e-02
      3.86176705e-02 3.47301103e-02 7.82914646e-03 3.43774408e-02
      2.99400501e-02 1.79070793e-02 3.46663892e-02</_>
    <_>
      4.10862416e-02 2.57726293e-02 3.97837311e-02 3.58759910e-02
      1.80152208e-02 4.01046202e-02 3.77524793e-02 1.12280399e-02
      3.86487618e-02 3.50104608e-02 8.84036906e-03 3.42790708e-02
      3.01256105e-02 1.75617896e-02 3.43927592e-02</_>
    <_>
      4.15829606e-02 2.70054005e-02 3.97614203e-02 3.58169302e-02
      1.86896008e-02 4.03975509e-02 3.73631604e-02 1.11389402e-02
      3.85713391e-02 3.45337093e-02 7.30653899e-03 3.40469405e-02
      2.98145991e-02 1.66683700e-02 3.39734294e-02</_>
    <_>
      4.13607210e-02 2.67825499e-02 3.98358516e-02 3.60363387e-02
      1.92177296e-02 4.08397317e-02 3.74115705e-02 1.15334000e-02
      3.86406183e-02 3.46303210e-02 7.53829721e-03 3.40479389e-02
      2.98644099e-02 1.64143294e-02 3.38490307e-02</_>
    <_>
      4.12877686e-02 2.68148296e-02 3.99998985e-02 3.61851007e-02
      1.96944103e-02 4.11967598e-02 3.74804400e-02 1.19020501e-02
      3.87732312e-02 3.47185507e-02 7.58930203e-03 3.40750888e-02
      2.99343299e-02 1.61805097e-02 3.37689109e-02</_>
    <_>
      4.11322303e-02 2.66086701e-02 3.99385206e-02 3.61863896e-02
      1.97880808e-02 4.12433185e-02 3.74630913e-02 1.19849201e-02
      3.87361683e-02 3.47175710e-02 7.75890285e-03 3.40345018e-02
      2.98837703e-02 1.61948409e-02 3.36979702e-02</_>
    <_>
      4.10864316e-02 2.68624797e-02 4.00273092e-02 3.62217091e-02
      2.02171300e-02 4.14788909e-02 3.74132805e-02 1.22925099e-02
      3.88037413e-02 3.46608683e-02 7.57355196e-03 3.39667797e-02
      2.98167001e-02 1.58680994e-02 3.34915295e-02</_>
    <_>
      4.06557918e-02 2.50504799e-02 3.94217297e-02 3.62945683e-02
      1.87441893e-02 4.08426300e-02 3.76293212e-02 1.14032496e-02
      3.84740010e-02 3.49745713e-02 9.00680386e-03 3.41933817e-02
      2.99758296e-02 1.75217297e-02 3.42392884e-02</_>
    <_>
      4.06683311e-02 2.64639091e-02 3.98792811e-02 3.60033214e-02
      2.05913298e-02 4.14743088e-02 3.72283608e-02 1.28691997e-02
      3.87089215e-02 3.45513783e-02 7.76048377e-03 3.37577611e-02
      2.95064896e-02 1.53840203e-02 3.29359807e-02</_>
    <_>
      4.08376195e-02 2.62496993e-02 4.00187410e-02 3.61408591e-02
      2.07666699e-02 4.16793898e-02 3.73510607e-02 1.31181702e-02
      3.89190502e-02 3.47019285e-02 7.58244889e-03 3.39243487e-02
      2.95595303e-02 1.49525804e-02 3.28144096e-02</_>
    <_>
      4.11075689e-02 2.56241597e-02 4.01545502e-02 3.63975987e-02
      2.06306707e-02 4.18366492e-02 3.76258902e-02 1.31254802e-02
      3.91501486e-02 3.50188389e-02 7.65311113e-03 3.42353098e-02
      2.97705792e-02 1.48472404e-02 3.29585411e-02</_>
    <_>
      4.09511589e-02 2.49987897e-02 3.99502702e-02 3.63121703e-02
      2.03830991e-02 4.16418090e-02 3.75869013e-02 1.30174700e-02
      3.90023999e-02 3.50292586e-02 7.91060645e-03 3.42096090e-02
      2.97102295e-02 1.50838699e-02 3.29695605e-02</_>
    <_>
      4.06921916e-02 2.28554998e-02 3.91705409e-02 3.62754911e-02
      1.84503607e-02 4.06824090e-02 3.76684517e-02 1.17018800e-02
      3.84337790e-02 3.51893492e-02 9.14667081e-03 3.43602598e-02
      2.97339801e-02 1.69837698e-02 3.37670110e-02</_>
    <_>
      4.18043397e-02 2.41537709e-02 4.04799804e-02 3.70419212e-02
      2.00188104e-02 4.21050303e-02 3.83404084e-02 1.27042504e-02
      3.96123715e-02 3.58156599e-02 7.96167087e-03 3.50403897e-02
      3.03968005e-02 1.52230002e-02 3.36843096e-02</_>
    <_>
      4.20729406e-02 2.41808891e-02 4.05832790e-02 3.71948183e-02
      1.99721493e-02 4.22176607e-02 3.84627916e-02 1.24899196e-02
      3.97230089e-02 3.59203406e-02 7.81386811e-03 3.51961888e-02
      3.05094495e-02 1.52773401e-02 3.38520892e-02</_>
    <_>
      4.23527695e-02 2.41055992e-02 4.07882705e-02 3.74979004e-02
      1.98575202e-02 4.24311198e-02 3.87705304e-02 1.22937104e-02
      3.99773084e-02 3.62169407e-02 7.84227718e-03 3.55168208e-02
      3.08002997e-02 1.54374000e-02 3.41960788e-02</_>
    <_>
      4.24659811e-02 2.41622608e-02 4.09551300e-02 3.77825797e-02
      1.99267194e-02 4.27150913e-02 3.89601812e-02 1.23088900e-02
      4.01683599e-02 3.64022404e-02 7.88343046e-03 3.56948711e-02
      3.10026892e-02 1.54760303e-02 3.43916304e-02</_>
    <_>
      4.25968803e-02 2.42219307e-02 4.10476699e-02 3.79371196e-02
      1.99379902e-02 4.28562686e-02 3.90703790e-02 1.22568104e-02
      4.02820483e-02 3.65033597e-02 7.82446843e-03 3.58130895e-02
      3.11024096e-02 1.54688004e-02 3.44926715e-02</_>
    <_>
      4.09643203e-02 2.27990393e-02 3.93186882e-02 3.66206989e-02
      1.88125502e-02 4.11617495e-02 3.78612205e-02 1.15875704e-02
      3.86673510e-02 3.53721008e-02 9.04803444e-03 3.45691405e-02
      2.98414696e-02 1.68334208e-02 3.38555612e-02</_>
    <_>
      4.25408706e-02 2.43066009e-02 4.07585315e-02 3.77072692e-02
      1.98880900e-02 4.26240489e-02 3.88376117e-02 1.19573204e-02
      4.00690809e-02 3.62444483e-02 7.52950087e-03 3.56339887e-02
      3.08495909e-02 1.55517496e-02 3.43685895e-02</_>
    <_>
      4.24326211e-02 2.41825301e-02 4.06736508e-02 3.75601389e-02
      1.99224707e-02 4.25141789e-02 3.87729406e-02 1.20104495e-02
      4.00189497e-02 3.61893401e-02 7.51970708e-03 3.55735384e-02
      3.07673905e-02 1.54707003e-02 3.42594795e-02</_>
    <_>
      4.21997011e-02 2.41081007e-02 4.05406207e-02 3.73597108e-02
      2.00654995e-02 4.24067900e-02 3.86286490e-02 1.21734198e-02
      3.99106406e-02 3.60670201e-02 7.51778297e-03 3.54308896e-02
      3.06138806e-02 1.53099597e-02 3.40402499e-02</_>
    <_>
      4.20439206e-02 2.40828600e-02 4.03713286e-02 3.72460410e-02
      1.99973099e-02 4.22745198e-02 3.85379791e-02 1.20726600e-02
      3.98052782e-02 3.59906107e-02 7.46125821e-03 3.53780799e-02
      3.05107292e-02 1.53450100e-02 3.39705795e-02</_>
    <_>
      4.20661792e-02 2.41588596e-02 4.04090807e-02 3.73058505e-02
      2.00068001e-02 4.23314907e-02 3.86016294e-02 1.20610604e-02
      3.98802198e-02 3.60556506e-02 7.38730887e-03 3.54581997e-02
      3.05716805e-02 1.53189199e-02 3.40185091e-02</_>
    <_>
      4.09871005e-02 2.32101809e-02 3.93673889e-02 3.68427187e-02
      1.89536996e-02 4.14265692e-02 3.81680690e-02 1.11860102e-02
      3.90936807e-02 3.56305912e-02 8.34556110e-03 3.50267105e-02
      3.01047098e-02 1.68689396e-02 3.42041589e-02</_>
    <_>
      4.19282205e-02 2.57991403e-02 4.02494892e-02 3.76159586e-02
      1.95559300e-02 4.23647612e-02 3.87233309e-02 1.09435702e-02
      3.99897210e-02 3.59444804e-02 6.59880508e-03 3.56287397e-02
      3.06679197e-02 1.66849699e-02 3.47950384e-02</_>
    <_>
      4.10790406e-02 2.70739403e-02 3.95120084e-02 3.71448211e-02
      1.92659106e-02 4.17745188e-02 3.81984301e-02 1.00725498e-02
      3.93837914e-02 3.51928696e-02 6.58924319e-03 3.50784510e-02
      2.98742093e-02 1.78611800e-02 3.47115099e-02</_>
    <_>
      4.16715592e-02 3.03892195e-02 4.04109806e-02 3.81709412e-02
      2.06751507e-02 4.30295914e-02 3.90856713e-02 1.02019804e-02
      4.03945409e-02 3.56033407e-02 5.11050923e-03 3.56931016e-02
      3.01596094e-02 1.75871104e-02 3.49119902e-02</_>
    <_>
      4.23520692e-02 3.36102992e-02 4.17784192e-02 3.96343209e-02
      2.22428907e-02 4.43969406e-02 4.04030904e-02 1.11958198e-02
      4.16984707e-02 3.65323797e-02 3.85229802e-03 3.67291607e-02
      3.06485705e-02 1.74986497e-02 3.51821817e-02</_>
    <_>
      4.26996909e-02 3.52423489e-02 4.24550399e-02 4.00547795e-02
      2.30653398e-02 4.44787182e-02 4.09254394e-02 1.18499696e-02
      4.20541503e-02 3.68562713e-02 4.16151620e-03 3.70413400e-02
      3.07288393e-02 1.78403407e-02 3.51733193e-02</_>
    <_>
      4.22887504e-02 3.52752805e-02 4.50527109e-02 4.20988910e-02
      2.22559795e-02 4.57997583e-02 4.37734388e-02 1.09239100e-02
      4.45283391e-02 4.01270390e-02 6.23095594e-03 4.04190309e-02
      3.30231413e-02 2.00812500e-02 3.81109416e-02</_>
    <_>
      4.11634594e-02 3.79636884e-02 4.55215201e-02 4.17822003e-02
      2.40801107e-02 4.52477410e-02 4.40033190e-02 1.39971804e-02
      4.42758203e-02 4.06376086e-02 1.05669899e-02 3.99613194e-02
      3.45423706e-02 2.30752304e-02 3.82686891e-02</_>
    <_>
      5.00867888e-02 4.48932499e-02 6.17596693e-02 5.95144406e-02
      3.90463509e-02 5.84532507e-02 6.40832931e-02 3.52854095e-02
      5.83597086e-02 6.64086863e-02 3.90715189e-02 5.37982918e-02
      5.36430292e-02 3.89813185e-02 4.60926406e-02</_>
    <_>
      5.16913794e-02 4.34868895e-02 6.29382730e-02 6.09432906e-02
      3.90078314e-02 5.98216206e-02 6.63561225e-02 3.58819589e-02
      6.04221188e-02 6.63121268e-02 3.68996896e-02 5.51925488e-02
      5.27279302e-02 3.51276807e-02 4.74060103e-02</_>
    <_>
      5.33497296e-02 4.40897793e-02 6.48362935e-02 6.20808303e-02
      4.00592312e-02 6.11481592e-02 6.77190572e-02 3.66338007e-02
      6.19861893e-02 6.65492937e-02 3.62091102e-02 5.58610298e-02
      5.13546318e-02 3.11223809e-02 4.70041409e-02</_>
    <_>
      5.44785894e-02 4.13067900e-02 6.44519106e-02 6.17868416e-02
      3.84088084e-02 6.09269515e-02 6.74944669e-02 3.49337496e-02
      6.21936284e-02 6.57355636e-02 3.45532708e-02 5.59866019e-02
      4.90756482e-02 2.80776694e-02 4.65440489e-02</_>
    <_>
      5.38937598e-02 1.47979902e-02 5.20141795e-02 5.47095016e-02
      2.63221692e-02 5.53568192e-02 6.10723086e-02 2.24291403e-02
      5.86741008e-02 5.61434701e-02 1.83891896e-02 5.37486486e-02
      4.45420407e-02 2.44125202e-02 4.68526110e-02</_>
    <_>
      5.24070300e-02 1.39760599e-02 5.05177788e-02 5.25329709e-02
      2.57958807e-02 5.33250496e-02 5.81927188e-02 2.05993298e-02
      5.62577806e-02 5.34424298e-02 1.70231592e-02 5.14383018e-02
      4.26568091e-02 2.45582797e-02 4.53874208e-02</_>
    <_>
      5.12319095e-02 1.35430600e-02 4.94294986e-02 5.08396402e-02
      2.54721604e-02 5.18901311e-02 5.58219999e-02 1.90595891e-02
      5.43481708e-02 5.14119305e-02 1.56714898e-02 4.97454703e-02
      4.11846600e-02 2.42735408e-02 4.42121401e-02</_>
    <_>
      5.03404811e-02 1.39021603e-02 4.85132299e-02 4.96956483e-02
      2.53427401e-02 5.06940708e-02 5.40650487e-02 1.81295201e-02
      5.27569912e-02 5.00264801e-02 1.51048703e-02 4.85284701e-02
      4.01656814e-02 2.43757796e-02 4.33944315e-02</_>
    <_>
      5.09089492e-02 1.21990601e-02 4.94880192e-02 5.00796586e-02
      2.53828000e-02 5.21065705e-02 5.42870089e-02 1.72351301e-02
      5.37933297e-02 5.04614599e-02 1.27315102e-02 4.93272804e-02
      4.06457707e-02 2.22828891e-02 4.36750092e-02</_>
    <_>
      4.94743697e-02 1.36794904e-02 4.79046106e-02 4.86820117e-02
      2.46889796e-02 4.99331392e-02 5.23842499e-02 1.64280199e-02
      5.15198782e-02 4.89140898e-02 1.36021599e-02 4.78338487e-02
      3.93034704e-02 2.37716101e-02 4.29112688e-02</_>
    <_>
      4.95276488e-02 1.33501999e-02 4.81323116e-02 4.87259105e-02
      2.45236307e-02 5.02842590e-02 5.21367900e-02 1.57039706e-02
      5.16025089e-02 4.89242412e-02 1.23940902e-02 4.80595306e-02
      3.93497907e-02 2.28768904e-02 4.29380611e-02</_>
    <_>
      4.91829589e-02 1.33274700e-02 4.79738787e-02 4.84722890e-02
      2.39454601e-02 5.00967987e-02 5.16608395e-02 1.48106003e-02
      5.12917601e-02 4.85756397e-02 1.15043297e-02 4.79528196e-02
      3.90023999e-02 2.24408004e-02 4.28249985e-02</_>
    <_>
      4.88728099e-02 1.38232503e-02 4.76673916e-02 4.82557006e-02
      2.35902797e-02 4.97805998e-02 5.13130911e-02 1.43723702e-02
      5.09575009e-02 4.82833795e-02 1.12032499e-02 4.77715209e-02
      3.86988483e-02 2.23126691e-02 4.26398106e-02</_>
    <_>
      4.87740710e-02 1.40902596e-02 4.75854091e-02 4.81950603e-02
      2.33448893e-02 4.96680290e-02 5.11948317e-02 1.40831498e-02
      5.08511588e-02 4.81531993e-02 1.10088699e-02 4.77181002e-02
      3.85929719e-02 2.22633202e-02 4.26185690e-02</_>
    <_>
      4.93657589e-02 1.23275695e-02 4.82655801e-02 4.88376990e-02
      2.40805708e-02 5.13730384e-02 5.19043617e-02 1.43258199e-02
      5.22347391e-02 4.87536900e-02 8.34863912e-03 4.84185293e-02
      3.91241089e-02 1.96198709e-02 4.24935706e-02</_>
    <_>
      4.94494587e-02 1.39096202e-02 4.83523794e-02 4.91410904e-02
      2.30602007e-02 5.07500507e-02 5.21553010e-02 1.35744903e-02
      5.20036891e-02 4.86801714e-02 9.58760176e-03 4.84799594e-02
      3.90207395e-02 2.12165006e-02 4.30488996e-02</_>
    <_>
      4.94806804e-02 1.41461501e-02 4.82529514e-02 4.94695790e-02
      2.32021995e-02 5.08973002e-02 5.25667891e-02 1.38611896e-02
      5.23012318e-02 4.86256182e-02 9.54622403e-03 4.84559983e-02
      3.88086587e-02 2.10772492e-02 4.28918488e-02</_>
    <_>
      4.97339703e-02 1.38505902e-02 4.83431704e-02 4.99583483e-02
      2.37206295e-02 5.14372885e-02 5.32424599e-02 1.45333903e-02
      5.29568605e-02 4.88160588e-02 9.16477200e-03 4.86121401e-02
      3.87495793e-02 2.04075705e-02 4.26492617e-02</_>
    <_>
