<?xml version="1.0"?>
<opencv_storage>
<opencv_ml_svm>
  <format>3</format>
  <svmType>C_SVC</svmType>
  <kernel>
    <type>INTER</type>
    <gamma>1.</gamma></kernel>
  <C>10.</C>
  <term_criteria><epsilon>1.1920928955078125e-07</epsilon>
    <iterations>1000</iterations></term_criteria>
  <var_count>15</var_count>
  <class_count>4</class_count>
  <class_labels type_id="opencv-matrix">
    <rows>4</rows>
    <cols>1</cols>
    <dt>i</dt>
    <data>
      0 1 2 3</data></class_labels>
  <sv_total>409</sv_total>
  <support_vectors>
    <_>
      1.49032605e+00 7.73108602e-01 1.11387801e+00 8.96436691e-01
      7.31551170e-01 9.36635196e-01 9.18250203e-01 9.66692328e-01
      9.29336190e-01 9.59438026e-01 1.28765500e+00 9.04133379e-01
      9.22603726e-01 7.63916314e-01 8.56294572e-01</_>
    <_>
      1.43946898e+00 1.04793799e+00 1.13910794e+00 1.19362295e+00
      1.14417696e+00 1.35401905e+00 1.20557904e+00 1.15913200e+00
      2.27687907e+00 1.24236202e+00 1.16896605e+00 1.30887306e+00
      1.28084397e+00 1.10231602e+00 1.08045399e+00</_>
    <_>
      1.69557703e+00 1.27013695e+00 1.25891304e+00 1.23562896e+00
      1.22256505e+00 9.18398798e-01 1.24403203e+00 1.25050402e+00
      8.99181008e-01 1.25866699e+00 1.21714604e+00 1.15928400e+00
      1.28402901e+00 1.12858605e+00 1.05442095e+00</_>
    <_>
      1.44580400e+00 8.02560985e-01 1.13875902e+00 9.53578174e-01
      6.97584927e-01 1.07743800e+00 9.59713697e-01 4.96647209e-01
      1.06327701e+00 9.85399187e-01 2.74585307e-01 1.06662703e+00
      9.72706378e-01 6.55912817e-01 9.69587982e-01</_>
    <_>
      1.46463501e+00 7.41950274e-01 1.14172900e+00 9.16877985e-01
      7.52255321e-01 9.68867719e-01 9.28396821e-01 7.96590388e-01
      9.63314772e-01 9.64920700e-01 9.83047903e-01 9.34981823e-01
      9.33535218e-01 6.80702329e-01 8.71337593e-01</_>
    <_>
      1.56512201e+00 1.18900895e+00 1.19796300e+00 1.18812597e+00
      1.13107097e+00 1.41396594e+00 1.19712496e+00 1.15836596e+00
      3.05374503e+00 1.23647201e+00 1.14912605e+00 1.52832198e+00
      1.20630705e+00 1.02848601e+00 1.11481595e+00</_>
    <_>
      1.45133197e+00 1.09170604e+00 1.17842901e+00 1.18247902e+00
      1.13138294e+00 1.32573605e+00 1.18490303e+00 1.13421094e+00
      2.53135610e+00 1.22271097e+00 1.13994205e+00 1.32882094e+00
      1.27149403e+00 1.07495296e+00 1.08818698e+00</_>
    <_>
      1.61717403e+00 1.14112699e+00 1.15694404e+00 1.24231601e+00
      1.21453702e+00 1.09110904e+00 8.81513417e-01 4.29005802e-01
      1.03781104e+00 9.09397423e-01 2.76215315e-01 1.01559198e+00
      9.21301186e-01 7.03377724e-01 9.89378512e-01</_>
    <_>
      1.60128605e+00 1.21082699e+00 1.18226802e+00 9.38244104e-01
      8.09677720e-01 1.26946700e+00 9.06111479e-01 4.66836691e-01
      9.63720202e-01 9.44395304e-01 8.82155716e-01 9.41584527e-01
      9.54582512e-01 8.79515707e-01 9.45672572e-01</_>
    <_>
      1.59052503e+00 9.85395730e-01 1.12789905e+00 8.70345473e-01
      6.79548025e-01 1.01080704e+00 9.19501305e-01 6.28339529e-01
      9.77048576e-01 9.54271674e-01 8.30170512e-01 9.39114928e-01
      9.50249910e-01 7.30302393e-01 9.06297028e-01</_>
    <_>
      1.59363794e+00 1.22982705e+00 1.22110999e+00 1.23577797e+00
      1.20330298e+00 1.14583004e+00 1.24636102e+00 1.23017097e+00
      2.92913699e+00 1.27735198e+00 1.23151004e+00 1.24215496e+00
      1.25049496e+00 9.92720008e-01 1.14992905e+00</_>
    <_>
      1.28896797e+00 1.22890198e+00 1.24594796e+00 1.24870598e+00
      1.22821105e+00 1.08466196e+00 1.26281703e+00 1.26966095e+00
      1.01369202e+00 1.29094803e+00 1.27932703e+00 9.96521711e-01
      1.32551599e+00 1.21491694e+00 1.01548195e+00</_>
    <_>
      1.55055499e+00 9.79225278e-01 1.15308106e+00 8.96184385e-01
      7.42824376e-01 1.01845503e+00 9.18184400e-01 6.52197778e-01
      9.76310790e-01 9.52720881e-01 7.29533911e-01 9.47126627e-01
      9.44922388e-01 7.15993881e-01 9.03599322e-01</_>
    <_>
      1.64802098e+00 1.08576095e+00 1.12339199e+00 9.78711724e-01
      6.58753872e-01 1.08752799e+00 9.88521218e-01 4.70931798e-01
      1.15163898e+00 1.00471902e+00 2.65720189e-01 1.12108099e+00
      1.00792694e+00 6.53162479e-01 1.02653897e+00</_>
    <_>
      1.38396204e+00 1.25329304e+00 1.30118001e+00 1.05749297e+00
      7.78285205e-01 1.13122106e+00 1.05745995e+00 5.42180300e-01
      1.15470505e+00 1.12766302e+00 2.08424598e-01 1.21548402e+00
      1.12424099e+00 6.49334371e-01 1.10440505e+00</_>
    <_>
      1.58940899e+00 8.25254619e-01 1.05925000e+00 9.25955176e-01
      7.47742712e-01 9.52147424e-01 9.45590317e-01 9.15723801e-01
      9.65194583e-01 9.85575974e-01 1.00560796e+00 9.56264675e-01
      9.75361228e-01 6.94864929e-01 9.96942103e-01</_>
    <_>
      1.71689200e+00 1.28612804e+00 1.28739500e+00 1.25739002e+00
      1.23576999e+00 1.04349506e+00 1.26802695e+00 1.27015400e+00
      1.31069100e+00 1.29685497e+00 1.27833402e+00 1.17080200e+00
      1.32318699e+00 1.22140503e+00 1.14942002e+00</_>
    <_>
      1.66007900e+00 1.21347702e+00 1.16193402e+00 1.26845801e+00
      1.19810200e+00 1.26944697e+00 9.19458628e-01 3.99728686e-01
      1.05747902e+00 9.43103909e-01 3.30784410e-01 1.01609099e+00
      9.07399118e-01 6.85204804e-01 9.60198820e-01</_>
    <_>
      1.59056997e+00 1.02286601e+00 1.14100301e+00 8.88613224e-01
      7.32996583e-01 1.13991499e+00 9.17830586e-01 5.66358089e-01
      9.91408706e-01 9.49700415e-01 5.81457019e-01 9.65121329e-01
      9.52961683e-01 7.06080616e-01 9.27245915e-01</_>
    <_>
      1.67669797e+00 1.28432500e+00 1.29017198e+00 1.24742997e+00
      1.20997095e+00 1.21613801e+00 1.01603496e+00 5.71586013e-01
      1.06234396e+00 1.07698703e+00 1.20461702e+00 1.04477894e+00
      1.08500004e+00 8.94933701e-01 1.00728202e+00</_>
    <_>
      1.55993998e+00 1.24129403e+00 1.21207595e+00 9.47386086e-01
      6.86160982e-01 1.10537696e+00 9.51342583e-01 4.86889690e-01
      1.03759396e+00 9.88008022e-01 5.61580598e-01 1.00640595e+00
      1.00021505e+00 7.14078724e-01 9.53390419e-01</_>
    <_>
      1.55864704e+00 1.26244104e+00 1.21138299e+00 1.07178199e+00
      7.51774788e-01 1.20775902e+00 9.48159218e-01 5.05168796e-01
      1.03381801e+00 9.77969587e-01 6.48051023e-01 9.89743888e-01
      9.82204676e-01 7.41068482e-01 9.58347797e-01</_>
    <_>
      1.33504105e+00 5.15403211e-01 1.17240405e+00 1.06325197e+00
      9.22269881e-01 1.07652199e+00 1.08966398e+00 9.59381223e-01
      1.11168599e+00 1.12727904e+00 7.08135128e-01 1.12682402e+00
      1.13096702e+00 5.93229473e-01 1.06366801e+00</_>
    <_>
      1.71558404e+00 1.27859902e+00 1.27772903e+00 1.25735998e+00
      1.23594606e+00 1.03437805e+00 1.26826799e+00 1.27034199e+00
      1.32182801e+00 1.29711998e+00 1.27866697e+00 1.16522098e+00
      1.32193196e+00 1.22157598e+00 1.15233696e+00</_>
    <_>
      1.47903001e+00 7.82051086e-01 1.14459896e+00 9.12720084e-01
      7.33632088e-01 9.67750311e-01 9.20093119e-01 7.43002415e-01
      9.62676227e-01 9.54758584e-01 8.82818401e-01 9.33590829e-01
      9.34391677e-01 6.89586222e-01 8.83346796e-01</_>
    <_>
      1.44139099e+00 6.83236718e-01 1.14028704e+00 9.24814701e-01
      7.71510005e-01 9.67988789e-01 9.47963297e-01 9.08215284e-01
      9.68611300e-01 9.86234128e-01 1.27396703e+00 9.34510291e-01
      9.37128007e-01 7.03494430e-01 8.55866015e-01</_>
    <_>
      1.31374204e+00 1.23856795e+00 1.25265205e+00 1.24451900e+00
      1.22424400e+00 1.07608604e+00 1.25830305e+00 1.26770699e+00
      8.88013184e-01 1.28543198e+00 1.27067602e+00 9.96327698e-01
      1.32113004e+00 1.20692503e+00 1.01004601e+00</_>
    <_>
      1.59586096e+00 1.09483504e+00 1.15729201e+00 9.19814885e-01
      7.70964205e-01 1.00154102e+00 8.94663572e-01 5.40539026e-01
      9.72133219e-01 9.31007624e-01 5.57908177e-01 9.53051507e-01
      9.47433710e-01 7.59601176e-01 9.55504596e-01</_>
    <_>
      1.87619603e+00 1.27123499e+00 1.24671495e+00 1.25534201e+00
      1.23465896e+00 1.08132803e+00 1.26666105e+00 1.27177799e+00
      1.04349995e+00 1.29525995e+00 1.28233302e+00 1.02494597e+00
      1.32911801e+00 1.22275496e+00 1.01975906e+00</_>
    <_>
      1.06287503e+00 1.28664398e+00 1.28918695e+00 1.22599995e+00
      1.21483898e+00 9.11938429e-01 1.23362100e+00 1.24265301e+00
      7.16530681e-01 1.25071597e+00 1.21186900e+00 1.12370503e+00
      1.27564001e+00 1.10738099e+00 1.06802404e+00</_>
    <_>
      1.60180998e+00 1.10140300e+00 1.15163302e+00 9.49682415e-01
      7.54175425e-01 1.21437895e+00 8.98701310e-01 5.02179980e-01
      9.76113915e-01 9.45154309e-01 6.21945083e-01 9.72837508e-01
      9.50644672e-01 8.61000717e-01 9.58891928e-01</_>
    <_>
      1.62497699e+00 1.05366099e+00 1.11047101e+00 8.87151301e-01
      7.07655311e-01 9.35733616e-01 9.06804502e-01 5.56354582e-01
      9.54372704e-01 9.42348897e-01 8.18844914e-01 9.36642706e-01
      9.31431770e-01 8.16953421e-01 9.14518178e-01</_>
    <_>
      1.46113205e+00 1.27833402e+00 1.27137995e+00 1.22429204e+00
      1.20965803e+00 9.39430296e-01 1.23031402e+00 1.23239601e+00
      1.07906103e+00 1.24846900e+00 1.20051301e+00 1.19501805e+00
      1.27071702e+00 1.09218895e+00 1.08116698e+00</_>
    <_>
      1.49789095e+00 1.23001397e+00 1.24376595e+00 1.23666894e+00
      1.20720899e+00 1.11377299e+00 1.24645996e+00 1.23495805e+00
      4.22179794e+00 1.27870798e+00 1.23341501e+00 1.24389803e+00
      1.13942802e+00 7.99930990e-01 1.10983598e+00</_>
    <_>
      1.54052806e+00 1.03579402e+00 1.16452205e+00 8.72262120e-01
      7.61275113e-01 1.06502199e+00 9.12844002e-01 4.44018900e-01
      1.07968700e+00 9.31843519e-01 2.98210412e-01 1.06211305e+00
      9.54291880e-01 6.76805675e-01 1.01315498e+00</_>
    <_>
      1.42766905e+00 1.16749001e+00 1.23353899e+00 1.22857201e+00
      1.18773997e+00 1.22806799e+00 1.23571801e+00 1.20140505e+00
      2.20479989e+00 1.27164495e+00 1.21173406e+00 1.27380896e+00
      1.32926595e+00 1.13809395e+00 1.14201295e+00</_>
    <_>
      1.38525605e+00 1.32806599e+00 1.30612695e+00 1.04378200e+00
      7.60793686e-01 1.13221705e+00 1.05004203e+00 5.26030600e-01
      1.15414000e+00 1.13480794e+00 2.34960094e-01 1.22823906e+00
      1.13077295e+00 6.54097676e-01 1.10984302e+00</_>
    <_>
      1.73828197e+00 1.22898698e+00 1.20026898e+00 1.24289203e+00
      1.21241295e+00 1.12403703e+00 1.25613701e+00 1.24502504e+00
      2.75582600e+00 1.28491998e+00 1.24443805e+00 1.24541295e+00
      1.22557700e+00 9.74583387e-01 1.14370298e+00</_>
    <_>
      1.52798402e+00 7.76349783e-01 1.07544005e+00 8.98759782e-01
      7.34314680e-01 9.36429322e-01 9.23562706e-01 9.93856311e-01
      9.31578219e-01 9.67430413e-01 1.42867899e+00 9.01845098e-01
      9.33126688e-01 7.68300414e-01 8.60190570e-01</_>
    <_>
      1.57722294e+00 1.25708997e+00 1.20657003e+00 8.94211709e-01
      6.99078619e-01 1.10806704e+00 9.42008078e-01 4.80115414e-01
      1.03243196e+00 9.81827676e-01 5.08813381e-01 1.00539100e+00
      1.00147104e+00 7.12906420e-01 9.61278200e-01</_>
    <_>
      1.70592797e+00 1.22156203e+00 1.14954901e+00 1.25312698e+00
      1.22700500e+00 1.07182097e+00 9.06925082e-01 4.16630000e-01
      9.86731529e-01 9.49867487e-01 5.49050629e-01 9.88205671e-01
      9.49998319e-01 8.12822580e-01 9.61254179e-01</_>
    <_>
      1.78715801e+00 1.26979601e+00 1.24842298e+00 1.25510001e+00
      1.23466897e+00 1.08402503e+00 1.26648200e+00 1.27213502e+00
      1.04562700e+00 1.29474103e+00 1.28232503e+00 1.02223003e+00
      1.32866704e+00 1.22235501e+00 1.01254106e+00</_>
    <_>
      1.45190299e+00 8.14245403e-01 1.14085603e+00 9.48777378e-01
      6.88575029e-01 1.07916105e+00 9.52528000e-01 4.92318392e-01
      1.05699897e+00 9.84991312e-01 2.83329308e-01 1.06277204e+00
      9.72075880e-01 6.66935980e-01 9.71144974e-01</_>
    <_>
      1.43364501e+00 1.05363405e+00 1.14748895e+00 1.19661105e+00
      1.14735198e+00 1.34994996e+00 1.20802796e+00 1.16186905e+00
      2.24224401e+00 1.24438906e+00 1.17036700e+00 1.31357598e+00
      1.28270805e+00 1.10474706e+00 1.08170295e+00</_>
    <_>
      1.58223701e+00 1.11741602e+00 1.16425395e+00 9.19284523e-01
      6.40412927e-01 1.00355697e+00 9.20665801e-01 4.32002395e-01
      9.91177201e-01 9.50515926e-01 6.76333010e-01 9.71675992e-01
      9.55890119e-01 8.55356395e-01 9.60287511e-01</_>
    <_>
      1.49489295e+00 8.04358721e-01 1.12303197e+00 8.95875990e-01
      7.45962203e-01 9.43588078e-01 9.17618215e-01 9.27311718e-01
      9.33784723e-01 9.60197985e-01 1.20968902e+00 9.10809219e-01
      9.25586522e-01 7.25018501e-01 8.59157979e-01</_>
    <_>
      1.60658896e+00 1.13501799e+00 1.15951896e+00 9.18876708e-01
      7.19965518e-01 1.01577699e+00 9.02005911e-01 4.58405703e-01
      9.65382397e-01 9.42197680e-01 7.36782372e-01 9.51047301e-01
      9.53518689e-01 8.17389786e-01 9.42996919e-01</_>
    <_>
      2.13214588e+00 1.17044497e+00 1.13221097e+00 1.25342405e+00
      1.22769403e+00 1.07701898e+00 1.26457405e+00 1.25815201e+00
      2.23243189e+00 1.29520702e+00 1.26935601e+00 1.13161004e+00
      1.32916403e+00 1.20987296e+00 1.10912502e+00</_>
    <_>
      1.69463098e+00 1.16460001e+00 1.17115200e+00 1.24942803e+00
      1.22151399e+00 1.10429001e+00 1.26068902e+00 1.25236499e+00
      2.24343801e+00 1.29176998e+00 1.26213002e+00 1.15251899e+00
      1.32788897e+00 1.20271504e+00 1.09576499e+00</_>
    <_>
      1.60347497e+00 1.06326902e+00 1.13264298e+00 9.04955208e-01
      7.42565215e-01 1.04551196e+00 8.91802371e-01 5.12946904e-01
      9.79989588e-01 9.30469990e-01 5.00636518e-01 9.64004517e-01
      9.21843708e-01 8.17805588e-01 9.42141712e-01</_>
    <_>
      1.58134401e+00 9.17199671e-01 1.10820305e+00 9.09150600e-01
      6.82356715e-01 9.97415781e-01 9.08985615e-01 4.93297696e-01
      1.00639606e+00 9.36653018e-01 4.10169691e-01 9.72785413e-01
      9.48563218e-01 7.01886296e-01 9.24654722e-01</_>
    <_>
      1.49788797e+00 7.40985572e-01 1.10012305e+00 8.95405710e-01
      7.14627326e-01 9.31450009e-01 9.21854198e-01 9.42795575e-01
      9.36240196e-01 9.66171801e-01 1.21958995e+00 9.16216671e-01
      9.42141116e-01 7.52171576e-01 8.75914812e-01</_>
    <_>
      1.42100000e+00 7.59947777e-01 1.17987096e+00 9.95132983e-01
      7.36202717e-01 1.03241801e+00 1.04171705e+00 5.48401117e-01
      1.10707402e+00 1.13567495e+00 3.87987286e-01 1.26648295e+00
      1.18886304e+00 7.56920874e-01 1.15470397e+00</_>
    <_>
      1.72957599e+00 9.40596700e-01 1.02109301e+00 1.22576404e+00
      8.67926776e-01 1.26707196e+00 9.28644478e-01 7.20328927e-01
      9.75544810e-01 9.51833725e-01 8.46338212e-01 9.34182525e-01
      9.36793387e-01 7.75852978e-01 9.09104884e-01</_>
    <_>
      1.54923701e+00 1.05713499e+00 1.16632605e+00 8.48441899e-01
      7.49670625e-01 1.00743997e+00 9.15557325e-01 4.18504387e-01
      1.05974400e+00 9.34451878e-01 2.53444612e-01 1.03021896e+00
      9.48355019e-01 6.79638505e-01 9.92675126e-01</_>
    <_>
      1.60859597e+00 1.16539502e+00 1.17312503e+00 1.24863398e+00
      1.21900904e+00 1.10678804e+00 9.54307675e-01 4.45918202e-01
      1.07173598e+00 9.85533476e-01 3.41293603e-01 1.04482400e+00
      9.83025312e-01 6.85865581e-01 9.75992680e-01</_>
    <_>
      1.61178005e+00 1.12286305e+00 1.15838802e+00 9.21448410e-01
      6.54054582e-01 1.01700795e+00 9.27375197e-01 4.46586490e-01
      1.00081503e+00 9.56757784e-01 6.88433886e-01 9.75864530e-01
      9.50222313e-01 8.37797523e-01 9.45171416e-01</_>
    <_>
      1.27344203e+00 8.56597304e-01 1.25077105e+00 9.96682882e-01
      9.79869425e-01 1.00665402e+00 1.02458596e+00 1.17252195e+00
      1.01911902e+00 1.05761194e+00 1.36462796e+00 1.00807095e+00
      1.02876699e+00 7.38262773e-01 9.37208772e-01</_>
    <_>
      1.54332602e+00 1.04300797e+00 1.16524804e+00 8.66043389e-01
      7.59183884e-01 1.04519701e+00 9.13621724e-01 4.31076497e-01
      1.07041705e+00 9.31723893e-01 2.70818502e-01 1.04728496e+00
      9.51398194e-01 6.77630782e-01 1.00492597e+00</_>
    <_>
      1.67376399e+00 1.28689396e+00 1.28230500e+00 1.24891400e+00
      1.23779595e+00 9.48437929e-01 1.25818300e+00 1.27237797e+00
      9.43713486e-01 1.28209102e+00 1.26531005e+00 1.02842295e+00
      1.31427395e+00 1.19119096e+00 1.02278602e+00</_>
    <_>
      1.49365699e+00 1.15133905e+00 1.22499800e+00 1.11225998e+00
      7.98188090e-01 1.25220501e+00 1.06064403e+00 5.27148306e-01
      1.21931803e+00 1.11578500e+00 3.12232405e-01 1.23323202e+00
      1.12540901e+00 6.37159526e-01 1.10281003e+00</_>
    <_>
      1.51386595e+00 1.04023695e+00 1.19525003e+00 1.23224199e+00
      9.56157386e-01 1.29518402e+00 9.43516016e-01 6.17624879e-01
      1.01042700e+00 1.00004995e+00 9.26975071e-01 9.85094070e-01
      1.01303005e+00 8.21548998e-01 9.77907419e-01</_>
    <_>
      1.55176604e+00 1.19589198e+00 1.20483303e+00 1.18849397e+00
      1.13386595e+00 1.40147197e+00 1.20103204e+00 1.16568696e+00
      3.16909099e+00 1.21680903e+00 1.12496603e+00 1.53780699e+00
      1.19206405e+00 1.00332999e+00 1.13649905e+00</_>
    <_>
      1.52958000e+00 1.01709795e+00 1.18106401e+00 1.24809098e+00
      1.21529198e+00 1.14044499e+00 9.82682705e-01 4.41994011e-01
      1.12431395e+00 1.01234996e+00 2.82077312e-01 1.08802199e+00
      1.01145995e+00 6.53039098e-01 1.00141501e+00</_>
    <_>
      1.56414902e+00 1.10423398e+00 1.16326702e+00 9.19651508e-01
      6.42509818e-01 9.96902585e-01 9.24245477e-01 4.61513698e-01
      9.85766411e-01 9.58352923e-01 6.81128383e-01 9.78009284e-01
      9.56493318e-01 8.25556099e-01 9.56688285e-01</_>
    <_>
      1.54608095e+00 9.48907018e-01 1.15093303e+00 9.02247012e-01
      7.31842875e-01 1.01176405e+00 9.24773872e-01 6.11609101e-01
      9.91374612e-01 9.59818780e-01 5.53756118e-01 9.74424481e-01
      9.63113427e-01 6.73780084e-01 9.27106023e-01</_>
    <_>
      1.63101995e+00 1.18689704e+00 1.16344905e+00 1.25445795e+00
      1.22612095e+00 1.10290694e+00 9.21916187e-01 4.71013486e-01
      1.00566196e+00 9.57874417e-01 5.39791882e-01 9.82780516e-01
      9.59229410e-01 8.19459677e-01 9.67903018e-01</_>
    <_>
      1.79243600e+00 9.86178219e-01 1.03566003e+00 8.92341673e-01
      7.20368385e-01 9.53186274e-01 9.28935587e-01 6.21667802e-01
      9.68181610e-01 9.64917719e-01 9.09479976e-01 9.48080122e-01
      9.47438598e-01 8.01690519e-01 9.06439781e-01</_>
    <_>
      1.66088796e+00 1.11058700e+00 1.12970698e+00 9.77310419e-01
      6.50920272e-01 1.07771099e+00 9.85327721e-01 4.52360302e-01
      1.13725603e+00 1.00031996e+00 2.51487106e-01 1.10263395e+00
      9.98124778e-01 6.56885922e-01 1.01141596e+00</_>
    <_>
      1.61039698e+00 1.16654897e+00 1.16597605e+00 9.16728318e-01
      7.13353992e-01 1.03174305e+00 9.04115617e-01 4.58172798e-01
      9.63811994e-01 9.47545171e-01 8.35998118e-01 9.49310482e-01
      9.54564273e-01 8.35973918e-01 9.39120829e-01</_>
    <_>
      1.60700500e+00 1.10338295e+00 1.15251994e+00 9.17728603e-01
      7.66386986e-01 1.00076497e+00 8.93973112e-01 5.19102275e-01
      9.69322503e-01 9.31247890e-01 5.75715184e-01 9.53925312e-01
      9.48470592e-01 7.76900172e-01 9.56799507e-01</_>
    <_>
      1.49540305e+00 9.47293878e-01 1.17867994e+00 1.24843502e+00
      1.21642804e+00 1.13222504e+00 9.38993514e-01 4.28464413e-01
      1.08538198e+00 9.94738400e-01 2.46689901e-01 1.08817899e+00
      9.94329095e-01 6.41594112e-01 9.96719480e-01</_>
    <_>
      1.61824203e+00 1.12687802e+00 1.15280902e+00 1.24413598e+00
      1.21816397e+00 1.07535696e+00 8.77148807e-01 4.32078511e-01
      1.03662205e+00 9.05266225e-01 2.80289501e-01 1.01372194e+00
      9.19838727e-01 7.04302609e-01 9.88672018e-01</_>
    <_>
      1.71550798e+00 1.21648896e+00 1.14250302e+00 1.25348198e+00
      1.22801006e+00 1.06235695e+00 9.02871788e-01 4.12398189e-01
      9.81156290e-01 9.42252994e-01 5.79269528e-01 9.77388024e-01
      9.43532228e-01 8.14666986e-01 9.57037330e-01</_>
    <_>
      1.49146998e+00 8.57828319e-01 1.14741397e+00 9.50017512e-01
      7.18206882e-01 1.03364205e+00 9.88468587e-01 4.60388988e-01
      1.08085096e+00 1.06517994e+00 3.40423286e-01 1.20633495e+00
      1.12969601e+00 7.53425419e-01 1.10930896e+00</_>
    <_>
      1.49952698e+00 1.04588699e+00 1.18561196e+00 1.03087103e+00
      7.65824020e-01 1.22005296e+00 1.06012297e+00 7.21380174e-01
      1.34904897e+00 1.11030698e+00 7.39086807e-01 1.39038503e+00
      1.14140403e+00 8.63270819e-01 1.14566898e+00</_>
    <_>
      1.47878897e+00 1.27646899e+00 1.26925004e+00 1.22611403e+00
      1.21206796e+00 9.32405293e-01 1.23179996e+00 1.23502100e+00
      1.00134099e+00 1.24909198e+00 1.20266604e+00 1.18348598e+00
      1.27404404e+00 1.10112095e+00 1.07424498e+00</_>
    <_>
      1.63367295e+00 1.19286203e+00 1.16384804e+00 1.25485504e+00
      1.22819197e+00 1.08204401e+00 9.20356989e-01 4.79768515e-01
      1.00328302e+00 9.55326676e-01 5.40126979e-01 9.78975415e-01
      9.56967413e-01 8.18787873e-01 9.64672685e-01</_>
    <_>
      1.60729098e+00 1.14381397e+00 1.16017199e+00 1.24508405e+00
      1.19786203e+00 1.23793304e+00 9.18712318e-01 4.91516292e-01
      9.87812877e-01 9.65016484e-01 7.31493115e-01 9.69414413e-01
      9.66109574e-01 7.88640380e-01 9.43408310e-01</_>
    <_>
      1.38093102e+00 6.69049919e-01 1.20063198e+00 1.02056003e+00
      7.89740980e-01 1.03806996e+00 1.06494606e+00 7.42952287e-01
      1.11469400e+00 1.16701698e+00 2.75972188e-01 1.26014197e+00
      1.20328796e+00 6.83372080e-01 1.15434003e+00</_>
    <_>
      1.49337697e+00 1.00597799e+00 1.20271504e+00 1.22786701e+00
      9.43688989e-01 1.28841805e+00 9.52520311e-01 6.50644183e-01
      1.01352096e+00 1.01037502e+00 1.03138006e+00 9.81211424e-01
      1.03322995e+00 8.46977115e-01 9.87821817e-01</_>
    <_>
      1.57679200e+00 1.28522599e+00 1.20984495e+00 9.53824282e-01
      8.51404607e-01 1.32210195e+00 9.23505425e-01 4.76012200e-01
      1.01932096e+00 9.72478926e-01 6.10520422e-01 9.93234813e-01
      9.85290527e-01 7.78516889e-01 9.59578872e-01</_>
    <_>
      1.55408704e+00 9.84611690e-01 1.14309800e+00 1.26316905e+00
      1.21509802e+00 1.25103796e+00 1.20139396e+00 1.11218905e+00
      1.80329502e+00 1.02142096e+00 7.00214684e-01 1.29753399e+00
      1.03460300e+00 7.27087319e-01 1.13115001e+00</_>
    <_>
      1.60343695e+00 1.19961798e+00 1.17770505e+00 8.84264112e-01
      6.85543120e-01 1.07347798e+00 9.08036113e-01 4.81857687e-01
      9.62047815e-01 9.52141821e-01 9.37909722e-01 9.43141282e-01
      9.56466615e-01 8.69325519e-01 9.34528530e-01</_>
    <_>
      1.21439302e+00 1.20711398e+00 1.25002098e+00 1.23751295e+00
      1.21913302e+00 1.08798099e+00 1.25172698e+00 1.26452196e+00
      7.40576327e-01 1.27799106e+00 1.26496994e+00 9.88011777e-01
      1.31713700e+00 1.20207596e+00 1.01155996e+00</_>
    <_>
      1.58264995e+00 8.90104175e-01 1.07531297e+00 9.24586415e-01
      7.86146402e-01 1.03116202e+00 9.34077382e-01 6.21340573e-01
      9.99831498e-01 9.78433788e-01 5.50971389e-01 9.97669995e-01
      9.65672672e-01 6.86524272e-01 9.34186578e-01</_>
    <_>
      1.46438301e+00 1.81307805e+00 1.30675995e+00 1.24443996e+00
      1.06481397e+00 1.32915795e+00 1.27170098e+00 1.14648998e+00
      1.45836604e+00 1.30914700e+00 1.13312197e+00 1.41742301e+00
      1.33482897e+00 1.04797900e+00 1.21596003e+00</_>
    <_>
      1.61172497e+00 1.10677004e+00 1.15040696e+00 9.16514099e-01
      7.52329290e-01 9.98910129e-01 8.94662321e-01 5.00165582e-01
      9.67352629e-01 9.32635188e-01 6.00001097e-01 9.53963697e-01
      9.49345529e-01 7.86311626e-01 9.53275681e-01</_>
    <_>
      1.57400703e+00 1.05340004e+00 1.17594898e+00 1.00194705e+00
      6.88374877e-01 1.08587003e+00 9.96707678e-01 5.79132617e-01
      1.03966105e+00 1.01525199e+00 1.23819995e+00 9.76766706e-01
      1.05142701e+00 9.13260281e-01 9.84452128e-01</_>
    <_>
      1.59846497e+00 1.24835002e+00 1.19321203e+00 9.29410875e-01
      7.78908789e-01 1.25191498e+00 9.20825720e-01 5.25152326e-01
      1.00410903e+00 9.64117587e-01 5.45005500e-01 9.82816875e-01
      9.84761775e-01 7.40843475e-01 9.53800023e-01</_>
    <_>
      1.49242997e+00 1.15069795e+00 1.22643602e+00 1.10732603e+00
      7.86828518e-01 1.24495602e+00 1.05956602e+00 5.20402372e-01
      1.21439004e+00 1.11725998e+00 3.00988108e-01 1.23163402e+00
      1.12048697e+00 6.32162809e-01 1.09766102e+00</_>
    <_>
      1.64251196e+00 1.23313797e+00 1.16840804e+00 1.25303900e+00
      1.22660804e+00 1.06954598e+00 9.16684389e-01 5.25719225e-01
      9.98686314e-01 9.43375707e-01 4.84165788e-01 9.67568219e-01
      9.32089329e-01 7.40894616e-01 9.23194408e-01</_>
    <_>
      1.41535199e+00 1.08559895e+00 1.17988896e+00 1.18633497e+00
      1.13432002e+00 1.32487798e+00 1.18869603e+00 1.13600302e+00
      2.42333293e+00 1.22450805e+00 1.13695300e+00 1.34866905e+00
      1.27028596e+00 1.06766903e+00 1.09275103e+00</_>
    <_>
      1.69075704e+00 1.13742697e+00 1.12493801e+00 1.22752798e+00
      1.19310904e+00 1.27312505e+00 1.24761105e+00 1.23502004e+00
      2.16297889e+00 1.27955103e+00 1.23251998e+00 1.29211402e+00
      1.24992800e+00 1.06789505e+00 1.13772702e+00</_>
    <_>
      1.60517097e+00 1.11992705e+00 1.15620303e+00 9.18761611e-01
      7.15659022e-01 1.00835598e+00 9.00066197e-01 4.70581412e-01
      9.66368496e-01 9.38920021e-01 6.85372174e-01 9.51775908e-01
      9.52208221e-01 8.06642473e-01 9.43899691e-01</_>
    <_>
      1.67566502e+00 1.24449205e+00 1.23421299e+00 1.22614706e+00
      1.19164002e+00 1.17534804e+00 1.25733900e+00 1.25652695e+00
      1.56474495e+00 1.28202403e+00 1.23644698e+00 1.22096205e+00
      1.31749201e+00 1.18432701e+00 1.05765402e+00</_>
    <_>
      1.54525304e+00 1.10790896e+00 1.16288400e+00 1.18199694e+00
      1.13521898e+00 1.29419601e+00 1.18618500e+00 1.14296901e+00
      2.82626605e+00 1.22514498e+00 1.15542805e+00 1.28004098e+00
      1.28048301e+00 1.09970498e+00 1.08276999e+00</_>
    <_>
      1.30447996e+00 1.28211498e+00 1.28385603e+00 1.21946001e+00
      1.18528998e+00 1.16036499e+00 1.22686100e+00 1.19276595e+00
      2.11428499e+00 1.22549498e+00 1.09686196e+00 1.42098904e+00
      1.26470995e+00 1.06106400e+00 1.09758103e+00</_>
    <_>
      1.62731600e+00 1.03315699e+00 1.10582197e+00 8.90449524e-01
      8.03330481e-01 9.97784615e-01 8.87489796e-01 5.49588084e-01
      9.64977920e-01 9.27898586e-01 6.01230323e-01 9.48151171e-01
      9.18906510e-01 8.23757172e-01 9.27983582e-01</_>
    <_>
      1.62710798e+00 1.22398698e+00 1.17265999e+00 1.25295901e+00
      1.22621405e+00 1.07409894e+00 9.23370183e-01 5.24355888e-01
      1.00318599e+00 9.50576484e-01 5.01749516e-01 9.72812414e-01
      9.39812779e-01 7.44912922e-01 9.27895427e-01</_>
    <_>
      1.15978098e+00 1.25240600e+00 1.27549303e+00 1.24536097e+00
      1.22566104e+00 1.10808897e+00 1.25805604e+00 1.26746798e+00
      8.60092521e-01 1.28630900e+00 1.27387500e+00 9.72068310e-01
      1.31962204e+00 1.20601702e+00 9.98888016e-01</_>
    <_>
      1.63570201e+00 1.05511701e+00 1.11948705e+00 1.24187696e+00
      1.14134395e+00 1.33559406e+00 9.16330278e-01 3.94352108e-01
      1.00351202e+00 9.62389708e-01 5.18536627e-01 1.00495899e+00
      9.77517903e-01 8.09870303e-01 9.85567391e-01</_>
    <_>
      1.40413904e+00 7.04183817e-01 1.15263295e+00 9.54176486e-01
      7.47958302e-01 1.02796900e+00 9.74822700e-01 6.15085423e-01
      1.04466796e+00 1.01508296e+00 3.21472704e-01 1.07746601e+00
      9.97410715e-01 6.28653824e-01 9.94968295e-01</_>
    <_>
      1.39974904e+00 1.07802498e+00 1.26611102e+00 1.19136095e+00
      1.05377698e+00 1.34908199e+00 1.20504200e+00 1.05025303e+00
      1.55494905e+00 1.23228097e+00 9.75633085e-01 1.46700597e+00
      1.23329699e+00 8.40591729e-01 1.17169297e+00</_>
    <_>
      1.73566699e+00 1.23504496e+00 1.14614701e+00 1.25350702e+00
      1.22806704e+00 1.06422901e+00 8.97620678e-01 4.18947786e-01
      9.73953128e-01 9.37828124e-01 5.85005105e-01 9.72383380e-01
      9.39243615e-01 8.15515280e-01 9.55797613e-01</_>
    <_>
      1.50554597e+00 1.13377595e+00 1.22439396e+00 1.21313703e+00
      9.09864485e-01 1.28440106e+00 9.71698880e-01 5.59408724e-01
      1.05623496e+00 1.03335702e+00 2.95310289e-01 1.11273599e+00
      1.03238797e+00 7.14274585e-01 1.04723597e+00</_>
    <_>
      1.38191402e+00 9.85467017e-01 1.27998304e+00 1.06774294e+00
      6.91399276e-01 1.15831006e+00 1.09442604e+00 5.60393512e-01
      1.25164795e+00 1.13349998e+00 3.87945801e-01 1.25952303e+00
      1.12448895e+00 6.28871083e-01 1.09619904e+00</_>
    <_>
      1.57588005e+00 1.05764198e+00 1.15129697e+00 1.23374605e+00
      1.20589602e+00 1.15768397e+00 1.16719401e+00 1.13305795e+00
      2.71897411e+00 1.21016097e+00 1.09804296e+00 1.50198305e+00
      1.22882795e+00 1.01644397e+00 1.17860198e+00</_>
    <_>
      1.68551600e+00 1.22872400e+00 1.20559394e+00 1.24083304e+00
      1.20991302e+00 1.12866604e+00 1.25346100e+00 1.24122095e+00
      2.86854005e+00 1.28263795e+00 1.24026203e+00 1.24534202e+00
      1.19677401e+00 9.21708524e-01 1.14074099e+00</_>
    <_>
      1.50418997e+00 1.10203505e+00 1.19795299e+00 1.09365499e+00
      7.77945578e-01 1.23425603e+00 1.09143698e+00 7.16094196e-01
      1.34545004e+00 1.15759003e+00 7.36093104e-01 1.38077497e+00
      1.19309294e+00 8.33977818e-01 1.17368901e+00</_>
    <_>
      1.46515298e+00 8.36063683e-01 1.14353895e+00 9.40776885e-01
      6.75062597e-01 1.07535005e+00 9.32650685e-01 4.68091011e-01
      1.04660702e+00 9.72536623e-01 3.08884710e-01 1.05411899e+00
      9.85634029e-01 6.70083523e-01 1.00516105e+00</_>
    <_>
      1.79038596e+00 1.19723701e+00 1.12128901e+00 1.25312698e+00
      1.22618604e+00 1.08402395e+00 8.92799616e-01 4.74518210e-01
      9.63375211e-01 9.34622586e-01 5.87766290e-01 9.62213516e-01
      9.35917914e-01 8.19193482e-01 9.50855315e-01</_>
    <_>
      1.21991098e+00 1.20756996e+00 1.24970102e+00 1.23820603e+00
      1.22004104e+00 1.08831203e+00 1.25262296e+00 1.26568103e+00
      7.70028889e-01 1.27888501e+00 1.26659095e+00 9.84217227e-01
      1.31786203e+00 1.20316303e+00 1.01182401e+00</_>
    <_>
      1.34938896e+00 7.33078182e-01 1.26072395e+00 1.23604596e+00
      1.19635499e+00 1.23694897e+00 1.00880694e+00 4.82864112e-01
      1.12514806e+00 1.04474103e+00 2.23759502e-01 1.12098205e+00
      1.05342400e+00 6.40748620e-01 1.03656900e+00</_>
    <_>
      1.40574002e+00 1.07259500e+00 1.26172698e+00 1.18667102e+00
      9.81295824e-01 1.32185698e+00 1.20725596e+00 9.84315574e-01
      1.47893298e+00 1.25132596e+00 9.56632376e-01 1.44930899e+00
      1.26782894e+00 8.75638187e-01 1.20086396e+00</_>
    <_>
      1.66872704e+00 1.24476898e+00 1.23471498e+00 1.22460604e+00
      1.18858898e+00 1.19530296e+00 1.25629401e+00 1.25431705e+00
      1.59067094e+00 1.28159904e+00 1.23499799e+00 1.22485197e+00
      1.31718397e+00 1.18237603e+00 1.06089401e+00</_>
    <_>
      1.35567796e+00 2.24224091e+00 1.35226703e+00 9.87547278e-01
      7.07075179e-01 1.16074300e+00 9.82033789e-01 4.68206197e-01
      1.12121105e+00 1.06043601e+00 2.31199205e-01 1.15745103e+00
      1.05152202e+00 7.02001810e-01 1.06149602e+00</_>
    <_>
      1.58609605e+00 1.18168294e+00 1.18213201e+00 1.25250101e+00
      1.22503996e+00 1.08357203e+00 9.39782977e-01 5.23560703e-01
      1.01588094e+00 9.69295621e-01 5.41062593e-01 9.88520920e-01
      9.58629310e-01 7.49441385e-01 9.39183295e-01</_>
    <_>
      1.35598600e+00 7.20968604e-01 1.25446105e+00 1.23628902e+00
      1.19679296e+00 1.23340702e+00 1.01251805e+00 4.82051015e-01
      1.12729394e+00 1.04903603e+00 2.29893193e-01 1.12271202e+00
      1.05422902e+00 6.42518878e-01 1.03479600e+00</_>
    <_>
      1.70604897e+00 1.17451501e+00 1.13212705e+00 1.22325695e+00
      1.19207096e+00 1.22799599e+00 1.24274194e+00 1.22579300e+00
      2.27930498e+00 1.27141500e+00 1.21903300e+00 1.32461905e+00
      1.29444504e+00 1.15322697e+00 1.04971004e+00</_>
    <_>
      1.39945996e+00 1.07225394e+00 1.26693296e+00 1.19270599e+00
      1.03840899e+00 1.33816397e+00 1.21012402e+00 1.04215097e+00
      1.52517200e+00 1.24271095e+00 9.75831985e-01 1.45456398e+00
      1.25305498e+00 8.47108483e-01 1.18576097e+00</_>
    <_>
      1.39921105e+00 1.07460403e+00 1.26703894e+00 1.19284999e+00
      1.04727006e+00 1.34219599e+00 1.20892596e+00 1.04919899e+00
      1.53846705e+00 1.23947704e+00 9.79850590e-01 1.45993102e+00
      1.24714196e+00 8.47659588e-01 1.18113601e+00</_>
    <_>
      1.39937198e+00 1.07662904e+00 1.26668000e+00 1.19227195e+00
      1.05206501e+00 1.34586895e+00 1.20706201e+00 1.05141103e+00
      1.54870105e+00 1.23583603e+00 9.79408324e-01 1.46418798e+00
      1.24020505e+00 8.45004201e-01 1.17628801e+00</_>
    <_>
      1.33260405e+00 1.29239202e+00 1.29223394e+00 1.25398397e+00
      1.24044800e+00 9.99712110e-01 1.26258099e+00 1.27531397e+00
      1.02611601e+00 1.28785503e+00 1.27353597e+00 1.04396796e+00
      1.32397497e+00 1.20640898e+00 1.03819501e+00</_>
    <_>
      1.34018695e+00 1.11654103e+00 1.20981598e+00 1.19288898e+00
      1.13865495e+00 1.28367305e+00 1.19478500e+00 1.15006101e+00
      2.54759002e+00 1.23354900e+00 1.16386700e+00 1.45414698e+00
      1.25629199e+00 1.08822596e+00 1.07103395e+00</_>
    <_>
      1.26230800e+00 9.28933918e-01 1.25261402e+00 9.90403771e-01
      9.81649220e-01 1.00139999e+00 1.02493298e+00 1.26246202e+00
      1.01001501e+00 1.06012201e+00 1.60015702e+00 9.96933520e-01
      1.09460104e+00 9.26280022e-01 1.00370896e+00</_>
    <_>
      1.40645897e+00 1.06754899e+00 1.26155198e+00 1.18675005e+00
      9.82967794e-01 1.32220399e+00 1.20840597e+00 9.87237811e-01
      1.47900295e+00 1.24984300e+00 9.52522993e-01 1.44845700e+00
      1.26845896e+00 8.73146176e-01 1.20156896e+00</_>
    <_>
      1.64356506e+00 9.53987718e-01 1.05811703e+00 1.31465900e+00
      1.03083503e+00 1.32510304e+00 9.20385301e-01 8.52398992e-01
      9.46818888e-01 9.57910597e-01 1.00324905e+00 9.28834021e-01
      9.47032690e-01 8.51892829e-01 9.10114527e-01</_>
    <_>
      1.59518099e+00 1.09054899e+00 1.14971900e+00 9.04114902e-01
      6.84896171e-01 1.09992599e+00 8.93387914e-01 5.07805407e-01
      9.77329612e-01 9.37592924e-01 5.70785701e-01 9.67606485e-01
      9.40121412e-01 8.55880201e-01 9.56914186e-01</_>
    <_>
      1.77117300e+00 1.08097899e+00 1.07593703e+00 9.23190415e-01
      6.42473280e-01 1.02574599e+00 9.18810904e-01 4.06540304e-01
      1.06007898e+00 9.39338505e-01 3.07942301e-01 1.07893598e+00
      9.65526581e-01 6.72616780e-01 1.01917899e+00</_>
    <_>
      1.72456503e+00 1.21862900e+00 1.14357901e+00 1.22668397e+00
      1.19485402e+00 1.23159695e+00 1.24810004e+00 1.22854900e+00
      2.18915796e+00 1.26503801e+00 1.20134902e+00 1.40249896e+00
      1.29564404e+00 1.15416801e+00 1.04927099e+00</_>
    <_>
      1.43835902e+00 6.41696572e-01 1.12561297e+00 9.13843691e-01
      7.51188874e-01 9.41663980e-01 9.51811790e-01 1.13709903e+00
      9.44840610e-01 9.89182770e-01 1.84767997e+00 8.99724722e-01
      9.28652525e-01 7.84933627e-01 8.31217885e-01</_>
    <_>
      1.59839797e+00 8.58434319e-01 1.06120598e+00 8.78255725e-01
      6.82658017e-01 9.32116926e-01 8.96497726e-01 8.14576387e-01
      9.17815685e-01 9.14685071e-01 1.00548005e+00 8.80169392e-01
      9.03983772e-01 7.66623199e-01 8.67195308e-01</_>
    <_>
      1.38189304e+00 9.85490024e-01 1.27988195e+00 1.06663597e+00
      6.91481411e-01 1.15857399e+00 1.09265101e+00 5.60239196e-01
      1.25074303e+00 1.13210702e+00 3.90380889e-01 1.25915802e+00
      1.12310505e+00 6.29645705e-01 1.09572005e+00</_>
    <_>
      1.36005402e+00 9.19362783e-01 1.28271699e+00 1.08273602e+00
      6.96749806e-01 1.16427004e+00 1.11206901e+00 5.65041900e-01
      1.26018405e+00 1.15034199e+00 3.65068287e-01 1.26542103e+00
      1.13301897e+00 6.18653297e-01 1.09648705e+00</_>
    <_>
      1.46528006e+00 7.38967478e-01 1.11324596e+00 1.25203896e+00
      8.98962021e-01 1.29609501e+00 1.04011905e+00 9.41278279e-01
      1.06187999e+00 1.05615997e+00 1.48076200e+00 9.98059392e-01
      1.03968894e+00 8.52757990e-01 9.51503813e-01</_>
    <_>
      1.57034898e+00 1.12891698e+00 1.17853999e+00 1.20621097e+00
      1.16759896e+00 1.32962501e+00 1.21053004e+00 1.17843199e+00
      2.60872698e+00 1.23380601e+00 1.13735604e+00 1.43194997e+00
      1.21015799e+00 1.00407302e+00 1.15544796e+00</_>
    <_>
      1.69473898e+00 1.14379597e+00 1.12549400e+00 1.22565401e+00
      1.19139695e+00 1.27468002e+00 1.24475002e+00 1.22986698e+00
      2.20871401e+00 1.27627802e+00 1.22794795e+00 1.29839098e+00
      1.26764202e+00 1.09867001e+00 1.11443806e+00</_>
    <_>
      1.69611096e+00 1.15257394e+00 1.12790203e+00 1.22408199e+00
      1.19048202e+00 1.26715100e+00 1.24261105e+00 1.22604799e+00
      2.23836589e+00 1.27417696e+00 1.22449505e+00 1.30589795e+00
      1.28064597e+00 1.12260997e+00 1.09217703e+00</_>
    <_>
      1.70469105e+00 1.18521094e+00 1.13484895e+00 1.25411999e+00
      1.22852302e+00 1.06291103e+00 9.12653089e-01 4.62345690e-01
      9.78445888e-01 9.48121428e-01 6.65472925e-01 9.70927596e-01
      9.49989974e-01 8.43009710e-01 9.58870828e-01</_>
    <_>
      1.34888303e+00 1.18700695e+00 1.28268099e+00 9.38734710e-01
      9.70943689e-01 9.67185915e-01 9.93643105e-01 1.10166705e+00
      9.93804514e-01 1.02714705e+00 1.29884303e+00 9.78122473e-01
      1.03735101e+00 8.17578912e-01 9.93987918e-01</_>
    <_>
      1.62057996e+00 1.18054104e+00 1.16740799e+00 1.25177395e+00
      1.22483897e+00 1.07508099e+00 9.34002817e-01 5.76875627e-01
      1.00899696e+00 9.73631918e-01 5.85797787e-01 9.84060228e-01
      9.57969487e-01 7.39993274e-01 9.22919989e-01</_>
    <_>
      1.68192697e+00 1.21843398e+00 1.15169895e+00 1.25099599e+00
      1.22754502e+00 1.02115798e+00 9.11276579e-01 4.95544106e-01
      9.85676825e-01 9.50995624e-01 5.87897718e-01 9.76317823e-01
      9.60766375e-01 8.31593990e-01 9.71983075e-01</_>
    <_>
      1.80300105e+00 1.15294695e+00 1.14590096e+00 1.25312698e+00
      1.22654605e+00 1.08690095e+00 1.26449597e+00 1.25715804e+00
      2.04117894e+00 1.29503596e+00 1.26784801e+00 1.14165401e+00
      1.32901597e+00 1.20832002e+00 1.09547806e+00</_>
    <_>
      1.36160600e+00 2.15212202e+00 1.34627795e+00 9.56525922e-01
      9.72567916e-01 9.79633987e-01 9.88719583e-01 1.18944597e+00
      9.78869677e-01 1.01201200e+00 1.26941800e+00 9.64917481e-01
      1.01365602e+00 8.36555719e-01 9.90827322e-01</_>
    <_>
      1.54972196e+00 1.31041706e+00 1.25038302e+00 1.25066602e+00
      1.22543395e+00 1.05381298e+00 9.19472575e-01 4.79309708e-01
      1.01854205e+00 9.83628988e-01 9.98685002e-01 9.66788828e-01
      1.02591395e+00 9.16963279e-01 9.72768307e-01</_>
    <_>
      1.47140503e+00 7.50403285e-01 1.11052406e+00 1.24802399e+00
      8.94796193e-01 1.29240096e+00 1.03660095e+00 9.34212804e-01
      1.05907595e+00 1.05115402e+00 1.48480296e+00 9.92119789e-01
      1.03478003e+00 8.55858386e-01 9.48287785e-01</_>
    <_>
      1.48607504e+00 1.15323901e+00 1.24469495e+00 1.21085405e+00
      8.60315681e-01 1.25761795e+00 9.81589794e-01 6.08429193e-01
      1.05431294e+00 1.04213905e+00 2.89203614e-01 1.11998904e+00
      1.04478002e+00 7.01239526e-01 1.05233002e+00</_>
    <_>
      1.26607502e+00 8.48142624e-01 1.25035906e+00 9.92663026e-01
      9.81574476e-01 1.00314903e+00 1.02853799e+00 1.18978000e+00
      1.02150297e+00 1.06165600e+00 1.33461499e+00 1.01430094e+00
      1.08240294e+00 8.29521418e-01 1.00177205e+00</_>
    <_>
      1.54348600e+00 1.13350499e+00 1.19667006e+00 1.25143397e+00
      1.19781196e+00 1.26667297e+00 9.68113184e-01 5.78117013e-01
      1.20791304e+00 9.88629699e-01 5.00393689e-01 1.20870304e+00
      1.03270304e+00 6.93521976e-01 1.09170401e+00</_>
    <_>
      1.26871502e+00 1.22252703e+00 1.24790204e+00 1.24645102e+00
      1.22706294e+00 1.08623898e+00 1.26108098e+00 1.27043903e+00
      9.82225776e-01 1.28862906e+00 1.27808201e+00 9.89971280e-01
      1.32458603e+00 1.21290004e+00 1.01733100e+00</_>
    <_>
      1.61750698e+00 1.17002201e+00 1.16416204e+00 1.24854398e+00
      1.19982195e+00 1.24116802e+00 9.23357725e-01 4.41368610e-01
      1.01859105e+00 9.75616872e-01 4.74423498e-01 1.01527202e+00
      9.69871283e-01 7.76628971e-01 9.77290511e-01</_>
    <_>
      1.43280005e+00 7.66152978e-01 1.13898003e+00 9.59595323e-01
      7.18888700e-01 1.05269098e+00 9.80050087e-01 5.06187499e-01
      1.08130395e+00 1.03832197e+00 2.80019611e-01 1.16259003e+00
      1.04330206e+00 6.81313515e-01 1.04237401e+00</_>
    <_>
      1.49965894e+00 8.82791579e-01 1.16464400e+00 9.06950414e-01
      6.33398414e-01 9.54066873e-01 9.12155271e-01 6.10369921e-01
      9.62817729e-01 9.70084727e-01 2.84029394e-01 1.02806103e+00
      9.33021486e-01 6.49029493e-01 9.05588508e-01</_>
    <_>
      1.29424095e+00 1.26701903e+00 1.28375697e+00 9.91178513e-01
      9.77833629e-01 1.00353897e+00 1.01587605e+00 1.29572999e+00
      9.96630907e-01 1.05998302e+00 2.01993108e+00 9.70772326e-01
      1.06159794e+00 9.58887219e-01 9.77660298e-01</_>
    <_>
      1.49121404e+00 7.66947210e-01 1.11004198e+00 8.96291375e-01
      7.31755793e-01 9.35633481e-01 9.18530881e-01 9.73569989e-01
      9.28760827e-01 9.59476590e-01 1.29916203e+00 9.03367817e-01
      9.21314776e-01 7.68316984e-01 8.54646623e-01</_>
    <_>
      1.49884200e+00 1.08585000e+00 1.21651196e+00 1.24880898e+00
      1.21229398e+00 1.18810701e+00 9.60295498e-01 5.48424721e-01
      1.18107104e+00 9.66521323e-01 2.91979015e-01 1.09306800e+00
      9.64977920e-01 6.89524472e-01 1.00558603e+00</_>
    <_>
      1.50237298e+00 1.09279299e+00 1.21531296e+00 1.24973595e+00
      1.21562898e+00 1.16655397e+00 9.56255674e-01 5.28090179e-01
      1.16459894e+00 9.65461075e-01 2.93511808e-01 1.09254003e+00
      9.67064202e-01 6.89921975e-01 1.00620401e+00</_>
    <_>
      3.36162496e+00 1.20695400e+00 1.15540302e+00 1.23904896e+00
      1.20642495e+00 1.18313301e+00 1.24637699e+00 1.22758102e+00
      2.24909902e+00 1.27237904e+00 1.21868598e+00 1.27201200e+00
      1.31218600e+00 1.17044699e+00 1.07082403e+00</_>
    <_>
      1.31248701e+00 6.69501781e-01 1.26446497e+00 1.23610699e+00
      1.19675398e+00 1.23515904e+00 1.01597202e+00 5.39677918e-01
      1.10899496e+00 1.05718899e+00 2.88687587e-01 1.11046100e+00
      1.05690706e+00 6.51289284e-01 1.02542102e+00</_>
    <_>
      1.52633095e+00 1.06096804e+00 1.19473505e+00 1.21862805e+00
      1.05576205e+00 1.32047701e+00 9.76804018e-01 6.60575926e-01
      1.03726304e+00 1.02697897e+00 1.10448003e+00 9.93211627e-01
      1.04772997e+00 8.70457292e-01 9.95405972e-01</_>
    <_>
      1.67601001e+00 1.16491497e+00 1.13783801e+00 1.25318503e+00
      1.22567797e+00 1.09324300e+00 9.08976078e-01 4.62224305e-01
      9.86373782e-01 9.49483812e-01 5.50032198e-01 9.82978523e-01
      9.48407114e-01 8.07184100e-01 9.60401118e-01</_>
    <_>
      1.44077396e+00 1.04788697e+00 1.13783097e+00 1.19327998e+00
      1.14394295e+00 1.35419500e+00 1.20493805e+00 1.15816402e+00
      2.29031706e+00 1.24187398e+00 1.16876400e+00 1.30868804e+00
      1.28063297e+00 1.10215700e+00 1.08017099e+00</_>
    <_>
      1.71837103e+00 1.11230505e+00 1.11727595e+00 8.79517019e-01
      7.85960078e-01 9.84472573e-01 9.06995475e-01 5.87826788e-01
      9.77458119e-01 9.40953016e-01 7.39127696e-01 9.34986591e-01
      9.34405088e-01 7.29516983e-01 8.92745972e-01</_>
    <_>
      1.65620995e+00 1.20471203e+00 1.15553796e+00 1.25305104e+00
      1.23063898e+00 1.00246596e+00 8.96677077e-01 3.99957001e-01
      1.00497603e+00 9.33968008e-01 3.98379713e-01 9.97537673e-01
      9.48063910e-01 7.49655426e-01 9.71198201e-01</_>
    <_>
      1.52948499e+00 8.70426714e-01 1.12034297e+00 9.27005529e-01
      7.24987388e-01 1.04018700e+00 9.59169626e-01 4.69691992e-01
      1.06377804e+00 1.01997495e+00 2.68875986e-01 1.13992906e+00
      1.06240702e+00 6.93437815e-01 1.07248998e+00</_>
    <_>
      1.49649096e+00 7.42719114e-01 1.10135400e+00 8.96423817e-01
      7.16162026e-01 9.33359981e-01 9.22793806e-01 9.44100678e-01
      9.37079012e-01 9.66308892e-01 1.23176301e+00 9.15389419e-01
      9.39242721e-01 7.48034716e-01 8.72000873e-01</_>
    <_>
      1.55742395e+00 1.25280595e+00 1.20977902e+00 1.07464194e+00
      7.57953703e-01 1.21226203e+00 9.59560990e-01 5.01875520e-01
      1.04948401e+00 9.84879613e-01 6.01494074e-01 1.00112295e+00
      9.81874824e-01 7.26038516e-01 9.57717478e-01</_>
    <_>
      1.50798094e+00 1.10812998e+00 1.21408796e+00 1.24993300e+00
      1.21721399e+00 1.15266502e+00 9.54186976e-01 5.25226474e-01
      1.16085994e+00 9.59012926e-01 3.11947197e-01 1.09676504e+00
      9.69081521e-01 6.88603282e-01 1.01515496e+00</_>
    <_>
      1.41303003e+00 1.37676203e+00 1.31449294e+00 1.27208805e+00
      1.02945197e+00 1.31812000e+00 1.28796697e+00 1.09456694e+00
      1.42986202e+00 1.33607495e+00 1.10599399e+00 1.40368903e+00
      1.34990501e+00 9.61949229e-01 1.24061501e+00</_>
    <_>
      1.13770902e+00 1.24610305e+00 1.27364302e+00 1.24409902e+00
      1.22461796e+00 1.10678899e+00 1.25689101e+00 1.26674604e+00
      8.17294121e-01 1.28505898e+00 1.27248895e+00 9.81550217e-01
      1.31863797e+00 1.20500803e+00 9.98037279e-01</_>
    <_>
      1.41163599e+00 1.36954105e+00 1.31512105e+00 1.27207303e+00
      1.03033900e+00 1.31789398e+00 1.28652799e+00 1.09141195e+00
      1.43088806e+00 1.33532703e+00 1.10421002e+00 1.40477800e+00
      1.34906602e+00 9.59748089e-01 1.23992300e+00</_>
    <_>
      1.39025998e+00 1.08112597e+00 1.17945802e+00 1.19189501e+00
      1.13928699e+00 1.30981100e+00 1.19485199e+00 1.14261699e+00
      2.35240889e+00 1.22826600e+00 1.13831699e+00 1.36269104e+00
      1.26886594e+00 1.05656099e+00 1.09838104e+00</_>
    <_>
      1.48525798e+00 7.82315075e-01 1.12067604e+00 9.35542703e-01
      8.81953597e-01 9.96540189e-01 9.61311281e-01 9.56169724e-01
      9.76658285e-01 1.01019502e+00 1.31455898e+00 9.58819807e-01
      9.98345017e-01 6.86889827e-01 9.25587714e-01</_>
    <_>
      1.43446398e+00 6.54350102e-01 1.13730705e+00 9.23139989e-01
      7.70009875e-01 9.59723294e-01 9.53294277e-01 9.93280888e-01
      9.63446081e-01 9.92826879e-01 1.50843406e+00 9.25589681e-01
      9.37961102e-01 7.43273020e-01 8.46729875e-01</_>
    <_>
      2.32337594e+00 1.26579201e+00 1.23545003e+00 1.25510395e+00
      1.23480594e+00 1.05075896e+00 1.26629901e+00 1.27081001e+00
      9.67328727e-01 1.29530299e+00 1.28053296e+00 1.02597296e+00
      1.32857096e+00 1.22021604e+00 1.02067995e+00</_>
    <_>
      1.57434905e+00 8.68372381e-01 1.06282604e+00 1.23635304e+00
      8.80462885e-01 1.27907300e+00 9.96984899e-01 8.46921384e-01
      1.02888000e+00 1.00777400e+00 1.20181799e+00 9.63108718e-01
      9.90714073e-01 8.18882287e-01 9.27169383e-01</_>
    <_>
      1.43155098e+00 1.08833694e+00 1.18036199e+00 1.18377101e+00
      1.13206899e+00 1.32920599e+00 1.18621600e+00 1.13393295e+00
      2.47131491e+00 1.22341895e+00 1.13770497e+00 1.34059501e+00
      1.26947904e+00 1.06952000e+00 1.09001803e+00</_>
    <_>
      1.26302898e+00 1.21935999e+00 1.24829495e+00 1.24533498e+00
      1.22640896e+00 1.08596802e+00 1.26007295e+00 1.27054703e+00
      9.60073173e-01 1.28743601e+00 1.27708900e+00 9.88522291e-01
      1.32394505e+00 1.21164095e+00 1.01846194e+00</_>
    <_>
      1.35557795e+00 1.91468406e+00 1.33213794e+00 9.64413226e-01
      9.65049028e-01 9.88061011e-01 9.93222475e-01 1.16567695e+00
      9.86287296e-01 1.01646101e+00 1.23924005e+00 9.71850812e-01
      1.00998497e+00 8.30240428e-01 9.91248429e-01</_>
    <_>
      1.77203703e+00 1.13031399e+00 1.09630799e+00 9.53130126e-01
      6.54439926e-01 1.06767905e+00 9.53366220e-01 4.60476607e-01
      1.12680805e+00 9.86289918e-01 3.77120286e-01 1.15579605e+00
      1.01922905e+00 6.91868126e-01 1.06289995e+00</_>
    <_>
      1.78415000e+00 1.11397302e+00 1.08658803e+00 9.40765619e-01
      6.48377001e-01 1.04989302e+00 9.39109921e-01 4.35188711e-01
      1.09865999e+00 9.65935826e-01 3.42712790e-01 1.12280405e+00
      9.97683287e-01 6.83436215e-01 1.04621804e+00</_>
    <_>
      1.54609501e+00 7.94575512e-01 1.07319605e+00 8.84958684e-01
      6.98391616e-01 9.26629722e-01 9.08767879e-01 1.00259495e+00
      9.14603114e-01 9.31955218e-01 1.35654104e+00 8.68708789e-01
      8.92253578e-01 7.53619015e-01 8.30933094e-01</_>
    <_>
      1.45436394e+00 7.15400815e-01 1.14058805e+00 9.18299377e-01
      7.63267100e-01 9.68951821e-01 9.36116874e-01 8.39410722e-01
      9.65370715e-01 9.73605871e-01 1.08144295e+00 9.35759127e-01
      9.32164490e-01 6.75306916e-01 8.61842811e-01</_>
    <_>
      1.48178399e+00 7.94681489e-01 1.14680004e+00 9.10023212e-01
      7.24830210e-01 9.64488924e-01 9.19276118e-01 7.42217422e-01
      9.61944401e-01 9.53295887e-01 8.82907689e-01 9.32052672e-01
      9.33566391e-01 6.93993986e-01 8.83803189e-01</_>
    <_>
      1.55799794e+00 1.11326897e+00 1.19112003e+00 1.24697304e+00
      1.21566105e+00 1.12636805e+00 9.66208696e-01 4.54310298e-01
      1.08081305e+00 9.94007111e-01 3.33593994e-01 1.05149198e+00
      9.90123987e-01 6.72459424e-01 9.75352228e-01</_>
    <_>
      1.71283805e+00 1.20965803e+00 1.14071000e+00 1.25305295e+00
      1.22638297e+00 1.08120501e+00 8.97449672e-01 4.27333891e-01
      9.75361884e-01 9.37118590e-01 5.43953419e-01 9.75433171e-01
      9.38441813e-01 8.11825871e-01 9.55987096e-01</_>
    <_>
      1.60213006e+00 1.20446897e+00 1.17949700e+00 8.97558212e-01
      7.03530312e-01 1.11542904e+00 9.08686399e-01 4.87421989e-01
      9.61426377e-01 9.52398121e-01 9.55977082e-01 9.41558301e-01
      9.56559122e-01 8.77447128e-01 9.34451103e-01</_>
    <_>
      1.47581196e+00 1.09858596e+00 1.17675996e+00 1.18202400e+00
      1.13185096e+00 1.32134700e+00 1.18474698e+00 1.13608801e+00
      2.60356998e+00 1.22341704e+00 1.14470506e+00 1.31487799e+00
      1.27635098e+00 1.08454394e+00 1.08775103e+00</_>
    <_>
      1.66696095e+00 1.26423597e+00 1.24863398e+00 1.25454795e+00
      1.23462296e+00 1.08110702e+00 1.26595199e+00 1.27248502e+00
      1.02286899e+00 1.29371202e+00 1.28129900e+00 1.02633297e+00
      1.32767797e+00 1.22063994e+00 1.00657403e+00</_>
    <_>
      1.39920199e+00 1.07724702e+00 1.25898302e+00 1.16042101e+00
      1.02709699e+00 1.35288596e+00 1.16687500e+00 9.99510586e-01
      1.58664703e+00 1.18954897e+00 9.29151118e-01 1.48263502e+00
      1.19826901e+00 8.43039215e-01 1.16078496e+00</_>
    <_>
      1.59199595e+00 1.25620103e+00 1.19825995e+00 9.22946572e-01
      7.64253914e-01 1.22596800e+00 9.25178587e-01 5.11409521e-01
      1.01165700e+00 9.67769206e-01 5.28540790e-01 9.88099813e-01
      9.89797115e-01 7.32134521e-01 9.56785321e-01</_>
    <_>
      1.54742599e+00 8.85595322e-01 1.10526896e+00 9.32993829e-01
      7.06425905e-01 1.05630696e+00 9.24405873e-01 4.72995907e-01
      1.03405404e+00 9.71458912e-01 2.90080607e-01 1.04396403e+00
      9.70070422e-01 6.50555313e-01 9.66194272e-01</_>
    <_>
      1.42663002e+00 1.11560202e+00 1.27043998e+00 1.23168802e+00
      8.70299816e-01 1.29680800e+00 1.24631798e+00 9.03345883e-01
      1.41289401e+00 1.29980803e+00 8.77136528e-01 1.40849304e+00
      1.30414999e+00 8.49403679e-01 1.21584499e+00</_>
    <_>
      1.54835999e+00 9.14341271e-01 1.14179802e+00 8.99246812e-01
      8.06053817e-01 1.00315201e+00 9.36623275e-01 7.24531829e-01
      9.64716613e-01 9.88674879e-01 1.10057402e+00 9.60204422e-01
      9.78605211e-01 6.74450815e-01 9.50340986e-01</_>
    <_>
      1.38262904e+00 9.79684472e-01 1.27893198e+00 1.06588602e+00
      6.91795588e-01 1.15902305e+00 1.09171402e+00 5.60207427e-01
      1.25025296e+00 1.13184905e+00 3.92487913e-01 1.25940001e+00
      1.12242103e+00 6.29901588e-01 1.09532595e+00</_>
    <_>
      1.67211497e+00 1.22518897e+00 1.15651298e+00 1.25560403e+00
      1.23275006e+00 1.02287304e+00 9.13155675e-01 4.96562690e-01
      9.94457126e-01 9.46965516e-01 5.34996271e-01 9.72463489e-01
      9.54738617e-01 8.21645975e-01 9.65179980e-01</_>
    <_>
      1.71201301e+00 1.18500805e+00 1.13838601e+00 1.21860695e+00
      1.19317997e+00 1.08694804e+00 1.24491203e+00 1.23420501e+00
      2.18004298e+00 1.27158797e+00 1.21446097e+00 1.32562697e+00
      1.25818396e+00 1.09636903e+00 1.08141899e+00</_>
    <_>
      1.56255901e+00 1.00843799e+00 1.14167094e+00 9.50284481e-01
      6.89595282e-01 1.11867797e+00 9.71328616e-01 5.88397086e-01
      1.22492099e+00 1.06070805e+00 7.00281024e-01 1.35078895e+00
      1.13518298e+00 8.66714597e-01 1.14245999e+00</_>
    <_>
      1.57363105e+00 1.02979803e+00 1.14269400e+00 9.54196513e-01
      7.11276114e-01 1.13804102e+00 9.09137189e-01 5.33355117e-01
      1.14033496e+00 1.05057502e+00 8.04057002e-01 1.40691197e+00
      1.07635105e+00 8.33466113e-01 1.12191296e+00</_>
    <_>
      1.58660495e+00 9.94750500e-01 1.13431001e+00 8.61834884e-01
      6.90427005e-01 1.04237998e+00 9.19950128e-01 5.96084416e-01
      9.85885978e-01 9.51581717e-01 6.72430873e-01 9.54484582e-01
      9.53717113e-01 7.14115024e-01 9.22284186e-01</_>
    <_>
      1.58883500e+00 1.00733304e+00 1.13695300e+00 8.72275710e-01
      7.05153584e-01 1.08081305e+00 9.18336570e-01 5.76514184e-01
      9.89305496e-01 9.49573278e-01 6.12890780e-01 9.60143685e-01
      9.52805877e-01 7.09408700e-01 9.25791621e-01</_>
    <_>
      1.64356399e+00 1.05867803e+00 1.11793399e+00 1.24818206e+00
      1.16055501e+00 1.32745600e+00 9.14637506e-01 3.95935595e-01
      1.00034595e+00 9.60036516e-01 5.23515284e-01 1.00203896e+00
      9.75276887e-01 8.14663708e-01 9.83073771e-01</_>
    <_>
      1.54336905e+00 9.02264774e-01 1.13581300e+00 9.03042316e-01
      7.33763218e-01 9.92742181e-01 9.21160579e-01 6.07972920e-01
      9.88147974e-01 9.57526326e-01 6.19894385e-01 9.64146078e-01
      9.52143013e-01 6.63946211e-01 9.14486825e-01</_>
    <_>
      1.50464404e+00 1.31934798e+00 1.25309205e+00 1.16706705e+00
      1.11101305e+00 1.42505097e+00 1.19623804e+00 1.16938305e+00
      3.76929092e+00 1.17721498e+00 1.08550894e+00 1.63392103e+00
      1.12175906e+00 7.59358108e-01 1.18838501e+00</_>
    <_>
      1.65359795e+00 1.10708499e+00 1.13111603e+00 1.14174497e+00
      1.08762395e+00 1.27146602e+00 9.05797422e-01 6.15838826e-01
      9.70975518e-01 9.44082081e-01 7.19736814e-01 9.45784211e-01
      9.41540122e-01 8.32309604e-01 9.25482929e-01</_>
    <_>
      1.56193197e+00 1.07493401e+00 1.14239395e+00 8.88164818e-01
      6.73052013e-01 9.65496004e-01 9.10315692e-01 4.18494612e-01
      9.84261870e-01 9.51363027e-01 6.30145490e-01 9.78399694e-01
      9.60714281e-01 8.39772522e-01 9.63748217e-01</_>
    <_>
      1.57426703e+00 1.13338101e+00 1.18007696e+00 1.24648595e+00
      1.20443702e+00 1.22877800e+00 9.39879715e-01 4.72961396e-01
      1.12307501e+00 9.56233025e-01 4.42440301e-01 1.15901399e+00
      1.01128602e+00 6.75566614e-01 1.06248999e+00</_>
    <_>
      1.36080098e+00 9.18287396e-01 1.28213596e+00 1.08137095e+00
      6.96220279e-01 1.16380501e+00 1.10986805e+00 5.62915385e-01
      1.25846398e+00 1.14811099e+00 3.67793888e-01 1.26458204e+00
      1.13147998e+00 6.19869411e-01 1.09570503e+00</_>
    <_>
      1.67966902e+00 1.17117596e+00 1.13691401e+00 1.25269306e+00
      1.22463298e+00 1.09749401e+00 9.24974680e-01 4.67889011e-01
      1.01402199e+00 9.69422579e-01 4.98599887e-01 1.00115705e+00
      9.70330715e-01 7.78026223e-01 9.69284713e-01</_>
    <_>
      1.37170398e+00 1.08064306e+00 1.19359505e+00 1.19725800e+00
      1.14086604e+00 1.34162199e+00 1.20171201e+00 1.14522600e+00
      2.20852399e+00 1.23964405e+00 1.15155804e+00 1.40376401e+00
      1.26747096e+00 1.06741798e+00 1.10830498e+00</_>
    <_>
      1.54292703e+00 7.88112819e-01 1.06625402e+00 8.99042308e-01
      7.38299787e-01 9.37263727e-01 9.23547626e-01 9.95430827e-01
      9.31365371e-01 9.67495024e-01 1.44755995e+00 9.00580525e-01
      9.32504416e-01 7.72410810e-01 8.59398782e-01</_>
    <_>
      1.70130098e+00 1.20016205e+00 1.14040995e+00 1.25416398e+00
      1.22884500e+00 1.05876100e+00 9.10772681e-01 4.57912296e-01
      9.79314983e-01 9.47065890e-01 6.50597990e-01 9.71913517e-01
      9.48516786e-01 8.38764906e-01 9.57647502e-01</_>
    <_>
      1.51152897e+00 1.14008796e+00 1.26455295e+00 9.10036802e-01
      8.16028714e-01 1.00540400e+00 9.36747611e-01 7.99881518e-01
      9.71980810e-01 9.73913789e-01 1.34061897e+00 9.14649129e-01
      9.56915498e-01 6.47838116e-01 8.80348325e-01</_>
    <_>
      1.51088095e+00 9.17738080e-01 1.16941094e+00 9.21986699e-01
      6.49766028e-01 1.00003695e+00 9.28462625e-01 4.70541000e-01
      1.02194905e+00 9.44971621e-01 4.41664696e-01 9.75969017e-01
      9.68191504e-01 6.50080502e-01 9.40117896e-01</_>
    <_>
      1.64851606e+00 1.21175301e+00 1.16214705e+00 1.25582695e+00
      1.23208404e+00 1.04164302e+00 9.15941119e-01 5.00939727e-01
      9.98072624e-01 9.49032426e-01 5.34987271e-01 9.71584320e-01
      9.53031480e-01 8.17703128e-01 9.61398125e-01</_>
    <_>
      1.71831906e+00 1.26605701e+00 1.24785304e+00 1.25479496e+00
      1.23465002e+00 1.08324802e+00 1.26619101e+00 1.27237296e+00
      1.03481603e+00 1.29416203e+00 1.28190196e+00 1.02211702e+00
      1.32809103e+00 1.22155297e+00 1.00768900e+00</_>
    <_>
      1.64733195e+00 1.00330305e+00 1.08609295e+00 1.29663599e+00
      1.10271895e+00 1.32005095e+00 9.18272674e-01 7.77818382e-01
      9.55611527e-01 9.50881720e-01 8.95062983e-01 9.30921674e-01
      9.43302274e-01 8.49893808e-01 9.13637578e-01</_>
    <_>
      1.49423003e+00 7.98586309e-01 1.12080598e+00 8.96210670e-01
      7.42690206e-01 9.42449391e-01 9.17340875e-01 9.36874926e-01
      9.32226479e-01 9.60095525e-01 1.23379397e+00 9.08852696e-01
      9.24046576e-01 7.31090188e-01 8.57366025e-01</_>
    <_>
      1.35948396e+00 2.15161300e+00 1.35014904e+00 9.86158371e-01
      7.10208416e-01 1.16865098e+00 9.82832611e-01 4.68709797e-01
      1.11833405e+00 1.05618095e+00 2.28680998e-01 1.14891601e+00
      1.05011702e+00 7.05755472e-01 1.05863297e+00</_>
    <_>
      1.31752801e+00 4.44830894e-01 1.16005599e+00 1.06652105e+00
      8.89191508e-01 1.09034002e+00 1.09734702e+00 7.82276511e-01
      1.14287198e+00 1.11828494e+00 5.80721974e-01 1.12800300e+00
      1.09656703e+00 6.00548923e-01 1.02875197e+00</_>
    <_>
      1.59982300e+00 1.17267799e+00 1.17303300e+00 1.23189294e+00
      1.12450898e+00 1.32679904e+00 9.29763675e-01 4.45919514e-01
      1.03103495e+00 9.88529682e-01 4.06914085e-01 1.04278100e+00
      9.87683117e-01 7.60128200e-01 9.95629609e-01</_>
    <_>
      1.57251501e+00 9.87110317e-01 1.12742805e+00 9.27967727e-01
      6.98500514e-01 1.11440694e+00 9.19188976e-01 5.54174125e-01
      1.16580904e+00 1.01351202e+00 7.06066191e-01 1.33556402e+00
      1.07138300e+00 8.28805625e-01 1.11898899e+00</_>
    <_>
      1.50990498e+00 7.43222713e-01 1.08787203e+00 8.96147311e-01
      7.16517329e-01 9.31680083e-01 9.22918677e-01 9.37695920e-01
      9.38031673e-01 9.66243029e-01 1.19109404e+00 9.18570518e-01
      9.42932010e-01 7.54174709e-01 8.78071785e-01</_>
    <_>
      1.64040804e+00 1.23269403e+00 1.16901803e+00 1.12845898e+00
      1.03178596e+00 1.51333201e+00 9.01418626e-01 4.67763811e-01
      9.93678927e-01 9.41549420e-01 4.72366512e-01 9.83444393e-01
      9.64705884e-01 7.71320820e-01 9.67447519e-01</_>
    <_>
      1.75937104e+00 8.80119681e-01 9.89611030e-01 9.20000315e-01
      6.77889526e-01 9.44214523e-01 9.43565428e-01 8.32732916e-01
      9.71205592e-01 9.73400176e-01 9.06039417e-01 9.50664222e-01
      9.57111478e-01 6.81517184e-01 1.02803004e+00</_>
    <_>
      1.46651804e+00 1.04458499e+00 1.23597598e+00 1.17667401e+00
      8.18093777e-01 1.20195699e+00 9.90629911e-01 5.68834722e-01
      1.05266297e+00 1.04886794e+00 2.48345301e-01 1.14446402e+00
      1.04902804e+00 6.45954907e-01 1.05192101e+00</_>
    <_>
      1.57059503e+00 1.28217697e+00 1.21221602e+00 9.49936688e-01
      8.37219775e-01 1.30196500e+00 9.32055593e-01 4.79909092e-01
      1.02703702e+00 9.78951871e-01 6.22571886e-01 9.97685015e-01
      9.88946497e-01 7.70043194e-01 9.57253695e-01</_>
    <_>
      1.41092002e+00 1.36507297e+00 1.31520402e+00 1.26861703e+00
      1.02754104e+00 1.31769001e+00 1.28256500e+00 1.08373404e+00
      1.43377399e+00 1.33189797e+00 1.09696496e+00 1.40790606e+00
      1.34511197e+00 9.54170704e-01 1.23625398e+00</_>
    <_>
      1.50457597e+00 8.93636286e-01 1.16232705e+00 9.07704711e-01
      6.29008472e-01 9.56051588e-01 9.14577425e-01 5.76382995e-01
      9.66187775e-01 9.82566476e-01 2.15283304e-01 1.07209802e+00
      9.37839329e-01 6.53849483e-01 9.20449615e-01</_>
    <_>
      1.37077701e+00 1.64444399e+00 1.32650805e+00 1.00130796e+00
      7.18355477e-01 1.12948298e+00 1.01076806e+00 4.87625599e-01
      1.13241005e+00 1.13032198e+00 2.66434401e-01 1.23364496e+00
      1.10546505e+00 6.71629190e-01 1.09262300e+00</_>
    <_>
      1.54293203e+00 9.24244821e-01 1.14568806e+00 9.03076708e-01
      7.36022472e-01 1.02020597e+00 9.23634708e-01 6.03401899e-01
      9.91752207e-01 9.58688080e-01 5.64670324e-01 9.71924126e-01
      9.58906114e-01 6.70301199e-01 9.23460722e-01</_>
    <_>
      1.53811097e+00 1.03619802e+00 1.16625500e+00 8.84789526e-01
      7.88587987e-01 1.10270703e+00 9.07800615e-01 4.92251188e-01
      1.10748601e+00 9.34324920e-01 3.82587194e-01 1.09826696e+00
      9.61571515e-01 6.78733289e-01 1.02953804e+00</_>
    <_>
      1.65443206e+00 1.21482205e+00 1.15876806e+00 1.25067103e+00
      1.22641897e+00 1.02838802e+00 8.97146583e-01 4.19788688e-01
      9.97006178e-01 9.35027480e-01 4.37115788e-01 9.88555789e-01
      9.51950312e-01 7.69444823e-01 9.66285586e-01</_>
    <_>
      4.92256021e+00 1.23649800e+00 1.14036000e+00 1.24103606e+00
      1.18185902e+00 1.34765399e+00 1.07021201e+00 6.98315918e-01
      1.12155604e+00 1.14884901e+00 1.22565305e+00 1.11869895e+00
      1.13485801e+00 8.32406580e-01 1.03707194e+00</_>
    <_>
      1.46371400e+00 7.84103811e-01 1.10671198e+00 1.24900997e+00
      1.23171699e+00 9.62640107e-01 1.07923102e+00 8.71493876e-01
      1.11117899e+00 1.10256398e+00 1.40845501e+00 1.05567205e+00
      1.03836703e+00 6.65700018e-01 9.30927396e-01</_>
    <_>
      1.61894798e+00 1.04374695e+00 1.11964202e+00 9.82801318e-01
      6.82529271e-01 1.11845803e+00 9.82618093e-01 5.15927970e-01
      1.17688704e+00 1.00290501e+00 3.53160590e-01 1.15652204e+00
      1.01546204e+00 6.63629115e-01 1.05454195e+00</_>
    <_>
      1.50698900e+00 8.40950429e-01 1.12432098e+00 1.25237000e+00
      1.23037601e+00 1.00862503e+00 1.02154696e+00 9.14130628e-01
      1.04531205e+00 1.07289100e+00 1.33495295e+00 1.02738297e+00
      1.04531097e+00 7.73497522e-01 9.51971591e-01</_>
    <_>
      5.06502581e+00 1.26175106e+00 1.20793295e+00 1.25485301e+00
      1.23381603e+00 1.01784205e+00 1.26610899e+00 1.26792395e+00
      1.20195997e+00 1.29634500e+00 1.27747405e+00 1.05241203e+00
      1.32947195e+00 1.21598303e+00 1.06437802e+00</_>
    <_>
      4.50297308e+00 1.26295400e+00 1.20944798e+00 1.25496101e+00
      1.23401499e+00 1.02469504e+00 1.26605201e+00 1.26824200e+00
      1.07167494e+00 1.29619896e+00 1.27817094e+00 1.04045796e+00
      1.32920396e+00 1.21658599e+00 1.05651498e+00</_>
    <_>
      1.49890494e+00 7.47009814e-01 1.09916103e+00 8.97277415e-01
      7.18361378e-01 9.35090303e-01 9.23489809e-01 9.47337687e-01
      9.37411308e-01 9.66381192e-01 1.24612904e+00 9.14345026e-01
      9.36138570e-01 7.46177614e-01 8.67439687e-01</_>
    <_>
      1.35406005e+00 7.26755679e-01 1.25673497e+00 1.23607802e+00
      1.19645405e+00 1.23529398e+00 1.01185799e+00 4.81054097e-01
      1.12783301e+00 1.04755902e+00 2.26297498e-01 1.12313700e+00
      1.05415905e+00 6.41481400e-01 1.03601098e+00</_>
    <_>
      1.92586505e+00 8.99190605e-01 9.52943385e-01 9.04198289e-01
      7.05932081e-01 9.43852782e-01 9.33133423e-01 8.38878691e-01
      9.62300122e-01 9.47794616e-01 9.54907119e-01 9.19402719e-01
      9.30053294e-01 7.65407026e-01 9.35307682e-01</_>
    <_>
      1.62779605e+00 1.17572606e+00 1.16138101e+00 1.25346696e+00
      1.22039604e+00 1.14982498e+00 9.23837483e-01 4.55154806e-01
      1.01056099e+00 9.65077102e-01 5.34031272e-01 9.93649781e-01
      9.63958979e-01 8.09866786e-01 9.73262191e-01</_>
    <_>
      1.66026402e+00 1.17783701e+00 1.15241802e+00 1.21876705e+00
      1.19227695e+00 1.12319696e+00 1.23702395e+00 1.22236800e+00
      2.23419189e+00 1.26565802e+00 1.19989598e+00 1.35111594e+00
      1.23845804e+00 1.06559205e+00 1.10562801e+00</_>
    <_>
      1.69986498e+00 1.21061695e+00 1.14385796e+00 1.25319302e+00
      1.22747099e+00 1.06214499e+00 9.08221126e-01 4.05568004e-01
      9.87938225e-01 9.46053505e-01 5.69256008e-01 9.82264698e-01
      9.44246173e-01 8.06774318e-01 9.57265913e-01</_>
    <_>
      1.83035898e+00 1.18704998e+00 1.17027497e+00 1.20816803e+00
      1.16805506e+00 1.23224199e+00 1.22113395e+00 1.19423604e+00
      3.08885098e+00 1.25477302e+00 1.20371699e+00 1.24666595e+00
      1.29436898e+00 1.13748598e+00 1.07137597e+00</_>
    <_>
      1.42187595e+00 1.07060599e+00 1.26123595e+00 1.22147703e+00
      8.72340024e-01 1.29707599e+00 1.23214900e+00 8.70147288e-01
      1.40545404e+00 1.29102004e+00 8.61410201e-01 1.41201103e+00
      1.29577398e+00 8.33732724e-01 1.21192896e+00</_>
    <_>
      1.65596795e+00 1.19947600e+00 1.15427399e+00 1.25252998e+00
      1.22978103e+00 1.00890994e+00 8.96063685e-01 3.94841611e-01
      1.01032400e+00 9.32135522e-01 3.70880008e-01 1.00284696e+00
      9.44653511e-01 7.33853698e-01 9.73587871e-01</_>
    <_>
      1.37033403e+00 1.41529405e+00 1.30425000e+00 9.73047316e-01
      9.30715919e-01 1.00680101e+00 9.99534786e-01 1.07558501e+00
      1.00304306e+00 1.02906406e+00 1.16057003e+00 9.90576982e-01
      1.00686896e+00 8.23475778e-01 9.92043912e-01</_>
    <_>
      5.89531708e+00 1.20273805e+00 1.13000405e+00 1.25289798e+00
      1.22088504e+00 1.17734396e+00 1.26717997e+00 1.25395095e+00
      1.69053495e+00 1.29592705e+00 1.25409496e+00 1.28876996e+00
      1.32761896e+00 1.16157103e+00 1.13177502e+00</_>
    <_>
      1.49636805e+00 1.04123402e+00 1.18635595e+00 1.02128303e+00
      7.67528892e-01 1.21912396e+00 1.04935300e+00 7.16618180e-01
      1.34330702e+00 1.09872603e+00 7.29767621e-01 1.38421297e+00
      1.12970901e+00 8.51663709e-01 1.14459705e+00</_>
    <_>
      1.60095406e+00 1.03523302e+00 1.14093399e+00 8.73499393e-01
      7.65761912e-01 1.00717604e+00 9.20892000e-01 5.64478815e-01
      9.98403490e-01 9.57873106e-01 7.14885771e-01 9.53874588e-01
      9.50441718e-01 6.68842614e-01 8.93063307e-01</_>
    <_>
      1.69884896e+00 1.14736295e+00 1.12907100e+00 1.14269805e+00
      1.09371698e+00 1.25507295e+00 8.95858109e-01 4.03290898e-01
      9.74355817e-01 9.49100912e-01 7.49721110e-01 9.61440980e-01
      9.67555225e-01 8.97161424e-01 9.53527927e-01</_>
    <_>
      1.50740898e+00 8.10545921e-01 1.09349501e+00 1.24377501e+00
      8.89048517e-01 1.28857195e+00 1.02102399e+00 8.97308111e-01
      1.04737496e+00 1.03478205e+00 1.41124201e+00 9.78538692e-01
      1.01696801e+00 8.40681612e-01 9.36365485e-01</_>
    <_>
      1.69989800e+00 1.21756804e+00 1.14647400e+00 1.25406504e+00
      1.22866797e+00 1.05858898e+00 9.11516190e-01 4.77519214e-01
      9.81010914e-01 9.50102210e-01 6.49161518e-01 9.70863581e-01
      9.49451685e-01 8.27982724e-01 9.49080288e-01</_>
    <_>
      1.43214798e+00 7.70924389e-01 1.14197397e+00 9.59262311e-01
      7.12985873e-01 1.05715895e+00 9.75880623e-01 4.97901499e-01
      1.08134496e+00 1.02744102e+00 2.66252011e-01 1.14534295e+00
      1.02534997e+00 6.63581073e-01 1.03350604e+00</_>
    <_>
      1.29581296e+00 8.00521910e-01 1.25569296e+00 9.85699594e-01
      9.38235998e-01 1.01280606e+00 1.02118695e+00 1.03988802e+00
      1.03028905e+00 1.05587196e+00 1.18958795e+00 1.01732898e+00
      1.03166199e+00 7.17073023e-01 9.40175474e-01</_>
    <_>
      1.49122298e+00 7.59157121e-01 1.10658002e+00 8.95583093e-01
      7.31443703e-01 9.34209287e-01 9.18906927e-01 9.75948215e-01
      9.28857803e-01 9.59464371e-01 1.30124700e+00 9.03319478e-01
      9.19615686e-01 7.71670222e-01 8.52647901e-01</_>
    <_>
      1.64645898e+00 1.00719798e+00 1.07566297e+00 8.89584422e-01
      6.84003472e-01 9.24592972e-01 9.11204696e-01 5.80194175e-01
      9.48196292e-01 9.47470605e-01 8.94149184e-01 9.34982419e-01
      9.32948828e-01 8.39021027e-01 9.17023599e-01</_>
    <_>
      1.67463696e+00 1.13821995e+00 1.15815997e+00 1.18951404e+00
      1.14584100e+00 1.26159298e+00 1.19771504e+00 1.16204000e+00
      3.07867789e+00 1.23573995e+00 1.17595899e+00 1.25776505e+00
      1.28277695e+00 1.11495602e+00 1.07319796e+00</_>
    <_>
      1.56360805e+00 8.72874200e-01 1.07667196e+00 9.27755117e-01
      8.56533885e-01 1.00103998e+00 9.53261077e-01 8.92283082e-01
      9.76307929e-01 9.95383918e-01 9.76110697e-01 9.68153715e-01
      9.60409284e-01 6.33434772e-01 8.90461385e-01</_>
    <_>
      1.57339394e+00 1.12040699e+00 1.17687201e+00 1.24306202e+00
      1.19947302e+00 1.24366903e+00 9.54190493e-01 5.16371489e-01
      1.16273999e+00 1.09944904e+00 5.63015103e-01 1.34021401e+00
      1.02427304e+00 6.85005784e-01 1.07809496e+00</_>
    <_>
      1.45453095e+00 1.27921903e+00 1.27237201e+00 1.22367704e+00
      1.20885503e+00 9.41321790e-01 1.22974396e+00 1.23146105e+00
      1.10656095e+00 1.24825096e+00 1.19983304e+00 1.19832504e+00
      1.26940501e+00 1.08884096e+00 1.08370495e+00</_>
    <_>
      1.49290204e+00 7.89962173e-01 1.11832404e+00 8.96693587e-01
      7.38538682e-01 9.40309227e-01 9.17751610e-01 9.51094508e-01
      9.30813611e-01 9.59978998e-01 1.26113403e+00 9.06634271e-01
      9.23963487e-01 7.45379925e-01 8.57328117e-01</_>
    <_>
      1.74084997e+00 9.48886812e-01 1.02242899e+00 1.22686601e+00
      8.65965009e-01 1.26464403e+00 9.20707405e-01 7.09017873e-01
      9.67150390e-01 9.45692420e-01 8.26505482e-01 9.29906428e-01
      9.31164324e-01 7.71814585e-01 9.06611681e-01</_>
    <_>
      1.48114300e+00 7.68076301e-01 1.10484505e+00 1.24764299e+00
      8.93492222e-01 1.29229403e+00 1.03187394e+00 9.22084391e-01
      1.05562198e+00 1.04477298e+00 1.48152995e+00 9.85257626e-01
      1.02764297e+00 8.50525975e-01 9.42127287e-01</_>
    <_>
      1.58044803e+00 1.02673697e+00 1.15033102e+00 9.08080816e-01
      6.77770376e-01 1.02908301e+00 9.14211988e-01 4.69956905e-01
      1.02078104e+00 9.41878080e-01 3.29338193e-01 9.97405410e-01
      9.59605575e-01 6.65778279e-01 9.50310111e-01</_>
    <_>
      1.54284704e+00 8.01361978e-01 1.07684600e+00 9.06063616e-01
      7.34941125e-01 9.39513385e-01 9.36691225e-01 9.02742624e-01
      9.57418025e-01 9.68097210e-01 8.74771714e-01 9.49266076e-01
      9.63322580e-01 7.67154813e-01 9.07783329e-01</_>
    <_>
      1.69691598e+00 1.15845597e+00 1.12960601e+00 1.22390199e+00
      1.19096100e+00 1.25643396e+00 1.24225903e+00 1.22539997e+00
      2.24916410e+00 1.27398300e+00 1.22390902e+00 1.30891001e+00
      1.28525996e+00 1.13210106e+00 1.08117998e+00</_>
    <_>
      1.58014202e+00 9.76458728e-01 1.12155104e+00 9.42160904e-01
      6.88216090e-01 1.11765301e+00 9.08829927e-01 4.65681106e-01
      1.01950395e+00 9.53749299e-01 4.33130711e-01 1.00268197e+00
      9.47836220e-01 7.21850395e-01 9.51007128e-01</_>
    <_>
      1.70033205e+00 1.20447695e+00 1.14200604e+00 1.25420702e+00
      1.22890997e+00 1.05829000e+00 9.11129773e-01 4.63518590e-01
      9.79762018e-01 9.48576510e-01 6.55663908e-01 9.72255170e-01
      9.49209571e-01 8.36748779e-01 9.55333829e-01</_>
    <_>
      1.58832300e+00 1.28097701e+00 1.20398200e+00 9.58298385e-01
      8.61472189e-01 1.34067702e+00 9.16968107e-01 4.71829504e-01
      1.00916195e+00 9.67405081e-01 6.30727708e-01 9.86141622e-01
      9.82190371e-01 7.98910618e-01 9.62792277e-01</_>
    <_>
      1.63598597e+00 1.06732094e+00 1.12411404e+00 1.25717402e+00
      1.21988297e+00 1.19189894e+00 9.19732213e-01 4.11849797e-01
      1.00710201e+00 9.65494275e-01 5.33158183e-01 1.00554299e+00
      9.77052927e-01 8.14880788e-01 9.83609021e-01</_>
    <_>
      1.36858201e+00 1.08038402e+00 1.19450402e+00 1.19674504e+00
      1.14016902e+00 1.33476996e+00 1.20097494e+00 1.14561105e+00
      2.24802399e+00 1.23893094e+00 1.15202403e+00 1.40881097e+00
      1.26613700e+00 1.06709695e+00 1.10871994e+00</_>
    <_>
      1.54188299e+00 1.15558100e+00 1.20383704e+00 1.21612704e+00
      9.75788116e-01 1.30956697e+00 9.58813310e-01 5.22788703e-01
      1.05322099e+00 1.03135502e+00 3.29633087e-01 1.10072196e+00
      1.02405703e+00 7.33857989e-01 1.03383899e+00</_>
    <_>
      1.47872603e+00 1.22473598e+00 1.24669194e+00 1.23376095e+00
      1.20345902e+00 1.12193298e+00 1.24305201e+00 1.22863603e+00
      3.58132601e+00 1.27623105e+00 1.22906995e+00 1.23667800e+00
      1.14198601e+00 8.22733521e-01 1.09831798e+00</_>
    <_>
      1.68184996e+00 1.16781902e+00 1.13732898e+00 1.25325596e+00
      1.22582698e+00 1.09019303e+00 9.08955514e-01 4.78163391e-01
      9.80440617e-01 9.49827373e-01 5.88902295e-01 9.76896524e-01
      9.50747371e-01 8.10029387e-01 9.55239415e-01</_>
    <_>
      1.59632504e+00 8.25434089e-01 1.06187499e+00 9.23723519e-01
      7.29714870e-01 9.52910423e-01 9.45799112e-01 8.83472621e-01
      9.69001412e-01 9.81649816e-01 9.68421698e-01 9.58413184e-01
      9.66473877e-01 7.14914620e-01 9.92134273e-01</_>
    <_>
      1.54184794e+00 9.51851904e-01 1.15091705e+00 9.11249876e-01
      7.13853478e-01 9.90921974e-01 9.20029879e-01 5.52114725e-01
      1.00020397e+00 9.48159099e-01 4.39020693e-01 9.79060471e-01
      9.54906225e-01 6.64139688e-01 9.30537283e-01</_>
    <_>
      1.52077901e+00 1.05972695e+00 1.21262598e+00 1.24995196e+00
      1.22476304e+00 1.06376898e+00 1.00247204e+00 5.95835209e-01
      1.06629801e+00 1.05555296e+00 1.30230701e+00 1.01404095e+00
      1.08219802e+00 9.35273409e-01 9.94433224e-01</_>
    <_>
      1.74661100e+00 9.64037120e-01 1.02995300e+00 1.22693706e+00
      8.78519475e-01 1.26840901e+00 9.15552318e-01 6.87918723e-01
      9.62685287e-01 9.42383230e-01 8.05240095e-01 9.29840922e-01
      9.28511083e-01 7.71356821e-01 9.07898128e-01</_>
    <_>
      1.60468805e+00 1.19001305e+00 1.17472804e+00 8.90577018e-01
      6.82750583e-01 1.04595995e+00 9.06592429e-01 4.75063801e-01
      9.62123990e-01 9.50748086e-01 9.12872374e-01 9.44380224e-01
      9.55092371e-01 8.58360589e-01 9.34204578e-01</_>
    <_>
      1.59305894e+00 1.13293695e+00 1.16726398e+00 1.21055305e+00
      1.16688204e+00 1.31567395e+00 1.20613003e+00 1.16952705e+00
      2.76610208e+00 1.24695098e+00 1.16744101e+00 1.46902502e+00
      1.25637603e+00 1.05582595e+00 1.16738904e+00</_>
    <_>
      1.49516499e+00 1.18751001e+00 1.26834798e+00 9.02329803e-01
      7.59994328e-01 1.03171206e+00 9.15817082e-01 5.84787726e-01
      9.88364100e-01 9.83063698e-01 5.56335628e-01 1.01125896e+00
      1.01511502e+00 6.68857276e-01 9.96008217e-01</_>
    <_>
      1.57523096e+00 1.06960201e+00 1.13534796e+00 8.85902882e-01
      6.68555379e-01 9.61785913e-01 9.09416974e-01 4.19090509e-01
      9.82968688e-01 9.49692011e-01 6.24797106e-01 9.77618277e-01
      9.58366871e-01 8.35466027e-01 9.61573184e-01</_>
    <_>
      1.21293795e+00 1.28183103e+00 1.28492701e+00 1.21695101e+00
      1.18177700e+00 1.17514002e+00 1.22617495e+00 1.19132197e+00
      2.09148502e+00 1.22745800e+00 1.09948397e+00 1.42094696e+00
      1.26574504e+00 1.06334805e+00 1.09759200e+00</_>
    <_>
      7.25568581e+00 1.25532901e+00 1.17714906e+00 1.24231505e+00
      1.18710303e+00 1.33241498e+00 1.06578195e+00 6.85924888e-01
      1.11253500e+00 1.14020801e+00 1.24892199e+00 1.10813606e+00
      1.12757397e+00 8.39685917e-01 1.03011501e+00</_>
    <_>
      1.61003494e+00 1.15237606e+00 1.16241801e+00 9.18502927e-01
      7.23786175e-01 1.02423501e+00 9.03365076e-01 4.52480614e-01
      9.64570582e-01 9.45015490e-01 7.86096513e-01 9.50355172e-01
      9.54483271e-01 8.26367974e-01 9.42050695e-01</_>
    <_>
      1.32225204e+00 4.66259897e-01 1.17071104e+00 1.07536805e+00
      8.97745371e-01 1.09412503e+00 1.10431099e+00 8.35526407e-01
      1.14248502e+00 1.13334298e+00 6.02264285e-01 1.14108300e+00
      1.11847794e+00 5.91665506e-01 1.04927897e+00</_>
    <_>
      1.69798005e+00 1.19425905e+00 1.13944805e+00 1.25311601e+00
      1.22603405e+00 1.08740306e+00 9.01300490e-01 4.49158490e-01
      9.78669226e-01 9.40618575e-01 5.45975804e-01 9.76217926e-01
      9.40505385e-01 8.07833076e-01 9.55576479e-01</_>
    <_>
      1.57560098e+00 1.17426801e+00 1.18934500e+00 1.25193501e+00
      1.22427797e+00 1.08656001e+00 9.34612811e-01 5.38636208e-01
      1.01791000e+00 9.62482929e-01 4.74265993e-01 9.87381697e-01
      9.47080612e-01 7.22729027e-01 9.28032696e-01</_>
    <_>
      1.66358697e+00 1.15777600e+00 1.14118195e+00 1.25310302e+00
      1.22530401e+00 1.09415305e+00 9.09956098e-01 4.79476392e-01
      9.86191928e-01 9.51660216e-01 5.58369100e-01 9.82991576e-01
      9.53014076e-01 8.06403220e-01 9.61508512e-01</_>
    <_>
      1.52049994e+00 1.14637399e+00 1.21148300e+00 1.24510002e+00
      1.20987201e+00 1.17512000e+00 9.75147903e-01 6.04690313e-01
      1.23009098e+00 9.69116926e-01 4.98602688e-01 1.19364095e+00
      1.00260305e+00 6.86282575e-01 1.08189797e+00</_>
    <_>
      1.57263005e+00 9.11841273e-01 1.11318696e+00 9.05688882e-01
      6.88683629e-01 9.86051679e-01 9.10961688e-01 5.23732781e-01
      9.98225927e-01 9.41417992e-01 5.15053689e-01 9.61551607e-01
      9.47195411e-01 6.93120182e-01 9.15302813e-01</_>
    <_>
      1.67118704e+00 9.14359391e-01 1.02967703e+00 1.22865605e+00
      8.69022012e-01 1.26754701e+00 9.64497924e-01 7.67378986e-01
      1.00621402e+00 9.77744401e-01 9.75148082e-01 9.49114680e-01
      9.62674618e-01 7.93256283e-01 9.19609904e-01</_>
    <_>
      3.04588199e+00 1.26807404e+00 1.22516501e+00 1.25500596e+00
      1.23450005e+00 1.04210198e+00 1.26598597e+00 1.26972497e+00
      9.04201090e-01 1.29555905e+00 1.27983606e+00 1.01921105e+00
      1.32865095e+00 1.21871305e+00 1.03333998e+00</_>
    <_>
      1.34291995e+00 1.10665405e+00 1.21069896e+00 1.19501603e+00
      1.13812101e+00 1.30336499e+00 1.19757605e+00 1.14782906e+00
      2.43021703e+00 1.23784697e+00 1.16424096e+00 1.44624305e+00
      1.25752795e+00 1.07675505e+00 1.09318900e+00</_>
    <_>
      1.63197398e+00 1.18238997e+00 1.16127098e+00 1.25032794e+00
      1.22180605e+00 1.09453201e+00 9.43057716e-01 4.56068397e-01
      1.04373598e+00 9.81813371e-01 4.54889894e-01 1.02302897e+00
      9.80979502e-01 7.29069114e-01 9.67810929e-01</_>
    <_>
      1.55939102e+00 1.12574100e+00 1.18667698e+00 1.25724304e+00
      1.22723198e+00 1.13782799e+00 9.31442082e-01 5.09233117e-01
      1.12125599e+00 1.17224300e+00 8.25784922e-01 1.42881095e+00
      1.03980303e+00 7.02042580e-01 1.08639896e+00</_>
    <_>
      1.74552000e+00 1.04280305e+00 1.06777096e+00 9.02521491e-01
      6.40759289e-01 9.96746719e-01 8.96230280e-01 3.89630407e-01
      1.01194596e+00 9.10875380e-01 2.85033613e-01 1.02101004e+00
      9.29253221e-01 6.70571387e-01 9.81275320e-01</_>
    <_>
      1.57914996e+00 1.17755103e+00 1.18867600e+00 1.25782895e+00
      1.22798896e+00 1.13072002e+00 9.41824019e-01 4.59415615e-01
      1.11469805e+00 9.37363386e-01 3.46200109e-01 1.09715497e+00
      9.90224719e-01 6.64724886e-01 1.03370595e+00</_>
    <_>
      1.55771101e+00 9.00757611e-01 1.12139201e+00 8.99675012e-01
      7.02269375e-01 9.74676788e-01 9.15101409e-01 5.83562493e-01
      9.87089217e-01 9.50154722e-01 6.67107105e-01 9.51418400e-01
      9.45997775e-01 6.78560317e-01 9.05959427e-01</_>
    <_>
      1.48785901e+00 9.94329512e-01 1.20331001e+00 1.22655499e+00
      9.43917572e-01 1.29132700e+00 9.60683584e-01 6.56017005e-01
      1.02128804e+00 1.01457500e+00 1.09291399e+00 9.80400980e-01
      1.03940296e+00 8.63716006e-01 9.92471218e-01</_>
    <_>
      1.74262500e+00 1.24893904e+00 1.15106499e+00 1.24250102e+00
      1.20882702e+00 1.14204800e+00 8.95697773e-01 3.92779112e-01
      9.80571330e-01 9.44811821e-01 5.41275918e-01 9.82392311e-01
      9.43313420e-01 7.95011103e-01 9.49188173e-01</_>
    <_>
      1.43801105e+00 6.72737777e-01 1.14057004e+00 9.25130010e-01
      7.69834995e-01 9.66165125e-01 9.50388312e-01 9.28036392e-01
      9.68594015e-01 9.89507616e-01 1.32795596e+00 9.34260488e-01
      9.38997924e-01 7.13303924e-01 8.54570389e-01</_>
    <_>
      1.70131004e+00 1.18537402e+00 1.14212799e+00 1.21291494e+00
      1.18265605e+00 1.17290998e+00 1.24051499e+00 1.22599399e+00
      2.52475810e+00 1.26057100e+00 1.19795406e+00 1.37684000e+00
      1.26707995e+00 1.10124600e+00 1.09783006e+00</_>
    <_>
      1.73660195e+00 1.22413003e+00 1.14337003e+00 1.24524498e+00
      1.21380198e+00 1.12004805e+00 8.97939682e-01 4.00473714e-01
      9.84463215e-01 9.46084499e-01 4.97366190e-01 9.88008022e-01
      9.42676604e-01 7.70520210e-01 9.46931720e-01</_>
    <_>
      1.64695895e+00 1.06419694e+00 1.11899602e+00 1.24881196e+00
      1.17259800e+00 1.31762898e+00 9.12025392e-01 3.98636699e-01
      9.98874187e-01 9.56796527e-01 5.14979899e-01 1.00057495e+00
      9.71826375e-01 8.14106822e-01 9.82004583e-01</_>
    <_>
      1.51146698e+00 7.61634707e-01 1.08676696e+00 8.98369193e-01
      7.28223681e-01 9.36181784e-01 9.23644304e-01 9.79979396e-01
      9.33411777e-01 9.66724515e-01 1.36609197e+00 9.05621588e-01
      9.33791578e-01 7.58906126e-01 8.62220585e-01</_>
    <_>
      1.72138202e+00 8.58188510e-01 1.00401402e+00 9.34954524e-01
      8.24188292e-01 1.01976800e+00 9.56164420e-01 8.18164527e-01
      9.90040123e-01 9.74541783e-01 1.30243695e+00 9.18273211e-01
      9.37266111e-01 6.78973079e-01 8.60287070e-01</_>
    <_>
      1.61106300e+00 1.11240697e+00 1.15249097e+00 1.25238097e+00
      1.22343898e+00 1.10484397e+00 9.20269012e-01 4.60898489e-01
      1.01122999e+00 9.61729228e-01 4.45523411e-01 1.00918102e+00
      9.60207880e-01 7.56602526e-01 9.69570696e-01</_>
    <_>
      1.62019801e+00 1.17027795e+00 1.16700101e+00 1.24907899e+00
      1.21994305e+00 1.10086298e+00 9.50430810e-01 4.44507092e-01
      1.06600106e+00 9.83407378e-01 3.55222613e-01 1.04098105e+00
      9.81245279e-01 6.93883419e-01 9.75694895e-01</_>
    <_>
      1.59279203e+00 1.13587797e+00 1.16825795e+00 1.21182096e+00
      1.16964602e+00 1.30256402e+00 1.20859301e+00 1.17363000e+00
      2.78190207e+00 1.24849999e+00 1.17068303e+00 1.45932305e+00
      1.25871205e+00 1.05952096e+00 1.16573501e+00</_>
    <_>
      1.43694305e+00 7.77197003e-01 1.14500105e+00 9.56111610e-01
      7.06321418e-01 1.05453098e+00 9.66901302e-01 5.10738075e-01
      1.06560194e+00 1.00887895e+00 2.67516911e-01 1.09522998e+00
      1.00276005e+00 6.40237093e-01 1.01482999e+00</_>
    <_>
      1.58798301e+00 1.15081406e+00 1.18323302e+00 1.24785304e+00
      1.21737599e+00 1.11682498e+00 9.60136473e-01 4.46336091e-01
      1.07683396e+00 9.89337623e-01 3.35273087e-01 1.04906297e+00
      9.86781418e-01 6.78715408e-01 9.76945519e-01</_>
    <_>
      1.45780694e+00 7.72592187e-01 1.10782504e+00 1.24882603e+00
      1.23170698e+00 9.66198325e-01 1.07928896e+00 8.79886091e-01
      1.11012197e+00 1.10354102e+00 1.43824506e+00 1.05514395e+00
      1.03927195e+00 6.68218493e-01 9.31013584e-01</_>
    <_>
      1.87403500e+00 8.97957385e-01 9.64641511e-01 9.16717708e-01
      7.27189422e-01 9.52423990e-01 9.35388207e-01 8.07328820e-01
      9.69354093e-01 9.50253785e-01 7.67450571e-01 9.40413713e-01
      9.29281771e-01 7.42746472e-01 9.20870423e-01</_>
    <_>
      1.78361106e+00 8.89344811e-01 9.70245123e-01 9.18226600e-01
      7.50337303e-01 9.49092686e-01 9.55704808e-01 9.44719970e-01
      9.61676419e-01 9.91926610e-01 1.37703800e+00 9.34603512e-01
      9.32591975e-01 7.21091628e-01 8.52787673e-01</_>
    <_>
      1.69060898e+00 9.99433398e-01 1.06767595e+00 1.22751701e+00
      9.88058925e-01 1.30407298e+00 9.15023983e-01 6.37989700e-01
      9.63856280e-01 9.46377575e-01 7.80248225e-01 9.39691007e-01
      9.30099785e-01 7.75077820e-01 9.13441718e-01</_>
    <_>
      1.58796501e+00 9.91155326e-01 1.13208103e+00 8.57582211e-01
      6.84797287e-01 1.02397096e+00 9.20106590e-01 6.04592085e-01
      9.83544827e-01 9.52445388e-01 7.13562489e-01 9.50388908e-01
      9.53294277e-01 7.18276381e-01 9.18018103e-01</_>
    <_>
      1.63420200e+00 1.06844902e+00 1.11850297e+00 8.86393189e-01
      7.18579710e-01 9.40911472e-01 9.05923128e-01 5.54974377e-01
      9.56894517e-01 9.41140413e-01 8.00033212e-01 9.36569214e-01
      9.31221485e-01 8.07347417e-01 9.12321091e-01</_>
    <_>
      1.59577000e+00 1.23396802e+00 1.19759095e+00 1.25188899e+00
      1.22030306e+00 1.13228798e+00 9.25482690e-01 5.88850617e-01
      9.97057021e-01 1.00433302e+00 1.07787597e+00 9.79713619e-01
      1.02174401e+00 9.22748625e-01 9.68366504e-01</_>
    <_>
      1.65750599e+00 1.20953202e+00 1.16216803e+00 1.26379204e+00
      1.21177304e+00 1.24129105e+00 9.18738008e-01 4.02593911e-01
      1.06021500e+00 9.40825522e-01 3.43342692e-01 1.01456594e+00
      9.09257889e-01 6.85876310e-01 9.68104303e-01</_>
    <_>
      1.54025996e+00 1.22481298e+00 1.23790896e+00 1.25170398e+00
      1.22857106e+00 1.01675200e+00 9.55525875e-01 5.16724825e-01
      1.03638005e+00 1.00984299e+00 1.14934099e+00 9.79516685e-01
      1.04611695e+00 9.20879722e-01 9.80883479e-01</_>
    <_>
      1.59706604e+00 1.11559701e+00 1.15911305e+00 9.19047415e-01
      6.47096574e-01 1.01129699e+00 9.21109080e-01 4.19287801e-01
      9.96524692e-01 9.49078083e-01 6.61132574e-01 9.72464025e-01
      9.50357318e-01 8.47336113e-01 9.51238394e-01</_>
    <_>
      1.56271601e+00 1.02941799e+00 1.15632701e+00 1.25167000e+00
      1.22078204e+00 1.12576699e+00 9.22763288e-01 3.98588598e-01
      1.03693199e+00 9.76496518e-01 3.44655901e-01 1.04716206e+00
      9.74223912e-01 6.89249814e-01 9.83086586e-01</_>
    <_>
      1.38721299e+00 1.28243101e+00 1.28325701e+00 1.22224295e+00
      1.18986905e+00 1.13726795e+00 1.23152196e+00 1.20148802e+00
      2.13418603e+00 1.22976506e+00 1.10791397e+00 1.41127706e+00
      1.27241099e+00 1.07355595e+00 1.09719098e+00</_>
    <_>
      1.54975498e+00 1.03638196e+00 1.17346597e+00 1.24850404e+00
      1.21602499e+00 1.13726604e+00 9.81571913e-01 4.44241494e-01
      1.12582302e+00 1.01071501e+00 2.80028313e-01 1.08803403e+00
      1.00926399e+00 6.54621720e-01 1.00090599e+00</_>
    <_>
      5.24726510e-01 1.28319395e+00 1.29828000e+00 1.20839298e+00
      1.16685295e+00 1.24689603e+00 1.23460400e+00 1.21502697e+00
      1.97569299e+00 1.24457002e+00 1.12985098e+00 1.40143299e+00
      1.27965701e+00 1.09750998e+00 1.08386302e+00</_>
    <_>
      1.33081305e+00 4.21567500e-01 1.16141498e+00 1.23610306e+00
      1.18264699e+00 1.31819105e+00 1.11104906e+00 7.12878704e-01
      1.15066695e+00 1.17735803e+00 1.57674599e+00 1.12936199e+00
      1.16763699e+00 8.84330273e-01 1.05685997e+00</_>
    <_>
      1.51861799e+00 9.08710480e-01 1.16801500e+00 1.24657297e+00
      1.20435405e+00 1.20750296e+00 9.91917193e-01 4.47851211e-01
      1.10106206e+00 1.02014303e+00 2.91650802e-01 1.08620000e+00
      1.01017499e+00 6.55399024e-01 1.00447404e+00</_>
    <_>
      1.48902202e+00 8.31685603e-01 1.14150095e+00 1.24212301e+00
      1.19549501e+00 1.25643396e+00 1.08375704e+00 6.32282317e-01
      1.15633297e+00 1.14788401e+00 1.27139497e+00 1.11312199e+00
      1.12639296e+00 7.67348409e-01 1.02397001e+00</_>
    <_>
      1.57072794e+00 1.05427897e+00 1.16123104e+00 1.24653494e+00
      1.19771898e+00 1.25358903e+00 1.06271398e+00 6.11074924e-01
      1.13882899e+00 1.11726403e+00 1.05797100e+00 1.09231400e+00
      1.08172798e+00 6.87251329e-01 9.88329291e-01</_>
    <_>
      1.54094994e+00 9.06493187e-01 1.13986802e+00 9.04161513e-01
      7.37075090e-01 1.00213397e+00 9.23340321e-01 6.12017274e-01
      9.89619613e-01 9.59255278e-01 6.03065610e-01 9.67834175e-01
      9.54642415e-01 6.63274407e-01 9.16793287e-01</_>
    <_>
      1.41676295e+00 7.91313529e-01 1.22271502e+00 1.24333000e+00
      1.20074999e+00 1.22155094e+00 1.01337099e+00 4.64867800e-01
      1.13241005e+00 1.03879905e+00 2.41899103e-01 1.11452699e+00
      1.03003597e+00 6.34082019e-01 1.01436198e+00</_>
    <_>
      1.62760901e+00 1.24590099e+00 1.23695004e+00 1.22069597e+00
      1.18177497e+00 1.23197997e+00 1.25499201e+00 1.25012898e+00
      1.65904701e+00 1.27982295e+00 1.22990704e+00 1.23602796e+00
      1.31621301e+00 1.17734098e+00 1.06734002e+00</_>
    <_>
      1.58372498e+00 1.25495601e+00 1.24745405e+00 1.22522104e+00
      1.18878698e+00 1.20142305e+00 1.25277400e+00 1.24505198e+00
      1.71844304e+00 1.27823102e+00 1.22398198e+00 1.25014400e+00
      1.31641400e+00 1.17487895e+00 1.07520199e+00</_>
    <_>
      1.61350501e+00 1.21049702e+00 1.17614996e+00 1.25250196e+00
      1.22557795e+00 1.07612801e+00 9.24184620e-01 5.34433722e-01
      1.00701904e+00 9.51452374e-01 4.79943007e-01 9.75965977e-01
      9.37874198e-01 7.31043875e-01 9.24159229e-01</_>
    <_>
      1.28192198e+00 1.22684705e+00 1.24637699e+00 1.24804401e+00
      1.22788894e+00 1.08599305e+00 1.26238799e+00 1.26995897e+00
      1.00796795e+00 1.29028594e+00 1.27911603e+00 9.92884874e-01
      1.32519305e+00 1.21443403e+00 1.01422298e+00</_>
    <_>
      1.35688996e+00 1.12799001e+00 1.27792394e+00 9.62287724e-01
      9.63602304e-01 9.86843288e-01 9.90440011e-01 1.09873605e+00
      9.90706325e-01 1.02941704e+00 1.25057697e+00 9.84199584e-01
      1.04714704e+00 8.22301388e-01 9.98817980e-01</_>
    <_>
      1.50962698e+00 1.23961496e+00 1.23376000e+00 1.10917997e+00
      7.98144817e-01 1.24340606e+00 1.01609695e+00 4.74094987e-01
      1.14615905e+00 1.04290903e+00 2.50616014e-01 1.10582900e+00
      1.04518604e+00 6.36448383e-01 1.01851201e+00</_>
    <_>
      1.55569601e+00 9.85749602e-01 1.14199305e+00 1.26322198e+00
      1.21491396e+00 1.25102699e+00 1.20009398e+00 1.11181200e+00
      1.81049502e+00 1.01600599e+00 6.95527315e-01 1.29298103e+00
      1.02942002e+00 7.26408422e-01 1.12778795e+00</_>
    <_>
      1.54692101e+00 8.99563491e-01 1.13144302e+00 9.02541995e-01
      7.25783587e-01 9.82693017e-01 9.18715179e-01 5.98352611e-01
      9.87603784e-01 9.55206275e-01 6.20626807e-01 9.61758375e-01
      9.51203883e-01 6.65655375e-01 9.14926708e-01</_>
    <_>
      1.65061903e+00 1.19716299e+00 1.16079104e+00 1.25297403e+00
      1.22703695e+00 1.06594503e+00 9.32547510e-01 4.54836309e-01
      1.00920904e+00 9.77951407e-01 6.06208384e-01 1.00197005e+00
      9.75037813e-01 8.05789173e-01 9.64528799e-01</_>
    <_>
      1.26289201e+00 8.94856572e-01 1.24948394e+00 9.88629222e-01
      9.81597424e-01 1.00005698e+00 1.02083898e+00 1.22870100e+00
      1.00913596e+00 1.05960298e+00 1.49924695e+00 1.00217199e+00
      1.09150195e+00 9.07376587e-01 1.00722206e+00</_>
    <_>
      1.60872304e+00 1.14909303e+00 1.16471004e+00 1.21576500e+00
      1.17938995e+00 1.23441303e+00 1.22597897e+00 1.19969201e+00
      2.66925192e+00 1.25625801e+00 1.18208802e+00 1.43873596e+00
      1.26507795e+00 1.07618403e+00 1.14966297e+00</_>
    <_>
      3.12473202e+00 1.28542602e+00 1.26210105e+00 1.24582303e+00
      1.20179200e+00 1.27189398e+00 1.04224098e+00 6.21742725e-01
      1.08136201e+00 1.10801804e+00 1.32071805e+00 1.06929898e+00
      1.10675395e+00 8.98272693e-01 1.01797795e+00</_>
    <_>
      1.33617997e+00 7.52391577e-01 1.26864505e+00 1.23658895e+00
      1.19753098e+00 1.23013306e+00 1.00498295e+00 4.96086389e-01
      1.11276400e+00 1.04190695e+00 2.44456902e-01 1.11100197e+00
      1.04946804e+00 6.48073971e-01 1.03157401e+00</_>
    <_>
      1.52182305e+00 1.14927101e+00 1.23562205e+00 1.25254297e+00
      1.23085594e+00 9.88828897e-01 9.70855594e-01 5.24427772e-01
      1.04257798e+00 1.02385604e+00 1.19538200e+00 9.90233719e-01
      1.05526900e+00 9.13331270e-01 9.87341583e-01</_>
    <_>
      1.34932005e+00 7.49017596e-01 1.26313603e+00 1.23612797e+00
      1.19666302e+00 1.23464799e+00 1.00785995e+00 4.80469286e-01
      1.12485600e+00 1.04384506e+00 2.23769605e-01 1.12167394e+00
      1.05266905e+00 6.41633511e-01 1.03709900e+00</_>
    <_>
      1.36217105e+00 6.84380889e-01 1.24181795e+00 1.23816502e+00
      1.20007598e+00 1.21712196e+00 1.01727200e+00 5.06500185e-01
      1.11776900e+00 1.05514097e+00 3.02998692e-01 1.10870695e+00
      1.05160904e+00 6.57860994e-01 1.02093196e+00</_>
    <_>
      1.57843900e+00 1.25864196e+00 1.20623398e+00 8.99963319e-01
      7.07545877e-01 1.12643504e+00 9.40238416e-01 4.78461713e-01
      1.03218102e+00 9.81390417e-01 5.05501270e-01 1.00521302e+00
      1.00144994e+00 7.13286996e-01 9.61869121e-01</_>
    <_>
      1.62174702e+00 8.91448081e-01 1.04372394e+00 1.23212600e+00
      8.74869287e-01 1.27496898e+00 9.81020272e-01 8.08296084e-01
      1.01753402e+00 9.91414309e-01 1.07789898e+00 9.55001116e-01
      9.74727988e-01 8.04342210e-01 9.22481477e-01</_>
    <_>
      1.67256904e+00 1.22158396e+00 1.15516400e+00 1.25181496e+00
      1.22505498e+00 1.07158506e+00 9.31660593e-01 4.29887086e-01
      1.01314294e+00 9.67308879e-01 5.30078173e-01 9.99453604e-01
      9.63571608e-01 7.74052083e-01 9.56655681e-01</_>
    <_>
      1.70994794e+00 1.13953495e+00 1.15323997e+00 1.22346997e+00
      1.18468499e+00 1.19989800e+00 1.24025095e+00 1.22545898e+00
      3.70575309e+00 1.27330005e+00 1.23811603e+00 1.14599800e+00
      1.31236994e+00 1.17499995e+00 1.06929696e+00</_>
    <_>
      1.65537405e+00 1.18243396e+00 1.15063596e+00 1.25096297e+00
      1.22379100e+00 1.08493602e+00 8.95492911e-01 4.02590185e-01
      1.04304600e+00 9.20487225e-01 3.01743895e-01 1.02815998e+00
      9.22336876e-01 6.91893578e-01 9.80527222e-01</_>
    <_>
      1.50595200e+00 7.56747127e-01 1.09154499e+00 8.98349822e-01
      7.25849271e-01 9.36237872e-01 9.23875511e-01 9.72324371e-01
      9.34629023e-01 9.66660678e-01 1.33346903e+00 9.07974899e-01
      9.34359789e-01 7.55806506e-01 8.63576412e-01</_>
    <_>
      1.50748706e+00 1.25953305e+00 1.27063406e+00 1.24877000e+00
      1.22105396e+00 1.09015596e+00 8.90952229e-01 4.67243999e-01
      9.99153018e-01 9.77194011e-01 1.10119605e+00 9.50188875e-01
      1.00542295e+00 9.50894594e-01 9.54258204e-01</_>
    <_>
      1.63797498e+00 1.22946095e+00 1.16925001e+00 1.25290000e+00
      1.22642303e+00 1.06998396e+00 9.17150021e-01 5.30102372e-01
      1.00000298e+00 9.44002211e-01 4.80549186e-01 9.68710303e-01
      9.31631505e-01 7.36620784e-01 9.21941876e-01</_>
    <_>
      1.50408804e+00 1.01472497e+00 1.19725299e+00 1.21572697e+00
      9.93231475e-01 1.30298996e+00 9.72707093e-01 6.40672326e-01
      1.03696704e+00 1.02592003e+00 1.14751399e+00 9.89013374e-01
      1.04757297e+00 8.71116519e-01 9.95090783e-01</_>
    <_>
      1.50380504e+00 1.03104901e+00 1.20180202e+00 1.21792698e+00
      9.35235381e-01 1.27963305e+00 9.46546018e-01 6.32881105e-01
      1.01055002e+00 1.00759697e+00 1.00542295e+00 9.84264672e-01
      1.02561605e+00 8.38942111e-01 9.85698581e-01</_>
    <_>
      1.50509202e+00 1.27494800e+00 1.26727200e+00 1.22937095e+00
      1.21586204e+00 9.25650120e-01 1.23573995e+00 1.24032998e+00
      9.30894673e-01 1.25162005e+00 1.20719302e+00 1.17151201e+00
      1.27739203e+00 1.11066794e+00 1.06705403e+00</_>
    <_>
      1.62546599e+00 1.05017996e+00 1.12168396e+00 1.23882997e+00
      1.13072705e+00 1.33612597e+00 9.17392015e-01 3.94795090e-01
      1.00680995e+00 9.63989079e-01 5.05682170e-01 1.00847495e+00
      9.79277492e-01 8.03916693e-01 9.88320112e-01</_>
    <_>
      1.59334397e+00 1.14090598e+00 1.16950202e+00 1.21276605e+00
      1.17345095e+00 1.27260602e+00 1.21436703e+00 1.18346596e+00
      2.81987691e+00 1.24974406e+00 1.17421103e+00 1.44501197e+00
      1.26319504e+00 1.06699800e+00 1.16219699e+00</_>
    <_>
      1.64339900e+00 1.22912502e+00 1.21165097e+00 1.23888397e+00
      1.20730901e+00 1.13589704e+00 1.25063896e+00 1.23685706e+00
      2.90652394e+00 1.28032601e+00 1.23613000e+00 1.24706101e+00
      1.20285201e+00 9.19902384e-01 1.14374197e+00</_>
    <_>
      1.70855403e+00 8.84086311e-01 9.98870492e-01 1.25121200e+00
      1.22846603e+00 1.03714299e+00 9.46965277e-01 9.53709483e-01
      9.61624026e-01 9.79237378e-01 1.25893998e+00 9.28206384e-01
      9.41753387e-01 7.71723628e-01 8.79655778e-01</_>
    <_>
      1.44107997e+00 7.32784629e-01 1.14084697e+00 9.37182784e-01
      7.32569277e-01 1.00522006e+00 9.57948387e-01 6.92390203e-01
      1.01184499e+00 1.00010705e+00 6.27195597e-01 1.01354003e+00
      9.89919484e-01 7.07678318e-01 9.88098323e-01</_>
    <_>
      1.43290401e+00 7.73041189e-01 1.14354599e+00 9.58504796e-01
      7.08601177e-01 1.05779302e+00 9.71229315e-01 5.00419915e-01
      1.07483494e+00 1.01742101e+00 2.54084587e-01 1.12134194e+00
      1.01393998e+00 6.47691429e-01 1.02580404e+00</_>
    <_>
      1.52921295e+00 9.54680502e-01 1.18248999e+00 9.02673185e-01
      7.55952299e-01 1.03456604e+00 9.20709610e-01 5.62005877e-01
      9.99065280e-01 9.80413020e-01 4.45318311e-01 1.02104998e+00
      9.97651100e-01 6.64243221e-01 9.95529473e-01</_>
    <_>
      1.34316695e+00 1.10821104e+00 1.21053898e+00 1.19495702e+00
      1.13830101e+00 1.30043304e+00 1.19741094e+00 1.14844596e+00
      2.43835592e+00 1.23735702e+00 1.16449702e+00 1.45103705e+00
      1.25787699e+00 1.08017695e+00 1.08887994e+00</_>
    <_>
      1.56595695e+00 8.19730520e-01 1.07669699e+00 9.30176020e-01
      7.43401408e-01 9.54777479e-01 9.49903727e-01 9.17516708e-01
      9.69574988e-01 9.91041481e-01 1.00857794e+00 9.62045610e-01
      9.84067023e-01 6.81182623e-01 1.00936198e+00</_>
    <_>
      1.43226695e+00 6.39960408e-01 1.13337600e+00 9.19305503e-01
      7.59490728e-01 9.50203001e-01 9.54587817e-01 1.07299995e+00
      9.55245912e-01 9.93664086e-01 1.71604896e+00 9.13139701e-01
      9.35043812e-01 7.70068526e-01 8.38505924e-01</_>
    <_>
      1.38093197e+00 1.07893503e+00 1.18853700e+00 1.19891202e+00
      1.14372206e+00 1.35151505e+00 1.20444298e+00 1.14831102e+00
      2.16522002e+00 1.24245703e+00 1.15545404e+00 1.38673198e+00
      1.27048504e+00 1.07316005e+00 1.10297704e+00</_>
    <_>
      1.91398001e+00 8.97808373e-01 9.54286516e-01 9.11894619e-01
      7.17005312e-01 9.49077487e-01 9.34496284e-01 8.08611214e-01
      9.68192995e-01 9.46471393e-01 7.89983690e-01 9.34187889e-01
      9.24676478e-01 7.40973711e-01 9.28898692e-01</_>
    <_>
      1.50506604e+00 8.00252020e-01 1.10262799e+00 9.32721615e-01
      8.59044671e-01 1.00328898e+00 9.56460118e-01 8.80283117e-01
      9.81392622e-01 1.00553095e+00 1.17029095e+00 9.63814974e-01
      9.89126623e-01 6.71595573e-01 9.24049497e-01</_>
    <_>
      1.65938699e+00 1.11305904e+00 1.13144600e+00 9.77010787e-01
      6.48348510e-01 1.07457304e+00 9.85064924e-01 4.46366400e-01
      1.13278198e+00 9.99803782e-01 2.51284093e-01 1.09749901e+00
      9.96776521e-01 6.58828497e-01 1.00773501e+00</_>
    <_>
      1.23371601e+00 1.20922196e+00 1.24905396e+00 1.23999000e+00
      1.22196496e+00 1.08831704e+00 1.25478303e+00 1.26790404e+00
      8.32983613e-01 1.28115594e+00 1.26987100e+00 9.82117474e-01
      1.31957197e+00 1.20558703e+00 1.01296699e+00</_>
    <_>
      1.84393799e+00 1.29319406e+00 1.29517603e+00 1.24692798e+00
      1.20664501e+00 1.24329698e+00 1.02842796e+00 5.96988022e-01
      1.07083297e+00 1.09214497e+00 1.26879501e+00 1.05598605e+00
      1.09524500e+00 8.98786783e-01 1.01157796e+00</_>
    <_>
      1.68464303e+00 1.19748294e+00 1.14445102e+00 1.25133801e+00
      1.22372901e+00 1.08377397e+00 9.27752912e-01 4.48913187e-01
      1.02799904e+00 9.67193723e-01 4.51718897e-01 1.00939202e+00
      9.64917779e-01 7.40252912e-01 9.64397073e-01</_>
    <_>
      1.49104202e+00 9.97425616e-01 1.20189798e+00 1.22175205e+00
      9.53779876e-01 1.29340696e+00 9.67142284e-01 6.55604780e-01
      1.02820694e+00 1.01859295e+00 1.13804698e+00 9.81336594e-01
      1.04260504e+00 8.70592773e-01 9.92960274e-01</_>
    <_>
